tree
version=v3
num_class=1
num_tree_per_iteration=1
label_index=0
max_feature_idx=26
objective=tweedie
feature_names=item_id store_id d wday month year event_name_1 event_type_1 event_name_2 event_type_2 snap_CA snap_TX snap_WI sales_lag_1 sales_lag_2 sales_lag_3 sales_lag_4 sales_lag_5 sales_lag_6 sales_lag_7 sales_lag_8 sales_lag_9 sales_lag_10 sales_lag_11 sales_lag_12 sales_lag_13 sales_lag_14
feature_infos=-1:3048:3043:3042:728:3044:1116:1332:3039:149:840:1751:2095:3046:574:1206:2585:2975:99:708:1335:1752:1828:2012:2685:2727:94:367:707:1313:1428:1518:1826:2172:2589:2917:671:885:1334:1392:1771:2359:2911:130:1355:1685:1998:2058:2576:2787:273:899:943:1034:1348:1678:2632:30:762:1081:1096:1293:1304:1639:1836:1952:2763:2831:2847:2920:61:271:502:1198:1409:1509:1538:2175:2308:2539:2802:137:197:625:960:1074:1100:1361:1902:2800:2871:3015:2:44:109:139:164:170:203:280:432:640:760:1146:1276:1374:1444:1656:1837:2033:2047:2072:2189:2383:2389:2495:2578:2581:2648:2888:81:86:125:267:333:477:756:938:1152:1203:1269:1311:1503:1596:1719:1798:2146:2200:2268:2430:2873:2879:2886:2953:141:214:395:715:772:814:888:969:1004:1007:1087:1138:1697:1800:1954:2126:2432:2511:2747:2789:2947:3037:0:34:88:100:209:278:547:735:773:831:851:1006:1062:1145:1208:1342:1365:1531:1693:1845:2013:2071:2103:2212:2381:2584:2667:2696:2760:2881:2916:2985:2994:3011:3032:3041:93:199:366:528:582:675:679:719:819:893:957:968:972:999:1098:1189:1272:1275:1433:1458:1514:1516:1532:1955:1967:1969:1981:2106:2129:2232:2342:2375:2416:2452:2571:2825:2887:2971:3000:60:104:116:459:693:856:883:1177:1226:1297:1346:1426:1438:1499:1522:1626:1632:1643:1655:1738:1809:1818:1833:1905:2002:2028:2055:2085:2226:2358:2405:2437:2552:2554:2568:2608:2615:2637:2661:2680:2703:2756:2771:2814:2836:2960:2965:9:212:294:388:411:605:681:787:897:980:1001:1077:1134:1181:1267:1279:1282:1322:1323:1359:1376:1395:1403:1414:1446:1459:1523:1559:1610:1637:1730:1884:1928:2066:2143:2179:2311:2517:2541:2639:2676:2716:2989:3017:162:422:691:692:714:729:765:829:839:842:846:916:929:963:1025:1036:1080:1082:1109:1158:1288:1291:1448:1461:1472:1650:1668:1683:1692:1741:1860:1911:1970:2062:2159:2193:2338:2450:2527:2549:2574:2607:2631:2640:2649:2652:2669:2788:2805:2843:3023:4:14:124:163:300:450:458:595:677:695:721:827:834:892:948:1009:1079:1113:1128:1153:1192:1202:1263:1391:1486:1541:1611:1657:1791:1972:2107:2141:2162:2188:2243:2264:2265:2348:2474:2508:2512:2513:2558:2563:2882:2894:2955:2972:3006:3035:45:135:138:140:213:249:374:489:508:606:618:711:727:861:864:989:1010:1044:1103:1227:1264:1278:1328:1445:1491:1595:1702:1709:1778:1788:1831:1848:1880:1964:1988:1995:2087:2154:2174:2183:2203:2304:2354:2362:2402:2551:2603:2671:2712:2746:2785:2791:2840:2861:2883:2895:2924:2927:2941:2967:2970:3005:73:103:120:150:151:168:190:237:340:381:403:404:449:478:590:701:753:768:803:879:1024:1186:1204:1338:1418:1640:1718:1898:1950:2034:2041:2052:2067:2098:2270:2364:2461:2490:2657:2668:2672:2673:2759:2781:2792:2794:2857:2877:2978:2979:2996:29:114:172:174:231:370:378:380:454:529:572:624:655:824:825:855:875:902:907:936:1070:1102:1171:1257:1280:1290:1325:1340:1371:1431:1434:1440:1496:1530:1749:1861:1865:1874:1932:2157:2181:2292:2314:2345:2444:2466:2467:2497:2592:2597:2678:2701:2786:2793:2817:2833:2868:2869:2912:2935:2949:2963:2969:2984:3002:5:42:53:59:75:83:105:121:132:195:205:513:536:539:602:611:641:642:666:680:730:836:903:981:1012:1013:1046:1085:1097:1147:1210:1222:1234:1241:1246:1255:1393:1421:1478:1508:1510:1569:1573:1607:1629:1645:1646:1664:1680:1727:1737:1754:1819:1850:1872:1886:1965:2093:2114:2122:2220:2252:2255:2562:2623:2630:2675:2688:2722:2725:2729:2752:2754:2779:2807:2820:2856:2864:2909:2923:2942:2961:2981:2997:1:18:22:74:123:228:235:298:318:446:461:525:527:553:608:633:698:705:767:774:786:843:881:886:917:921:931:951:1019:1022:1076:1090:1258:1260:1372:1375:1387:1390:1402:1416:1417:1549:1564:1589:1620:1631:1651:1669:1728:1841:2006:2009:2016:2029:2069:2132:2176:2208:2233:2297:2321:2367:2409:2469:2596:2707:2733:2744:2772:2778:2829:2900:2926:2944:3024:11:16:35:92:98:111:126:183:277:351:503:537:546:570:613:643:710:725:740:745:906:923:985:1060:1089:1240:1408:1507:1625:1666:1750:1853:1854:1859:1957:1974:1986:2044:2056:2115:2119:2186:2298:2335:2373:2400:2454:2456:2477:2482:2533:2575:2641:2644:2687:2691:2705:2742:2765:2816:2848:2853:2860:2902:2907:2915:2937:3029:21:63:82:158:200:210:257:262:397:445:490:540:556:575:694:742:795:813:854:891:901:905:955:1032:1061:1105:1115:1168:1190:1223:1350:1465:1467:1484:1544:1550:1583:1591:1647:1715:1769:1779:1784:1808:1810:1814:1856:1863:1888:1903:1926:1945:1948:2116:2152:2219:2239:2328:2339:2424:2534:2535:2572:2595:2655:2699:2723:2731:2736:2751:2755:2775:2806:2813:2973:2977:2988:39:43:166:178:194:202:218:245:358:364:390:418:494:541:632:648:663:739:853:895:939:990:1047:1050:1073:1174:1184:1266:1268:1284:1336:1470:1520:1537:1585:1653:1713:1729:1731:1765:1773:1824:1835:1868:1901:1968:2038:2109:2111:2121:2142:2204:2266:2274:2284:2286:2290:2319:2340:2347:2371:2396:2426:2531:2547:2566:2611:2627:2677:2739:2865:2884:2885:2901:2922:2930:3026:6:17:38:65:117:275:279:287:385:531:566:634:658:702:748:838:1018:1106:1166:1298:1309:1329:1429:1474:1479:1528:1578:1604:1616:1623:1686:1725:1748:1792:1844:1847:1894:1985:2039:2061:2074:2077:2178:2221:2313:2322:2326:2420:2485:2498:2523:2543:2612:2654:2738:2750:2766:2801:2815:2858:2903:2910:2938:2959:2974:3018:24:33:46:51:56:84:102:127:161:215:234:244:384:402:496:505:585:704:761:850:873:877:910:912:959:961:992:1030:1045:1059:1136:1196:1242:1339:1366:1456:1562:1575:1582:1608:1619:1711:1776:1807:1891:1997:2261:2331:2408:2414:2417:2484:2505:2559:2567:2583:2616:2626:2693:2714:2730:2810:2819:2889:2908:2939:2958:2982:8:13:41:64:191:281:426:451:636:638:639:763:811:958:964:1120:1193:1232:1256:1300:1319:1351:1378:1413:1502:1609:1687:1707:1724:1739:1740:1756:1758:1766:1827:1937:2003:2068:2135:2148:2165:2194:2196:2202:2351:2395:2403:2480:2536:2546:2570:2604:2621:2849:2993:32:71:173:181:187:224:225:301:371:412:469:519:558:592:654:743:744:766:780:799:805:844:987:988:997:1020:1023:1091:1183:1228:1364:1513:1540:1624:1742:1795:1796:1885:1982:2018:2082:2133:2207:2225:2247:2428:2462:2464:2650:2664:2694:2715:2724:2774:2782:2842:2954:3027:101:143:229:268:413:416:419:511:544:571:573:650:668:709:754:789:818:862:868:977:1000:1132:1148:1176:1194:1344:1401:1457:1480:1533:1576:1579:1642:1695:1726:1839:1900:1920:1940:2089:2155:2168:2244:2251:2300:2318:2393:2429:2443:2529:2587:2619:2692:2709:2749:2770:2776:2783:2803:2956:2987:27:67:72:89:188:295:325:355:383:408:421:533:543:688:794:806:826:858:1053:1125:1140:1159:1167:1199:1229:1243:1286:1299:1353:1357:1373:1411:1521:1535:1552:1644:1662:1677:1745:1799:1805:1834:1842:1855:1904:1921:2014:2037:2054:2083:2138:2171:2305:2391:2489:2520:2588:2711:2741:2773:2838:3020:3034:147:270:296:348:409:435:443:498:520:523:545:565:598:614:750:796:797:915:954:967:979:1088:1220:1464:1468:1498:1529:1581:1601:1688:1705:1743:1747:1881:1918:1927:1941:2000:2022:2040:2173:2320:2387:2545:2625:2638:2732:2769:2872:2925:2943:3040:28:169:264:283:321:363:387:438:465:480:499:522:535:557:627:669:751:757:758:788:919:975:1064:1066:1197:1451:1452:1477:1483:1512:1598:1627:1704:1735:1793:1816:1994:2045:2073:2123:2209:2316:2341:2361:2366:2438:2561:2601:2758:2824:2898:2957:3:10:31:70:176:226:227:241:251:274:292:341:360:444:457:472:588:596:620:630:736:837:898:1026:1027:1043:1056:1058:1068:1110:1179:1296:1358:1423:1526:1553:1560:1635:1665:1843:1870:1871:2192:2201:2289:2332:2500:2540:2620:2666:2670:2695:2734:2740:2899:2998:3004:3012:78:85:179:216:220:313:347:434:456:474:578:738:775:800:807:860:925:946:1063:1092:1118:1170:1316:1447:1485:1506:1543:1574:1577:1597:1628:1679:1714:1721:1723:1867:1930:2084:2101:2144:2163:2307:2431:2439:2470:2514:2542:2555:2633:2764:2852:3003:47:258:291:308:315:330:353:437:652:712:808:926:995:1072:1160:1182:1289:1307:1330:1379:1380:1383:1397:1427:1432:1471:1494:1618:1667:1673:1717:1733:1806:1811:1832:1852:2035:2139:2195:2197:2227:2271:2324:2369:2525:2548:2569:2706:2768:2866:2948:2976:36:110:118:252:290:317:337:338:447:476:497:517:518:554:561:581:720:790:913:920:1163:1283:1287:1327:1460:1500:1505:1519:1671:1703:1783:1959:2005:2008:2086:2090:2097:2151:2280:2285:2293:2356:2360:2368:2386:2622:2767:2784:2797:2811:107:134:182:276:342:349:377:433:495:552:584:653:676:690:815:869:871:942:1039:1086:1093:1108:1155:1239:1254:1394:1425:1690:1706:1846:1909:2046:2282:2334:2343:2471:2479:2499:2522:2617:2682:2689:2761:37:48:49:62:91:113:165:192:320:425:678:703:726:777:812:953:1017:1065:1117:1244:1247:1326:1419:1450:1475:1592:1660:1699:1710:1759:1858:1914:1931:1983:1993:2051:2099:2276:2353:2363:2453:2473:2496:2586:2602:2646:2743:2940:2990:7:77:79:207:208:246:269:332:396:420:448:509:530:548:600:656:752:835:847:944:1154:1205:1219:1261:1324:1362:1406:1466:1473:1568:1764:1849:1908:1912:1935:1944:2137:2237:2683:2790:2799:2823:2827:2834:2846:2905:2952:2966:2968:3007:15:68:303:307:336:362:512:516:661:930:937:940:986:991:1121:1123:1236:1306:1566:1654:1830:1897:1987:2017:2026:2078:2180:2231:2273:2370:2493:2502:2580:2645:2721:2837:52:57:106:133:177:193:206:233:253:297:430:526:562:628:732:876:1035:1151:1172:1420:1542:1615:1761:1851:1869:1907:1913:1975:2015:2164:2229:2275:2398:2446:2460:2658:2674:2832:3013:97:144:152:155:201:236:239:282:357:455:483:514:532:674:713:741:798:823:845:878:1057:1107:1217:1381:1384:1407:1410:1449:1732:1777:1803:1829:1976:2007:2125:2147:2170:2355:2435:2478:2530:2606:2609:2659:2702:2822:3016:3036:266:352:439:488:612:644:771:996:1003:1016:1071:1104:1315:1441:1546:1606:1700:1770:1785:1953:1971:1989:2020:2031:2063:2191:2419:2457:2532:2544:2651:2841:3014:3021:20:136:259:375:431:442:550:587:594:781:922:1067:1149:1150:1221:1277:1281:1488:1517:1586:1630:1825:2112:2211:2217:2230:2330:2357:2407:2410:2628:2681:2808:2828:2880:3045:219:284:302:493:507:551:626:914:993:1292:1354:1424:1442:1453:1556:1563:1674:1755:1977:1980:2105:2185:2336:2346:2385:2390:2401:80:129:153:171:398:410:468:549:567:603:617:870:932:998:1042:1054:1069:1271:1341:1561:1565:1584:1757:1840:1896:2060:2110:2277:2451:2598:2717:2983:180:189:247:256:314:356:400:475:481:482:589:822:927:941:1040:1075:1224:1265:1548:1812:1857:1925:2050:2235:2245:2272:2296:2329:2809:2878:115:185:254:327:354:368:406:785:791:816:820:848:918:928:1230:1454:1504:1539:1906:2019:2413:2422:2486:2492:2564:2582:2624:2629:2992:3010:3047:25:146:323:345:436:471:1038:1185:1249:1367:1476:1663:1696:1763:1929:1962:2259:2455:2475:2507:2579:2896:2906:2918:3008:90:96:145:167:211:240:263:289:479:673:687:724:828:1037:1294:1527:1594:1694:1787:1951:2004:2108:2130:2521:2565:2594:2855:2859:2863:50:55:389:670:716:934:1033:1360:1396:1398:1605:1722:1775:1915:1924:1943:1992:2064:2081:2216:2287:2310:2392:2465:2509:2524:2618:12:159:379:391:487:682:779:849:857:865:935:1011:1437:1490:1524:1701:1716:1744:1760:1996:2048:2352:2374:2404:2412:2418:2506:2826:19:484:580:599:623:647:884:1295:1301:1337:1495:1511:1570:1599:1659:1889:2117:2222:2250:2728:3038:662:683:706:880:947:1008:1143:1165:1209:1237:1321:1493:1547:1672:1753:1815:1879:1949:1999:2030:2131:2248:2283:2349:2377:2406:2440:2556:2737:2874:40:95:204:217:299:470:534:659:686:722:733:810:1142:1231:1317:1572:1587:1613:1684:1789:1802:2092:2118:2124:2215:2379:2491:2557:2635:2698:2762:2777:2933:242:322:350:393:486:568:609:610:970:974:1051:1127:1144:1270:1370:1455:1534:1555:1580:1774:1866:2001:2094:2150:2182:2214:2257:2299:2380:2445:2636:2660:2821:2929:23:346:521:859:933:1130:1178:1400:1489:1515:1612:1614:1797:1990:2120:3009:3028:3033:54:414:664:1005:1014:1015:1028:1131:1191:1252:1638:1689:1916:1933:1979:1991:2032:2301:2458:2591:2613:2719:319:335:597:782:863:911:1126:1180:1250:1363:1492:1554:1571:1736:1804:1923:1966:2065:2070:2088:2167:2177:2294:2537:2875:2999:26:76:148:452:510:894:956:1111:1248:1262:1649:1786:2076:2136:2315:2427:2876:2986:156:285:365:646:667:770:801:809:830:971:1049:1095:1162:1201:1212:1218:1318:1590:1633:1838:1936:2057:2080:2223:2258:2279:2449:2483:198:329:334:343:563:665:792:832:924:1094:1235:1320:1347:1497:1648:1734:1873:1899:2246:2442:2463:2893:142:186:293:376:441:542:645:852:896:952:1133:1356:1388:1551:1652:1767:1821:1946:2199:2327:2388:2411:2423:2503:2735:2919:66:131:221:255:372:621:672:764:909:966:1156:1439:1780:1781:1794:1813:1882:2140:2158:2160:2166:2254:2306:2333:2436:2472:2647:2798:2830:2854:112:154:394:685:793:904:973:1055:1312:1349:1443:1790:1822:2027:2102:2127:2278:2288:2399:2795:2835:87:382:564:629:649:755:1099:1602:1675:2025:2049:2240:2253:2704:2796:2890:260:261:326:635:637:684:718:747:976:982:1157:1343:1412:1600:1862:1864:2091:2104:2161:2169:2187:2519:2593:2665:2804:2850:2851:2962:243:311:427:689:882:900:1137:1303:1462:1536:1558:1801:1956:1958:2010:2218:2312:2560:2573:2642:2686:2708:3019:369:417:440:615:696:700:746:889:962:1161:1195:1501:1545:1593:1641:1712:1820:1887:2263:2291:2441:2447:2448:2487:2605:2614:2867:2932:58:69:428:501:524:699:817:1041:1083:1169:1746:1768:1893:1947:2096:2256:2262:2378:2421:2745:2892:2931:2934:2991:222:250:331:392:453:473:559:657:749:841:950:1031:1101:1114:1188:1200:1377:1399:1487:1603:1877:1917:1939:2043:2145:2260:2350:2397:2679:2720:3022:184:460:576:734:804:887:994:1273:1310:1331:1415:1435:1588:1617:1621:1682:1720:1762:1876:1934:1973:2024:2075:2302:2459:2553:2839:2870:2945:2946:310:463:737:1122:1135:1216:1253:1285:1463:1525:1919:2149:2236:2344:2376:2433:2494:2684:2700:2710:2897:2913:2914:2928:3031:238:344:415:500:515:697:769:984:1173:1245:1422:1430:1622:1670:1708:1823:1938:2100:2249:2510:2643:2845:2891:2964:122:160:324:339:462:717:759:821:1021:1139:1215:1305:1333:1567:1681:2042:2128:2206:2234:2281:2317:2323:2325:2337:2425:2538:2690:2757:2936:3030:248:305:577:586:802:833:983:1238:1274:1352:1385:1404:1883:1910:1978:2079:2184:2228:2365:2504:2656:2780:2812:2921:2951:3001:108:223:272:309:464:555:783:1112:1141:1207:1211:1389:1469:1658:1691:1817:2059:2697:2713:373:607:631:1213:1251:1676:2295:2309:2372:2434:2488:2501:2515:2516:2528:2662:2726:2904:175:399:423:492:504:1052:1214:1302:1368:1782:2653:306:328:424:485:538:591:601:776:874:945:1890:2021:2748:2753:2980:286:506:651:660:784:1002:1119:1164:1634:1892:1922:1963:2011:2190:2241:2382:2384:157:196:230 -1:0:4:2:5:9:6:8:3:7:1 -1:1885:1587:1611:1696:1745:1877:1754:1337:1729:1770:1875:1616:1620:1841:1457:1524:1537:1542:1651:1653:1778:1781:1861:1509:1528:1624:1721:1570:1731:1758:1208:1216:1249:1374:1508:1556:1866:1867:1367:1440:1566:1603:1689:1740:1741:1309:1546:1693:1728:1762:1809:1849:1302:1324:1491:1722:1733:1739:1799:1855:1873:1250:1388:1607:1670:1699:1707:1724:1763:1816:1149:1245:1363:1391:1479:1482:1622:1681:1686:1697:1714:1753:1838:1442:1490:1493:1506:1536:1538:1567:1687:1723:1782:1825:1854:1358:1378:1379:1412:1590:1596:1688:1760:1787:1793:1798:1805:1230:1559:1577:1626:1645:1655:1683:1717:1727:1835:1871:1303:1409:1434:1466:1483:1498:1501:1579:1614:1746:1843:1884:931:1273:1289:1375:1451:1549:1666:1672:1692:1732:1738:1748:1776:1820:1828:1853:1288:1580:956:1185:1211:1240:1277:1307:1311:1398:1402:1443:1447:1452:1475:1520:1523:1532:1572:1639:1661:1674:1675:1736:1757:1761:1869:1210:1267:1299:1329:1338:1403:1513:1552:1561:1574:1581:1588:1604:1619:1650:1685:1708:1719:1730:1750:1769:1780:1790:1844:983:1191:1243:1298:1356:1432:1444:1460:1492:1571:1591:1606:1630:1635:1637:1665:1669:1698:1744:1759:1768:1795:1802:1818:1819:1827:1860:1266:1407:1427:1446:1454:1472:1478:1500:1515:1516:1531:1543:1562:1584:1586:1592:1597:1621:1640:1657:1695:1705:1713:1765:1772:1779:1811:1834:1847:1042:1111:1347:1359:1368:1397:1417:1438:1496:1514:1535:1598:1600:1617:1631:1643:1680:1682:1836:1862:1167:1174:1176:1247:1278:1290:1293:1377:1387:1421:1426:1489:1499:1504:1539:1585:1625:1644:1671:1755:1815:1839:1846:1859:1870:1096:1123:1201:1202:1224:1252:1279:1340:1354:1380:1395:1423:1430:1512:1521:1525:1533:1551:1605:1608:1613:1627:1662:1711:1743:1773:1856:890:938:1082:1122:1198:1221:1251:1284:1305:1328:1330:1369:1415:1473:1485:1526:1545:1573:1612:1615:1623:1628:1668:1678:1715:1749:1832:1017:1187:1217:1271:1308:1373:1405:1418:1431:1477:1507:1541:1569:1599:1634:1638:1654:1677:1756:1771:1789:1796:1863:1865:1874:1172:1205:1207:1335:1355:1383:1441:1445:1474:1476:1548:1554:1593:1647:1673:1694:1735:1737:760:957:961:1046:1163:1175:1280:1357:1365:1371:1376:1394:1428:1429:1435:1467:1495:1497:1565:1578:1589:1610:1649:1664:1704:1709:1807:1810:1868:1878:883:1013:1088:1134:1227:1228:1263:1264:1275:1312:1321:1343:1372:1389:1439:1494:1618:1701:1703:1712:1785:1797:1826:876:895:998:1049:1078:1087:1133:1151:1177:1190:1193:1204:1213:1236:1265:1300:1304:1315:1327:1341:1386:1392:1424:1459:1461:1462:1465:1486:1564:1718:1725:1767:1786:1808:1850:1851:1881:905:934:1011:1132:1137:1140:1161:1184:1222:1229:1286:1306:1310:1361:1408:1448:1480:1547:1582:1602:1629:1652:1658:1684:1747:1751:1766:1814:1829:1830:1857:1864:951:1026:1037:1076:1112:1146:1158:1170:1179:1180:1203:1234:1237:1244:1301:1350:1351:1385:1396:1502:1511:1544:1550:1576:1633:1813:1876:1091:1128:1154:1189:1206:1258:1269:1296:1323:1325:1364:1469:1560:1601:1667:1690:1720:1824:1845:1880:1882:1883:683:1108:1121:1155:1195:1262:1294:1318:1366:1433:1470:1488:1503:1555:1691:1700:1706:1742:1821:1852:723:898:902:914:990:1002:1005:1009:1018:1056:1063:1092:1165:1287:1295:1317:1384:1406:1463:1527:1529:1534:1568:1583:1646:1663:1710:1726:1777:1794:1817:762:992:1142:1160:1164:1233:1292:1313:1339:1436:1468:1471:1484:1783:1800:1801:1803:1806:913:917:918:1038:1047:1109:1178:1246:1259:1297:1322:1401:1416:1419:1425:1450:1519:1558:1641:1660:1804:1848:850:924:945:1014:1027:1058:1085:1215:1256:1283:1333:1336:1342:1346:1348:1464:1518:1540:1642:1752:1764:1775:1840:600:873:919:963:1035:1053:1060:1090:1110:1117:1136:1150:1153:1199:1209:1242:1261:1274:1285:1345:1702:1774:1791:1792:875:903:916:936:973:975:982:987:993:997:1024:1114:1148:1181:1196:1200:1225:1235:1238:1239:1326:1456:1553:1557:1594:620:822:949:988:994:1022:1071:1081:1089:1197:1320:1353:1360:1390:1455:1530:1636:1679:1831:690:746:791:806:811:814:826:829:923:1016:1020:1033:1066:1106:1113:1124:1139:1162:1171:1218:1223:1260:1270:1281:1314:1334:1399:1437:1449:1659:1784:1879:595:926:965:977:1007:1008:1028:1044:1073:1116:1156:1159:1168:1194:1219:1255:1352:1381:1382:1404:1453:1522:1716:1788:1823:1842:1858:1872:670:718:790:804:855:870:896:942:943:947:954:984:1001:1012:1015:1050:1052:1141:1182:1214:1232:1241:1268:1282:1319:1656:1812:1833:613:819:844:874:893:901:930:946:952:979:985:1125:1129:1248:1257:1276:1316:1332:1487:1648:616:697:775:805:857:872:974:995:1034:1055:1068:1079:1104:1131:1145:1157:1183:1220:1362:1400:1510:1595:1609:1734:629:699:769:867:932:1023:1061:1064:1067:1077:1138:1231:1517:1563:1632:737:759:871:894:937:966:981:1051:1101:1105:1107:1152:1212:1253:1411:1414:1575:631:687:722:735:740:834:848:864:925:967:1029:1041:1062:1072:1083:1097:1135:1254:1272:477:489:733:747:748:788:796:827:882:908:935:959:968:1069:1126:1147:1349:1393:1413:1676:1822:428:481:554:570:658:739:782:789:889:922:944:969:991:1004:1045:1100:1192:1291:1458:1481:1837:526:605:642:695:698:783:818:836:837:907:909:1019:1030:1040:1144:1370:592:636:647:654:720:753:792:801:809:861:862:900:928:958:986:1000:1025:1039:1115:1143:542:638:703:731:754:795:815:823:847:868:877:892:911:970:978:1032:1093:1095:1169:1188:1410:1422:1505:645:668:688:758:779:785:841:865:887:906:941:948:1006:1186:1344:1420:598:675:679:694:751:764:793:810:824:851:939:953:971:1059:1065:1098:1102:1130:500:576:628:632:635:641:665:712:738:750:787:835:853:856:869:879:885:915:927:976:1086:1118:497:543:550:575:594:621:669:685:707:717:774:786:797:816:832:843:849:858:863:940:950:962:1010:1036:1084:1103:1226:475:518:531:610:614:659:744:808:821:838:852:854:860:920:964:1074:1331:603:624:637:686:692:714:727:730:770:781:812:839:878:899:933:1043:1080:381:516:537:569:588:625:639:646:711:715:745:800:840:842:891:972:512:581:584:596:601:626:627:633:696:706:713:741:780:846:884:980:1003:1031:1173:449:551:583:591:599:652:661:700:702:765:1094:1119:1127:1166:414:436:448:506:519:560:608:657:721:734:752:778:470:503:535:553:571:619:650:651:663:693:701:743:755:776:833:880:910:955:1070:459:490:511:544:547:622:644:678:756:771:828:830:960:989:1021:1048:429:435:444:482:484:491:546:561:573:578:607:634:660:682:728:749:807:813:859:886:929:996:999:1057:410:558:593:611:623:681:725:761:799:817:866:257:311:418:423:521:533:556:574:577:649:691:719:831:881:301:360:368:451:466:479:514:524:562:653:726:798:888:1099:340:495:520:530:536:552:559:580:590:615:643:708:729:768:772:773:794:1054:1120:107:286:306:354:356:424:478:505:507:523:534:567:667:671:684:705:742:757:766:802:820:897:904:912:921:98:320:336:452:453:463:498:508:525:527:540:555:597:612:618:709:724:777:784:106:269:331:347:378:398:409:420:434:456:483:496:499:509:513:541:565:579:582:609:655:664:672:825:845:219:317:335:383:400:432:487:493:501:528:539:602:677:710:91:99:254:288:329:391:417:510:515:564:566:572:689:163:220:294:349:352:364:389:399:421:440:468:486:549:586:589:673:716:732:237:259:309:350:357:362:419:492:517:557:617:674:676:767:267:282:395:416:648:662:763:1075:102:148:251:312:332:397:427:443:446:454:457:587:606:803:195:196:228:238:274:283:308:310:318:348:379:380:455:464:474:502:522:585:105:108:232:258:334:376:385:406:438:485:630:640:680:88:128:138:202:203:217:230:241:242:276:284:361:363:367:426:430:439:442:450:462:469:529:532:548:96:125:167:193:208:279:287:322:330:359:382:387:388:393:404:411:431:471:488:494:568:704:736:199:216:256:262:277:280:285:321:413:465:473:94:145:155:201:250:273:281:304:343:369:394:412:422:441:63:113:136:140:153:178:207:227:233:239:248:272:341:447:472:476:545:563:604:666:72:181:185:226:265:278:290:295:316:342:370:396:408:425:467:656:101:104:130:135:141:164:224:229:260:270:299:313:319:333:339:344:351:375:402:504:116:120:142:152:158:176:212:218:247:325:328:345:355:358:372:403:445:458:68:86:121:133:162:182:190:194:209:231:235:240:244:249:255:271:433:437:45:71:79:132:154:156:159:161:175:180:183:214:225:236:243:297:302:303:337:371:374:480:538:92:157:192:275:324:384:386:407:53:75:84:89:95:103:115:191:198:205:245:323:365:415:460:78:80:165:187:221:253:315:327:346:392:32:76:90:131:137:149:177:223:291:293:305:40:58:70:73:74:126:211:263:268:307:111:123:147:168:213:215:222:353:373:54:59:87:100:110:112:114:117:119:124:127:173:174:289:296:300:338:390:401:56:65:139:189:204:246:292:326:405:47:48:57:77:109:151:166:170:172:188:200:264:314:461:60:61:69:206:261:43:82:83:118:144:169:179:186:234:252:266:377:35:36:42:52:146:210:298 -1:1:5:7:6:2:3:4 -1:3:10:1:12:11:8:7:2:9:5:6:4 -1:2015:2014:2013:2012:2011:2016 -1:0:6:4:30:5:26:3:2:7:29:25:23:21:19:20:1:27:28:14:24:22:18:13:17:9:12:16:11:15:10 -1:0:3:4:2 -1:0:4:3:2 -1:0:1 -1:0:1 -1:0:1 -1:0:1 [0:228] [0:218] [0:305] [0:329] [0:242] [0:349] [0:248] [0:272] [0:221] [0:262] [0:320] [0:242] [0:271] [0:237]
tree_sizes=4430 4536 4770 4305 4789 5042 4310 5290 4655 5838 4874 5507 5576 5911 6603 6062 6910 6750 6589 7688 6789 6789 7477 8673 6850 8346 8728 7105 7623 7065 9883 9502 6921 8118 9078 8605 8885 10984 8479 8133 8757 9853 8349 10193 9678 8172 11314 9976 11490 9391 10344 10119 11853 10933 10341 11148 10779 8715 11726 11504 9730 10642 9439 10950 11518 11358 10474 10633 10743 9921 10921 10545 10836 11140 10104 10081 10019 10792 10599 9922 10608 10419 9179 9529 9613 9320 7690 9790 10021 10825 8870 8677 10813 9891 9330 9466 10422 10037 10639 9150 10033 9814 8474 10627 10401 10101 7619 10151 10302 9466 9015 9928 10972 7761 8648 8231 9746 9666 9489 9388 10114 10340 9681 10240 9401 7704 10121 9079 9915 7811 10191 10270 8786 9035 9366 8800 9487 10193 7937 10136 10283 7463 8052 9262 9116 7923 9814 9406 7950 10764 7724 8950 9606 8645 9845 9084 9803 10588 8947 9529 9887 8891 8903 7580 9343 8543 7833 7173 6724 7816 7408 8159 8809 8911 9466 9289 9056 9418 9442 8909 10705 8077 8988 10042 8881 9799 9532 9463 8515 9227 9769 9476 8466 9571 9400 8909 10522 8537 8284 7352 9714 10554 9675 9359 9220 8908 7806 7868 9435 9708 7898 8532 9073 8136 9003 8018 7257 9964 8993 7583 8429 8124 9170 7981 8221 7996 7932 8241 7943 10017 7635 7875 7174 7766 7824 9510 8436

Tree=0
num_leaves=31
num_cat=3
split_feature=13 19 14 26 14 18 25 19 0 17 13 26 14 26 15 19 22 20 26 18 0 13 26 15 19 26 0 17 17 16
split_gain=3.95208e+07 8.61668e+06 3.32401e+06 3.21775e+06 1.23401e+06 1.13743e+06 881179 869389 495046 500867 481486 430953 338394 323504 284982 239236 224344 223250 213960 187157 161177 146912 141607 141541 123748 123665 123325 120827 100920 99334.9
threshold=2.5000000000000004 1.5000000000000002 5.5000000000000009 1.0000000180025095e-35 1.0000000180025095e-35 2.5000000000000004 1.5000000000000002 3.5000000000000004 0 1.0000000180025095e-35 12.500000000000002 2.5000000000000004 1.5000000000000002 2.5000000000000004 1.5000000000000002 5.5000000000000009 1.0000000180025095e-35 1.5000000000000002 3.5000000000000004 1.5000000000000002 1 1.0000000180025095e-35 5.5000000000000009 2.5000000000000004 6.5000000000000009 1.5000000000000002 2 1.5000000000000002 1.5000000000000002 1.5000000000000002
decision_type=2 2 2 2 2 2 2 2 9 2 2 2 2 2 2 2 2 2 2 2 9 2 2 2 2 2 9 2 2 2
left_child=1 3 7 4 8 11 12 13 -1 16 24 17 19 23 27 -7 20 28 -8 25 -10 26 -9 -2 -4 -5 -22 -6 -3 -11
right_child=2 5 10 6 14 15 18 22 9 29 -12 -13 -14 -15 -16 -17 -18 -19 -20 -21 21 -23 -24 -25 -26 -27 -28 -29 -30 -31
leaf_value=0.4709487369376022 0.36301071954244246 0.30499059280814045 0.4687972864006395 0.25821869581905871 0.2634567797190116 0.40969542550884458 0.34525043795778804 0.44571843267969918 0.41366656037151406 0.25449720522949421 0.5292321786415809 0.40201976128980271 0.33801434345121883 0.43038349810209914 0.33450895375144807 0.46907307628945655 0.2482465691560628 0.36798457371470261 0.41151620718973053 0.32336198890433931 0.37516017340294822 0.24227423633651893 0.48601126629958757 0.40987137282681224 0.50110095244068165 0.29539839298840503 0.2004506091607994 0.31581799649418651 0.34983112496378777 0.31014640710461872
leaf_weight=80275.353911280632 2068175.6081912518 1779956.7533472776 2203392.3075999022 2600253.9666893482 2766308.9963172674 2057964.9197306633 1991254.723780036 2041540.5913102627 37450.712344646454 1975461.9803545475 5704154.8925136328 1305444.8226462603 1274201.7367093563 1894286.0030280352 929329.01009678841 1012333.1276270151 1511625.1428707838 1365845.744392395 645108.90224397182 825002.26545131207 40613.913138508797 983266.93067646027 1522851.8548890352 936401.64840269089 2567908.1923254728 1363838.2007569075 8020263.4752312899 524213.7902892828 699039.38585221767 382942.39675033092
leaf_count=28597 1671012 1870290 804897 3241133 3387481 1260733 1756849 942932 22318 2493113 641195 841660 1162788 996474 861702 368636 1947270 1075127 390286 803449 30749 1291214 446602 572961 590937 1487796 11935756 527067 603351 394115
internal_value=0.356095 0.291876 0.471968 0.263614 0.238609 0.381097 0.3132 0.425359 0.22339 0.221856 0.509624 0.352377 0.292214 0.39802 0.285609 0.429273 0.212577 0.335521 0.361465 0.280029 0.206639 0.205782 0.462933 0.377615 0.486183 0.27101 0.201331 0.271798 0.317635 0.263533
internal_weight=0 3.4172e+07 1.89387e+07 2.59514e+07 1.72518e+07 8.22058e+06 8.69966e+06 8.46326e+06 1.30319e+07 1.29516e+07 1.04755e+07 5.15029e+06 6.0633e+06 4.89886e+06 4.21985e+06 3.0703e+06 1.05932e+07 3.84484e+06 2.63636e+06 4.78909e+06 9.0816e+06 9.04414e+06 3.56439e+06 3.00458e+06 4.7713e+06 3.96409e+06 8.06088e+06 3.29052e+06 2.479e+06 2.3584e+06
internal_count=44448490 37781480 6667010 31761683 22919382 6019797 8842301 4629981 18143132 18114535 2037029 4390428 6695166 3240447 4776250 1629369 15227307 3548768 2147135 5532378 13280037 13257719 1389534 2243973 1395834 4728929 11966505 3914548 2473641 2887228
cat_boundaries=0 79 156 234
cat_threshold=8 0 0 0 2147483648 0 0 0 0 0 0 0 0 0 0 0 0 0 0 4096 0 1073742848 0 4096 0 16384 16384 1073741825 16 4 268435456 0 0 262144 0 0 32896 256 0 0 67117056 9216 131104 262144 4096 0 0 0 0 0 0 0 0 0 0 0 0 0 0 0 0 0 0 0 0 268435456 0 0 0 0 0 0 1107296256 0 0 0 524416 0 9216 65536 4096 524288 0 0 0 4194304 0 0 0 0 0 0 0 0 0 0 0 0 128 0 0 131200 0 0 0 320 0 0 256 0 8192 3 33555488 12615680 0 0 0 8 0 16384 4194312 0 4194304 512 0 0 2147483648 0 0 0 0 0 0 0 0 0 0 0 0 0 0 0 16 0 16384 0 0 0 8388608 0 131072 0 0 0 2097152 33554432 0 256 0 0 0 1048576 16 0 0 0 0 0 134217728 1048576 0 1024 0 0 0 0 8 201326592 512 0 0 0 0 0 2048 8 536887296 8912896 0 2048 33554432 262144 2 0 2147483648 1 1048576 0 0 0 131076 0 0 0 0 0 0 0 0 0 0 0 0 0 0 0 0 0 0 0 0 0 0 16 0 0 0 1 0 1024 0 1026 2 4
is_linear=0
shrinkage=1


Tree=1
num_leaves=31
num_cat=3
split_feature=13 26 13 18 15 25 18 17 20 0 19 19 14 19 13 26 14 15 0 20 18 24 26 19 16 15 0 20 21 14
split_gain=3.32882e+07 7.36385e+06 3.25704e+06 3.03935e+06 1.10508e+06 1.04451e+06 884272 726450 462232 410626 384595 339236 329920 324945 266926 239113 231946 187509 182470 167090 165713 154543 150388 143368 124178 113238 112597 98193.9 95835.5 94483.6
threshold=2.5000000000000004 1.5000000000000002 7.5000000000000009 1.0000000180025095e-35 1.0000000180025095e-35 2.5000000000000004 3.5000000000000004 1.5000000000000002 1.0000000180025095e-35 0 12.500000000000002 2.5000000000000004 2.5000000000000004 1.5000000000000002 1.0000000180025095e-35 5.5000000000000009 1.5000000000000002 1.5000000000000002 1 1.5000000000000002 3.5000000000000004 1.0000000180025095e-35 2.5000000000000004 5.5000000000000009 1.5000000000000002 1.0000000180025095e-35 2 1.5000000000000002 1.5000000000000002 8.5000000000000018
decision_type=2 2 2 2 2 2 2 2 2 9 2 2 2 2 2 2 2 2 9 2 2 2 2 2 2 2 9 2 2 2
left_child=1 3 6 4 8 11 12 13 9 -1 29 17 22 19 18 -7 24 27 -11 25 -9 26 -2 -8 -6 -5 -20 -3 -10 -4
right_child=2 5 10 7 16 15 23 20 28 14 -12 -13 -14 -15 -16 -17 -18 -19 21 -21 -22 -23 -24 -25 -26 -27 -28 -29 -30 -31
leaf_value=0.11411542434468347 0.0016241894577603425 -0.047337025078354397 0.11441806283056871 -0.093036741139493034 -0.087468755696638076 0.04757408724280858 0.08450543387835853 -0.0075139422123908176 -0.093842567972422075 0.057124478306866712 0.17067927942217129 0.040370216991626233 0.068133015108709852 -0.014472125211739895 -0.095801815333012741 0.10522806949007346 -0.020067065974854446 0.01159732825167026 0.022372472996248047 -0.028786752954209613 0.052295533718346048 -0.10893122346018125 0.05075932122050103 0.12208377236809781 -0.035688526462406993 -0.057493740721483666 -0.14977581862448566 -0.0039078710184216291 -0.037652700596673125 0.1447917447113562
leaf_weight=65834.043521881104 1976991.6672001481 1885039.4224700332 2115554.9875400662 2246228.917329073 2612510.3714536428 2068546.7568265796 2203890.6364389062 1995123.5947704911 1894278.1851623654 45393.886382758617 4873646.4378365874 1225525.6955772638 2258509.4483606815 1376500.1153265238 1396549.7491827607 1102901.9410693049 872180.09976279736 1264083.4235121608 38189.690495073795 811263.5453543663 603343.09639495611 1105645.4209794402 909471.45077049732 1882444.3568810821 562940.64524126053 1491588.4668568969 7638632.5005310774 719274.35029119253 361454.91489690542 1985172.3726692796
leaf_count=22549 1621740 1986750 721354 2901285 3299137 1300183 1025048 1758403 2446681 26451 551477 803896 1199786 1241880 1811850 422521 817629 1003571 28404 805548 368754 1510572 545154 576988 573675 1673130 11986955 618837 372819 425463
internal_value=0 -0.0593034 0.108792 -0.0862455 -0.111177 0.0225709 0.0670881 -0.0377112 -0.125835 -0.134822 0.15169 -0.00547874 0.0395054 -0.0570431 -0.136425 0.0676238 -0.0657436 -0.0200039 -0.142852 -0.0699246 0.00637334 -0.143885 0.0171058 0.101817 -0.0782892 -0.0788532 -0.14892 -0.0353425 -0.0848388 0.129122
internal_weight=0 3.3383e+07 1.82057e+07 2.51177e+07 1.65936e+07 8.26537e+06 9.23131e+06 8.52405e+06 1.2546e+07 1.02902e+07 8.97437e+06 5.09392e+06 5.14497e+06 5.92558e+06 1.02244e+07 3.17145e+06 4.04763e+06 3.8684e+06 8.82786e+06 4.54908e+06 2.59847e+06 8.78247e+06 2.88646e+06 4.08633e+06 3.17545e+06 3.73782e+06 7.67682e+06 2.60431e+06 2.25573e+06 4.10073e+06
internal_count=44448490 37781480 6667010 31645722 22896722 6135758 4968716 8749000 18206281 15386781 1698294 4413054 3366680 6621843 15364232 1722704 4690441 3609158 13552382 5379963 2127157 13525931 2166894 1602036 3872812 4574415 12015359 2605587 2819500 1146817
cat_boundaries=0 79 158 236
cat_threshold=8 0 0 0 2147483648 0 4194304 0 0 0 0 0 0 0 0 0 0 0 0 4096 0 1073742848 0 4096 0 16384 16384 1073741824 16 0 268435456 0 0 262144 8388608 0 32896 256 0 0 67117056 9216 131104 262144 4096 0 0 0 0 0 0 0 0 0 0 0 0 0 0 0 0 0 0 16 0 268435456 0 0 0 0 0 0 1107296256 0 0 0 524416 0 1024 0 4096 524288 0 0 0 0 0 0 0 0 0 0 1048576 0 0 0 0 0 128 0 0 131200 0 0 0 320 1 0 4 0 8192 3 33555488 4227072 0 0 0 8 0 1048576 4194312 0 4194304 512 0 0 2147483648 0 0 0 0 0 0 0 0 0 0 0 0 0 0 0 0 0 16384 0 0 0 0 0 131072 0 1024 0 2097152 33554432 0 8192 65536 256 0 0 0 1048576 16 0 0 0 0 0 0 0 0 1024 0 0 0 0 0 67108864 512 0 0 0 0 0 536872960 264 536920064 8388608 0 2048 33554432 0 2 64 2147483648 1 16384 0 0 0 131328 0 0 0 0 0 0 0 0 0 0 0 0 0 0 0 0 0 0 0 0 0 0 0 0 8388608 262144 1 524288 0 0 1026 2 4
is_linear=0
shrinkage=0.1


Tree=2
num_leaves=31
num_cat=4
split_feature=19 13 18 25 16 14 20 24 14 13 0 25 26 14 21 15 16 13 0 16 25 26 25 26 17 0 26 0 13 18
split_gain=2.79965e+07 6.67601e+06 3.02461e+06 2.70879e+06 1.07457e+06 910242 743584 659909 438851 410919 389109 329972 266014 256532 249165 212365 171208 169542 161856 153499 148569 136417 130115 128849 107411 105162 103599 92014.9 89478.8 79468
threshold=2.5000000000000004 1.5000000000000002 6.5000000000000009 1.0000000180025095e-35 1.0000000180025095e-35 3.5000000000000004 3.5000000000000004 1.5000000000000002 1.0000000180025095e-35 14.500000000000002 0 2.5000000000000004 1.5000000000000002 2.5000000000000004 1.0000000180025095e-35 1.5000000000000002 1.5000000000000002 6.5000000000000009 1 1.0000000180025095e-35 3.5000000000000004 6.5000000000000009 2.5000000000000004 1.0000000180025095e-35 1.5000000000000002 2 8.5000000000000018 3 4.5000000000000009 1.0000000180025095e-35
decision_type=2 2 2 2 2 2 2 2 2 2 9 2 2 2 2 2 2 2 9 2 2 2 2 2 2 9 2 9 2 2
left_child=1 3 6 4 8 11 13 12 10 26 -1 16 19 22 18 24 28 -7 -12 -5 -9 -8 -2 25 -6 -20 -4 -27 -3 -29
right_child=2 5 9 7 15 17 21 20 -10 -11 14 -13 -14 -15 -16 -17 -18 -19 23 -21 -22 -23 -24 -25 -26 27 -28 29 -30 -31
leaf_value=0.10867939185518088 0.0031694952944314007 -0.030913446412633067 0.10962228074463967 -0.081380255443872174 -0.080850053227313257 0.058888920592352817 0.080433065220501657 -0.0073811825455892934 -0.079620532302372093 0.16848696684638434 0.053588034549235587 0.043930291869023544 -0.015971942305575762 0.064093609380542454 -0.091954334842064833 -0.017023385166349814 0.016277453765510399 0.11752856714064769 0.022637463295791735 -0.04382380182234321 0.047198955770920176 0.11901910423688161 0.047454253046562186 -0.10493749563272388 -0.032331070526720032 0.010446418130785357 0.14014452975891775 -0.14802791082667796 0.024394648737158634 -0.11237111888597984
leaf_weight=68505.166751146317 2015463.1787063479 2558191.905939281 2306279.7551651001 2606449.3755387068 2581242.8411640525 1454956.1985300779 2616804.8589249849 2008586.0052771568 2226764.334584713 4003594.1727250218 44259.579659044743 1513107.6686479449 1416217.8193328381 1982258.7222166061 1431542.1836220622 894059.07866936922 1589132.4970934391 745783.67914223671 38195.720379054546 1868372.3849099874 663454.82917833328 1409897.5011933446 989045.49209916592 1022709.0970543027 554247.48772156239 38503.493780910969 2147571.1559593081 6452224.3623524904 330276.10506731272 692083.55106568336
leaf_count=24046 1652193 2552592 785633 3366460 3326363 817648 1220192 1805604 2814039 447391 25801 958517 1291340 1061816 1933604 843728 1216421 229929 29555 2037462 417286 426575 606170 1422132 564374 33449 471006 10833714 234242 999208
internal_value=0 -0.0544336 0.102284 -0.0804637 -0.104702 0.0237619 0.06198 -0.0350486 -0.11969 0.145238 -0.128805 0.00355763 -0.0537447 0.0361702 -0.130479 -0.0600149 -0.0100854 0.0787606 -0.137134 -0.0656993 0.0061708 0.0939435 0.0177475 -0.138158 -0.0722736 -0.142863 0.12434 -0.143743 -0.0245894 -0.144574
internal_weight=0 3.27989e+07 1.74709e+07 2.46074e+07 1.60443e+07 8.19145e+06 9.01347e+06 8.56308e+06 1.20148e+07 8.45745e+06 9.78802e+06 5.99071e+06 5.89104e+06 4.98677e+06 9.71952e+06 4.02955e+06 4.4776e+06 2.20074e+06 8.28798e+06 4.47482e+06 2.67204e+06 4.0267e+06 3.00451e+06 8.24372e+06 3.13549e+06 7.22101e+06 4.45385e+06 7.18281e+06 2.88847e+06 7.14431e+06
internal_count=44448490 37777514 6670976 31768165 22850013 6009349 4966946 8918152 18115548 1704030 15301509 4961772 6695262 3320179 15277463 4734465 4003255 1047577 13343859 5403922 2222890 1646767 2258363 13318058 3890737 11895926 1256639 11866371 2786834 11832922
cat_boundaries=0 79 157 236 313
cat_threshold=8 0 0 0 2147483648 0 0 0 0 0 0 0 0 0 0 0 0 0 0 4096 0 1073742848 131072 0 0 16384 16384 1073741824 16 0 268435456 0 0 262144 4194304 0 32896 256 0 0 67117056 9216 131104 262144 4096 0 0 0 0 0 0 0 0 0 0 0 0 0 0 0 0 0 0 16 0 268435456 0 0 0 0 0 0 1107296256 0 0 0 524416 0 9216 0 4096 524288 0 0 0 4194320 0 0 0 0 0 0 0 0 0 0 0 0 128 0 0 128 4096 0 0 320 0 0 4 0 8396800 3 33555488 8421376 0 0 0 8 0 1064960 4194304 0 4194304 512 0 0 2147483648 0 0 0 0 0 0 0 0 0 0 0 0 0 0 0 0 0 16384 0 0 0 8388608 0 131072 0 0 0 2097152 33554432 4 33619968 0 0 2 0 1048576 0 0 0 0 0 0 134217728 1048576 0 0 0 1073741824 0 0 8 67108864 512 128 0 0 0 0 536870912 264 536903680 524288 0 2048 0 262144 66 0 0 0 0 8 0 0 656388 0 0 0 0 0 0 0 0 0 0 0 0 0 0 0 0 0 0 0 0 0 0 0 0 0 0 1 0 525312 0 1026 0 0 131072 0 256 0 0 0 0 0 0 0 0 0 16384 0 0 0 1024 0 524288 0 0 0 134348800 268435456 0 0 4 139264 0 2048 131072 16384 83886080 0 0 33554432 65536 0 32832 2147483648 1 0 0 64 0 33024 0 0 0 0 0 0 0 0 0 0 0 0 0 0 0 0 0 0 0 0 0 0 16 524289 0 0 738197504 524288 0 0 0 2
is_linear=0
shrinkage=0.1


Tree=3
num_leaves=31
num_cat=2
split_feature=14 20 13 13 25 26 26 26 17 19 0 18 15 18 25 19 0 15 21 23 25 18 19 25 26 26 13 17 18 15
split_gain=2.37668e+07 5.53424e+06 2.85584e+06 2.5138e+06 1.0504e+06 735241 626600 479990 451106 420179 323745 307576 249745 232997 226256 223126 164596 135399 131796 130080 120428 117812 116914 112290 105547 97749.4 91803 87119.3 84471.5 80671.4
threshold=2.5000000000000004 1.5000000000000002 6.5000000000000009 1.0000000180025095e-35 1.0000000180025095e-35 3.5000000000000004 3.5000000000000004 1.5000000000000002 1.0000000180025095e-35 15.500000000000002 0 1.5000000000000002 3.5000000000000004 1.5000000000000002 2.5000000000000004 1.0000000180025095e-35 1 1.5000000000000002 1.5000000000000002 1.0000000180025095e-35 6.5000000000000009 2.5000000000000004 1.0000000180025095e-35 6.5000000000000009 4.5000000000000009 8.5000000000000018 3.5000000000000004 3.5000000000000004 1.5000000000000002 1.0000000180025095e-35
decision_type=2 2 2 2 2 2 2 2 2 2 9 2 2 2 2 2 9 2 2 2 2 2 2 2 2 2 2 2 2 2
left_child=1 3 6 4 8 11 12 13 10 25 -1 18 21 17 22 16 -12 26 -3 29 -8 -2 -6 -7 -9 -4 -5 -13 -10 -18
right_child=2 5 9 7 14 23 20 24 28 -11 15 27 -14 -15 -16 -17 19 -19 -20 -21 -22 -23 -24 -25 -26 -27 -28 -29 -30 -31
leaf_value=0.1041768959394382 0.0061014423658896141 -0.030935754349080649 0.10540883680742974 -0.067741421848656669 -0.081492443712961465 0.057415933172031641 0.074410310268707897 -0.0019361522545035927 -0.081415345363145125 0.16456770267390231 0.048506403093883932 0.018693213656738785 0.066244749894310187 -0.0082461208154779898 -0.0079537982180450644 -0.086669922418349518 -0.14026054640144861 -0.020603576599461621 0.010411005951262625 -0.097351737398851376 0.11216807096400978 0.045376801258482299 -0.043655345660465125 0.1080023684579161 0.052352523316611721 0.13484952240681158 -0.0039505958056419163 0.060618510178129283 -0.028812270093515016 -0.10423718806502452
leaf_weight=62397.124251306057 2348053.5034229159 2170992.6588606536 2487359.4698933363 3560794.7217077613 2037771.9357668459 1503887.2617282867 2284567.0041439533 1937623.5218433738 1871348.2667261064 3575218.7399134636 50901.353701561689 1861788.3163936138 1636500.0282710195 1345645.4836463332 825047.10772192478 1343250.3267918825 6239016.1454185545 901981.5523993969 1195456.475420177 957668.88235914707 1340298.5222667456 1131918.9324258566 1362767.3198747039 619593.22616881132 439314.78078693151 2063228.9466512203 240860.99834996462 675449.85602760315 364778.98526269197 690454.32263430953
leaf_count=21892 1922479 2244019 831669 4456639 2714955 831770 1080922 1643772 2512655 415303 30227 1399601 847987 1213943 740496 1854893 10936251 878862 966461 1403597 423120 689486 1503617 207255 255876 455826 202571 370379 373533 1018434
internal_value=0 -0.0502506 0.0962352 -0.0740899 -0.0976073 0.0217134 0.0565626 -0.0299776 -0.11318 0.138913 -0.122836 0.00356255 0.0340271 -0.0449384 -0.0549314 -0.124362 -0.13074 -0.0554356 -0.0162531 -0.131897 0.0883713 0.0188764 -0.0663292 0.0721761 0.00809769 0.118757 -0.0636998 0.0298543 -0.0728342 -0.136671
internal_weight=0 3.22588e+07 1.68671e+07 2.42316e+07 1.58054e+07 8.02717e+06 8.74134e+06 8.42622e+06 1.15798e+07 8.12581e+06 9.34369e+06 5.90369e+06 5.11647e+06 6.04928e+06 4.22559e+06 9.28129e+06 7.93804e+06 4.70364e+06 3.36645e+06 7.88714e+06 3.62487e+06 3.47997e+06 3.40054e+06 2.12348e+06 2.37694e+06 4.55059e+06 3.80166e+06 2.53724e+06 2.23613e+06 6.92947e+06
internal_count=44448490 37781698 6666792 31762213 23110550 6019485 4963994 8651663 18151482 1702798 15265294 4980460 3459952 6752015 4959068 15243402 13388509 5538072 3210480 13358282 1504042 2611965 4218572 1039025 1899648 1287495 4659210 1769980 2886188 11954685
cat_boundaries=0 79 156
cat_threshold=8 0 0 0 2147483648 0 0 0 0 0 0 0 0 0 0 0 0 0 0 4096 0 1073742848 131072 0 0 16384 16384 1073741824 16 0 268435456 0 0 262144 12582912 0 32896 256 0 0 67117056 8192 131104 262144 4096 0 0 0 0 0 0 0 0 0 0 0 0 0 0 0 0 0 0 16 0 268435456 0 0 0 0 0 0 1107296256 0 0 0 524416 0 9216 0 4096 524288 0 0 1048576 4194304 0 0 0 0 0 0 0 0 0 0 0 0 128 0 0 128 4096 0 0 256 0 0 4 0 532480 3 33555456 32768 0 0 0 8 0 1048576 4195328 0 4194304 132608 0 0 2147483648 0 0 0 0 0 0 0 0 0 0 0 0 0 0 0 0 0 16384 0 0 0 8388608 0 131072 0 0 0 2098178 33554432
is_linear=0
shrinkage=0.1


Tree=4
num_leaves=31
num_cat=4
split_feature=15 19 19 13 24 13 20 14 26 13 17 0 16 24 18 23 19 0 21 13 0 0 15 20 13 25 25 14 26 26
split_gain=2.0107e+07 4.698e+06 2.55628e+06 2.22123e+06 969645 641942 622098 422270 389050 330280 267041 232097 230225 227696 217581 216123 161564 138902 127954 112057 111011 98903.1 98262.6 95863 92617.4 88354 87594.4 81747.4 80454.1 74349.5
threshold=2.5000000000000004 1.5000000000000002 7.5000000000000009 1.0000000180025095e-35 1.0000000180025095e-35 4.5000000000000009 2.5000000000000004 1.5000000000000002 1.0000000180025095e-35 18.500000000000004 2.5000000000000004 0 1.0000000180025095e-35 1.5000000000000002 1.5000000000000002 1.5000000000000002 6.5000000000000009 1 1.0000000180025095e-35 1.5000000000000002 2 3 8.5000000000000018 2.5000000000000004 4.5000000000000009 1.5000000000000002 1.5000000000000002 1.0000000180025095e-35 11.500000000000002 2.5000000000000004
decision_type=2 2 2 2 2 2 2 2 2 2 2 9 2 2 2 2 2 9 2 2 9 9 2 2 2 2 2 2 2 2
left_child=1 3 5 4 8 10 14 13 11 28 23 -1 17 19 26 25 -8 -13 20 -5 -19 -22 -7 -2 -9 -6 -3 -23 -4 -10
right_child=2 6 9 7 15 22 16 24 29 -11 -12 12 -14 -15 -16 -17 -18 18 -20 -21 21 27 -24 -25 -26 -27 -28 -29 -30 -31
leaf_value=0.10325615706090269 0.0064573079015553319 -0.031368918883946266 0.10697554788452486 -0.06490684151011844 -0.070719650162900827 0.079028146106196087 0.041857685717367837 -0.0010671327722831293 -0.076594696843821267 0.16368280074666119 0.060439923217502134 0.048249892903733091 -0.079731572831359024 -0.0053274767997701124 0.021886623830229202 -0.0082083442575419073 0.095023029259364636 0.032111545879912266 -0.090146898472995868 -0.032872832515974851 0.023563630804341526 -0.13579935856914574 0.11446409034144911 0.042650244118050962 0.053364021958825891 -0.027843888252751622 0.0058087216591731832 -0.098755855164700035 0.13576757123705921 -0.024046399643718783
leaf_weight=48027.937548816204 2243896.4841890931 2011175.9665535092 2357703.1036387086 2832867.3423813879 2511052.7724822164 2274348.7776427865 2230553.6737126708 2135364.5407780409 1894938.6684357524 2780622.0382003784 2733006.5357609391 46504.024089336395 1388335.3710007668 1310967.7045860291 2209707.7005959749 959243.10754802823 768538.22836786509 41977.683513611555 918369.90862631798 1776940.9982219338 41124.499258518219 5830741.9017454982 1193000.4374511242 1086005.6638409495 366218.82486152649 594387.42015445232 925320.66910594702 663522.7436824441 1649525.5322657228 313848.12883263826
leaf_count=16117 1851162 2089820 736213 3632718 3377195 971597 1358680 1842835 2572994 304577 1457879 27450 1948006 1186607 1576181 913302 280813 32169 1365669 1839815 35746 10805591 342286 669703 199585 609423 754259 998356 333736 318006
internal_value=0 -0.0462277 0.0903041 -0.0687661 -0.091528 0.0569013 0.0192804 -0.0275464 -0.106726 0.137202 0.0372743 -0.115975 -0.117154 -0.0421009 -0.00181696 -0.0496975 0.0554817 -0.124043 -0.125112 -0.0525587 -0.129994 -0.131035 0.0912205 0.0182612 0.00690131 -0.0625131 -0.0196539 -0.132014 0.118827 -0.0691281
internal_weight=0 3.18197e+07 1.63181e+07 2.36744e+07 1.52521e+07 9.53026e+06 8.1453e+06 8.42236e+06 1.11874e+07 6.78785e+06 6.06291e+06 8.9786e+06 8.93058e+06 5.92078e+06 5.1462e+06 4.06468e+06 2.99909e+06 7.54224e+06 7.49574e+06 4.60981e+06 6.57737e+06 6.53539e+06 3.46735e+06 3.3299e+06 2.50158e+06 3.10544e+06 2.9365e+06 6.49426e+06 4.00723e+06 2.20879e+06
internal_count=44448490 37781337 6667153 31721584 23020024 5292627 6059753 8701560 18120104 1374526 3978744 15229104 15212987 6659140 4420260 4899920 1639493 13264981 13237531 5472533 11871862 11839693 1313883 2520865 2042420 3986618 2844079 11803947 1069949 2891000
cat_boundaries=0 79 158 236 312
cat_threshold=0 0 0 0 2147483648 0 0 0 0 0 0 0 0 0 0 0 0 0 0 0 0 1073742848 0 4096 0 16384 16640 1073741825 16 0 268435456 0 0 262144 8388608 0 32896 0 0 0 67117056 9216 32 262144 4096 0 0 0 0 0 0 0 0 0 0 0 0 0 0 0 0 0 0 16 0 268451840 0 0 0 0 0 0 1107296256 0 0 2097152 524416 0 9216 65544 0 524288 0 0 0 4194320 0 0 0 0 0 134217728 1048576 0 0 0 0 0 4096 0 0 131712 128 0 0 0 0 0 260 0 8396800 3 33556512 4194304 0 0 256 0 0 16384 4194312 131072 4194304 0 0 0 2147483648 0 0 0 0 0 0 0 0 0 0 0 0 0 0 0 0 0 0 0 0 0 0 0 0 0 1024 0 0 33554432 0 131072 33554432 0 0 2 0 0 0 0 0 0 0 0 0 0 0 0 0 1073741824 0 128 8 67110912 0 0 0 0 131136 0 536870912 8 536903680 83886080 0 0 32768 262144 2097152 64 8 1 1024 0 0 0 524804 0 0 0 0 0 0 0 0 0 0 0 0 0 0 0 0 0 0 0 0 0 0 0 0 8388608 262144 131073 262144 0 0 0 2 4 0 4352 0 0 0 1048576 0 0 0 0 0 0 0 0 0 134218752 0 0 0 0 0 131072 268435456 0 0 2147483652 33554432 0 2048 1073872896 16384 0 8388608 1024 33554432 0 66 4 2147483648 0 0 0 65 0 33024 0 0 0 0 0 0 0 0 0 0 0 0 0 0 0 0 0 0 0 4 0 0 16 0 0 0 134217728 524800 524288 0 1024
is_linear=0
shrinkage=0.1


Tree=5
num_leaves=31
num_cat=5
split_feature=16 26 17 13 22 26 26 14 18 26 13 0 15 14 22 21 26 20 18 19 0 0 14 18 0 0 13 13 23 23
split_gain=1.71272e+07 4.01573e+06 2.29434e+06 2.01784e+06 803446 581637 513326 396183 385045 356125 236610 220973 206489 194687 169033 150014 114067 112674 109209 106938 102191 114808 98053 94872.6 88231.9 110660 86717.8 79693.8 78558.7 78515.3
threshold=2.5000000000000004 1.5000000000000002 7.5000000000000009 1.0000000180025095e-35 1.0000000180025095e-35 4.5000000000000009 4.5000000000000009 1.5000000000000002 1.0000000180025095e-35 18.500000000000004 1.5000000000000002 0 3.5000000000000004 1.0000000180025095e-35 1.5000000000000002 1.5000000000000002 10.500000000000002 1.0000000180025095e-35 1.5000000000000002 1.0000000180025095e-35 1 2 4.5000000000000009 2.5000000000000004 3 4 10.500000000000002 5.5000000000000009 1.0000000180025095e-35 1.0000000180025095e-35
decision_type=2 2 2 2 2 2 2 2 2 2 2 9 2 2 2 2 2 2 2 2 9 9 2 2 9 9 2 2 2 2
left_child=1 3 6 4 8 10 12 14 11 26 18 -1 23 17 19 28 -7 20 -3 27 -13 -22 -9 -2 -23 -26 -4 -5 -6 -27
right_child=2 5 9 7 15 16 -8 22 -10 -11 -12 13 -14 -15 -16 -17 -18 -19 -20 -21 21 24 -24 -25 25 29 -28 -29 -30 -31
leaf_value=0.091013822311915071 0.010391245783328992 -0.029029558921145778 0.098073137616040071 -0.064425273967202074 -0.071567597673928188 0.048754139261995615 0.085110538215633497 -0.0027014936306198503 -0.062531606917674273 0.15901173494691453 0.023835971382135297 0.043308286666027332 0.060483217796229172 -0.07556501498123594 -0.0068327110435583071 -0.0095511725935260774 0.10322654433959506 -0.083898459270879702 0.0087053654024534296 -0.030922923846772171 0.030983270568683781 0.02597589914258136 0.045502640121744681 0.04282821192759656 0.020404694139925624 -0.1300200158605079 0.12749977876305307 0.049754832096896871 -0.038874553628032493 -0.093313092247318735
leaf_weight=54473.281492233276 2527840.4204152524 2261661.8839820325 2224588.3077690601 2575010.8143087029 1713104.6810830534 1739482.5588330328 3193779.2889867127 2113593.3235770464 2154077.241900444 2554172.8932833076 2588366.6905191541 37197.253461778164 2154459.8845772147 1313385.2570473552 1230819.7471866906 832005.94396388531 493477.3853212893 884266.72027373314 1160502.9723804593 1970474.0254417062 48107.84677991271 38945.356299042702 527245.06996226311 1401686.7949844897 51907.558339208364 5621021.752088517 1821374.9928811789 62614.901951670647 1287298.9375273883 650113.76861140132
leaf_count=20193 2063657 2336938 750416 3351619 2413721 974258 1234735 1822332 2850341 297043 1778969 22454 1092215 1857116 1144524 812329 163010 1333004 922306 2103521 37200 34730 306760 842232 50978 10855516 387807 37984 1509078 1041504
internal_value=0 -0.0427281 0.0847072 -0.0640579 -0.0864844 0.0172125 0.0526454 -0.0252179 -0.100383 0.129776 0.00102217 -0.109756 0.0356029 -0.111021 -0.0397545 -0.0471225 0.0607924 -0.117373 -0.0162331 -0.0485478 -0.121964 -0.122923 0.00692249 0.0219617 -0.124087 -0.125011 0.11132 -0.0617147 -0.0575409 -0.126214
internal_weight=0 3.14092e+07 1.58779e+07 2.31657e+07 1.46859e+07 8.24349e+06 9.27777e+06 8.47976e+06 1.08535e+07 6.60014e+06 6.01053e+06 8.69942e+06 6.08399e+06 8.64495e+06 5.83892e+06 3.83241e+06 2.23296e+06 7.33156e+06 3.42216e+06 4.6081e+06 6.44729e+06 6.4101e+06 2.64084e+06 3.92953e+06 6.36199e+06 6.32304e+06 4.04596e+06 2.63763e+06 3.0004e+06 6.27114e+06
internal_count=44448490 37780385 6668105 31604904 22838164 6175481 5232839 8766740 18103036 1435266 5038213 15252695 3998104 15232502 6637648 4735128 1137268 13375386 3259244 5493124 12042382 12019928 2129092 2905889 11982728 11947998 1138223 3389603 3922799 11897020
cat_boundaries=0 79 157 236 309 385
cat_threshold=0 0 524288 0 0 0 4194304 0 0 0 0 0 0 0 0 0 0 0 0 4096 0 1073742848 131072 0 0 16384 16384 1073741824 16 0 268435456 0 0 262144 8388608 0 32896 256 0 0 67117056 4202496 32 262144 4096 0 0 0 0 0 0 0 0 0 0 0 0 0 0 0 0 0 0 16 0 268435456 0 0 0 0 0 0 1107296256 0 0 0 34078848 0 9216 8 4096 0 0 2147483648 0 0 0 0 0 0 0 0 1048576 0 0 0 0 0 0 0 134217728 128 4096 0 0 320 0 0 260 16777216 8396800 1 33556480 0 0 2097152 0 0 0 16384 1032 131072 4194304 131072 0 0 2147483648 0 0 0 0 0 0 0 0 0 0 0 0 0 0 0 0 0 16384 0 0 1 0 262144 67239936 0 0 0 2097152 0 4 33619968 0 0 2 0 0 0 0 0 0 0 16384 134217728 0 0 0 0 1074266112 0 0 0 67108864 0 128 0 32768 139264 0 0 131080 0 524288 0 32 4227072 262144 2 32768 2147483656 0 0 0 0 1 524800 0 0 0 0 0 0 0 0 0 0 0 8388608 0 0 0 0 0 0 0 0 0 0 0 524288 8388608 0 0 0 1024 0 0 2 0 131072 0 768 0 0 0 0 16 0 0 0 0 0 8192 0 0 0 0 0 0 128 8 0 268435968 0 8192 4 0 536870912 0 1073741824 536903680 67108864 2 1024 1 0 64 68 0 1 1048576 0 16 33554432 1284 0 0 0 0 0 0 0 0 0 0 0 0 0 0 0 0 0 0 0 0 16777216 0 4 0 0 0 1 524288 0 0 0 0 0 0 0 1024 0 0 0 0 0 0 0 134218752 512 0 0 0 0 0 539033600 0 0 2147483648 33554432 0 536872960 8192 1064960 16777216 8388608 1 33554432 65536 0 0 0 4 1024 2 64 1048576 8388608 2048 0 0 0 0 0 0 0 0 0 0 0 0 0 0 0 0 0 0 0 0 0 16 0 0 0 0 537133056 524288 8192 64
is_linear=0
shrinkage=0.1


Tree=6
num_leaves=31
num_cat=2
split_feature=17 13 18 21 26 13 13 22 15 13 19 19 21 0 19 24 24 0 14 21 13 25 26 26 19 23 23 14 25 15
split_gain=1.44649e+07 3.42134e+06 2.0935e+06 1.73289e+06 693178 479710 476338 379634 377022 300278 231556 180629 176692 170325 163343 126963 119426 107879 109930 92754 85025.5 84040.5 73863.9 71084.2 69284.6 69054 66681.6 62752.2 54218.4 52015.4
threshold=2.5000000000000004 1.5000000000000002 8.5000000000000018 1.0000000180025095e-35 1.0000000180025095e-35 5.5000000000000009 4.5000000000000009 1.5000000000000002 1.0000000180025095e-35 22.500000000000004 2.5000000000000004 1.0000000180025095e-35 3.5000000000000004 0 1.0000000180025095e-35 1.5000000000000002 1.5000000000000002 1 1.0000000180025095e-35 3.5000000000000004 12.500000000000002 3.5000000000000004 7.5000000000000009 12.500000000000002 1.0000000180025095e-35 1.0000000180025095e-35 1.5000000000000002 1.5000000000000002 1.5000000000000002 1.5000000000000002
decision_type=2 2 2 2 2 2 2 2 2 2 2 2 2 9 2 2 2 9 2 2 2 2 2 2 2 2 2 2 2 2
left_child=1 3 6 4 8 10 12 14 11 23 16 13 21 -1 26 24 27 -15 25 -9 -7 -2 -8 -4 -6 -19 -5 -3 -16 -10
right_child=2 5 9 7 15 20 22 19 29 -11 -12 -13 -14 17 28 -17 -18 18 -20 -21 -22 -23 -24 -25 -26 -27 -28 -29 -30 -31
leaf_value=0.094363924092946375 0.013876768433787779 -0.029477124349431484 0.098401184866785119 -0.060480137545971493 -0.065617629527056034 0.054596301364428994 0.069287830658234337 -0.0014810396487187714 -0.067525621907273639 0.15790928107629509 0.033985923068949979 -0.068577213811146065 0.058334533851672157 0.041401803720595487 -0.028762911543144223 -0.010206372264381598 0.014260858345926797 -0.1195465078255939 -0.078406507783448681 0.042702621161240364 0.11210233877167147 0.04636083631864938 0.099612693817432596 0.12621692903383924 -0.035135691223404049 -0.085190504519862223 -0.019959549411178085 0.00070908450018670847 0.0018636613772342924 -0.035207665519962336
leaf_weight=40947.823621869087 3133744.8668813705 1991097.5890105069 2213328.9501298368 2402760.609875828 1899084.0098084509 1183445.8582459092 2374117.0241833329 1946152.4212506115 1411785.8453718722 1992793.5094029307 1915018.2007876635 1307943.6603733599 1985185.1866644621 46655.165081858635 1936891.8060092032 857157.80401280522 1667114.5790442824 5522581.3327738345 894963.64073586464 628587.64050641656 328475.559461236 1067810.0673474669 1213916.6208304167 1570742.7761425972 1227760.9863780737 654356.41233041883 488725.5021725595 1052812.8871885538 823908.98955655098 769442.40146055818
leaf_count=13724 2448832 2073021 686158 3285468 2607072 595509 1026876 1758793 2016253 216789 1185561 1871883 1008602 27729 2126929 811314 1259712 10923135 1342001 397842 89853 601878 361430 318378 1370773 1055996 519853 853439 701982 891705
internal_value=0 -0.0394185 0.0787662 -0.0592409 -0.0798857 0.016263 0.0505602 -0.022522 -0.0931986 0.126492 0.00466536 -0.102749 0.0337489 -0.108991 -0.0370203 -0.0443022 -0.00725337 -0.110161 -0.111161 0.0093058 0.0670899 0.0221325 0.0795474 0.109947 -0.0536488 -0.115907 -0.0536313 -0.0190365 -0.019623 -0.0561253
internal_weight=0 3.09977e+07 1.55516e+07 2.28597e+07 1.46327e+07 8.13796e+06 9.77477e+06 8.22703e+06 1.06487e+07 5.77687e+06 6.62604e+06 8.46745e+06 6.18674e+06 7.1595e+06 5.65229e+06 3.984e+06 4.71103e+06 7.11856e+06 7.0719e+06 2.57474e+06 1.51192e+06 4.20155e+06 3.58803e+06 3.78407e+06 3.12684e+06 6.17694e+06 2.89149e+06 3.04391e+06 2.7608e+06 2.18123e+06
internal_count=44448490 37779547 6668943 31722452 22931585 6057095 5447618 8790867 18142426 1221325 5371733 15234468 4059312 13362585 6634232 4789159 4186172 13348861 13321132 2156635 685362 3050710 1388306 1004536 3977845 11979131 3805321 2926460 2828911 2907958
cat_boundaries=0 79 156
cat_threshold=0 4096 0 0 2147483648 0 4194320 0 0 0 0 0 0 0 0 0 0 0 0 4096 0 1073742848 131072 0 0 16384 16640 1073741824 16 0 268435456 8192 0 262144 8388608 0 32768 0 0 0 67117056 8192 32 262144 4096 0 0 0 0 0 0 0 0 0 0 0 0 0 0 0 0 0 0 16 0 268435456 0 0 0 0 0 0 1107296256 0 0 2097152 524288 0 9216 65544 0 524288 0 0 1048576 0 0 0 0 0 16384 0 0 0 0 0 0 0 0 0 0 128 4096 0 0 64 0 0 260 0 8388608 1 33554464 4194304 0 128 256 0 0 0 4195336 131072 4194304 4 2048 0 2147483648 0 0 0 0 0 0 0 0 131072 0 0 0 0 0 0 0 0 16384 0 0 1 0 0 67239936 512 0 0 0 128
is_linear=0
shrinkage=0.1


Tree=7
num_leaves=31
num_cat=6
split_feature=18 14 19 24 14 16 20 16 24 19 0 13 25 25 14 17 20 20 0 0 0 0 25 14 20 20 24 0 24 15
split_gain=1.21489e+07 2.93398e+06 1.88536e+06 1.05895e+06 781662 433880 429528 384335 261825 258046 236451 235240 193974 171123 160978 127283 111339 108360 93375.5 114617 82679.2 95380.3 82544.6 77035.8 75919.2 74717.9 70414.6 68933.1 63715.6 56445.6
threshold=2.5000000000000004 1.0000000180025095e-35 9.5000000000000018 1.0000000180025095e-35 3.5000000000000004 4.5000000000000009 1.0000000180025095e-35 1.5000000000000002 2.5000000000000004 25.500000000000004 0 1.0000000180025095e-35 1.5000000000000002 3.5000000000000004 8.5000000000000018 1.0000000180025095e-35 1.0000000180025095e-35 1.0000000180025095e-35 1 2 3 4 1.0000000180025095e-35 7.5000000000000009 2.5000000000000004 2.5000000000000004 6.5000000000000009 5 2.5000000000000004 1.0000000180025095e-35
decision_type=2 2 2 2 2 2 2 2 2 2 9 2 2 2 2 2 2 2 9 9 9 9 2 2 2 2 2 9 2 2
left_child=1 3 5 6 7 13 10 12 17 -4 -1 15 16 24 -6 18 -3 -5 -12 -20 -21 -22 27 -7 -2 -8 -10 -23 -9 -29
right_child=2 4 9 8 14 23 25 28 26 -11 11 -13 -14 -15 -16 -17 -18 -19 19 20 21 22 -24 -25 -26 -27 -28 29 -30 -31
leaf_value=0.093998421335445961 0.0096365155218694019 -0.051138642446683646 0.1060071527009725 -0.054699230719537278 0.030626679512639074 0.063585767622473324 -0.053032622280863341 0.0031049626352451982 0.0012154051520566894 0.15326412136714207 0.044863201745744874 -0.058506559144753292 3.2799747312386055e-05 0.054302053423012801 0.087001796000351253 -0.067618548303079867 -0.022227324627890448 -0.021851653631748087 0.040026695830042675 0.03589509852554789 0.03160809269145911 0.030857667804816441 -0.078936308549551415 0.092806269944175124 0.037712841847222373 -0.0066326549248317962 0.062819187467863677 -0.11906769946745488 0.032170112201748362 -0.083482089185512198
leaf_weight=67827.381907105446 2621149.3078786433 2890356.7732403576 3317698.6692146063 2232861.4553937614 2403461.6763344705 2428119.2309544683 2154455.1639371812 2526308.6411026716 1031048.006287545 1772983.8228989244 40585.746101677418 1583201.6481973827 1811787.2974249423 2231352.6360530257 641761.74025550485 983274.02250257134 2470580.8410163224 1825256.7537683249 52353.171843588352 39366.850916385651 47535.827620089054 32255.819450378418 725017.6483489871 1435700.410685122 1522527.6685026884 413685.92625945807 226261.69704926014 4822388.9394341409 1075233.4801200926 491135.98894676566
leaf_count=23756 2085173 3750446 849531 3022000 1540651 1085662 2890629 2154155 920490 202920 28647 2113656 1573946 1107473 237387 1483005 2602097 1939092 37953 33085 46281 32438 1155471 445847 893325 396712 122731 10164010 699077 810844
internal_value=0 -0.0363434 0.0727299 -0.0644593 -0.00222765 0.0480015 -0.0815791 -0.0148715 -0.0275714 0.122466 -0.0919906 -0.0934214 -0.0282548 0.0319755 0.0425074 -0.101063 -0.0378149 -0.0399251 -0.106324 -0.107312 -0.108565 -0.109494 -0.110599 0.0744434 0.0199527 -0.0455583 0.0123014 -0.114894 0.0117823 -0.115778
internal_weight=0 3.0588e+07 1.53295e+07 1.67685e+07 1.38195e+07 1.02388e+07 1.14531e+07 1.07743e+07 5.31543e+06 5.09068e+06 8.88494e+06 8.81712e+06 7.17272e+06 6.37503e+06 3.04522e+06 7.23391e+06 5.36094e+06 4.05812e+06 6.25064e+06 6.21005e+06 6.1577e+06 6.11833e+06 6.0708e+06 3.86382e+06 4.14368e+06 2.56814e+06 1.25731e+06 5.34578e+06 3.60154e+06 5.31352e+06
internal_count=44448490 37778559 6669931 25220800 12557759 5617480 19216487 10779721 6004313 1052451 15929146 15905390 7926489 4085971 1778038 13791734 6352543 4961092 12308729 12280082 12242129 12209044 12162763 1531509 2978498 3287341 1043221 11007292 2853232 10974854
cat_boundaries=0 79 158 234 307 383 458
cat_threshold=0 0 0 0 0 0 4194304 0 0 0 0 0 0 0 0 0 0 0 0 4096 0 1073742848 131072 0 0 16384 16384 1073741825 16 0 268435456 0 0 262144 4194304 0 32768 256 0 0 68165632 9216 131104 0 4096 0 0 0 0 0 0 0 0 0 0 0 0 0 0 0 0 0 0 16 0 268435456 0 0 0 0 0 0 1107296256 0 0 2097152 524416 0 9216 8 0 524288 0 1073741824 0 16 0 0 0 0 0 8192 1048576 0 0 0 0 0 0 0 134348800 268435456 0 0 0 131072 0 0 4 16777216 8192 2 0 8421376 0 0 32768 0 0 16384 2 1 0 132128 0 0 2147483648 0 0 0 0 0 0 0 0 8388608 0 0 0 0 0 0 0 0 0 0 0 0 0 0 131072 0 1024 0 2 33554434 4 131072 0 256 0 2 2147483648 0 0 0 0 0 0 0 134217728 0 0 0 268435456 1074266112 0 128 0 0 640 0 0 32768 0 0 0 8192 32768 0 1 3072 0 0 130 0 8 0 0 4194304 0 262145 33280 0 0 0 0 0 0 0 0 0 0 0 128 0 0 0 0 0 0 0 4 16793600 0 16 524288 0 0 0 524288 0 0 1024 33554432 4608 0 0 0 0 0 0 0 0 0 16384 0 0 0 0 0 0 0 0 8 67110912 0 4224 0 0 8192 0 536871168 131080 536870912 8912896 0 0 0 327680 0 0 0 65537 0 0 16 37748736 524288 0 0 0 0 0 0 0 0 0 0 0 0 0 0 0 0 0 0 0 0 4 0 0 0 8388608 262144 201326593 262144 65536 0 0 0 256 68157440 0 1024 0 0 0 0 0 0 0 134218752 0 0 0 0 0 65536 539033600 0 0 4 33554496 536870912 0 0 16385 83886080 8388608 33 0 2048 2097152 67108868 2147483648 4 0 0 0 0 256 0 0 0 0 0 0 0 0 0 0 0 0 0 0 0 0 0 0 0 0 0 0 0 0 0 0 0 0 0 8192 131136 0 0 0 0 16793600 0 0 0 0 0 4194304 0 0 0 128 0 512 0 0 0 1048704 0 8388608 0 4202496 2147491840 256 64 67108864 1073741824 0 0 0 33554432 33554433 0 64 64 0 0 1024 67108872 64 1048576 8388608 2048 0 0 0 0 0 0 0 0 0 0 0 0 0 0 0 0 0 0 0 0 0 4 262144 0 0 536870912 0 0 32768
is_linear=0
shrinkage=0.1


Tree=8
num_leaves=31
num_cat=3
split_feature=20 15 20 25 15 13 25 17 13 22 23 23 15 17 0 19 13 18 25 25 16 21 17 19 25 25 0 0 17 17
split_gain=1.01656e+07 2.50887e+06 1.6891e+06 897323 679970 424902 375113 341264 289661 209417 204089 155893 141585 132697 126558 120314 112907 93279.9 88764.5 72478.8 69959.7 66879.6 60856.2 56684.3 56440.2 52767.1 49738.7 47268.9 46630.4 46598.5
threshold=2.5000000000000004 1.0000000180025095e-35 9.5000000000000018 1.0000000180025095e-35 3.5000000000000004 1.0000000180025095e-35 4.5000000000000009 1.5000000000000002 24.500000000000004 1.0000000180025095e-35 1.5000000000000002 1.5000000000000002 9.5000000000000018 3.5000000000000004 0 1.0000000180025095e-35 4.5000000000000009 1.0000000180025095e-35 2.5000000000000004 12.500000000000002 1.0000000180025095e-35 2.5000000000000004 1.0000000180025095e-35 3.5000000000000004 9.5000000000000018 5.5000000000000009 1 2 1.5000000000000002 4.5000000000000009
decision_type=2 2 2 2 2 2 2 2 2 2 2 2 2 2 9 2 2 2 2 2 2 2 2 2 2 2 9 9 2 2
left_child=1 3 6 5 7 9 13 11 19 14 18 17 29 21 -1 20 28 -3 22 -4 26 -2 -5 -9 -8 -12 -16 -28 -7 -6
right_child=2 4 8 10 12 16 24 23 -10 -11 25 -13 -14 -15 15 -17 -18 -19 -20 -21 -22 -23 -24 -25 -26 -27 27 -29 -30 -31
leaf_value=0.091532944977567879 0.0075893050808051787 -0.047012248775165785 0.085091378117882699 -0.05596480597614633 0.022617509479468889 -0.052036734979290317 0.059510974870520442 0.0055189241705788199 0.14825043283803496 -0.052376897724954879 -0.00058450005374226515 -0.00055451430025038357 0.087677024551776034 0.048941982853327681 -0.17074599251857944 -0.062024180887625617 0.039062140750120697 -0.020370222367458155 -0.0059667642287958237 0.11380226086744348 -0.068932647218855322 0.033555122494825333 -0.02779448340869152 0.03764459672415673 0.085897067159916823 0.057859900882901653 -0.162379354738176 -0.10066882651960295 -0.01525577842016094 0.054394057445873327
leaf_weight=36755.105910778046 2542404.9011550546 2868596.4592955709 2049178.8782857656 1912817.9456310272 1869370.7908322513 2130095.8302918971 2399332.0634452999 2974377.0378122032 1629444.8525830507 1499079.8487906754 1259250.7655802667 1774044.502505064 523782.28707966208 2021252.8530946374 107927.58511728048 981286.38992252946 165899.96475446224 2425240.7073278427 727570.90526551008 1540075.5873458385 655525.13899901509 1626577.961027652 1280056.5370940566 673624.1176096797 1224317.287945658 176083.30576360226 127238.18686684966 5148732.2738560736 411229.27138179541 612755.76310831308
leaf_count=12627 2032697 3760475 674555 2669972 1295357 2812929 1056977 2479578 189345 2162683 1136050 1593646 185431 1012195 283995 1476844 101889 2552654 671153 330265 1060869 980801 1448054 392723 393601 91556 324278 10561388 411784 292119
internal_value=0 -0.0332452 0.067317 -0.0593739 -0.00159873 -0.0753965 0.042873 -0.0133887 0.113284 -0.0863214 -0.0256766 -0.0262095 0.0404319 0.0279148 -0.0935315 -0.0945004 -0.0408671 -0.0348069 -0.0374881 0.0974106 -0.0997773 0.0177202 -0.044671 0.0114511 0.068426 0.00658532 -0.103533 -0.102157 -0.046085 0.0304621
internal_weight=0 3.03413e+07 1.50326e+07 1.66195e+07 1.37218e+07 1.12638e+07 9.81389e+06 1.07159e+07 5.2187e+06 8.55654e+06 5.35578e+06 7.06788e+06 3.00591e+06 6.19024e+06 7.05746e+06 7.02071e+06 2.70723e+06 5.29384e+06 3.92045e+06 3.58925e+06 6.03942e+06 4.16898e+06 3.19287e+06 3.648e+06 3.62365e+06 1.43533e+06 5.3839e+06 5.27597e+06 2.54133e+06 2.48213e+06
internal_count=44448490 37778054 6670436 25226071 12551983 19209286 5476271 10779076 1194165 15882684 6016785 7906775 1772907 4025693 13720001 13707374 3326602 6313129 4789179 1004820 12230530 3013498 4118026 2872301 1450578 1227606 11169661 10885666 3224713 1587476
cat_boundaries=0 79 174 268
cat_threshold=0 0 0 0 0 0 16 0 0 0 0 0 0 0 0 0 0 0 0 0 0 1073741824 131072 0 0 16384 16384 1073741825 16 0 268435456 0 0 262144 8388608 0 32768 0 0 0 68165632 8194 32 0 5120 0 0 0 0 0 0 0 0 0 0 0 0 0 0 0 0 0 0 16 0 268451840 0 0 0 0 0 131072 1107296256 0 0 1024 34078720 0 140288 0 0 0 134217728 0 0 16777216 2097152 0 0 0 0 0 2147483648 0 0 0 131072 0 0 0 0 0 0 0 0 1 0 0 0 0 0 0 0 0 0 0 0 0 16 0 0 0 0 0 0 65536 128 0 0 0 0 268435456 0 2048 8 0 0 0 0 2048 524288 0 40 16385 0 512 0 0 0 0 0 16777216 131072 0 268435456 0 0 256 0 32768 268435456 33554432 0 128 16384 0 0 4194304 16777216 0 0 1 0 67108864 0 0 0 0 0 0 0 0 0 0 131072 0 0 0 4194304 0 0 256 0 0 0 0 0 0 0 0 0 0 0 0 0 0 0 0 0 0 0 0 0 0 0 0 0 0 0 16384 262144 134217728 260 0 8396800 8422400 0 0 0 0 2048 0 0 0 0 0 0 0 0 0 536870912 0 0 4194304 0 1048576 0 0 16 0 0 0 0 142606336 0 16448 131136 83888128 0 0 33554432 67108864 0 0 0 4096 256 4096
is_linear=0
shrinkage=0.1


Tree=9
num_leaves=31
num_cat=8
split_feature=21 13 20 18 13 26 26 25 24 16 16 13 16 0 19 23 14 0 18 0 0 0 0 0 19 18 0 22 22 24
split_gain=8.54853e+06 2.21045e+06 1.43215e+06 782536 634918 371030 298308 293982 290277 176419 147481 143796 134938 123356 107944 105895 91366.7 88254.4 77030.6 73105.2 105470 74489.5 88529.8 79902.7 68420.3 65116.8 56794.4 56647.9 55486.3 52285
threshold=2.5000000000000004 1.0000000180025095e-35 8.5000000000000018 1.0000000180025095e-35 3.5000000000000004 1.0000000180025095e-35 24.500000000000004 1.5000000000000002 4.5000000000000009 1.0000000180025095e-35 1.5000000000000002 10.500000000000002 1.5000000000000002 0 4.5000000000000009 1.0000000180025095e-35 1.0000000180025095e-35 1 1.5000000000000002 2 3 4 5 6 1.0000000180025095e-35 13.500000000000002 7 3.5000000000000004 1.5000000000000002 2.5000000000000004
decision_type=2 2 2 2 2 2 2 2 2 2 2 2 2 9 2 2 2 9 2 9 9 9 9 9 2 2 9 2 2 2
left_child=1 3 8 5 7 9 25 10 14 13 16 -6 18 -1 27 19 -3 -7 -5 -15 -21 -22 -23 -24 26 -4 -25 -2 -19 -9
right_child=2 4 6 12 11 17 -8 29 -10 -11 -12 -13 -14 15 -16 -17 -18 28 -20 20 21 22 23 24 -26 -27 -28 -29 -30 -31
leaf_value=0.076725140463055286 0.012313425917365299 -0.045456347820649889 0.078747875367405726 -0.044740235552398408 0.029085229235218071 0.11457127081753378 0.14196116291528782 0.0022233488424826626 0.063148194515572006 -0.049596270377019934 -0.00039472767859966262 0.088432375840332408 0.0040027756535417963 0.048253593993241486 0.050263242850782236 -0.058147948963786569 -0.019413173745306041 -0.047242933640971194 -0.015605660829849918 0.044664680524127337 0.042649958421019547 0.040054128060593629 0.037559267954754685 0.035818763891747936 -0.068146035343553388 0.10613769402074283 -0.10382599756363363 0.036918454791203356 -0.009815228370105936 0.027929710692291027
leaf_weight=45347.477967232466 3359672.3609309793 2761371.5416804254 2232026.235437423 2229644.8336589336 2681680.6249311566 37204.519728660583 1532928.2727137208 2411139.498236537 3374031.0101268589 1480340.8541030288 1906869.3347421587 481590.53547459841 1347204.4193046391 35997.131665736437 1468192.8493609726 970367.42489102483 2630221.240334481 2196619.6148401201 1530389.2461054325 53806.574652016163 38494.022577732801 46798.201377093792 43119.183743447065 29296.807003438473 634262.4260301888 1420324.8748179078 4976610.7400560379 1296895.8756935 483231.45654147863 1177670.7952355146
leaf_count=21655 2608670 3608232 728154 3033419 1624445 12468 189794 2029980 1397068 2141322 1667017 150150 1175994 28091 690535 1525581 2745858 3011007 1622866 42821 31412 46321 41817 30420 1036660 308884 10909710 746644 491477 750018
internal_value=0 -0.0303334 0.0626694 -0.0555334 -0.00131648 -0.0704706 0.104938 -0.0127748 0.0395954 -0.0809104 -0.0242977 0.0381205 -0.0231524 -0.087654 0.0266206 -0.0887455 -0.0327515 -0.0383702 -0.032882 -0.0938138 -0.094692 -0.095992 -0.0969234 -0.0980514 -0.0990882 0.0893992 -0.103009 0.0191661 -0.0404938 0.0106589
internal_weight=0 3.02293e+07 1.46841e+07 1.61787e+07 1.40505e+07 1.10715e+07 5.18528e+06 1.08873e+07 9.49879e+06 8.35444e+06 7.29846e+06 3.16327e+06 5.10724e+06 6.8741e+06 6.12476e+06 6.82875e+06 5.39159e+06 2.71706e+06 3.76003e+06 5.85839e+06 5.82239e+06 5.76858e+06 5.73009e+06 5.68329e+06 5.64017e+06 3.65235e+06 5.00591e+06 4.65657e+06 2.67985e+06 3.58881e+06
internal_count=44448490 37778741 6669749 25203041 12575700 19370762 1226832 10801105 5442917 15855810 8021107 1774595 5832279 13714488 4045849 13692833 6354090 3514952 4656285 12167252 12139161 12096340 12064928 12018607 11976790 1037038 10940130 3355314 3502484 2779998
cat_boundaries=0 79 156 242 311 388 465 548 628
cat_threshold=0 0 0 0 0 0 0 0 0 0 0 0 134217728 1048576 0 0 0 0 0 0 0 1073873920 2097152 0 0 16384 16384 1073741824 2064 256 0 0 2 0 8388608 0 32768 0 0 0 67108864 8192 32 262144 516 0 0 0 0 0 0 0 0 0 0 512 0 0 0 0 0 0 0 16 0 268435460 0 0 1 0 0 67108864 1107296256 0 0 2 524288 0 8192 0 0 0 0 0 0 4194304 0 0 0 0 0 0 0 0 0 0 0 0 4096 0 1073741824 268435456 0 0 0 16384 1073741825 16 8196 268435456 0 0 1074004992 4194304 0 32896 33024 0 0 1048576 4195330 131104 0 135168 0 0 0 0 0 0 0 0 0 0 0 0 0 0 0 0 0 0 0 0 268435456 0 0 0 0 0 0 1073741824 1024 0 0 524288 8 16777216 0 2 2147483648 67108864 16 0 0 0 0 0 0 0 0 0 0 0 0 8320 0 67176448 128 21504 0 32768 256 0 0 0 1048576 0 0 264192 0 0 0 32768 0 65536 16384 4194304 0 0 0 0 0 0 0 0 0 0 0 0 0 0 0 0 0 0 0 0 0 0 4 0 0 0 0 8388608 0 0 512 525312 0 2147483648 0 4 0 0 0 0 0 0 0 33554432 0 4096 2147483648 0 0 0 0 0 0 0 0 0 0 0 0 0 0 1074266112 0 0 136 0 65536 0 0 0 8192 64 67109120 12 16777216 16777216 0 1024 32768 17041408 64 67108864 2147483648 536870912 1024 0 1 33554433 163840 0 0 0 0 0 0 0 0 0 0 0 0 0 0 0 0 0 0 0 64 0 0 0 524288 33554432 0 524288 0 0 0 0 0 0 0 64 0 0 0 0 0 268435456 0 0 0 0 0 512 128 0 8192 0 536870912 32768 196608 805339136 67117056 1 33554432 0 65536 130 4 8 1 8192 0 0 0 0 16 0 0 0 0 0 0 0 0 0 0 0 0 0 0 0 0 0 0 0 16777216 0 16 0 0 0 1 0 0 8192 131072 2 0 256 0 0 0 0 0 1024 0 0 4194304 0 0 0 0 0 0 0 0 4096 1048576 0 536870912 0 8192 0 0 0 536870912 1073741824 1 524288 545259520 0 33554433 0 0 64 0 0 0 8 592 32768 524288 2048 0 2147483648 0 0 1024 0 0 2 0 0 8388736 0 0 0 0 0 0 0 0 134217728 0 0 0 0 0 0 537133056 0 0 0 33554432 0 0 0 0 1090519040 1074790912 0 0 0 0 0 0 8192 0 128 1024 512 4096 0 536870912 0 0 276824064 0 0 0 0 0 0 0 16384 0 0 1 138412032 0 67108864 4352 0 0 0 67108864 0 4194304 8388864 0 0 0 0 0 0 0 0 524288 0 0 0 0 0 0 0 0 0 0 0 0 0 0 0 0 262144 134217984 0 0 32768 69206016 0 0 0 0 0 0 524288 0 0 0 2048 16384 262144 4096 0 1048576 2 0 16384 0 0 0 134217728 0 0 0 0 0 134217728 0 0 4194304 2147483652 33685504 4194304 0 8192 0 0 0 16432 0 0 0 0 0 4 0 0 1179648 1048578 32 0 0 0 0 0 0 0 0 0 0 0 0 0 0 0 0 0 0 0 0 0 0 4 262144 0 0 0 525312 0 0 64 0 0 2048 1
is_linear=0
shrinkage=0.1


Tree=10
num_leaves=31
num_cat=8
split_feature=23 14 25 19 26 14 20 13 13 17 17 19 24 20 0 26 3 0 21 16 14 21 3 13 3 0 1 0 26 14
split_gain=7.15851e+06 1.95986e+06 1.25954e+06 983644 393000 293378 289603 216095 214132 167860 126167 123740 111230 101717 95656.6 78564.1 70900.7 70744.6 64534.5 55825.3 54100.5 51459.1 49763.3 47538.1 46315.8 44363.5 44510.8 46783 44321.1 43993.4
threshold=2.5000000000000004 1.5000000000000002 10.500000000000002 1.0000000180025095e-35 1.0000000180025095e-35 6.5000000000000009 5.5000000000000009 28.500000000000004 1.0000000180025095e-35 1.5000000000000002 1.0000000180025095e-35 3.5000000000000004 3.5000000000000004 1.0000000180025095e-35 0 2.5000000000000004 1 2 1.0000000180025095e-35 1.5000000000000002 15.500000000000002 1.0000000180025095e-35 3 6.5000000000000009 4 5 6 7 16.500000000000004 11.500000000000002
decision_type=2 2 2 2 2 2 2 2 2 2 2 2 2 2 9 2 1 9 2 2 2 2 1 2 1 9 1 9 2 2
left_child=1 3 6 4 8 11 12 28 10 13 14 16 22 -5 -1 21 -3 -16 25 -18 -7 -6 -2 -10 -15 -19 -27 -28 -4 -8
right_child=2 5 7 9 15 20 29 -9 23 -11 -12 -13 -14 24 17 -17 19 18 -20 -21 -22 -23 -24 -25 -26 26 27 -29 -30 -31
leaf_value=0.075081173468131313 0.035590873202719683 0.017363817055887628 0.080548579773676132 -0.038602729835389649 -0.049624457367074659 0.04951258464120456 0.057476899283923591 0.14178443665318846 -0.044646486071359501 0.0062269868486843002 -0.049213036825415529 0.033098426235515815 0.044056508110144957 0.0029490743268537627 -0.15779551194952723 -0.0020663660975892653 -0.017544615489241272 -0.15219558814862064 -0.057120945160130068 0.0065770013084401752 0.1020834657163605 -0.023371498156158174 0.011631903331007996 0.057272849507436309 -0.02250047717031179 -0.070637850926347709 0.051503182609573872 -0.092070810736313985 0.10569317055511583 0.084548685445639704
leaf_weight=37780.827338755131 1193494.3990756273 1631666.0245418847 1742938.5050236583 2843103.2117685974 1862259.1944141686 912581.65161973238 2503250.6312207878 1154128.493149817 2146915.272352308 2426692.9329940379 1281700.9152443111 1399161.8011598289 2685663.4226594269 1207645.9583726823 129039.10648551583 702294.40961760283 2286972.71319291 102310.02902632952 836006.35382509232 1652853.0027491152 249211.09920793772 1246309.3828976452 3168149.6757459939 46761.252132058144 1753335.329272747 1434273.189776361 22826.612618595362 3891759.0588123202 1172635.1819565296 789632.99122777581
leaf_count=16927 766223 1279687 523157 3740478 2643786 428811 1024523 130577 2876816 1997978 1934429 783269 1359447 1120429 366380 648788 2300451 284356 1354920 1261202 63600 1444002 2407963 24539 1881816 2870255 19948 8434931 239508 219294
internal_value=0 -0.0276735 0.0580338 -0.043197 -0.0595734 0.0142655 0.0394859 0.10516 -0.0700507 -0.0158588 -0.0778709 0.00651143 0.0280462 -0.0250929 -0.083562 -0.0322743 -0.000165327 -0.0844962 -0.0829915 -0.00742499 0.0607893 -0.0390989 0.018188 -0.0424739 -0.0121209 -0.0869592 -0.085711 -0.0912335 0.0906617 0.0639687
internal_weight=0 3.01035e+07 1.44099e+07 2.1971e+07 1.37402e+07 8.13245e+06 1.03402e+07 4.0697e+06 9.92937e+06 8.23078e+06 7.7357e+06 6.97065e+06 7.04731e+06 5.80408e+06 6.454e+06 3.81086e+06 5.57149e+06 6.41621e+06 6.28718e+06 3.93983e+06 1.16179e+06 3.10857e+06 4.36164e+06 2.19368e+06 2.96098e+06 5.45117e+06 5.34886e+06 3.91459e+06 2.91557e+06 3.29288e+06
internal_count=44448490 37777798 6670692 31660778 22920077 6117020 5777450 893242 18183501 8740701 15282146 5624609 4533633 6742723 13347717 4736576 4841340 13330790 12964410 3561653 492411 4087788 3174186 2901355 3002245 11609490 11325134 8454879 762665 1243817
cat_boundaries=0 79 80 175 176 177 271 272 358
cat_threshold=0 16777216 0 0 0 67108864 4194304 0 0 0 0 0 0 0 0 0 0 0 0 0 0 1073742848 512 0 0 16384 24576 1073741825 16 0 0 8396800 0 16384 8388608 0 32768 0 0 0 67108864 1024 32 0 1024 0 0 0 0 0 0 0 0 0 0 0 0 0 0 0 0 0 0 16 0 268435460 0 16 524288 0 0 0 1107296768 1024 0 0 524288 0 8192 6 0 0 0 134217728 0 0 0 0 0 0 0 0 0 2147483648 4194304 0 0 131072 0 0 0 0 0 0 0 0 1 0 0 0 0 0 0 0 0 0 0 0 0 0 0 0 0 0 0 0 65536 0 0 0 0 1024 0 0 2048 8 0 0 0 0 2048 524288 0 0 16385 0 512 0 0 0 0 0 0 0 0 0 0 0 256 8388608 32768 402669568 33554496 16777216 128 16384 33554432 67108864 4194304 0 0 4096 1 4 67108864 6 6 0 0 8192 0 0 0 16777216 2097152 0 0 0 0 0 0 0 0 2 134217984 0 0 0 0 0 0 0 0 0 0 0 0 0 0 0 0 0 0 0 0 0 16 0 0 0 0 0 0 262144 128 260 0 8388608 32768 268435456 0 0 0 2048 0 0 0 65536 0 4 65576 0 0 0 0 0 0 0 1048576 16777216 131072 0 268435456 0 0 0 0 0 16777216 0 67108868 0 8388608 0 0 1073741824 16777216 0 0 256 4096 37 33619968 0 65536 0 256 0 0 0 262144 0 0 0 0 0 0 0 512 1073741824 0 8320 0 512 0 1152 0 0 131072 0 32768 0 0 0 8388609 1024 0 262144 0 0 0 65536 16 2 0 33554432 256 0 128 0 0 0 0 0 0 0 0 0 0 0 0 0 0 0 0 4096 67108928 0 0 0 0 0 8 1 0 0 0 262144 0 0 0 0 0 0 524288 0 0 33554432
is_linear=0
shrinkage=0.1


Tree=11
num_leaves=31
num_cat=9
split_feature=22 14 26 25 13 17 18 18 26 0 20 25 15 0 0 0 14 23 16 3 0 0 0 13 20 3 24 17 18 23
split_gain=6.03354e+06 1.61892e+06 1.08073e+06 580690 440460 268934 248146 221960 204048 151502 129429 112080 105219 93475.8 96718.5 101234 92786.2 91736.9 81681.7 66085.1 64118.1 74403.9 67395.3 60846.4 59316.6 56761.1 50450.6 49473.2 45244.4 45035.4
threshold=2.5000000000000004 1.0000000180025095e-35 10.500000000000002 1.0000000180025095e-35 3.5000000000000004 1.0000000180025095e-35 5.5000000000000009 1.5000000000000002 31.500000000000004 0 1.0000000180025095e-35 2.5000000000000004 1.5000000000000002 1 2 3 9.5000000000000018 4.5000000000000009 1.0000000180025095e-35 4 5 6 7 1.0000000180025095e-35 1.0000000180025095e-35 8 1.5000000000000002 3.5000000000000004 4.5000000000000009 1.0000000180025095e-35
decision_type=2 2 2 2 2 2 2 2 2 9 2 2 2 9 9 9 2 2 2 1 9 9 9 2 2 1 2 2 2 2
left_child=1 3 6 5 7 9 17 12 -4 -1 13 24 19 -11 -15 -16 -6 25 20 -3 -17 -22 -23 29 -5 -2 -21 -7 -9 -24
right_child=2 4 8 11 16 27 -8 28 -10 10 -12 -13 -14 14 15 18 -18 -19 -20 26 21 22 23 -25 -26 -27 -28 -29 -30 -31
leaf_value=0.077835316216727346 0.036027922454281096 -0.010057432871445227 0.084251300310691626 -0.039100564946307349 0.028064379837850914 -0.036156985966891257 0.059322138858990375 0.004820699652678651 0.13547463023106929 0.057935375169204432 -0.043586244764672558 0.0062782681570711157 -9.9459780765268936e-05 0.0535681784341447 0.050393347474058436 0.048486656354463982 0.079869649953014488 0.04414341840785653 -0.051811042662102604 -0.040256989169832912 0.046170059107218241 0.043842979114307429 -0.094352561291003251 -0.059940729626104264 -0.014689808527007117 0.012294610933143699 -0.011592010548206364 0.013860788902415469 0.031732233827265442 -0.062239843738269823
leaf_weight=69482.743207663298 1389924.5452981293 1640697.9613174498 2885030.3030568361 2197043.4653103352 2272441.4232738614 2303964.8287536204 3268707.9542369545 3048340.2563289702 1064654.4467606843 51434.410582989454 1470538.7164692283 1247024.5750878751 2053430.8809915185 55916.497358232737 60370.353760570288 36190.162836313248 407766.47892779112 1995462.249589473 904784.16041505337 2901021.1484215558 42880.497126847506 39650.665113061666 4292851.3751922548 722050.03440612555 1820077.371686995 3664591.1969400048 778828.94117498398 216319.07332381606 785756.05433022976 486175.51949065924
leaf_count=29238 863586 1796179 752349 3033694 1296919 3113872 1242840 2486627 129046 34173 2123798 1042381 1808764 41313 54594 38031 121610 971102 1425349 3820075 44673 41119 10093467 1099558 1938611 2710977 779786 184969 465268 864522
internal_value=0 -0.0254579 0.0535748 -0.0471238 -0.000471503 -0.0604465 0.0365477 -0.00918009 0.0980588 -0.069197 -0.0704485 -0.0199107 -0.0193274 -0.0763512 -0.0773913 -0.0785034 0.035946 0.0259884 -0.0796961 -0.0267483 -0.0841857 -0.0850456 -0.0860612 -0.0869976 -0.0280405 0.0188211 -0.03419 -0.0318639 0.0103359 -0.0910857
internal_weight=0 2.9905e+07 1.42684e+07 1.60168e+07 1.38883e+07 1.07526e+07 1.03187e+07 1.12081e+07 3.94968e+06 8.23233e+06 8.16284e+06 5.26415e+06 7.37398e+06 6.6923e+06 6.64087e+06 6.58495e+06 2.68021e+06 7.04998e+06 6.52458e+06 5.32055e+06 5.6198e+06 5.58361e+06 5.54073e+06 5.50108e+06 4.01712e+06 5.05452e+06 3.67985e+06 2.52028e+06 3.8341e+06 4.77903e+06
internal_count=44448490 37778590 6669900 25203362 12575228 19188676 5788505 11156699 881395 15889835 15860597 6014686 8204804 13736799 13702626 13661313 1418529 4545665 13606719 6396040 12181370 12143339 12098666 12057547 4972305 3574563 4599861 3298841 2951895 10957989
cat_boundaries=0 79 158 231 310 311 387 463 536 537
cat_threshold=8 512 524288 0 2147483648 0 0 0 0 0 0 0 0 0 0 0 0 0 0 4096 0 1073741824 268566528 0 0 16384 16448 1073741824 16 4 268435456 0 0 262144 0 0 32768 256 8 0 1064960 0 131104 0 4096 0 0 0 0 0 0 0 0 0 0 0 0 0 0 0 0 0 0 16 0 268435456 0 0 0 0 0 0 33554432 0 0 2097152 524418 0 8192 0 0 0 0 0 0 4194320 0 0 0 0 0 0 0 0 0 0 0 0 0 0 0 128 4096 0 0 0 0 2048 0 0 532480 2 1073743872 8429568 0 128 32768 0 0 67108864 4202496 1 262144 131588 0 0 0 0 0 0 0 0 0 0 512 0 0 0 0 0 0 0 0 0 16777216 0 0 1 0 0 131072 1073741824 0 0 2147483650 0 0 2147484672 0 256 0 2050 0 0 0 0 0 0 0 0 134225920 1048576 0 0 268435456 0 0 0 0 67240960 0 0 0 0 33554432 0 536871168 8456 0 0 0 0 4194304 0 2 0 2147483648 1 8192 1024 0 4194305 0 0 0 2147483648 0 0 0 0 0 0 0 0 8388736 0 0 0 0 0 0 0 4 16384 0 0 0 0 0 201326592 262144 0 0 0 0 0 0 0 0 0 0 0 16384 0 0 0 1024 0 524288 0 0 8 67584 0 16384 0 0 256 536870912 0 0 554745856 92274688 1 33 33554432 8 0 4 0 536870912 0 8 512 0 0 0 0 0 0 0 1024 0 0 0 0 0 0 0 0 0 0 0 0 0 0 0 0 0 0 8388608 0 536870912 512 0 0 0 0 4 131072 6 33619968 4096 0 0 1073741824 0 0 0 0 0 0 0 0 0 0 0 0 0 0 128 0 134742016 536870912 0 0 40960 131216 0 0 1073741824 1 0 536870912 0 0 0 69206080 64 0 0 32768 0 16 0 557056 2064 0 0 0 0 0 0 0 0 0 65536 64 0 0 0 0 0 0 0 4194304 0 0 0 0 0 0 0 0 524288 8192 131072 0 16777216 2147483648 0 256 1048576 0 0 0 0 4194368 0 0 0 128 0 0 0 0 0 0 0 512 512 0 0 0 0 64 65536 0 0 0 33555456 1 16842752 0 4194304 0 65540 16 0 64 1081344 0 0 0 0 0 0 0 0 2097152 526338 0 0 0 0 0 0 0 0 0 0 0 2147483648 0 0 0 0 8 0 524288 0 32768 64 0 0 0 0 0 512 0 1024 1048576 2 33554432 0 0 0 0 0 0 1073741824 0 536879104 0 0 81920 33792 4202496 2147483648 2048 192 32768 131072 0 0 0 0 0 264192 0 83886080 0 0 1024 67108864 0 0 8388864 0 0 0 0 0 0 0 512 0 0 0 0 0 0 0 0 0 0 0 0 0 0 16 0 0 0 1 536870912 6
is_linear=0
shrinkage=0.1


Tree=12
num_leaves=31
num_cat=10
split_feature=16 21 13 16 24 18 26 26 13 26 15 15 0 0 24 21 3 0 0 0 0 0 22 3 15 3 26 22 23 18
split_gain=5.09652e+06 1.57485e+06 747156 732610 381730 179370 179014 158928 157922 150100 98898.7 95760.6 76406.2 72873.1 72293.7 70908.2 62559.5 60991.1 57263.6 85609.7 65771.4 69464.6 62165.2 55998.2 55994.4 44610.4 40233 36612.4 35326.3 34912.3
threshold=3.5000000000000004 1.5000000000000002 1.0000000180025095e-35 13.500000000000002 1.0000000180025095e-35 1.0000000180025095e-35 3.5000000000000004 6.5000000000000009 36.500000000000007 2.5000000000000004 1.5000000000000002 1.0000000180025095e-35 0 1 2.5000000000000004 4.5000000000000009 2 3 4 5 6 7 1.0000000180025095e-35 8 5.5000000000000009 9 8.5000000000000018 1.0000000180025095e-35 1.5000000000000002 22.500000000000004
decision_type=2 2 2 2 2 2 2 2 2 2 2 2 9 9 2 2 1 9 9 9 9 9 2 1 2 1 2 2 2 2
left_child=1 2 4 7 5 11 15 24 29 10 16 12 -1 -14 27 23 -4 -15 -19 -20 -21 -22 25 -3 -2 -23 -8 -6 -25 -5
right_child=3 6 9 8 14 -7 26 -9 -10 -11 -12 -13 13 17 -16 -17 -18 18 19 20 21 22 -24 28 -26 -27 -28 -29 -30 -31
leaf_value=0.0853366107261221 0.025046982173805594 0.016681456424180841 -0.03523400308245439 0.07745190035792919 -0.038942312768211362 -0.033885052204083284 0.029483253658968641 0.061196188470711101 0.13715743243649456 0.015419397310646628 0.00078996624653293742 -0.041832126601658491 -0.14831094228711353 0.04989091761708872 0.0039044680684058673 0.026903866019270389 -0.014077313309241358 0.046419585884320602 0.0441963536890327 0.042498183266372412 0.040447046028673411 -0.065826140797516183 -0.050118161612577233 -0.013741528072831369 0.047091454284034079 -0.085990415043012289 0.058146186562142578 -0.017538256690330239 0.0055497118296636144 0.10355047252699806
leaf_weight=30818.1513055861 3739952.4190776348 1589138.4531567991 2865560.4698422551 1645207.0719318688 1844446.4304779768 2130654.4938415587 1968629.6579407752 2798823.7897915244 789968.16992980242 1626538.0446774065 2043570.9062409699 1288739.111089468 124275.00997146964 41471.594543725252 798820.52360647917 1292307.2406093776 2728483.2203303576 40711.989010542631 62152.383769989014 48268.874956399202 51939.686441779137 1586688.1756972075 819430.44801646471 2248161.6522989571 1665315.6098560095 3559425.9809616804 651870.3545999229 1410161.3873325586 1642946.6310616136 744510.8326382339
leaf_count=11246 2316578 1278297 3534722 456098 2665830 2916779 1095019 941602 84677 1129795 1751838 1934080 382611 30118 749597 821554 2997257 33724 55809 47229 51207 3338836 1351239 2308477 711909 8148564 245156 1631798 1292488 134356
internal_value=0 -0.020105 -0.0341424 0.0576472 -0.0488569 -0.059547 0.01442 0.041854 0.0983962 -0.0121631 -0.0180372 -0.0666906 -0.0717236 -0.0724878 -0.023052 0.00583267 -0.024915 -0.0709702 -0.0717828 -0.0725682 -0.0737647 -0.0746973 -0.0756999 0.000863832 0.0318387 -0.0797735 0.0366134 -0.0296683 -0.00559615 0.0855828
internal_weight=0 3.24952e+07 2.31022e+07 1.13838e+07 1.3838e+07 9.78458e+06 9.39305e+06 8.20409e+06 3.17969e+06 9.26415e+06 7.63761e+06 7.65392e+06 6.36518e+06 6.33436e+06 4.05343e+06 6.77255e+06 5.59404e+06 6.21009e+06 6.16862e+06 6.12791e+06 6.06575e+06 6.01748e+06 5.96554e+06 5.48025e+06 5.40527e+06 5.14611e+06 2.6205e+06 3.25461e+06 3.89111e+06 2.38972e+06
internal_count=44448490 39803270 32762279 4645220 23348667 18301442 7040991 3970089 675131 9413612 8283817 15384663 13450583 13439337 5047225 5700816 6531979 13056726 13026608 12992884 12937075 12889846 12838639 4879262 3028487 11487400 1340175 4297628 3600965 590454
cat_boundaries=0 79 174 175 254 333 407 482 568 569 570
cat_threshold=0 0 524288 2 1073741824 0 0 0 0 0 0 0 0 0 0 0 0 524288 0 0 0 1207959552 2228224 0 0 16384 0 1073741825 16 0 268435456 8192 0 262144 0 0 32768 0 0 0 0 0 32 0 4128 0 0 2147483648 0 0 0 0 0 0 0 0 131072 0 0 0 0 0 0 16 0 268435456 0 0 0 0 0 131072 1107296256 0 0 1026 34078848 0 8192 0 0 0 0 0 0 0 0 0 0 0 0 0 2147483648 0 0 0 0 0 0 0 0 0 0 0 0 1 0 0 0 0 0 0 0 0 0 0 0 0 16 0 0 0 0 0 0 65536 0 256 0 0 1024 0 0 2048 8 0 0 8388608 0 2048 524288 0 0 16384 0 512 0 0 0 0 0 0 0 0 0 0 0 256 8388608 32768 268451840 33554496 16779264 128 16384 33554432 67108864 4194304 16777216 0 4096 1 4 67108864 120 0 4608 0 0 0 0 4194304 0 0 0 0 0 8192 1048576 0 0 268435456 0 0 0 0 0 0 0 0 0 64 0 0 0 17825792 0 0 1073741824 4227072 0 128 256 0 0 1064960 1026 0 0 131072 67108864 1048576 0 0 0 0 0 0 0 0 512 0 0 0 0 0 0 0 0 0 16777216 0 0 1 0 8 0 512 0 0 2149580800 2 4 2147484672 65536 0 0 2048 16384 0 0 0 0 0 0 0 134217728 0 0 0 0 0 0 4096 128 139264 16384 0 0 32768 147456 0 67108864 0 32768 524288 2 0 134217728 0 2097154 67141632 8 0 67108864 0 0 0 33792 16 0 0 0 0 0 0 0 0 0 0 128 0 0 0 0 0 0 0 0 2147500032 0 0 0 0 262144 0 0 524288 0 0 0 0 131072 8 134217984 0 16384 0 0 16 0 0 0 0 0 0 0 0 0 0 0 0 0 0 0 0 129 0 0 8192 4194336 536873216 8196 0 0 0 2048 8192 0 0 0 0 1 0 4194304 1179649 1 0 0 0 0 0 0 0 0 0 0 0 65536 64 0 0 0 0 0 0 0 131140 0 0 4 0 0 0 134217728 262144 1024 0 0 0 0 2147483648 131072 4096 4096 0 0 0 0 0 0 0 0 0 4096 0 0 0 67110912 268435584 53248 0 4 16 0 0 65544 8 8388608 1 0 8388608 8 67108864 4096 0 536870912 0 8192 0 4194304 4 0 0 0 0 0 0 1073741824 0 0 0 2097152 0 0 0 0 0 0 0 0 0 0 0 0 524288 0 0 0 536870912 0 8192 1073741824 0 65538 0 0 0 0 0 0 0 33554496 0 0 0 0 0 0 0 0 128 8 65536 0 0 0 0 33554432 0 64 67111168 0 16777216 8388608 1024 0 65536 0 134217728 2147483648 0 16 0 16 33554432 512 0 0 0 0 0 1024 0 0 0 0 0 32 0 0 0 0 0 0 0 8388608 4 0 16 0 8388608 0 0 1024 0 0 0 0 0 64 0 0 0 0 0 0 33554432 6 6
is_linear=0
shrinkage=0.1


Tree=13
num_leaves=31
num_cat=12
split_feature=19 16 19 23 16 13 18 13 26 23 19 0 15 16 17 0 22 13 0 0 25 1 3 0 0 0 0 20 3 3
split_gain=4.24167e+06 1.28932e+06 642491 496257 324001 236228 160924 157848 151605 115519 113396 85220.9 87640.3 83044.2 80477.5 70472 63276.6 62884 57475.4 50539.5 46987.5 45950.5 44222.2 43126.8 38472.7 48202.3 48220.5 39909.6 37459.6 36684.7
threshold=3.5000000000000004 1.0000000180025095e-35 16.500000000000004 1.0000000180025095e-35 3.5000000000000004 1.5000000000000002 1.5000000000000002 6.5000000000000009 1.0000000180025095e-35 3.5000000000000004 42.500000000000007 0 1.0000000180025095e-35 9.5000000000000018 1.0000000180025095e-35 1 1.5000000000000002 8.5000000000000018 2 3 5.5000000000000009 4 5 6 7 8 9 1.0000000180025095e-35 10 11
decision_type=2 2 2 2 2 2 2 2 2 2 2 9 2 2 2 9 2 2 9 9 2 1 1 9 9 9 9 2 1 1
left_child=1 3 7 5 6 8 14 20 11 16 -4 -1 15 -6 28 -13 22 -7 -17 -20 -2 -21 -5 -10 -23 -26 -27 -28 -3 -16
right_child=2 4 10 9 13 17 -8 -9 23 -11 -12 12 -14 -15 29 18 -18 -19 19 21 -22 24 -24 -25 25 26 27 -29 -30 -31
leaf_value=0.061959358432488378 0.023676211398892723 -0.0096481277091928479 0.084657635703765444 -0.0095041071735407455 0.021525769628544789 -0.015014099466945 0.0095776594069296554 0.057167690323968734 0.11297653621257614 0.023202167471731979 0.13324606011152526 -0.14346117016381027 -0.039158340211371816 0.062757804190308852 0.010654980605884675 -0.1356188367660954 0.0007145855252992583 0.078471594464963559 -0.13232656419596989 -0.049324649789265908 0.043607850786852947 0.052640358771974753 -0.033503575304707059 -0.033934206495349103 0.04526443437283087 0.041047626913915086 -0.075880796134791997 -0.04802757839039698 -0.032506838248895074 -0.010814291793925125
leaf_weight=55012.720017671585 3925831.5208105147 1011049.0400259495 1833941.7015883029 1129799.7384077609 3123723.474509865 1188966.2993656993 4290219.9047035277 3326113.5451452732 20151.352353155613 749576.32298973203 650758.88967403769 120868.65941342711 1283986.2417298555 579015.81740155816 1078158.5951499343 117501.54604394734 1206852.1549737751 76588.08904582262 109460.39245310426 1607347.7164491415 1692743.8227813244 25777.670262902975 2396282.0472783744 2259287.4204634726 36042.016204953194 38149.00564545393 3588915.9175216556 600506.9060601294 2464372.6375759542 3039850.4135999382
leaf_count=39497 2355445 1170328 406859 1298632 1982780 1213480 3297347 1105093 6778 544107 71672 382877 1924007 226961 959207 348300 1109756 28555 315757 3140563 708497 22067 3212768 3079636 38113 37077 8120358 974708 3249491 3077774
internal_value=0 -0.0185142 0.0523983 -0.0378982 0.00214408 -0.05003 -0.0059039 0.0399021 -0.0552489 -0.0132728 0.0973833 -0.0620461 -0.0629522 0.0279734 -0.0146508 -0.0678448 -0.0190494 -0.00935659 -0.0663519 -0.0649966 0.0296811 -0.0637465 -0.025814 -0.0326351 -0.0691507 -0.0698871 -0.070869 -0.0718882 -0.025857 -0.0051933
internal_weight=0 3.21975e+07 1.14294e+07 1.66111e+07 1.55864e+07 1.11286e+07 1.18837e+07 8.94469e+06 9.86301e+06 5.48251e+06 2.4847e+06 7.58357e+06 7.52856e+06 3.70274e+06 7.59343e+06 6.24457e+06 4.73293e+06 1.26555e+06 6.1237e+06 6.0062e+06 5.61858e+06 5.89674e+06 3.52608e+06 2.27944e+06 4.28939e+06 4.26361e+06 4.22757e+06 4.18942e+06 3.47542e+06 4.11801e+06
internal_count=44448490 39800924 4647566 25837036 13963888 19671773 11754147 4169035 18429738 6165263 478531 15343324 15303827 2209741 8456800 13379820 5621156 1242035 12996943 12648643 3063942 12332886 4511400 3086414 9192323 9170256 9132143 9095066 4419819 4036981
cat_boundaries=0 79 174 268 362 363 364 443 529 602 678 679 680
cat_threshold=0 2097152 0 0 0 0 16 0 0 0 0 0 0 0 0 0 0 0 0 0 0 1073741824 2097152 0 0 16384 256 1610612801 16 0 536887297 0 536870912 0 0 16777216 32768 4 0 0 8192 8 0 262144 0 2048 0 0 0 0 0 1073741824 0 2048 0 0 0 0 0 0 0 0 0 16 0 268435456 0 0 0 0 0 0 1107296256 0 0 1026 524288 0 131072 0 0 0 0 0 0 0 0 0 0 0 0 0 2147483648 0 0 0 131072 0 0 0 0 0 0 0 0 1 0 0 0 0 0 0 0 0 0 0 0 0 0 0 0 0 0 0 0 327680 0 0 0 8192 1024 268435456 0 2048 8 2048 0 0 1572864 2048 524288 4 0 16384 0 0 0 0 0 0 0 0 0 0 0 0 0 256 8388608 32768 402669632 64 0 192 16384 0 0 4194304 0 0 0 1 4096 67108864 0 0 0 134217728 0 0 16777216 2097152 0 0 0 0 0 0 0 0 0 0 0 0 0 0 0 0 0 0 0 0 0 0 0 0 0 0 0 0 0 0 0 0 0 0 0 0 0 16384 0 0 0 0 8388608 32768 0 262144 4 0 0 0 67108864 2048 66048 0 0 0 1 0 512 0 0 0 0 1048576 0 0 0 0 0 0 0 2048 128 0 33554432 83888128 0 12582912 33554432 67108868 33554432 16809984 0 4096 131072 4 0 0 8192 0 0 0 0 0 0 0 0 0 0 0 4194304 0 0 134217728 0 0 0 0 0 0 0 0 0 0 0 0 0 0 0 0 0 0 0 0 0 16 0 0 0 0 0 0 0 128 260 1 0 0 0 0 0 16 0 536870976 8388608 0 4096 0 0 65536 0 0 0 0 0 4194304 0 0 16777216 0 16 268435456 0 0 0 0 0 18874368 131082 4 1048576 0 1024 2147483648 1048576 0 0 131072 65792 16384 37 6 0 0 0 0 0 0 0 0 0 0 0 0 0 0 0 0 0 131072 0 4096 0 1073742848 268566528 0 0 0 16384 1073741824 16 8196 268435456 0 0 1074003969 4227072 0 32896 33024 8 0 0 1024 131104 0 4096 0 0 0 0 0 0 0 0 0 0 0 0 0 0 0 0 0 0 0 0 0 0 0 0 0 0 0 33554432 1024 0 2 524416 0 8192 33554432 134217728 67174400 0 0 0 0 0 262144 0 4194304 0 0 0 0 0 512 1073741824 0 0 0 1024 196608 1024 0 0 0 0 32768 131072 0 8388608 8388608 2147483680 0 262144 0 0 0 0 0 1024 0 33554432 1024 0 128 0 0 0 0 0 0 0 0 0 0 0 0 0 0 0 0 4096 64 0 0 0 0 0 8 1 0 1024 0 262144 33554432 0 0 0 0 0 524288 0 0 33554432 0 0 2148007936 16386 64 1048576 0 0 1048576 0 0 16384 0 1048576 0 134217728 268435456 0 0 536870912 0 512 545259520 128 0 2147483648 0 0 67108864 1024 0 0 67108865 66561 0 0 0 138412032 0 0 67108864 0 0 0 260 0 0 0 0 0 0 0 0 0 0 0 8388608 0 0 0 0 0 0 0 0 16 0 0 0 0 0 0 4096 0 0 131072 0 16384 0 4096 4096 0 0 0 0 0 0 0 0 0 0 0 8192 0 8192 64 20480 0 0 2048 4194304 0 4 0 0 1048576 0 1 2048 128 0 0 65536 32784 71311362 0 32768 8421376 0 0 0 0 131072 0 0 0 0 0 0 0 0 0 0 0 0 0 0 0 16777216 128 0 0 0 0 134217984 0 0 0 131072 6 6
is_linear=0
shrinkage=0.1


Tree=14
num_leaves=31
num_cat=14
split_feature=15 24 15 19 14 25 13 24 22 20 0 0 0 3 0 3 0 0 0 0 17 17 15 3 14 22 25 0 0 0
split_gain=3.55637e+06 982654 767418 527892 231541 178638 150469 127157 123037 95201.3 83823.8 86028 75295.4 71404.5 70544.1 67619.1 66987.8 77075.7 71403.5 80893.5 79752.1 56045.6 49929.6 47317.6 45918.1 36832.5 36091.3 34122.8 32095.6 31207
threshold=2.5000000000000004 1.5000000000000002 12.500000000000002 1.0000000180025095e-35 1.0000000180025095e-35 5.5000000000000009 38.500000000000007 5.5000000000000009 1.0000000180025095e-35 1.5000000000000002 0 1 2 3 4 5 6 7 8 9 1.0000000180025095e-35 1.0000000180025095e-35 5.5000000000000009 10 2.5000000000000004 1.5000000000000002 19.500000000000004 11 12 13
decision_type=2 2 2 2 2 2 2 2 2 2 9 9 9 1 9 1 9 9 9 9 2 2 2 1 2 2 2 9 9 9
left_child=1 3 5 4 8 13 26 15 10 21 -1 -12 -13 -2 -14 -3 -16 -18 -19 -20 23 -5 -15 -21 -6 -17 -4 -9 -25 -30
right_child=2 7 6 9 24 -7 -8 27 -10 -11 11 12 14 22 16 25 17 18 19 20 -22 -23 -24 28 -26 -27 -28 -29 29 -31
leaf_value=0.080192029764674627 0.035708102805780531 0.019595247870657438 0.064134178710999953 -0.027869181779395503 -0.027372763620437009 0.046916633550619924 0.12485116098629222 0.085078857627980023 -0.029393528774783524 0.0051116150258648857 0.056896788102468156 -0.13540396300360066 0.053305956555541802 0.0067274401327831711 0.051275571707849278 -0.010769815617698809 0.049348054638832545 0.047535280366774429 0.045268124608040028 -0.053759959642781574 -0.038993959366062446 -0.0078753141260541129 0.027574389806861718 0.04385719357481372 0.0010119847873021383 0.0077420197858810271 0.088858134202692562 0.032760138932687602 -0.13629853881465723 -0.072737927021783721
leaf_weight=44128.134707957506 1957424.8784784377 2056793.2113970816 1768687.7507979274 2873259.5012647212 3084203.7064033151 3491601.5010323524 688430.98476308584 138327.98254802823 2013354.6020446718 2574876.1953264773 64569.90971377492 126868.56228487194 56800.359616816044 3612813.2807677686 55092.603896737099 2382057.1919697523 64573.27318584919 60770.142488151789 70485.864531099796 1792270.3432391435 1205440.0911704302 2738002.719581306 1684566.7866289914 23240.214465588331 699105.18484434485 1958512.6412362754 886292.55407825112 1261954.1822037995 78825.120879009366 3899718.4541793913
leaf_count=15988 1086798 1528606 518476 3807201 4051286 1311711 78418 41070 2869927 2102188 45455 409583 45919 2622756 47612 2411917 59301 60235 74504 3694220 1844383 2821045 879559 26857 634745 1466052 169435 680695 248482 8794066
internal_value=0 -0.0197807 0.0413494 -0.0307986 -0.0430664 0.0283319 0.0831902 0.0106345 -0.0513561 -0.0108081 -0.0572184 -0.0580271 -0.0590253 0.0193875 -0.0576991 0.00466006 -0.0585688 -0.0594099 -0.0603948 -0.0613226 -0.062396 -0.0181132 0.0133567 -0.0672649 -0.0221276 -0.00241707 0.0723876 0.0379293 -0.073313 -0.0739976
internal_weight=0 2.93232e+07 1.40898e+07 2.15256e+07 1.33394e+07 1.07464e+07 3.34341e+06 7.79765e+06 9.55614e+06 8.18614e+06 7.54278e+06 7.49865e+06 7.43409e+06 7.2548e+06 7.30722e+06 6.39736e+06 7.25042e+06 7.19532e+06 7.13075e+06 7.06998e+06 6.99949e+06 5.61126e+06 5.29738e+06 5.79405e+06 3.78331e+06 4.34057e+06 2.65498e+06 1.40028e+06 4.00178e+06 3.97854e+06
internal_count=44448490 37781337 6667153 31652997 22922563 5900824 766329 6128340 18236532 8730434 15366605 15350617 15305162 4589113 14895579 5406575 14849660 14802048 14742747 14682512 14608008 6628246 3502315 12763625 4686031 3877969 687911 721765 9069405 9042548
cat_boundaries=0 79 158 253 254 333 334 417 486 562 635 636 713 791 885
