tree
version=v3
num_class=1
num_tree_per_iteration=1
label_index=0
max_feature_idx=26
objective=tweedie
feature_names=item_id store_id d wday month year event_name_1 event_type_1 event_name_2 event_type_2 snap_CA snap_TX snap_WI sales_lag_1 sales_lag_2 sales_lag_3 sales_lag_4 sales_lag_5 sales_lag_6 sales_lag_7 sales_lag_8 sales_lag_9 sales_lag_10 sales_lag_11 sales_lag_12 sales_lag_13 sales_lag_14
feature_infos=-1:3048:3043:2533:3044:3046:2366:1707:2864:2982:1146:2709:114:2289:3003:829:2114:2943:29:60:63:643:836:1401:2194:193:411:762:59:893:1082:1549:1569:1:132:1081:1193:1316:1393:1664:1888:2470:2756:1170:2098:2512:2766:13:595:666:1315:1451:1631:1668:1776:1908:2741:83:395:553:582:856:858:1433:1646:1914:2667:2687:2813:2819:2823:2848:2911:16:35:65:81:168:187:203:241:257:780:855:963:1402:1416:1756:1792:2342:2430:2567:2705:2883:3042:317:1286:1338:1850:2107:2144:2159:2511:2517:2563:2782:2940:5:188:557:620:960:1059:1643:1816:2045:2746:2831:2935:2955:33:94:124:181:275:574:610:692:806:825:951:992:995:1079:1186:1279:1452:1465:1483:1575:1678:1693:1941:2058:2143:2172:2490:2535:36:116:143:271:291:402:613:721:728:869:1061:1257:1364:1403:1597:1738:1865:2026:2122:2175:2609:2664:2680:2693:2738:2778:2905:11:38:61:89:150:267:367:403:443:744:846:907:1007:1062:1171:1177:1304:1334:1392:1448:1503:1513:1543:1742:1835:1856:1872:2062:2319:2551:2725:2900:2972:3026:24:52:78:98:109:141:276:461:668:767:1024:1089:1182:1340:1378:1456:1740:1798:1805:1808:2095:2311:2383:2508:2574:2596:2666:2770:2825:2827:2881:2963:2:121:125:158:251:295:648:985:1045:1264:1278:1282:1313:1376:1413:1618:1683:1733:1769:1783:1902:1964:2006:2017:2037:2133:2138:2264:2320:2348:2359:2371:2671:2685:2722:2732:2767:2793:2836:2857:2859:2976:79:105:213:669:1022:1032:1076:1102:1240:1566:1604:1715:1741:1834:1921:1980:2093:2103:2231:2274:2316:2335:2368:2420:2429:2546:2562:2617:2648:2733:2773:2775:2785:2786:2788:2816:2829:2833:2869:2975:2979:64:71:134:140:194:209:531:592:642:710:786:843:851:988:1020:1072:1074:1080:1226:1228:1255:1441:1650:1666:1667:1752:1754:1837:2055:2135:2189:2227:2239:2354:2402:2498:2554:2715:2781:2791:2817:2843:2853:2868:2969:2993:101:120:174:199:200:227:234:366:384:419:444:451:627:652:711:735:745:794:811:826:861:886:938:943:1064:1070:1167:1189:1241:1242:1260:1508:1535:1550:1686:1688:1800:1833:1855:1932:2047:2086:2252:2297:2304:2347:2467:2534:2581:2584:2627:2743:2784:2861:2984:3006:9:139:170:183:258:278:302:410:426:450:454:481:695:709:834:838:895:897:979:981:1012:1034:1096:1145:1163:1269:1307:1408:1459:1472:1516:1518:1526:1532:1747:1795:1900:1994:1998:2084:2163:2208:2225:2268:2270:2285:2338:2345:2393:2485:2548:2616:2622:2701:2712:2763:2768:2907:2909:2915:2985:0:73:86:202:279:342:590:640:641:727:853:879:931:967:987:1087:1147:1166:1222:1223:1297:1328:1397:1486:1491:1533:1692:1748:1788:1793:1796:1807:1826:1836:1858:1913:2028:2038:2074:2176:2179:2186:2203:2456:2514:2570:2587:2630:2677:2696:2744:2814:2856:2858:2930:2957:2960:2981:3002:3039:4:17:18:118:166:212:215:252:458:541:624:773:805:815:835:940:954:959:972:975:1105:1113:1128:1134:1158:1196:1197:1202:1237:1353:1446:1474:1479:1496:1506:1542:1573:1576:1596:1610:1647:1846:1926:1955:2013:2016:2097:2124:2284:2364:2426:2432:2536:2604:2611:2657:2771:2772:2873:2898:3013:27:47:62:67:92:164:176:240:378:425:438:459:565:572:573:630:636:705:800:814:819:831:875:942:957:1017:1060:1091:1092:1097:1098:1227:1239:1275:1361:1373:1425:1445:1616:1662:1705:1709:1743:1828:1937:2005:2029:2056:2067:2085:2121:2141:2183:2251:2298:2358:2373:2452:2495:2527:2652:2676:2761:2840:2901:2959:3017:3020:14:85:130:147:162:173:191:340:364:503:571:585:625:680:756:827:840:881:913:917:923:948:958:1000:1115:1183:1192:1291:1325:1362:1372:1383:1423:1494:1499:1509:1540:1559:1702:1771:1778:1785:1809:1911:2033:2180:2188:2255:2318:2561:2568:2569:2575:2644:2688:2787:2877:2887:2989:3041:104:190:380:422:520:536:540:556:679:768:824:892:906:925:1004:1136:1203:1283:1336:1339:1384:1395:1458:1544:1579:1598:1625:1673:1726:1731:1818:1874:1905:1986:2039:2044:2089:2142:2157:2226:2290:2407:2408:2464:2583:2585:2607:2659:2661:2689:2711:2716:2755:2942:2952:2965:2971:3023:3024:3040:30:34:45:93:137:169:231:499:512:522:554:605:671:754:757:787:812:864:901:944:969:1107:1132:1153:1155:1256:1267:1329:1351:1355:1431:1468:1514:1626:1627:1645:1814:1848:1970:1972:2009:2012:2014:2068:2207:2265:2321:2326:2339:2340:2341:2409:2424:2469:2639:2640:2670:2706:2739:2754:2776:2779:2838:2899:2910:2925:2926:2953:2977:2987:3034:133:151:197:330:333:358:539:566:567:632:708:715:751:818:905:936:998:1010:1050:1234:1263:1358:1366:1480:1484:1623:1685:1724:1745:1751:1757:1784:1810:1839:1842:1861:1863:1881:1886:1967:1995:2000:2022:2035:2077:2088:2105:2126:2131:2174:2196:2200:2243:2471:2477:2493:2558:2572:2576:2612:2658:2699:2847:2889:2916:2967:2996:3029:28:39:70:111:126:127:149:165:226:239:256:262:274:281:413:469:478:508:529:606:667:681:707:713:719:743:878:964:1018:1019:1160:1199:1205:1208:1365:1374:1391:1414:1428:1429:1432:1502:1564:1601:1608:1629:1665:1697:1718:1727:1729:1732:1773:1841:1845:1903:1912:1931:1945:1957:2071:2173:2181:2195:2212:2221:2247:2266:2292:2305:2313:2362:2484:2524:2545:2547:2552:2589:2595:2602:2608:2621:2633:2650:2675:2692:2734:2749:2751:2774:2806:2807:2860:2866:2884:3037:88:91:99:100:163:244:253:502:509:518:603:694:765:796:868:903:930:946:1001:1023:1044:1046:1073:1075:1085:1090:1106:1120:1154:1159:1181:1247:1288:1346:1400:1421:1531:1538:1595:1620:1637:1644:1655:1706:1719:1765:1885:1889:1898:1920:1981:1988:2002:2034:2063:2069:2129:2137:2154:2201:2244:2367:2396:2417:2438:2462:2482:2513:2597:2620:2752:2789:2801:2802:2815:2837:2895:2902:2927:2961:3000:3005:153:208:210:214:218:269:321:360:446:448:477:511:519:570:674:693:714:772:847:854:929:968:977:989:990:1036:1043:1140:1219:1224:1244:1246:1280:1299:1311:1357:1381:1461:1464:1467:1520:1589:1639:1695:1761:1791:1806:1901:1940:2008:2015:2099:2125:2193:2280:2422:2497:2525:2580:2601:2625:2669:2673:2730:2759:2760:2811:2885:2956:3004:185:268:283:388:439:494:594:628:675:702:758:775:870:922:1013:1047:1077:1168:1190:1271:1293:1350:1390:1409:1426:1512:1522:1607:1651:1671:1721:1758:1830:1952:2054:2066:2202:2261:2271:2307:2361:2370:2391:2400:2403:2431:2437:2450:2466:2499:2623:2631:2747:2822:2948:2954:2978:3018:32:53:74:103:117:237:249:300:301:418:584:688:736:777:795:837:1093:1176:1194:1289:1332:1348:1394:1466:1510:1669:1723:1799:1854:1860:1880:1894:1965:1985:2018:2052:2072:2090:2109:2111:2191:2204:2389:2414:2480:2588:2606:2646:2724:2750:2800:2882:2908:2923:84:155:280:307:348:383:412:421:496:544:552:618:655:663:724:799:807:860:885:891:910:980:1058:1116:1138:1204:1220:1261:1342:1434:1537:1552:1653:1717:1725:1728:1766:1779:1843:1930:1935:1983:2115:2148:2300:2336:2454:2486:2500:2539:2592:2637:2649:2668:2731:2758:2764:2765:2792:2794:2880:2922:2944:2974:2998:3021:42:44:51:135:138:180:229:235:297:308:349:385:390:489:561:596:658:726:730:739:753:850:912:1025:1066:1109:1229:1258:1272:1375:1471:1577:1583:1594:1677:1904:2007:2073:2197:2275:2314:2353:2369:2404:2416:2505:2529:2626:2641:2736:2849:2871:2888:2920:2939:2988:6:21:22:77:207:228:233:347:387:408:447:465:614:766:793:803:883:898:920:955:986:999:1006:1123:1198:1210:1268:1276:1284:1306:1319:1387:1417:1507:1578:1624:1660:1703:1853:1868:1927:1948:2185:2220:2282:2352:2435:2444:2461:2520:2543:2566:2571:2586:2703:2723:2727:2729:2740:2742:2797:2803:2903:2912:2917:2973:3014:102:115:178:282:353:398:434:490:495:525:537:543:598:691:774:788:857:919:1016:1067:1088:1184:1217:1266:1367:1438:1440:1444:1488:1541:1560:1582:1611:1674:1730:1739:1859:1915:1925:1950:1954:2041:2064:2116:2117:2276:2328:2385:2387:2405:2428:2460:2540:2578:2598:2603:2632:2655:2695:2707:2879:2886:2894:2924:2938:2970:31:72:341:355:357:371:433:435:457:497:589:608:633:720:725:742:813:842:844:873:1108:1118:1149:1206:1359:1396:1411:1419:1530:1581:1632:1684:1687:1737:1764:1851:1891:1959:2050:2087:2092:2170:2541:2549:2615:2810:2842:2941:2997:3012:3015:3016:82:179:205:270:303:343:352:368:374:404:445:505:545:626:644:650:653:704:750:789:997:1026:1150:1152:1232:1323:1418:1528:1689:1696:1704:1716:1827:1928:1969:2003:2061:2082:2106:2123:2171:2232:2233:2331:2351:2395:2453:2489:2682:2714:2799:2824:2999:3027:3035:41:48:236:242:273:287:356:546:703:748:781:816:839:915:928:1065:1104:1110:1125:1243:1287:1322:1344:1470:1574:1585:1711:1749:1777:1962:1976:2112:2119:2147:2209:2287:2322:2324:2531:2638:2672:2994:3032:25:113:159:172:220:314:363:381:437:638:729:760:862:863:932:1179:1277:1281:1298:1642:1656:1811:1832:1909:1968:2040:2230:2390:2473:2507:2544:2555:2559:2654:2674:2678:2721:2783:2820:2852:2990:46:56:264:290:323:332:338:409:430:513:516:528:547:563:600:698:732:738:763:828:899:921:1330:1485:1500:1710:1770:1884:2081:2229:2248:2386:2406:2966:2992:8:43:107:123:195:224:266:456:488:507:578:634:716:740:902:916:1009:1069:1100:1174:1236:1371:1380:1453:1457:1523:1570:1613:1680:1971:1974:1982:1997:2360:2496:2523:2691:2790:2808:277:345:350:351:406:431:474:581:587:611:771:888:939:953:961:974:991:1003:1030:1037:1103:1201:1324:1327:1410:1562:1591:1615:1679:1714:1735:1819:1831:1844:1852:2152:2178:2381:2418:2419:2737:2865:3033:3045:90:245:247:296:298:315:396:397:414:432:449:476:562:661:823:1027:1053:1063:1148:1151:1235:1301:1335:1388:1406:1449:1504:1592:1701:1775:1829:1989:2108:2286:2308:2375:2537:2828:2947:2958:3007:3:7:171:186:201:259:293:483:517:532:558:639:678:808:822:937:1056:1068:1117:1254:1309:1442:1473:1475:1580:1630:1750:1755:2130:2146:2155:2219:2463:2474:2479:2522:2629:2841:2937:2949:3010:37:110:142:145:152:167:204:289:370:416:436:761:877:880:1086:1450:1490:1493:1521:1527:1605:1760:1869:2177:2211:2356:2439:2443:3038:3047:10:15:75:156:225:336:472:550:575:588:602:677:701:785:791:884:1054:1057:1185:1265:1300:1477:1478:1534:1657:1663:1857:1896:1949:1977:2020:2101:2162:2168:2343:2410:2457:136:161:189:318:362:475:533:535:790:1014:1035:1040:1326:1379:1454:1455:1460:1539:1640:1713:1824:1870:1871:1918:2166:2216:2237:2259:2349:2392:2423:2475:2582:2628:2702:2809:2846:2872:3036:69:198:375:377:442:480:487:498:514:548:551:656:848:927:996:1095:1142:1143:1349:1498:1619:1700:1789:2078:2273:2283:2330:2411:2413:2542:2618:2651:3011:211:313:320:527:612:617:871:1221:1249:1296:1420:1505:1529:1606:1690:1736:1882:1907:1953:1975:2060:2083:2151:2293:2398:2399:2478:2521:2565:2645:2660:2762:263:335:337:521:530:645:900:914:1005:1121:1218:1447:1546:1635:1672:1822:2272:2334:2380:2446:2506:2619:2683:2769:2805:2834:49:325:470:682:809:820:1008:1071:1180:1354:1427:1511:1563:1628:1654:1992:2076:2164:2192:2299:2374:2465:2502:2698:2826:2933:2968:76:182:192:254:420:455:534:549:654:926:947:1038:1172:1178:1476:1489:1987:2150:2167:2215:2222:2332:2355:2719:2896:20:40:112:219:294:327:334:599:621:690:797:941:970:1165:1230:1292:1337:1430:1568:1659:1744:1803:1812:1825:1847:1897:1944:2019:2046:2132:2250:2357:2445:2509:2556:2777:2832:2855:2918:23:292:299:468:526:752:798:918:935:1250:1290:1424:1517:1587:1648:1694:1734:1867:1906:2080:2258:2277:2557:2624:2694:2874:106:177:260:391:400:568:993:1011:1039:1055:1126:1270:1294:1415:1699:1787:2004:2065:2118:2139:2449:2491:2530:3008:12:221:479:662:706:733:1191:1252:1398:1556:1722:1794:2031:2051:2165:2296:2327:2363:2492:2804:2878:3009:354:389:486:609:672:1033:1209:1212:1231:1248:1469:1561:1565:1924:1958:2032:2140:2199:2346:2851:2890:3028:50:66:68:146:206:440:673:683:687:782:904:973:1127:1320:1321:1443:1487:1519:1584:1768:1797:1849:1899:1993:2102:2310:2377:2503:2821:2962:57:80:97:246:284:471:482:686:712:859:909:1412:1495:1524:1548:1586:1753:1939:2329:2440:2830:2983:55:95:216:394:523:615:734:845:849:1404:1553:1609:1682:1759:1946:1966:1991:2030:2079:2149:2160:2315:2379:2401:2613:2798:19:144:319:322:427:493:635:676:1049:1216:1407:1492:1497:1956:2245:2279:2442:2532:2579:2594:2876:96:339:452:1101:1545:1638:1815:1916:1996:2094:2333:2397:2455:2636:2728:2735:2875:2906:26:285:484:564:685:689:801:924:1156:1200:1341:1343:1360:1567:1652:1658:1802:1873:1879:2010:2214:2850:2863:2870:2929:148:329:365:376:559:659:770:933:1162:1435:1572:1599:1614:1840:1929:2091:2218:2240:2256:2451:2487:2553:2681:2708:2795:2854:222:665:670:718:802:841:934:1042:1094:1144:1363:1370:1515:1555:1763:1790:1821:1866:2127:2158:2412:2421:2427:2516:2564:2642:2720:2904:129:417:717:876:894:911:994:1099:1169:1188:1262:1437:1838:1933:1938:2110:2254:2267:2378:2448:2483:2591:2835:2919:2932:154:243:346:453:696:741:810:830:1052:1130:1195:1462:1501:1633:2070:2213:2253:2257:2441:2538:2690:2893:54:328:597:700:852:956:1356:1385:1463:1547:1571:1774:1877:1947:1951:2001:2057:2136:2145:2278:2697:2753:2946:2991:326:591:623:649:657:779:984:1083:1114:1251:1305:1554:1641:1746:1767:1801:1817:2217:2223:2235:2294:2459:217:382:428:510:515:524:580:637:749:804:950:962:976:1028:1331:1588:1602:1670:1708:1780:1862:1999:2043:2182:2263:2350:2436:2656:2710:2812:2892:2897:2913:2951:131:647:755:769:1015:1135:1590:1649:1781:1813:1979:2036:2075:2120:2187:2291:2434:2504:2560:2717:2986:160:393:424:746:764:792:832:887:1285:1302:1377:1551:1622:1681:1720:1762:1823:1923:1936:2053:2059:2260:2472:2510:2515:2573:3019:3025:196:309:372:379:441:473:966:1111:1124:1131:1141:1164:1207:1253:1317:1368:1439:1621:2246:2447:2614:2635:2662:2700:3031:87:122:255:310:324:392:622:631:747:783:865:882:889:952:982:1051:1119:1157:1173:1312:1691:1782:1804:1864:1893:1910:1943:1963:1990:2023:2024:2228:2288:2301:2344:2388:2528:2593:2605:2686:2980:248:460:607:699:896:1041:1133:1161:1273:1310:1318:1347:1786:1892:2048:2161:2302:2323:2394:2713:2862:304:331:405:500:504:586:646:1137:1274:1389:1399:1934:1960:2011:2025:2100:2104:2169:2306:2337:2679:2945:272:463:560:684:697:722:776:821:1048:1593:1603:1675:1883:1887:1895:1917:1922:1942:2262:2458:2501:2745:2796:2844:2845:2921:2931:58:230:250:306:311:542:817:1303:1676:2577:2928:108:184:344:386:407:501:737:874:945:1211:1314:1333:1436:1536:1612:1772:1820:1890:2241:2295:2325:2647:2757:2780:2839:3030:223:261:369:399:538:577:619:866:971:1617:1698:2234:2372:2376:2425:2494:2519:2599:2634:2665:415:576:629:949:1129:1481:1525:1600:1919:1973:2027:2236:2312:2384:2643:2867:2891:2934:373:401:462:569:1112:1139:1295:1405:1558:2021:2113:2128:2205:2210:2433:2550:2704:2914:2936:3022:616:664:723:759:983:1021:1031:1369:1634:1978:2049:2190:2309:2382:2415 -1:4:5:2:9:6:0:3:8:7:1 -1:1449:1717:1705:1742:1858:1601:1424:1358:1480:1493:1496:1851:1785:1612:1672:1695:1487:1697:1370:1385:1664:1746:1557:1768:1489:1505:1678:1757:1770:1844:1457:1823:1393:1507:1789:1816:1860:1460:1683:1766:1782:1581:1681:1798:1815:1826:1862:1251:1551:1558:1576:1694:1756:1771:1881:1883:1477:1566:1652:1686:1732:1776:1821:1868:1872:1882:1297:1471:1568:1642:1744:1795:1850:1106:1305:1313:1509:1575:1595:1715:1721:1723:1300:1475:1481:1549:1565:1569:1578:1631:1670:1682:1688:1699:1726:1739:1764:1783:1814:1840:1253:1459:1592:1638:1700:1740:1773:1832:1841:1861:1212:1239:1340:1352:1355:1389:1401:1495:1534:1537:1547:1602:1650:1669:1691:1734:1747:1865:1873:1149:1411:1420:1450:1473:1523:1532:1587:1588:1637:1741:1799:1806:1842:1877:1060:1155:1167:1225:1278:1464:1476:1506:1525:1590:1600:1611:1615:1628:1641:1753:1828:1830:1870:1266:1362:1550:1627:1653:1677:1706:1708:1729:1733:1735:1750:1772:1822:1835:878:1233:1403:1416:1419:1429:1445:1518:1563:1574:1583:1613:1626:1633:1646:1698:1737:1762:1808:1827:1843:1030:1153:1205:1220:1261:1269:1306:1310:1314:1325:1327:1367:1372:1443:1451:1461:1479:1508:1524:1531:1535:1606:1620:1696:1736:1796:1021:1101:1217:1366:1392:1436:1577:1713:1807:1809:1834:1838:1855:1034:1074:1184:1223:1344:1363:1368:1462:1643:1675:1676:1685:1712:1767:1769:1780:1784:1122:1151:1179:1258:1345:1373:1396:1415:1446:1513:1616:1617:1622:1647:1728:1748:1761:1775:1788:1793:1803:1863:808:870:1128:1144:1206:1238:1267:1273:1299:1318:1329:1330:1353:1357:1380:1395:1418:1440:1442:1472:1520:1542:1599:1645:1658:1663:1763:1801:1802:1824:1825:1837:1874:1180:1201:1241:1322:1324:1334:1369:1377:1381:1398:1409:1433:1455:1483:1488:1497:1536:1573:1579:1585:1603:1609:1639:1651:1667:1813:1831:1859:908:932:996:1010:1117:1192:1346:1347:1361:1371:1386:1425:1438:1659:1718:1812:1879:1132:1142:1163:1209:1221:1262:1275:1282:1285:1296:1298:1376:1387:1423:1447:1453:1458:1517:1528:1582:1632:1668:1689:1714:1754:1758:1811:1856:1878:1062:1166:1181:1194:1229:1237:1270:1288:1315:1348:1356:1388:1406:1407:1408:1413:1430:1432:1469:1540:1621:1662:1673:1680:1731:1745:1833:964:1023:1096:1147:1186:1218:1242:1281:1301:1384:1422:1516:1554:1604:1619:1649:1671:1704:1738:1779:1786:1790:1857:1869:884:971:1099:1170:1171:1173:1259:1264:1349:1405:1485:1502:1510:1544:1624:1635:1648:1701:1719:1760:1818:1836:1845:914:989:1077:1127:1200:1235:1252:1274:1294:1339:1397:1486:1498:1545:1564:1567:1591:1607:1610:1614:1640:1661:1711:1725:1749:1755:1792:1810:1829:1854:1143:1260:1284:1286:1308:1382:1417:1499:1526:1546:1559:1665:1666:1674:1684:1690:1707:1724:1727:1751:1804:1884:832:1033:1054:1089:1120:1197:1216:1250:1254:1265:1332:1412:1515:1519:1562:1594:1618:1654:1687:1794:1819:997:1093:1107:1135:1183:1203:1227:1291:1309:1341:1365:1390:1428:1452:1465:1478:1494:1514:1522:1530:1548:1589:1679:1702:1752:1778:1849:831:879:944:977:1040:1049:1061:1215:1263:1293:1311:1338:1360:1379:1434:1437:1501:1541:1571:1580:1634:1660:1722:1730:1765:1774:888:889:968:1004:1053:1073:1079:1136:1139:1190:1222:1230:1232:1234:1245:1279:1287:1402:1426:1441:1454:1468:1482:1511:1560:1561:1593:1623:1693:1703:1759:1781:1839:1846:842:1022:1066:1082:1137:1195:1207:1213:1231:1243:1249:1280:1320:1326:1359:1414:1427:1444:1466:1492:1529:1533:1596:1597:1629:1709:1797:846:880:915:926:943:985:993:1064:1098:1110:1116:1172:1174:1276:1277:1283:1331:1342:1410:1552:1572:1636:1655:1692:1716:1743:1791:1847:1875:1885:657:950:1000:1057:1067:1071:1080:1094:1162:1178:1202:1246:1248:1272:1302:1304:1354:1375:1404:1421:1448:1484:1800:1852:730:764:816:902:930:969:973:976:990:1002:1090:1095:1160:1164:1165:1191:1198:1199:1211:1244:1333:1431:1527:1543:1553:1584:1586:1598:1876:603:789:835:848:974:1058:1087:1145:1146:1152:1169:1175:1177:1188:1214:1289:1335:1364:1435:1439:1463:1538:1556:1570:1608:1805:1817:1848:1864:1880:785:796:883:963:965:972:995:1007:1037:1041:1303:1323:1456:1474:1521:1555:1644:1777:1820:1871:580:737:921:988:999:1038:1045:1081:1085:1115:1391:1625:1787:1853:778:894:937:955:962:1008:1014:1046:1065:1111:1114:1193:1292:1317:1336:1351:1383:1512:648:654:750:758:783:792:868:892:925:953:987:1025:1028:1092:1118:1125:1130:1156:1161:1204:1374:1400:1467:1491:1605:1866:673:768:780:786:826:910:920:970:975:982:1003:1011:1013:1048:1051:1072:1105:1129:1150:1157:1630:711:760:774:797:800:837:855:909:912:935:936:939:947:949:952:981:994:1005:1015:1016:1018:1024:1069:1091:1100:1126:1134:1158:1182:1185:1219:1236:1256:1307:1350:1378:1399:1490:1656:647:695:843:874:891:899:951:967:980:1039:1084:1102:1108:1240:1247:1290:1319:1321:1470:702:757:776:801:805:812:815:847:859:872:873:904:917:927:954:983:1012:1103:1124:1208:1257:1500:704:763:806:834:896:900:916:960:992:1112:1121:1710:1867:600:675:684:736:745:817:820:825:851:931:1042:1068:1086:1097:1123:1141:1148:1226:1228:1539:444:618:691:761:798:810:887:929:1001:1031:1059:1083:1109:1131:1154:1176:1189:1328:526:604:610:819:849:863:866:911:938:957:991:1070:1196:1224:1312:627:670:708:718:803:893:923:924:928:934:948:1075:1076:1168:1268:614:620:683:727:770:771:773:793:822:860:865:877:882:905:918:942:1056:1133:1316:489:509:548:557:569:733:804:830:840:854:876:922:959:986:1020:1035:1138:1271:1504:1720:554:566:575:628:636:646:665:707:725:751:762:779:781:802:807:827:838:853:857:862:864:886:933:946:1043:1050:1113:1255:1394:1503:495:541:581:596:622:633:680:700:715:728:743:759:769:811:821:858:907:913:958:998:1009:1047:1052:1088:1187:1337:309:515:560:585:588:589:607:666:682:756:836:881:903:919:1063:1159:1210:426:508:572:688:719:795:813:890:898:945:979:1029:1343:458:537:551:573:593:602:619:629:640:645:698:735:749:753:799:818:841:845:856:901:906:941:956:966:984:1006:1017:1104:1140:524:544:562:590:623:650:653:656:664:668:687:731:748:782:828:833:940:978:1119:487:502:507:542:552:567:712:861:895:1032:1044:336:369:499:504:519:525:532:535:543:631:632:655:699:701:705:706:709:765:814:850:867:875:961:1027:1295:1657:314:341:558:568:597:667:696:726:766:791:809:869:871:1036:1078:334:455:463:490:492:503:584:591:615:625:681:722:732:767:787:829:844:1055:379:405:415:485:531:538:559:561:599:601:685:694:724:729:747:852:885:1026:227:391:441:482:536:539:546:630:672:678:714:734:839:316:323:400:410:440:480:497:500:521:547:579:595:616:624:634:649:651:658:690:692:697:716:744:790:897:230:414:424:430:434:435:464:512:520:583:617:635:639:642:676:679:742:772:775:1019:408:454:459:523:609:662:473:478:484:513:516:530:606:669:721:738:739:752:217:422:436:452:465:550:576:586:598:612:671:703:717:720:746:269:403:412:471:475:493:494:549:661:674:710:740:777:788:307:393:505:518:522:527:534:578:592:643:659:755:784:95:152:162:255:286:328:355:372:387:450:456:460:479:529:594:605:652:677:713:754:256:278:311:431:470:476:483:510:565:571:626:660:794:292:335:395:404:442:446:517:528:556:611:641:723:741:221:281:300:352:377:380:381:392:397:419:438:474:533:555:563:570:155:191:289:291:347:388:498:582:608:613:621:686:824:144:194:203:228:247:302:312:327:345:437:447:461:468:481:491:689:205:277:301:304:305:331:338:362:365:367:396:411:413:445:448:449:453:457:467:472:477:501:511:574:637:638:132:173:243:250:266:344:354:394:406:432:439:506:540:545:587:823:94:133:253:267:326:329:330:340:348:364:375:409:425:443:663:118:120:149:213:242:244:270:273:293:342:378:383:384:386:399:417:428:469:514:644:121:129:130:131:176:261:287:290:299:303:346:349:359:427:693:81:88:113:136:138:202:212:260:272:279:317:322:361:382:398:421:486:119:128:142:147:175:178:201:207:209:238:310:332:343:357:389:91:158:164:204:215:235:251:254:258:265:274:298:306:339:351:366:416:420:429:488:577:52:85:92:139:167:195:196:224:240:321:325:350:353:370:402:433:451:462:33:102:103:114:154:185:232:245:264:333:371:49:111:140:151:161:180:199:225:226:263:268:294:296:318:363:401:123:126:143:145:146:153:172:177:184:192:193:248:283:284:319:358:385:418:553:62:74:90:97:115:125:171:181:182:200:211:214:220:231:257:282:324:337:356:373:390:466:496:38:87:165:188:206:216:219:233:288:44:56:73:78:83:106:112:127:137:159:163:189:208:234:241:259:271:276:297:374:41:55:58:61:86:93:122:170:179:262:308:320:376:407:25:60:77:79:89:135:141:156:157:166:174:186:223:246:295:20:42:148:187:210:218:236:252:275:280:285:313:564:47:50:51:63:68:75:101:117:183:229:237:315:67:69:80:198:360:66:124:197:239:249:35:39:40:45:84:99:110:134:169:26:53:54:65:96:98:109:368 -1:1:3:2:4:5:6:7 -1:3:1:12:10:2:11:8:7:9:5:6:4 -1:2015:2014:2013:2012:2011:2016 -1:0:7:3:6:5:4:1:2:27:30:20:18:21:25:26:16:29:23:9:22:17:24:19:14:28:11:13:12:10:15 -1:0:3:4:2 -1:0:4:3:2 -1:0:1 -1:0:1 -1:0:1 -1:0:1 [0:259] [0:249] [0:363] [0:328] [0:321] [0:342] [0:567] [0:273] [0:219] [0:303] [0:260] [0:240] [0:369] [0:309]
tree_sizes=3979 4286 4285 4304 4303 4314 4321 4318 4063 4991 4445 5021 4437 5631 4786 5233 5438 5145 5793 6363 6321 6976 6907 6734 7311 6846 7117 7474 8991 8535 6994 8380 7591 7722 8887 9189 8481 8689 8513 9621 8241 9606 10861 10331 8892 9463 9737 9851 10941 9971 10178 8990 11422 11807 9079 10478 10382 10020 11581 9664 8870 11000 10184 10744 10641 10925 10671 10564 10941 9651 9456 9583 10753 10522 10087 9104 10075 10152 9665 10940 10814 9519 9780 10748 9899 11230 7511 9076 10787 9081 8861 10571 10961 8097 10026 9086 10641 8944 9378 8597 9157 9463 8657 9001 8243 9992 9095 7759 9773 9140 9112 9759 8418 10193 9779 8654 8197 10267 10704 8231 10693 8516 8481 8840 10189 8111 7829 9461 9245 8841 9943 8922 10470 9642 8595 9541 9715 8790 9707 8724 10277 9856 8208 8552 8233 9969 7980 10622 9048 9075 10609 9427 10161 9425 8340 9826 9717 9505 8531 9080 7786 8366 7691 9170 7529 9658 8461 8863 8136 9833 9533 8811 9905 8419 9050 8841 7766 9489 10385 8041 7880 10354 9802 8791 7745 8404 10047 8673 9795 7641 8093 9636 9765 10344 8682 9269 9325 8770 9516 8281 9199 8791 7665 8354 8807 8092 9909 8472 8408 9041 8060 8915 8517 9429 9135 9598 7756 7957 11067 7905 10196 10765 8216 8745 8553

Tree=0
num_leaves=31
num_cat=1
split_feature=17 13 24 16 15 14 23 18 18 24 17 25 24 14 16 16 0 16 13 24 26 14 13 14 13 13 16 16 19 18
split_gain=4.08265e+07 9.088e+06 3.70968e+06 3.51606e+06 1.39697e+06 1.19625e+06 870914 823292 590538 506612 480355 377681 327648 315290 262505 244612 217417 210438 194436 191402 177520 170401 139195 132274 130128 116783 111042 94643.2 90446.9 83279.5
threshold=2.5000000000000004 1.5000000000000002 1.0000000180025095e-35 5.5000000000000009 1.0000000180025095e-35 3.5000000000000004 1.5000000000000002 3.5000000000000004 1.0000000180025095e-35 2.5000000000000004 12.500000000000002 1.5000000000000002 2.5000000000000004 1.0000000180025095e-35 1.5000000000000002 1.5000000000000002 0 1.0000000180025095e-35 7.5000000000000009 3.5000000000000004 1.0000000180025095e-35 1.5000000000000002 3.5000000000000004 1.5000000000000002 5.5000000000000009 6.5000000000000009 1.0000000180025095e-35 1.5000000000000002 1.5000000000000002 1.0000000180025095e-35
decision_type=2 2 2 2 2 2 2 2 2 2 2 2 2 2 2 2 9 2 2 2 2 2 2 2 2 2 2 2 2 2
left_child=1 2 4 7 8 9 11 12 13 15 25 17 21 16 23 22 -1 29 -7 27 26 -2 -3 -6 -9 -5 -18 -8 -10 -4
right_child=3 5 6 10 14 18 19 24 28 -11 -12 -13 -14 -15 -16 -17 20 -19 -20 -21 -22 -23 -24 -25 -26 -27 -28 -29 -30 -31
leaf_value=0.43448120994054451 0.35239392628736149 0.31317173269070986 0.24841698464078288 0.47104698786444277 0.26237919819968919 0.42525453984140504 0.32879605796855083 0.44529787380560637 0.25488067058400432 0.40806648651548738 0.52997599641307347 0.33766221875490088 0.42891440186388813 0.2506491969018268 0.33386467855346869 0.37349571372700796 0.19056134753768994 0.30441507329301504 0.49054526358676026 0.40777442888269638 0.23654511607072742 0.40126740469448963 0.36537415158061431 0.3153811998283082 0.48419671271002307 0.50197568795131819 0.23177016938118677 0.37317585418980498 0.30934860561489569 0.28499435633687376
leaf_weight=39587.848050236702 1494160.3811571598 2315329.3121958971 1771834.0012962818 2286148.9643695354 2709909.2361311913 1602861.8810491562 1241984.7102468014 2211641.9615240097 1949067.2486736774 1531765.7958745956 5859952.7726569176 1443540.6810555458 1946974.3119748831 1464099.6489149332 852858.78006958961 1569277.7340497971 7190875.9802737236 1928294.1956984997 637531.24956607819 665667.05751025677 1138312.9620730877 1365201.3520410061 655374.47155892849 569876.74199736118 1407173.3127770424 2619908.791716814 719301.31045496464 783772.48853766918 361396.62155866623 959566.96726191044
leaf_count=20145 1273688 2353691 2281296 813737 3330774 877663 1181362 1025514 2456773 948903 640814 1319524 1036268 1871402 793141 1199154 10999377 2030900 174908 413183 1522165 884560 523073 574050 423443 593466 976230 599964 373166 1088606
internal_value=0.356109 0.29045 0.261143 0.472784 0.23386 0.381381 0.313866 0.424398 0.217609 0.358337 0.510649 0.292968 0.397273 0.207583 0.284441 0.341559 0.200645 0.279123 0.443834 0.361254 0.199622 0.375729 0.324688 0.271589 0.460424 0.487563 0.194309 0.345967 0.2634 0.261267
internal_weight=0 3.41021e+07 2.57899e+07 1.91912e+07 1.69953e+07 8.31214e+06 8.79466e+06 8.42515e+06 1.28626e+07 6.07175e+06 1.0766e+07 6.10324e+06 4.80634e+06 1.05522e+07 4.13264e+06 4.53998e+06 9.08808e+06 4.6597e+06 2.24039e+06 2.69142e+06 9.04849e+06 2.85936e+06 2.9707e+06 3.27979e+06 3.61882e+06 4.90606e+06 7.91018e+06 2.02576e+06 2.31046e+06 2.7314e+06
internal_count=44600940 37909450 31832058 6691490 22917223 6077392 8914835 4643473 18219258 5024821 2048017 6720326 3194516 15389319 4697965 4075918 13517917 5400802 1052571 2194509 13497772 2158248 2876764 3904824 1448957 1407203 11975607 1781326 2829939 3369902
cat_boundaries=0 79
cat_threshold=0 0 0 0 0 0 0 0 0 0 0 0 0 0 0 0 0 0 0 4096 0 1073742848 131072 0 0 16384 16384 1073741825 16 0 268435456 8192 0 262144 4194304 0 32896 256 0 0 68157440 1024 32 0 4096 0 0 0 0 0 0 0 0 0 0 0 0 0 0 0 0 0 0 16 0 268451840 0 0 0 0 0 0 1107296256 0 0 2097152 34078848 0 9216
is_linear=0
shrinkage=1


Tree=1
num_leaves=31
num_cat=2
split_feature=16 13 17 24 14 24 17 15 24 16 14 18 13 18 17 20 13 25 0 17 18 25 13 24 24 18 25 0 15 15
split_gain=3.46088e+07 7.82785e+06 3.40603e+06 2.32249e+06 2.02242e+06 973423 912865 728740 533229 488896 414112 397802 355530 283673 249051 246217 224708 223341 180597 146209 142646 137467 132734 130230 129847 105998 105124 98812.3 95929.8 89743
threshold=2.5000000000000004 1.0000000180025095e-35 5.5000000000000009 1.0000000180025095e-35 2.5000000000000004 1.5000000000000002 1.0000000180025095e-35 3.5000000000000004 2.5000000000000004 12.500000000000002 1.0000000180025095e-35 1.5000000000000002 4.5000000000000009 2.5000000000000004 1.0000000180025095e-35 1.0000000180025095e-35 2.5000000000000004 2.5000000000000004 0 1.5000000000000002 1.5000000000000002 1.0000000180025095e-35 5.5000000000000009 3.5000000000000004 2.5000000000000004 7.5000000000000009 3.5000000000000004 1 1.5000000000000002 1.0000000180025095e-35
decision_type=2 2 2 2 2 2 2 2 2 2 2 2 2 2 2 2 2 2 9 2 2 2 2 2 2 2 2 9 2 2
left_child=1 3 7 6 5 11 10 13 14 25 15 16 23 24 -5 18 19 -7 -1 28 -8 27 -9 -6 -2 -4 -10 -20 -3 -29
right_child=2 4 9 8 12 17 20 22 26 -11 -12 -13 -14 -15 -16 -17 -18 -19 21 -21 -22 -23 -24 -25 -26 -27 -28 29 -30 -31
leaf_value=0.077441308242525375 0.0027174339961639361 -0.085148469929826678 0.11082308680622413 -0.087630087047328983 0.021841981166525623 -0.0010649665412324264 -0.085282953234960865 0.080832188166349725 -0.010535412510461249 0.16927862003754604 -0.093180741050082283 -0.0065297245320145025 0.099441015958336543 0.06701836983416927 -0.039388195763349877 -0.10440270455155268 -0.016508113687755753 0.054289137001037518 0.014516543282562423 -0.030840439471323696 -0.025960181420806468 -0.11690653249729216 0.1205927094763416 0.073615318923270834 0.049019620096361585 0.14068249795828233 0.054122688245088792 -0.16432749630946863 -0.041764173103006209 -0.12301928073541213
leaf_weight=33454.257718026638 1991067.9037125111 3244284.0453404188 2441433.4400826693 2447872.8014011383 1896823.8578745723 2205268.6579347849 2216682.6192445159 2089823.8330944777 984093.88308483362 5425026.4853086472 1629615.1295408607 1740201.7653666735 1295133.0856364369 1853663.4020739198 1901358.8177391291 1128936.6319464445 931713.36774253845 1088767.86051929 32284.669196426868 779504.95483320951 496041.48089164495 827930.94713973999 1403477.6905557513 653138.38354587555 870438.49154859781 2317282.0175544024 337752.66316181421 6268380.4853628874 604659.48370933533 574097.52554857731
leaf_count=17074 1651512 4045683 864170 3050793 1404590 1858206 2780812 1013136 874258 643124 2093217 1526045 522377 1004159 1944804 1529431 849297 651763 26452 767470 481728 1170582 441139 334584 536787 536835 202464 10337181 629415 811852
internal_value=0 -0.060771 0.110122 -0.103162 -0.00534801 -0.0278943 -0.126146 0.0621898 -0.0496354 0.148758 -0.139512 -0.0482556 0.0567738 0.0365435 -0.0665401 -0.148029 -0.0613148 0.0172311 -0.154395 -0.0703344 -0.0744353 -0.155402 0.0968065 0.035103 0.016802 0.125363 0.00598575 -0.160038 -0.0783329 -0.160861
internal_weight=0 3.3318e+07 1.83922e+07 1.88785e+07 1.44395e+07 1.05944e+07 1.32074e+07 8.20847e+06 5.67108e+06 1.01837e+07 1.04947e+07 7.30036e+06 3.8451e+06 4.71517e+06 4.34923e+06 8.86508e+06 5.56016e+06 3.29404e+06 7.73615e+06 4.62845e+06 2.71272e+06 7.70269e+06 3.4933e+06 2.54996e+06 2.86151e+06 4.75872e+06 1.32185e+06 6.87476e+06 3.84894e+06 6.84248e+06
internal_count=44600940 37910078 6690862 25320648 12589430 10327879 19248329 4646733 6072319 2044129 15985789 7817910 2261551 3192458 4995597 13892572 6291865 2509969 12363141 5442568 3262540 12346067 1454275 1739174 2188299 1401005 1076722 11175485 4675098 11149033
cat_boundaries=0 79 157
cat_threshold=0 0 0 0 0 0 0 0 0 0 0 0 0 0 0 0 0 0 0 0 0 1073742848 131072 0 0 16384 16384 1073741824 16 0 268435456 8192 2 262176 0 0 32768 256 0 0 68165632 2 131104 262144 4096 0 0 0 0 0 0 0 0 0 0 0 0 0 0 0 0 0 0 16 0 268435456 0 0 0 0 0 0 1107296256 0 0 2097152 34078848 0 9216 8 4352 524288 0 2147483648 0 4194320 0 0 0 0 0 0 1048576 0 0 0 0 0 4224 0 134217728 0 4096 0 0 320 0 0 4 0 0 1 0 12615680 0 128 0 8 0 16384 4203520 0 4194304 0 0 0 2147483648 0 0 0 0 0 0 0 0 8388608 0 0 0 0 0 0 0 0 0 0 4 0 8388608 0 131072 0 0 0 0 0 4
is_linear=0
shrinkage=0.1


Tree=2
num_leaves=31
num_cat=2
split_feature=15 17 13 17 23 18 13 13 19 25 13 14 16 18 25 26 14 24 14 0 13 16 24 23 23 22 24 18 0 21
split_gain=2.94284e+07 6.61039e+06 3.16097e+06 3.15449e+06 1.38529e+06 805037 740150 638830 592264 392936 378200 323874 309112 269148 264175 201172 196662 175541 151265 139641 138215 131574 124595 122451 121729 113650 89275.9 82100.8 81452.2 77190.5
threshold=2.5000000000000004 1.5000000000000002 1.0000000180025095e-35 6.5000000000000009 1.0000000180025095e-35 2.5000000000000004 3.5000000000000004 3.5000000000000004 1.0000000180025095e-35 1.5000000000000002 13.500000000000002 1.0000000180025095e-35 1.5000000000000002 2.5000000000000004 1.5000000000000002 1.0000000180025095e-35 1.5000000000000002 5.5000000000000009 7.5000000000000009 0 8.5000000000000018 1.0000000180025095e-35 1.5000000000000002 2.5000000000000004 1.5000000000000002 1.5000000000000002 9.5000000000000018 1.5000000000000002 1 1.0000000180025095e-35
decision_type=2 2 2 2 2 2 2 2 2 2 2 2 2 2 2 2 2 2 2 9 2 2 2 2 2 2 2 2 9 2
left_child=1 2 4 6 8 12 13 9 11 16 26 15 22 23 25 19 24 -7 -8 -1 -9 28 -3 -2 -4 -6 -5 -10 -21 -30
right_child=3 5 7 10 14 17 18 20 27 -11 -12 -13 -14 -15 -16 -17 -18 -19 -20 21 -22 -23 -24 -25 -26 -27 -28 -29 29 -31
leaf_value=0.073705290264311871 0.004996951267335654 -0.036969947881215215 -0.074974805133665598 0.11331590674047767 -0.081500637904138515 0.048844803385390913 0.081720054157979727 0.018374764599763869 -0.087858586246487749 -0.0043851149286552229 0.16808000953141539 -0.092578628360940773 0.027054778274534994 0.065749764984932943 -0.012618347817059001 -0.10444746692474725 -0.022296469647074272 0.10397141269118515 0.12336386180044767 0.016447436714258273 0.10700230317452815 -0.11029677820818212 0.0065398634222896546 0.047743244070687647 -0.030000445619132329 -0.032512189408155409 0.14262010173893117 -0.035016470177205071 -0.1602345342572371 -0.11978646348122789
leaf_weight=27601.877691864967 2065399.8945459127 2014749.3074247837 3642443.9277015924 2383661.2215391397 2627929.0897300243 2201556.5322352648 2712766.8049545288 990398.74627077579 1862978.5095100999 1846735.8179945946 4357342.334854126 1402654.3751363754 2134559.8221617937 2042496.2572405934 949447.13310521841 1081157.8494042754 1231734.035269022 783108.95252996683 1285603.4494358897 27218.534485578537 213978.79931724072 693169.68326920271 977448.25927698612 992000.71800935268 720928.57140266895 577666.21799743176 1843769.548465848 349128.68529981375 5784940.4072449207 513708.61185532808
leaf_count=13961 1714104 2086961 4496185 771055 3397170 1332847 1244760 734563 2479666 1605751 495908 1870340 1517863 1096293 881595 1530549 1171259 286954 368563 22132 78821 996632 784825 615532 720571 600836 383782 365726 10156363 779373
internal_value=0 -0.0562437 -0.0821088 0.103925 -0.108575 0.0220199 0.0628977 -0.0334466 -0.126134 -0.0443816 0.147406 -0.136954 -0.00201741 0.0376431 -0.05895 -0.144612 -0.057583 0.0633088 0.0951099 -0.150775 0.034121 -0.151657 -0.0227568 0.0188664 -0.067544 -0.0726726 0.126097 -0.0795187 -0.15619 -0.156935
internal_weight=0 3.26552e+07 2.45438e+07 1.7683e+07 1.58976e+07 8.11142e+06 9.09827e+06 8.64622e+06 1.17426e+07 7.44184e+06 8.58477e+06 9.53045e+06 5.12676e+06 5.0999e+06 4.15504e+06 8.1278e+06 5.59511e+06 2.98467e+06 3.99837e+06 7.04664e+06 1.20438e+06 7.01904e+06 2.9922e+06 3.0574e+06 4.36337e+06 3.2056e+06 4.22743e+06 2.21211e+06 6.32587e+06 6.29865e+06
internal_count=44600940 37910943 31901493 6689997 23094343 6009450 5039252 8807150 18214742 7993766 1650745 15369350 4389649 3425929 4879601 13499010 6388015 1619801 1613323 11968461 813384 11954500 2871786 2329636 5216756 3998006 1154837 2845392 10957868 10935736
cat_boundaries=0 79 155
cat_threshold=0 4096 0 0 0 0 4194304 0 0 0 0 0 0 0 0 0 0 0 0 0 0 1073742848 131072 0 0 16384 16384 1073741824 16 0 268435456 8192 0 262144 0 0 32896 256 0 0 67117056 0 32 262144 4096 0 0 0 0 0 0 0 0 0 0 0 0 0 0 0 0 0 0 16 0 268435456 0 0 0 0 0 131072 1107296256 0 0 2097152 34078848 4 9216 65544 0 524288 0 2147483648 1048576 16 0 0 0 0 0 0 1048576 0 0 0 0 0 4096 0 0 128 4096 0 0 320 0 0 4 32768 8388608 3 33554464 12582912 0 0 0 8 0 0 4203520 131072 0 0 0 0 2147483648 0 0 0 0 0 0 0 0 0 0 0 0 0 0 0 0 0 16384 0 0 0 8388608 0 0 0 524288 0 1026
is_linear=0
shrinkage=0.1


Tree=3
num_leaves=31
num_cat=2
split_feature=14 17 16 25 18 13 24 16 26 22 17 17 13 15 23 24 13 17 23 18 15 0 25 17 0 24 16 22 13 25
split_gain=2.49241e+07 5.80502e+06 2.95632e+06 1.86847e+06 1.51436e+06 938975 645589 515136 448334 434712 420491 414419 304337 241258 233034 165305 155150 144635 143700 143699 138589 135072 122155 99433.7 98927 95713.4 92834.5 91727 86372.5 85960.7
threshold=2.5000000000000004 1.0000000180025095e-35 6.5000000000000009 1.0000000180025095e-35 1.5000000000000002 1.0000000180025095e-35 4.5000000000000009 1.5000000000000002 1.5000000000000002 1.0000000180025095e-35 3.5000000000000004 15.500000000000002 3.5000000000000004 1.0000000180025095e-35 1.5000000000000002 1.5000000000000002 2.5000000000000004 2.5000000000000004 2.5000000000000004 1.0000000180025095e-35 1.0000000180025095e-35 0 4.5000000000000009 3.5000000000000004 1 6.5000000000000009 1.0000000180025095e-35 1.0000000180025095e-35 9.5000000000000018 7.5000000000000009
decision_type=2 2 2 2 2 2 2 2 2 2 2 2 2 2 2 2 2 2 2 2 2 9 2 2 9 2 2 2 2 2
left_child=1 3 6 5 7 9 12 14 15 13 18 28 17 19 20 27 -7 -2 -6 21 -3 -1 -10 -9 -23 -12 -26 -5 -4 -8
right_child=2 4 11 8 10 16 29 23 22 -11 25 -13 -14 -15 -16 -17 -18 -19 -20 -21 -22 24 -24 -25 26 -27 -28 -29 -30 -31
leaf_value=0.06939574194274728 0.0088659492924488565 -0.07453692461541897 0.10755301316352031 -0.084294517866644214 0.0012782992618997004 -0.071673932575603047 0.083982078400837712 -0.0046111254406454921 -0.0097374365401681259 -0.079222304754875239 0.056818831953851914 0.16525499872017255 0.069470746853763407 -0.091163735218740147 -0.010542619235347973 -0.019371409465839762 -0.0095762710529070025 0.049283506548256549 0.043375922739580158 -0.10049364702573382 -0.039080730091291635 0.017387053306099916 0.060769349265202825 0.044088980587980275 -0.15351024255616619 0.104805881717698 -0.10908231556851916 -0.048642907164086119 0.13596651324822046 0.11998926302204141
leaf_weight=28497.222206711769 2574527.0048965812 2558695.6844747961 2441744.4463766813 1830456.5299072862 2657534.7307897806 2363278.5994795561 1884812.3843299747 1956775.4744076133 1266994.3416387439 1614637.2277822196 1575077.5680317283 3787381.3287372589 2164881.586986661 1036733.826965034 1256186.8284580708 810144.63581508398 484900.98975545168 1349473.2718974948 1166882.8264348507 716134.70917031169 1936943.6941289306 35611.364454984665 304847.32225877047 533571.57757097483 5607165.3088414669 564653.56519043446 513386.60329547524 1191379.8577705622 1904181.739746511 1022797.6245574355
leaf_count=14647 2085610 3292065 807240 2487157 2230326 2980632 811535 1700579 1175186 2194916 865572 430752 1056441 1453575 1155758 772435 430348 793057 731686 1056197 2090402 29612 175673 327118 10404195 192506 780608 1370679 412474 291959
internal_value=0 -0.0520708 0.0973829 -0.0901104 -0.00439744 -0.111496 0.057883 -0.0321707 -0.0410367 -0.126522 0.0339839 0.141075 0.0393715 -0.136143 -0.0486207 -0.0594844 -0.0611018 0.0227656 0.0141229 -0.142901 -0.0592606 -0.147811 0.00393684 0.00582316 -0.148816 0.0694821 -0.149783 -0.0702386 0.120002 0.0966482
internal_weight=0 3.20105e+07 1.71298e+07 1.78042e+07 1.42063e+07 1.24003e+07 8.99649e+06 8.24217e+06 5.40382e+06 9.55217e+06 5.96415e+06 8.13331e+06 6.08888e+06 7.93753e+06 5.75183e+06 3.83198e+06 2.84818e+06 3.924e+06 3.82442e+06 6.9008e+06 4.49564e+06 6.18466e+06 1.57184e+06 2.49035e+06 6.15616e+06 2.13973e+06 6.12055e+06 3.02184e+06 4.34593e+06 2.90761e+06
internal_count=44600940 37911872 6689068 25325860 12586012 19344730 5038602 8565922 5981130 15933750 4020090 1650466 3935108 13738834 6538225 4630271 3410980 2878667 2962012 12285259 5382467 11229062 1350859 2027697 11214415 1058078 11184803 3857836 1219714 1103494
cat_boundaries=0 79 157
cat_threshold=0 4096 0 0 0 0 16 0 0 0 0 0 0 0 0 0 0 0 0 0 0 1073741824 131072 0 0 16384 16384 1073741825 16 0 268435456 8192 2 262144 0 0 32768 256 0 0 67117056 1024 131104 0 4096 0 0 0 0 0 0 0 0 0 0 0 0 0 0 0 0 0 0 16 0 268435456 0 0 0 0 0 131072 1107296256 0 0 2097152 34078848 0 9216 8 0 524288 0 2147483648 0 4194304 0 0 0 0 0 0 1048576 0 0 0 0 0 4224 0 134218752 0 4096 0 0 256 0 0 4 32768 0 1 1056 4227072 0 128 0 0 0 1064960 4202498 0 4456448 131072 0 0 2147483648 0 0 0 0 0 0 0 0 0 0 0 0 0 0 0 0 0 0 0 0 0 0 0 0 524288 525312 0 0 0 4
is_linear=0
shrinkage=0.1


Tree=4
num_leaves=31
num_cat=2
split_feature=13 16 17 24 24 14 14 15 19 26 17 24 19 26 23 19 18 13 16 13 19 0 21 15 14 20 25 14 0 18
split_gain=2.11245e+07 5.13645e+06 2.75068e+06 1.72505e+06 1.24554e+06 747071 645534 581677 418120 355666 332775 292876 274369 215875 183035 155526 153226 152195 138992 114284 108220 104014 105244 100966 92259.5 78568 74313.8 71346.8 69213.7 69719.1
threshold=2.5000000000000004 1.0000000180025095e-35 7.5000000000000009 1.0000000180025095e-35 2.5000000000000004 1.0000000180025095e-35 4.5000000000000009 1.5000000000000002 1.0000000180025095e-35 1.5000000000000002 19.500000000000004 3.5000000000000004 1.5000000000000002 1.0000000180025095e-35 4.5000000000000009 1.5000000000000002 1.0000000180025095e-35 1.0000000180025095e-35 2.5000000000000004 10.500000000000002 2.5000000000000004 0 1.0000000180025095e-35 1.5000000000000002 1.0000000180025095e-35 3.5000000000000004 3.5000000000000004 10.500000000000002 1 1.0000000180025095e-35
decision_type=2 2 2 2 2 2 2 2 2 2 2 2 2 2 2 2 2 2 2 2 2 9 2 2 2 2 2 2 9 2
left_child=1 3 6 5 7 8 11 12 13 15 27 18 16 17 26 24 -3 21 -2 -8 -9 -1 28 -7 -5 -11 -6 -4 -23 -30
right_child=2 4 10 9 14 23 19 20 -10 25 -12 -13 -14 -15 -16 -17 -18 -19 -20 -21 -22 22 -24 -25 -26 -27 -28 -29 29 -31
leaf_value=0.072569820399311924 0.0082494213406231181 -0.064898496799516328 0.10779117647931513 -0.076873447531804751 0.020896518599949458 -0.068451877608991948 0.079487387031461992 0.0014183258810384319 -0.072698067474760292 -0.0074838505388855892 0.16395504420353907 0.068973958102088714 -0.002740903571859017 -0.088016025038695628 0.080052670335958045 -0.013105694424661552 -0.030495747641535478 -0.092706280852821149 0.046549686380944928 0.12041488005119433 0.041131710796574676 0.019614790533843546 -0.099882680466198859 -0.017977281310182763 -0.041498373376091857 0.051511076166376069 0.058130196053225995 0.13450019389721629 -0.15043538324457983 -0.10690594569004258
leaf_weight=22662.087099820375 2714841.1179714203 2852341.9155178666 2208615.5151949525 1968104.5053530037 1849328.2122297883 2178891.8040908277 2704745.6826444864 2495826.0980552137 1590448.7942027152 1234957.806724906 2977414.3341319561 1901264.385594666 1672048.6628063023 1099398.5235993862 1118661.9477088451 755833.7051640749 2370601.9932515025 726088.00217047334 1455510.2977842689 912425.86443567276 946352.12350085378 25012.662128329277 536671.30873015523 484410.03848531842 1178850.6326988935 276239.31144431233 754834.09845167398 1827846.1138496995 4868966.1024019122 398025.93618503213
leaf_count=11099 2149987 3643451 676688 2648242 1338767 2843418 1153359 2127125 2173805 1129860 325653 914737 1492843 1607350 485143 721454 2492832 1047501 851681 239965 604242 21065 850436 477879 1313705 167253 401490 375863 9677653 636394
internal_value=0 -0.0482931 0.0908973 -0.0847053 -0.00337474 -0.10595 0.0563693 -0.0212364 -0.119365 -0.0378896 0.138593 0.0364462 -0.037997 -0.129033 0.0462216 -0.0538387 -0.0492837 -0.135889 0.0216167 0.0898113 0.0123367 -0.141247 -0.142078 -0.0592714 -0.0636219 0.00330013 0.031689 0.119886 -0.146358 -0.147146
internal_weight=0 3.14046e+07 1.67027e+07 1.73446e+07 1.406e+07 1.19306e+07 9.68879e+06 1.03372e+07 9.26727e+06 5.41399e+06 7.01388e+06 6.07162e+06 6.89499e+06 7.67682e+06 3.72282e+06 3.90279e+06 5.22294e+06 6.57743e+06 4.17035e+06 3.61717e+06 3.44218e+06 5.85134e+06 5.82868e+06 2.6633e+06 3.14696e+06 1.5112e+06 2.60416e+06 4.03646e+06 5.292e+06 5.26699e+06
internal_count=44600940 37913007 6687933 25327114 12585893 19346600 5309729 10360493 16025303 5980514 1378204 3916405 7629126 13851498 2225400 4683401 6136283 12244148 3001668 1393324 2731367 11196647 11185548 3321297 3961947 1297113 1740257 1052551 10335112 10314047
cat_boundaries=0 79 157
cat_threshold=65536 4352 0 0 0 0 16 0 0 0 0 0 0 0 0 0 0 0 0 0 0 1073742848 131072 0 0 16384 16448 1073741824 16 0 268435456 8192 0 262144 0 0 32768 0 0 0 67108864 0 32 262144 5120 0 0 0 0 0 0 0 0 0 0 0 0 0 0 0 0 0 0 16 0 268451840 0 0 0 0 0 131072 1107296256 0 0 2097152 34078720 0 9216 0 0 524288 2 2147483648 0 0 0 0 0 0 0 0 0 0 0 0 524288 0 128 0 0 128 4096 0 0 0 0 0 4 16777216 8388608 1 33555488 8388608 0 2097152 256 8 0 8192 9224 0 4194304 524800 0 0 0 0 0 0 0 0 0 0 0 8388608 0 0 0 0 0 0 0 0 0 0 4 0 8388608 0 0 524800 0 0 2 0 4
is_linear=0
shrinkage=0.1


Tree=5
num_leaves=31
num_cat=2
split_feature=17 14 18 23 15 13 16 26 20 16 22 25 18 15 25 15 13 24 15 0 13 25 16 23 18 0 25 15 24 19
split_gain=1.77988e+07 4.30608e+06 2.45247e+06 1.59158e+06 1.04493e+06 713242 544530 501105 417899 370550 329444 234462 221146 215631 177110 144822 138213 128679 121375 117455 115019 111167 99326.3 97463.4 95634.4 88880.1 85808.5 80748.6 80412.2 76494.7
threshold=2.5000000000000004 1.0000000180025095e-35 7.5000000000000009 1.0000000180025095e-35 2.5000000000000004 1.0000000180025095e-35 3.5000000000000004 1.5000000000000002 1.0000000180025095e-35 18.500000000000004 1.5000000000000002 1.0000000180025095e-35 1.5000000000000002 7.5000000000000009 2.5000000000000004 1.0000000180025095e-35 1.5000000000000002 1.5000000000000002 6.5000000000000009 0 5.5000000000000009 2.5000000000000004 1.0000000180025095e-35 4.5000000000000009 1.0000000180025095e-35 1 3.5000000000000004 1.5000000000000002 10.500000000000002 1.0000000180025095e-35
decision_type=2 2 2 2 2 2 2 2 2 2 2 2 2 2 2 2 2 2 2 9 2 2 2 2 2 9 2 2 2 2
left_child=1 3 6 5 7 8 14 12 11 28 17 15 16 26 27 19 22 29 -8 -1 -7 -9 -3 -12 25 -21 -6 -2 -4 -5
right_child=2 4 9 10 13 20 18 21 -10 -11 23 -13 -14 -15 -16 -17 -18 -19 -20 24 -22 -23 -24 -25 -26 -27 -28 -29 -30 -31
leaf_value=0.062470952326602713 -0.0018195263235527054 -0.066683903196916347 0.098593309798175099 -0.071644741421011043 0.02067422030736563 -0.057564242637052544 0.06480059723419665 0.00036944744401313715 -0.065705168919111004 0.15874984299603204 -0.005673368000192542 -0.080020685604069747 -0.0030090726180468665 0.094335695221482885 0.051786093890338905 -0.087477673732006822 -0.015062920757363603 -0.015006527094337 0.099132707365469461 0.0239988762245388 0.056154891591746463 0.04046382391390764 -0.035344194619219671 0.05997905376054713 -0.095653997200096347 -0.14174110888591107 0.058328400922404967 0.030999419797840683 0.12700410236370777 -0.038883043564472308
leaf_weight=29840.106156051159 1557074.0979077816 2374104.7210274935 2251283.5930397511 1797830.0144160688 2188041.1871355772 2563295.9086503983 2778007.4607315063 2181128.5274016857 1567259.3593536317 2751579.0922966599 1226728.6216976345 1103424.1691353023 1678801.5853108168 655971.33761280775 2110086.8903593421 710945.4492765069 1222566.7463830709 873346.16911056638 1636269.0772679448 32570.606316775084 92138.176389276981 1012560.6662671864 1761717.3682940304 277219.86460804939 520664.98906606436 5008518.6157797873 836612.3061081171 1445835.417745173 1786979.9539206028 1180755.3631149232
leaf_count=16658 1317629 3182388 732156 2509899 1579499 3202722 1305021 1910518 2178311 319336 1131760 1620082 1484781 245961 1157657 1074702 1141893 828624 526976 28618 53438 643448 1965159 157396 824051 10331381 436540 944540 388175 1361621
internal_value=0 -0.0445826 0.0845255 -0.0783696 -0.00333209 -0.0991445 0.051797 -0.0197706 -0.112617 0.130449 -0.0332634 -0.122544 -0.0346798 0.0423612 0.0295835 -0.129989 -0.0446023 -0.0487606 0.0775267 -0.135395 -0.0536184 0.0130814 -0.0533343 0.00642821 -0.136456 -0.14067 0.0310893 0.0139821 0.111165 -0.0586575
internal_weight=0 3.0896e+07 1.63171e+07 1.69845e+07 1.39115e+07 1.16287e+07 9.52727e+06 1.02309e+07 8.97322e+06 6.78984e+06 5.35588e+06 7.40596e+06 7.03719e+06 3.68062e+06 5.113e+06 6.30254e+06 5.35839e+06 3.85193e+06 4.41428e+06 5.59159e+06 2.65543e+06 3.19369e+06 4.13582e+06 1.50395e+06 5.56175e+06 5.04109e+06 3.02465e+06 3.00291e+06 4.03826e+06 2.97859e+06
internal_count=44600940 37909450 6691490 25319263 12590187 19329963 5251823 10328187 16073803 1439667 5989300 13895492 7774221 2262000 3419826 12275410 6289440 4700144 1831997 11200708 3256160 2553966 5147547 1289156 11184050 10359999 2016039 2262169 1120331 3871520
cat_boundaries=0 79 156
cat_threshold=65536 0 0 0 0 0 0 0 0 0 0 0 0 0 0 0 0 0 0 4096 0 1073742848 131584 0 0 16384 16384 1073741824 16 0 268468224 524288 2 262144 0 0 32896 0 0 0 1048576 0 131104 0 4096 0 0 2147483648 0 0 0 0 0 0 0 0 0 0 0 0 0 0 0 16 0 268435456 0 0 0 0 262144 0 1107296256 1024 0 2097152 524416 0 8192 8 4096 0 2 0 1048576 4194304 0 0 0 0 0 0 1048576 0 0 0 0 0 0 0 134217728 128 0 0 0 0 0 0 260 0 8396800 0 2048 32768 262144 2097152 256 8 1 16384 4195330 33554432 0 131844 0 0 0 0 0 0 0 0 0 0 0 0 0 0 0 0 0 0 0 0 0 0 0 0 0 0 131072 0 0 0 1024 33554432
is_linear=0
shrinkage=0.1


Tree=6
num_leaves=31
num_cat=2
split_feature=16 13 16 21 26 18 18 14 13 26 20 15 22 14 25 17 17 22 14 0 22 25 24 25 13 20 18 0 14 17
split_gain=1.49893e+07 3.67091e+06 2.20454e+06 1.4935e+06 931341 677391 467653 409222 372749 352904 268813 220999 210239 185979 177990 130754 120721 119482 113210 101100 88920.4 86942.2 83259.1 78553.4 73461.6 73253.1 72382.9 68785.2 68167.3 67845.6
threshold=2.5000000000000004 1.0000000180025095e-35 8.5000000000000018 1.0000000180025095e-35 2.5000000000000004 1.0000000180025095e-35 4.5000000000000009 1.5000000000000002 17.500000000000004 1.0000000180025095e-35 1.5000000000000002 1.0000000180025095e-35 1.5000000000000002 2.5000000000000004 5.5000000000000009 1.0000000180025095e-35 1.5000000000000002 1.5000000000000002 6.5000000000000009 0 1.0000000180025095e-35 1.5000000000000002 11.500000000000002 2.5000000000000004 6.5000000000000009 1.5000000000000002 1.0000000180025095e-35 1 1.0000000180025095e-35 33.500000000000007
decision_type=2 2 2 2 2 2 2 2 2 2 2 2 2 2 2 2 2 2 2 9 2 2 2 2 2 2 2 9 2 2
left_child=1 3 6 5 7 9 13 12 22 11 17 15 16 23 -6 19 24 26 -9 -1 27 -7 -4 -2 25 -3 -5 -21 -29 -10
right_child=2 4 8 10 14 21 -8 18 29 -11 -12 -13 -14 -15 -16 -17 -18 -19 -20 20 -22 -23 -24 -25 -26 -27 -28 28 -30 -31
leaf_value=0.060037201517779082 0.0051063666016917192 -0.057240376264904469 0.091573289619128195 -0.064950223928495684 0.029100990316217164 -0.057544805598988807 0.077975300883241769 0.0038131603831507051 0.13828797713773783 -0.064970573755366495 0.0085556946010784223 -0.073305130909152583 -0.00080187079305796434 0.050833307593113011 0.082837334411197783 -0.082342068789025946 -0.012243768688045473 -0.0091790894699992475 0.065895019631918891 0.02851808181544226 -0.089940512929824301 -0.011294936235240197 0.12215107822677387 0.037793231270526383 0.058643266369449387 -0.021884735240675184 -0.032994574118658547 -0.13845206120849599 -0.095129340465069115 0.17030175070290343
leaf_weight=28194.172598809004 2252615.9467317462 3448950.8993295729 2261034.7862281799 1739503.6719550788 2725297.7682155669 2136574.2820728719 3385248.3525205851 3208198.2392120063 1491651.9486411214 1652320.3782451749 1425587.4778196812 1022309.1386977434 1619760.7644967437 2763646.7722572088 796557.28063881397 682147.75688266754 1086618.8247623742 841102.75576522946 323339.40730267763 25905.73024225235 505985.17032977939 501939.22188267112 1469019.6515551209 1091459.2820343375 61753.159284293652 705966.49672031403 1196309.9795275629 4405752.8529433608 395830.25807827711 1190177.6497401595
leaf_count=16445 1824880 4418402 760770 2483909 1855307 2841998 1334403 2613184 244571 2328573 1243729 1488253 1443546 1455332 320664 1050920 1010157 823349 154483 23786 839859 488905 317418 663483 35032 738655 1370249 9683573 637100 90005
internal_value=0 -0.0409613 0.0787598 -0.0728148 -0.00322096 -0.0931409 0.0481623 -0.0182036 0.12406 -0.106576 -0.0284433 -0.116305 -0.0323341 0.0316383 0.0412548 -0.123579 -0.0419649 -0.0424085 0.00949723 -0.128825 -0.129823 -0.0487464 0.103616 0.0157749 -0.0496239 -0.0512331 -0.0519287 -0.134004 -0.13488 0.152495
internal_weight=0 3.05359e+07 1.59049e+07 1.65595e+07 1.39764e+07 1.1357e+07 9.49297e+06 1.04546e+07 6.41188e+06 8.71845e+06 5.2025e+06 7.06613e+06 6.92305e+06 6.10772e+06 3.52186e+06 6.04382e+06 5.30329e+06 3.77692e+06 3.53154e+06 5.36167e+06 5.33347e+06 2.63851e+06 3.73005e+06 3.34408e+06 4.21667e+06 4.15492e+06 2.93581e+06 4.82749e+06 4.80158e+06 2.68183e+06
internal_count=44600940 37910078 6690862 25320648 12589430 19399412 5278098 10413459 1412764 16068509 5921236 13739936 7645792 3943695 2175971 12251683 6202246 4677507 2767667 11200763 11184318 3330903 1078188 2488363 5192089 5157057 3854158 10344459 10320673 334576
cat_boundaries=0 79 157
cat_threshold=0 0 0 0 0 0 4194304 0 0 0 0 0 0 0 0 0 0 0 0 0 0 1073741824 0 0 0 16384 16384 1073741824 16 0 268435456 8192 0 33816576 12582912 0 32770 0 0 0 67117056 8 131104 262144 4096 0 0 2147483648 0 0 0 0 0 0 0 0 0 0 0 0 0 0 0 16 0 268435456 0 0 0 0 0 0 1107296768 524288 0 2097154 524288 0 8192 8 256 524288 0 2147483648 0 0 0 0 0 0 0 0 0 0 0 0 0 0 0 0 67108864 0 4096 0 0 131392 0 0 264 0 0 1 1024 32768 0 128 0 0 1 0 4202496 33554432 4194304 557060 2048 0 0 0 0 0 0 0 0 0 0 0 0 0 0 0 0 0 0 0 16384 0 0 524288 8388608 262144 0 0 1024 0 0 2 4
is_linear=0
shrinkage=0.1


Tree=7
num_leaves=31
num_cat=2
split_feature=19 15 17 25 15 13 23 23 22 17 25 16 16 14 18 13 20 23 18 0 26 20 17 25 24 13 14 0 25 24
split_gain=1.27234e+07 3.32536e+06 1.90445e+06 1.19372e+06 820410 621363 411138 405207 330543 303567 234087 198203 187160 159359 156962 149387 123777 113926 110017 92453.1 81628.7 75826.8 75699.8 72024.8 70753.1 69348.9 62692.3 59657.1 59121.3 56997.7
threshold=2.5000000000000004 1.0000000180025095e-35 8.5000000000000018 1.0000000180025095e-35 3.5000000000000004 1.0000000180025095e-35 4.5000000000000009 1.5000000000000002 1.0000000180025095e-35 24.500000000000004 2.5000000000000004 1.0000000180025095e-35 1.5000000000000002 7.5000000000000009 3.5000000000000004 5.5000000000000009 1.0000000180025095e-35 1.5000000000000002 1.0000000180025095e-35 0 1.0000000180025095e-35 2.5000000000000004 1.0000000180025095e-35 2.5000000000000004 8.5000000000000018 10.500000000000002 1.0000000180025095e-35 1 6.5000000000000009 4.5000000000000009
decision_type=2 2 2 2 2 2 2 2 2 2 2 2 2 2 2 2 2 2 2 9 2 2 2 2 2 2 2 9 2 2
left_child=1 3 6 5 7 8 14 12 11 25 17 16 18 29 21 -7 19 22 -3 -1 26 -2 -5 -9 -8 -4 27 -21 -12 -6
right_child=2 4 9 10 13 15 24 23 -10 -11 28 -13 -14 -15 -16 -17 -18 -19 -20 20 -22 -23 -24 -25 -26 -27 -28 -29 -30 -31
leaf_value=0.059863036997993668 0.0095962178088939247 -0.051345474397676671 0.090104250064189373 -0.062308483114796955 0.024959211252897569 -0.05036081269975147 0.065646094601202534 0.0034451778240127875 -0.058120252968371894 0.15308942990655861 -0.0012137339696245777 -0.067937453065553849 -0.0019978229568827573 0.092278576641526694 0.053585390605625782 0.063247678034088498 -0.076277064764764646 -0.0092032699749239593 -0.022379143769967285 0.03384010280483226 -0.085977534443600068 0.037677041892004971 -0.030883285706834868 0.034096202947956247 0.096706897914772744 0.11741526858178947 -0.0889496743982644 -0.13156633971118015 0.056257487294800956 0.060457624136196687
leaf_weight=27845.512743234634 2486050.5467390716 2850753.5638254583 1833958.2776652575 1892635.2190221846 1957948.1639847159 2615680.8499391675 2442185.5478248 2524279.9682546258 1523071.6938810647 1898969.1551110446 1036771.4024350643 976424.67388442159 1984290.6132042408 555425.1864258647 2209888.6008774936 121100.85341757536 673312.42021656036 895505.59545701742 2427948.3019876182 21921.656170099974 537901.98549979925 1568212.4104349613 1288348.3722011745 1101031.251260072 1048099.9461787045 1885741.5070021152 393087.34842547774 4192875.425429225 216347.89691635966 588194.54763171077
leaf_count=16374 2022174 3728740 580530 2681480 1332529 3279864 1081319 2130860 2177416 216133 924295 1450486 1712147 180811 1109094 62946 1087656 851685 2564503 21595 909354 961486 1447678 684762 320135 401426 641807 9627470 123178 271007
internal_value=0 -0.0374482 0.0741823 -0.0679818 -0.00162631 -0.0866832 0.0474695 -0.014551 -0.100242 0.120558 -0.0290911 -0.109644 -0.0281803 0.0437468 0.0321448 -0.0453337 -0.116609 -0.0407108 -0.0380224 -0.121857 -0.122841 0.020458 -0.0495808 0.0127541 0.0749734 0.10395 -0.127144 -0.130706 0.00870853 0.0331598
internal_weight=0 3.04027e+07 1.53731e+07 1.64128e+07 1.39899e+07 1.10832e+07 9.75444e+06 1.08883e+07 8.34644e+06 5.61867e+06 5.32961e+06 6.82337e+06 7.26299e+06 3.10157e+06 6.26415e+06 2.73678e+06 5.84694e+06 4.07649e+06 5.2787e+06 5.17363e+06 5.14579e+06 4.05426e+06 3.18098e+06 3.62531e+06 3.49029e+06 3.7197e+06 4.60788e+06 4.2148e+06 1.25312e+06 2.54614e+06
internal_count=44600940 37908643 6692297 25303284 12605359 19274968 5494208 10821012 15932158 1198089 6028316 13754742 8005390 1784347 4092754 3342810 12304256 4980843 6293243 11216600 11200226 2983660 4129158 2815622 1401454 981956 10290872 9649065 1047473 1603536
cat_boundaries=0 79 158
cat_threshold=65536 0 0 0 0 0 0 0 0 0 0 0 0 0 0 0 0 524288 0 0 0 1207960576 131584 0 0 16384 16384 1073741824 16 0 268435456 524288 0 262144 0 0 32768 256 2147483648 0 1064960 0 32 0 4096 2048 0 0 0 0 0 0 0 0 0 0 8388608 0 0 0 0 0 0 16 0 268435456 0 16 0 0 262144 0 1107820544 0 0 0 524288 0 8192 0 4096 0 0 0 1048576 0 0 0 0 0 0 0 0 0 0 512 0 0 128 8 2048 268435584 4096 0 32768 64 0 0 12 553648128 8192 0 33556512 0 262144 2097152 0 0 0 0 0 0 0 1792 0 0 0 0 0 0 0 0 0 0 0 0 0 0 0 0 0 0 0 0 0 0 4 0 8388608 0 131072 0 524288 0 2097152 33554432 4 1024
is_linear=0
shrinkage=0.1


Tree=8
num_leaves=31
num_cat=1
split_feature=18 14 18 21 14 17 15 24 13 13 21 24 17 13 24 26 21 24 0 13 16 24 23 15 24 20 20 19 24 21
split_gain=1.06417e+07 2.77845e+06 1.73359e+06 1.07601e+06 666155 506223 410816 358194 320431 253650 208547 201938 174327 159164 146194 118740 101681 94040 92770.9 91613.5 84120.3 72247.1 65717.9 65590 62169.4 61288.3 59939 59391.8 56311.2 51475
threshold=2.5000000000000004 1.0000000180025095e-35 10.500000000000002 1.0000000180025095e-35 3.5000000000000004 1.0000000180025095e-35 4.5000000000000009 1.5000000000000002 1.0000000180025095e-35 22.500000000000004 2.5000000000000004 1.0000000180025095e-35 1.5000000000000002 7.5000000000000009 3.5000000000000004 1.0000000180025095e-35 1.5000000000000002 1.5000000000000002 0 6.5000000000000009 1.0000000180025095e-35 7.5000000000000009 2.5000000000000004 1.0000000180025095e-35 1.5000000000000002 2.5000000000000004 1.0000000180025095e-35 1.0000000180025095e-35 15.500000000000002 7.5000000000000009
decision_type=2 2 2 2 2 2 2 2 2 2 2 2 2 2 2 2 2 2 9 2 2 2 2 2 2 2 2 2 2 2
left_child=1 3 6 5 7 8 14 12 11 28 17 15 16 -6 25 18 23 27 -1 -10 26 -8 -9 -3 -7 -2 -20 -5 -4 -12
right_child=2 4 9 10 13 24 21 22 19 -11 29 -13 -14 -15 -16 -17 -18 -19 20 -21 -22 -23 -24 -25 -26 -27 -28 -29 -30 -31
leaf_value=0.054984608036118078 0.0090118279835811489 -0.05360305465567821 0.089972401655153023 -0.055869127095502916 0.028844675637139952 -0.049652294339919391 0.059963399738008884 0.0031758748883914003 -0.056372842441084037 0.14757202625045807 0.0050790032628738931 -0.06292891118726919 0.00043479189663072878 0.088277376540266364 0.049881120242193766 -0.072384971155646016 -0.0090302174724670153 -0.0071722505982182369 -0.12413450826263819 0.084800689793571624 -0.076905147991987208 0.087797790025299111 0.03217237192093763 -0.0286529307896847 -0.010671856175406088 0.034293104490286413 -0.081160918286847655 -0.027694114264549381 0.11835529248850252 0.069360007992539233
leaf_weight=31818.110636353493 2635428.8721693754 2327944.8747346103 1963668.5067260861 1764506.8490913808 2492059.6587113738 2124944.1124488711 2544357.9760452509 2391284.7890871167 1554063.685773313 1781272.3649281263 980210.88209351897 1109794.3785485625 1848325.8619613349 550062.09673470259 2248660.8715623617 745436.56731918454 1170794.4594743252 901096.72243949771 4047099.9357498586 47368.829801082611 487437.60392844677 1472017.9832161069 1161145.1557310224 1924825.7886468768 506717.04048737884 1507380.6636080742 352867.7390678525 1298920.1050921679 1085364.6974106431 142712.33322113752
leaf_count=21260 2092733 3179604 598385 2528524 1603265 2846198 1106711 2016141 2104969 211292 880918 1671013 1604825 180697 1109324 1221826 1149999 842983 9659053 20629 810231 449648 727736 2142477 483405 909657 633967 1504203 213908 75359
internal_value=0 -0.0345616 0.0680803 -0.0628271 -0.00175343 -0.0804051 0.0451022 -0.0133731 -0.0924257 0.117591 -0.0247943 -0.101935 -0.0260875 0.039591 0.029353 -0.109577 -0.0351262 -0.0355697 -0.115213 -0.0521971 -0.116321 0.0701648 0.0126537 -0.0423105 -0.0421467 0.0182105 -0.120688 -0.0439227 0.100076 0.0132485
internal_weight=0 2.99614e+07 1.52382e+07 1.6095e+07 1.38664e+07 1.10075e+07 1.04078e+07 1.08243e+07 8.37589e+06 4.83031e+06 5.08745e+06 6.77445e+06 7.27189e+06 3.04212e+06 6.39147e+06 5.66466e+06 5.42357e+06 3.96452e+06 4.91922e+06 1.60143e+06 4.88741e+06 4.01638e+06 3.55243e+06 4.25277e+06 2.63166e+06 4.14281e+06 4.39997e+06 3.06343e+06 3.04903e+06 1.12292e+06
internal_count=44600940 37909282 6691658 25304538 12604744 19472551 5668073 10820782 16142948 1023585 5831987 14017350 8076905 1783962 4111714 12346337 6472080 4875710 11124511 2125598 11103251 1556359 2743877 5322081 3329603 3002390 10293020 4032727 812293 956277
cat_boundaries=0 79
cat_threshold=0 0 0 0 0 0 16 0 0 0 0 0 0 1048576 0 0 0 0 0 4096 0 1140850688 0 0 0 16388 0 1073741824 16 0 268468224 8388608 3 0 0 0 32768 256 8 0 8192 8 131072 0 131072 0 0 2147483648 0 0 0 0 0 0 0 0 0 0 0 0 0 0 0 16 0 268435456 0 0 0 0 0 1 1107296256 0 0 2098176 524416 0 8192
is_linear=0
shrinkage=0.1


Tree=9
num_leaves=31
num_cat=5
split_feature=13 23 14 16 23 19 23 16 25 20 14 17 15 23 17 17 0 26 13 20 24 0 0 25 22 13 17 0 0 17
split_gain=8.95038e+06 2.42246e+06 1.62248e+06 938885 562817 478787 402277 259400 245783 227212 171577 152927 139564 123941 122951 95118.2 88992.8 76068.1 74649.3 71438.4 67528.9 66335.7 75247.3 62625.7 61976.5 58027.5 53050.5 50482.3 49577.8 48790
threshold=2.5000000000000004 1.0000000180025095e-35 9.5000000000000018 1.0000000180025095e-35 2.5000000000000004 1.0000000180025095e-35 4.5000000000000009 25.500000000000004 1.0000000180025095e-35 1.5000000000000002 1.0000000180025095e-35 3.5000000000000004 1.5000000000000002 6.5000000000000009 1.0000000180025095e-35 1.0000000180025095e-35 0 1.5000000000000002 1.0000000180025095e-35 1.5000000000000002 7.5000000000000009 1 2 3.5000000000000004 1.0000000180025095e-35 15.500000000000002 3.5000000000000004 3 4 1.0000000180025095e-35
decision_type=2 2 2 2 2 2 2 2 2 2 2 2 2 2 2 2 9 2 2 2 2 9 9 2 2 2 2 9 9 2
left_child=1 3 6 5 9 8 11 25 10 14 15 23 17 26 -3 16 -1 29 21 -7 -8 -18 -23 28 27 -4 -6 -24 -2 -5
right_child=2 4 7 12 13 19 20 -9 -10 -11 -12 -13 -14 -15 -16 -17 18 -19 -20 -21 -22 22 24 -25 -26 -27 -28 -29 -30 -31
leaf_value=0.0631569574559806 0.11086768070499226 -0.040704694316257041 0.084056065273208649 -0.051888808640962472 0.010819062404694253 -0.046094012338150352 0.055238849970569048 0.14445943474847331 -0.05125186034648558 0.0081179629728009399 -0.059083244119056778 0.04684590022539576 0.0033794742370045513 0.056684541780558796 -0.012656850430297318 -0.066848008678439305 0.047157333438363071 -0.0047080318281740819 -0.072954186509877658 -0.0044351983405225915 0.082643051865786882 0.042092008437296179 0.037059151627536868 0.036197757553695385 -0.07565176703343314 0.11108716886700543 0.037968079711995693 -0.11950601343062071 0.0062689033734808349 -0.026130301121977909
leaf_weight=30351.650388717651 45936.158038109541 3087253.8215910196 2023631.6767948866 1684593.0219748914 2765226.4521703124 2042979.7797647119 2236465.9107363224 1525197.1100638509 1535879.5801731646 2719788.7947779596 1074179.5301368535 2159739.8912959099 1409720.1779170334 1055886.1503673196 3165374.0724374354 651059.24549973011 25734.889344036579 733528.28215801716 523987.90636762977 515510.21385106444 1503831.0784210563 30714.328447639942 20705.637397289276 1003205.1296951771 366147.37811508775 1307128.2098791599 973009.89457520843 3889162.9172919393 3295084.037502557 1304980.1429890096
leaf_count=19412 14063 4077689 611480 2405941 2211044 2834721 999958 177213 2214447 2256620 1558646 1046361 1193973 505206 3140109 1043427 22401 704807 821981 519819 464537 32605 21519 567452 667911 265577 534605 9668508 2541292 1457616
internal_value=0 -0.0319131 0.062694 -0.0585808 -0.00123033 -0.0754383 0.0401259 0.110304 -0.0872883 -0.0160102 -0.0956591 0.0250984 -0.023418 0.0264309 -0.0265056 -0.102754 -0.107537 -0.0335646 -0.108604 -0.0377002 0.066257 -0.112916 -0.113872 0.0142866 -0.114993 0.0946642 0.0178856 -0.118677 0.0077074 -0.0406449
internal_weight=0 2.96058e+07 1.51002e+07 1.58392e+07 1.37665e+07 1.07064e+07 1.02443e+07 4.85596e+06 8.14792e+06 8.97242e+06 6.61204e+06 6.50397e+06 5.13282e+06 4.79412e+06 6.25263e+06 5.53786e+06 4.8868e+06 3.7231e+06 4.85645e+06 2.55849e+06 3.7403e+06 4.33247e+06 4.30673e+06 4.34423e+06 4.27602e+06 3.33076e+06 3.73824e+06 3.90987e+06 3.34102e+06 2.98957e+06
internal_count=44600940 37913007 6687933 25187734 12725273 19425397 5633663 1054270 16070857 9474418 13856410 4169168 5762337 3250855 7217798 12297764 11254337 4568364 11234925 3354540 1464495 10412944 10390543 3122807 10357938 877057 2745649 9690027 2555355 3863557
cat_boundaries=0 79 159 236 315 360
cat_threshold=0 256 0 0 0 1048576 4194304 0 0 0 0 0 0 0 0 1024 0 0 0 4096 0 1073741824 512 128 0 16384 0 1073741824 0 0 0 0 2 1056 4194304 0 32768 0 0 1 0 1026 131104 0 1028 0 0 0 0 0 0 0 0 0 0 0 0 0 0 0 0 0 0 16 0 268451840 0 16 0 0 0 131072 1107296256 0 0 0 2 0 9216 0 4096 0 0 2147483648 0 0 0 0 0 0 0 134225920 0 0 0 512 524288 0 128 0 0 0 0 0 32768 16384 0 536870912 131328 0 0 0 262144 32768 0 130 0 0 0 1048576 4202496 0 4456448 561152 0 0 0 0 0 0 0 0 0 0 0 0 0 0 0 0 0 0 0 0 0 0 0 0 0 0 67108865 536871424 0 0 1024 524416 0 0 1 8 0 0 0 256 0 0 0 0 0 0 0 0 1048576 0 0 0 1073741824 0 0 8 2048 131200 0 0 4 256 0 2064 8 268484608 8912896 0 2048 33554432 262144 0 0 2147483656 0 67125248 0 33554432 0 131872 0 0 0 0 0 0 0 0 0 0 0 0 0 0 0 0 0 0 0 0 0 0 0 0 0 0 0 0 1024 0 0 33554432 65536 0 0 2 0 0 0 0 0 0 0 0 0 0 0 0 0 0 0 0 0 67108864 268435456 4096 4194304 0 33689664 0 128 1073741828 536870912 0 0 33554432 0 0 2097152 64 0 0 8192 8 1 33554432 0 0 0 0 0 0 0 0 0 0 0 0 0 0 0 0 0 0 0 0 4194304 16777216 67108864 131072 786432 0 0 0 524288 524288 0 0 0 4 131072 0 0 0 0 0 0 0 0 0 0 4194304 0 0 0 0 0 0 1073741824 0 4096 0 1073741824 268435456 0 0 16384 16384 1073741824 2064 8204 16384 0 536870912 1025 37781504 8 128 33024 2147483656 0 0 4195328 131104 0 131584
is_linear=0
shrinkage=0.1


Tree=10
num_leaves=31
num_cat=6
split_feature=22 15 23 19 16 13 19 25 26 17 20 19 20 13 17 17 15 14 0 23 18 3 15 3 26 3 16 14 0 2
split_gain=7.53907e+06 2.09893e+06 1.29713e+06 782545 521177 447444 292164 267106 248507 221559 142829 131148 126306 114058 98454.1 93595.1 92273.4 82451.3 81603.9 68539.4 66885 64579.6 58269.8 52164.8 51725.9 50529.8 46162.6 45233.1 44514.4 43424.4
threshold=2.5000000000000004 1.0000000180025095e-35 10.500000000000002 1.0000000180025095e-35 3.5000000000000004 1.0000000180025095e-35 4.5000000000000009 1.5000000000000002 1.0000000180025095e-35 28.500000000000004 1.0000000180025095e-35 1.5000000000000002 1.5000000000000002 6.5000000000000009 1.0000000180025095e-35 4.5000000000000009 8.5000000000000018 1.5000000000000002 0 1.0000000180025095e-35 1.5000000000000002 1 9.5000000000000018 2 3.5000000000000004 3 1.0000000180025095e-35 15.500000000000002 4 5
decision_type=2 2 2 2 2 2 2 2 2 2 2 2 2 2 2 2 2 2 9 2 2 1 2 1 2 1 2 2 9 9
left_child=1 3 6 5 7 8 15 11 10 27 14 17 20 23 18 24 -6 21 -1 26 -5 -3 -8 -7 -2 -9 29 -4 -10 -20
right_child=2 4 9 12 16 13 22 25 28 -11 -12 -13 -14 -15 -16 -17 -18 -19 19 -21 -22 -23 -24 -25 -26 -27 -28 -29 -30 -31
leaf_value=0.05466244391821843 0.013498000186572276 -0.016610168545923659 0.08149608466270146 -0.038845873161993699 0.031678251306869597 -0.017050906539525307 0.053688556597842156 0.028016114548299071 0.10505289437241445 0.14154213795615803 -0.053763957163576827 0.0016294709910008216 0.0035496644937992664 0.073100729432180336 -0.061224581951131951 0.047797802191641342 0.081994620919525071 -0.0070584303730456405 -0.035361321169473388 -0.067855034013491827 -0.0069661845781342352 -0.043483791102085653 0.080756585931670233 -0.047602849465637635 0.037116844616529282 0.0036605943654079592 -0.072359104351387288 0.10700457226823179 -0.048237855464142596 -0.11161881111310511
leaf_weight=33189.311903893948 3545070.305152148 1285367.4968277514 1860015.6815790534 2853407.5983077288 2093980.605260551 813580.91354650259 2942376.0759006739 1287237.7109321952 19161.024951934814 1227110.0050751567 918900.47826489806 1966072.6268939376 1423257.4888277054 95741.87256115675 693328.4888690114 1570666.4801149368 441272.2176463604 1367869.2242567539 76226.508770346642 503912.58922943473 855405.09716850519 2938818.2175444067 1089884.0871444643 1785220.2687041759 1255664.4472198784 2518338.9230603278 354162.47148403525 1110023.2068891525 1612065.8843536079 3745207.2795630097
leaf_count=22025 2733026 1476930 556232 3820721 1208209 921263 1284961 899786 8530 139020 1447180 1710870 1246310 42381 1093387 728055 135836 1256214 146710 877830 810351 3856955 321007 2349924 711016 2025867 621503 221416 2372167 9555258
internal_value=0 -0.0288979 0.0588713 -0.0538527 -0.000560845 -0.0693095 0.0399397 -0.00970729 -0.0812376 0.105798 -0.0902129 -0.0205862 -0.0217748 -0.0340895 -0.0964084 0.0266083 0.040436 -0.0283968 -0.101585 -0.102693 -0.0314931 -0.0353066 0.0610048 -0.0380385 0.0196757 0.0118989 -0.106897 0.0910296 -0.0464369 -0.110098
internal_weight=0 2.96817e+07 1.46008e+07 1.57828e+07 1.3899e+07 1.06507e+07 1.04037e+07 1.13637e+07 7.95615e+06 4.19715e+06 6.32493e+06 7.55813e+06 5.13207e+06 2.69454e+06 5.40603e+06 6.3714e+06 2.53525e+06 5.59205e+06 4.7127e+06 4.67951e+06 3.70881e+06 4.22419e+06 4.03226e+06 2.5988e+06 4.80073e+06 3.80558e+06 4.1756e+06 2.97004e+06 1.63123e+06 3.82143e+06
internal_count=44600940 37906207 6694733 25335540 12570667 19458158 5778065 11226622 16144590 916668 13763893 8300969 5877382 3313568 12316713 4172097 1344045 6590099 11223326 11201301 4631072 5333885 1605968 3271187 3444042 2925653 10323471 777648 2380697 9701968
cat_boundaries=0 76 77 78 79 158 217
cat_threshold=0 4352 524288 0 2147483648 0 4194320 0 0 0 0 0 0 0 0 1024 0 0 0 0 0 1073742848 0 0 0 16384 16384 1073741824 0 0 0 8192 1 0 4194304 0 32770 0 0 0 0 4195328 0 262144 32768 67108864 0 0 0 0 0 0 0 0 0 0 0 0 0 0 0 0 0 16 0 0 0 0 1 0 0 131072 1107821056 1024 0 2097154 6 6 6 0 4608 0 0 0 0 4194304 0 0 0 0 0 0 0 0 0 0 131072 0 4096 0 1024 0 0 0 0 16384 1073741825 0 10244 268435456 0 0 1074004993 4194304 0 128 33024 0 33554432 0 4195330 131104 0 4128 0 0 0 0 0 0 2147483648 0 0 0 0 0 0 0 0 0 0 0 0 0 0 0 0 0 0 0 0 0 1024 0 0 0 0 131072 0 0 0 0 0 0 16 1879162882 48234496 0 0 0 12 0 0 224 0 0 0 1073741824 0 0 16777216 0 0 0 0 0 0 4096 0 0 0 131072 0 0 0 0 0 0 0 0 0 0 536870912 0 0 0 0 0 67108864 0 0 12288 0 0 32768 196608 164224
is_linear=0
shrinkage=0.1


Tree=11
num_leaves=31
num_cat=7
split_feature=21 14 15 18 14 25 24 17 13 24 22 25 24 19 13 24 16 3 16 25 26 3 0 13 0 0 0 0 20 24
split_gain=6.26607e+06 1.75961e+06 1.12711e+06 728325 442890 356941 286414 265467 202100 189317 137641 114173 108346 98636.2 87136.7 83446.1 73226.5 64647.3 61216.8 60538.3 57478.9 53474 52182.4 51644.5 48535 75275.6 62414.8 53168 50049.1 48421.5
threshold=2.5000000000000004 1.0000000180025095e-35 11.500000000000002 1.0000000180025095e-35 4.5000000000000009 1.0000000180025095e-35 5.5000000000000009 1.5000000000000002 1.0000000180025095e-35 28.500000000000004 1.0000000180025095e-35 1.5000000000000002 1.5000000000000002 4.5000000000000009 11.500000000000002 1.0000000180025095e-35 1.5000000000000002 0 1.0000000180025095e-35 2.5000000000000004 1.5000000000000002 1 2 4.5000000000000009 3 4 5 6 1.0000000180025095e-35 12.500000000000002
decision_type=2 2 2 2 2 2 2 2 2 2 2 2 2 2 2 2 2 1 2 2 2 1 9 2 9 9 9 9 2 2
left_child=1 3 6 5 7 8 13 11 10 -4 15 16 20 21 -6 18 -3 -9 22 -7 -5 -2 -1 -10 -24 -26 -27 -28 -29 -8
right_child=2 4 9 12 14 19 29 17 23 -11 -12 -13 -14 -15 -16 -17 -18 -19 -20 -21 -22 -23 24 -25 25 26 27 28 -30 -31
leaf_value=0.060528251994018456 0.036129214248900587 -0.032622861893519588 0.086909828644370274 -0.034031076051338635 0.034346096555772525 -0.040019930129616667 0.053550174218259 0.026991175318020935 -0.047373194757213577 0.13624835466695528 -0.049080063089946523 0.0014641533702743851 0.004580080135128636 0.045203897945482428 0.093570302317841997 -0.056635881770921083 -0.0051428622946997522 0.0020215100847052457 -0.061448932308118612 -0.00065943434957275939 -0.0033746408491289932 0.012912384793994855 0.051108707624319696 0.038273446886517848 0.046442162162420135 0.043059722165424863 0.036401231718309085 -0.10715376094712924 -0.067145315522283588 0.079404962937884724
leaf_weight=20455.007258296013 1338423.3465822041 4331136.0507528186 2544038.4303087294 2974997.8612422049 1721902.5695504844 2168923.3170080185 2593964.7067899108 1713537.8085303307 1489867.621047616 1120136.4137502909 976226.72847980261 1983027.6123693287 1435910.5199903846 1972317.6254583299 290314.63113647699 656244.85967728496 1249427.9152543247 2625685.5060487688 492131.95934295654 476629.86716493964 769863.83271411061 3833604.5180011094 21259.682613521814 73896.994904339314 34620.574731767178 29585.978822976351 27281.103106498718 3606935.1251506507 342352.47024574876 1005010.993432641
leaf_count=14754 843716 5463439 639645 3917037 956109 3028682 1049421 1140361 2082585 131354 1548432 1716346 1209106 930645 73241 1100101 1167144 2053122 830278 469649 751585 2809381 23342 48183 35226 31822 28331 9579458 638401 290044
internal_value=0 -0.0263513 0.0540998 -0.0494149 -0.00049962 -0.0646546 0.0377653 -0.00783493 -0.0754556 0.101993 -0.0835501 -0.0191465 -0.018774 0.0261765 0.0428907 -0.0899832 -0.0264704 0.011882 -0.094767 -0.0329286 -0.0277288 0.0189206 -0.0987834 -0.0433259 -0.0995855 -0.100378 -0.101647 -0.102724 -0.103685 0.0607701
internal_weight=0 2.95122e+07 1.44075e+07 1.55972e+07 1.3915e+07 1.04164e+07 1.07433e+07 1.19028e+07 7.77086e+06 3.66417e+06 6.20709e+06 7.56359e+06 5.18077e+06 7.14435e+06 2.01222e+06 5.23087e+06 5.58056e+06 4.33922e+06 4.57462e+06 2.64555e+06 3.74486e+06 5.17203e+06 4.08249e+06 1.56376e+06 4.06203e+06 4.04078e+06 4.00615e+06 3.97657e+06 3.94929e+06 3.59898e+06
internal_count=44600940 37906734 6694206 25336972 12569762 19459244 5923207 11540412 15960913 770999 13830145 8346929 5877728 4583742 1029350 12281713 6630583 3193483 11181612 3498331 4668622 3653097 10351334 2130768 10336580 10313238 10278012 10246190 10217859 1339465
cat_boundaries=0 1 2 82 160 239 313 393
cat_threshold=6 6 0 0 0 0 0 0 0 0 0 0 0 16384 8192 0 0 134217728 0 0 0 128 0 1207959552 2097664 128 0 0 131072 1073741824 536870912 0 0 0 0 263168 0 0 2129984 0 0 0 1048576 2 32 4194304 4 0 0 0 0 0 0 0 0 0 0 0 8388608 0 0 0 0 0 0 16 0 0 0 4 0 8388608 0 1 33554432 0 0 0 524288 0 9216 1 0 0 0 0 256 0 0 0 0 2 0 0 0 0 0 0 512 524288 0 0 0 2048 65536 0 8192 32772 0 0 2048 256 268435456 67108864 8388608 32 32768 264192 0 0 2147483648 1 17408 8192 33554432 0 525312 0 0 2147483648 0 0 0 0 0 0 0 0 0 0 0 0 0 0 0 0 0 0 0 16 0 0 0 0 1610612736 0 0 0 2 4 8 0 0 0 0 0 0 0 0 0 0 0 134217728 1048576 0 0 0 1073741824 0 0 8 0 128 0 0 0 0 0 16 4 16384 8912896 2 1073741824 33554432 0 0 256 8 0 67108864 0 0 33554432 135968 2048 0 0 0 0 0 0 0 0 0 0 0 0 0 0 0 0 0 0 0 285229056 0 131072 524288 0 0 67108864 262144 0 0 0 0 0 131072 0 256 524288 0 0 262144 0 0 0 0 0 0 0 0 0 1024 0 0 0 4096 0 67108864 268566528 36864 0 2147500032 33554752 0 0 1073741832 553648128 0 0 2048 8396800 0 128 32832 0 0 8208 8 1 0 32768 0 0 0 0 0 0 0 0 0 0 0 0 0 0 0 0 0 0 0 0 0 0 0 0 134217728 0 0 0 524288 0 4096 0 0 3221241856 67108864 4194304 0 0 0 0 0 0 0 0 0 0 0 0 0 0 131072 0 0 0 0 16384 0 0 131072 32768 16785408 0 33554432 4194304 0 2 4 0 4 0 4195328 131152 262144 0 0 0 0 0 0 0 0 0 0 0 0 0 0 0 0 0 0 0 0 64 0 0 0 262145 0 0 0 524288 0 0 2098240 128 0 0 8
is_linear=0
shrinkage=0.1


Tree=12
num_leaves=31
num_cat=7
split_feature=20 15 17 26 15 13 25 24 23 17 26 18 18 15 20 13 21 3 3 26 17 3 3 2 0 21 24 24 25 0
split_gain=5.28494e+06 1.48026e+06 980606 609255 373176 307866 225208 193656 192154 183459 120494 119760 91819.3 89164.5 85201.2 77045.5 73803.2 63535.6 54444.8 54239.9 52289.1 50416.4 46644.8 46381.5 52520.2 41853.7 41033.4 40762.4 39599.6 38826.6
threshold=2.5000000000000004 1.0000000180025095e-35 11.500000000000002 1.0000000180025095e-35 3.5000000000000004 1.0000000180025095e-35 5.5000000000000009 1.5000000000000002 1.0000000180025095e-35 37.500000000000007 2.5000000000000004 1.0000000180025095e-35 1.5000000000000002 10.500000000000002 5.5000000000000009 7.5000000000000009 1.0000000180025095e-35 0 1 1.0000000180025095e-35 1.0000000180025095e-35 2 3 4 5 1.0000000180025095e-35 1.0000000180025095e-35 19.500000000000004 12.500000000000002 6
decision_type=2 2 2 2 2 2 2 2 2 2 2 2 2 2 2 2 2 1 1 2 2 1 1 9 9 2 2 2 2 9
left_child=1 3 6 5 7 8 14 12 11 27 17 16 19 -6 18 22 20 -5 -2 -3 23 -9 -7 24 -1 -19 -25 -4 -8 -12
right_child=2 4 9 10 13 15 28 21 -10 -11 29 -13 -14 -15 -16 -17 -18 25 -20 -21 -22 -23 -24 26 -26 -27 -28 -29 -30 -31
leaf_value=0.1787167107946005 0.0082926207360726305 -0.034509402961973239 0.073853522875457531 -0.008011060417149966 0.023451059855559068 -0.01360286666074241 0.049245930800214513 0.023783428037907395 -0.038266330774027926 0.13625772680053946 0.096135332341578131 -0.045716387381729923 0.0003150902871006002 0.072720076527809249 0.040422940201502361 0.074286556766652745 -0.051930228553198676 -0.046220359076092656 0.029684368941068975 -0.014135661763230903 -0.057076278798017722 -0.00019258398404379813 -0.042390247589891447 -0.097179057222335344 -0.050495694224646941 -0.0211647023157914 -0.061164315592274809 0.099130515962966334 0.073734278537916628 0.0060584396676696926
leaf_weight=11484.389898955822 2898925.3558702171 2960386.5750962198 1856599.163672626 1302393.274269253 2623246.8032786548 824102.40830308199 2555749.7980403602 1474543.2170591056 1523315.1189405322 820089.46047699451 49878.252487927675 965532.60785803199 1858635.6727505922 427128.07342690229 2290537.7565386295 68356.681760251522 624295.6235243082 1477589.7648393214 2018018.1730724573 2339235.7056745291 469587.50918838382 2164363.8230105639 1775761.1187847257 3555708.0729057193 76713.106227636337 1214806.6804851592 347252.47318276763 971987.09853738546 890408.24051952362 1172646.1788372099
leaf_count=1779 2163811 3889238 508111 1468114 1634091 933132 1053726 1023631 2221389 89057 18489 1496149 1625694 144743 1150001 28474 1072944 2149365 1275012 2512438 803952 1769148 2357681 9515890 166458 1390821 647228 181748 271529 1037097
internal_value=0 -0.0242813 0.0498703 -0.0455516 -0.00053514 -0.0597203 0.0345467 -0.00926068 -0.0700108 0.0946134 -0.0177369 -0.0780029 -0.0188094 0.0303499 0.0244932 -0.0305101 -0.0841334 -0.0261439 0.0170723 -0.0255165 -0.0886404 0.00952294 -0.0332655 -0.0923541 -0.0206326 -0.0349151 -0.0939745 0.0825395 0.0555732 0.00973436
internal_weight=0 2.9307e+07 1.43023e+07 1.54594e+07 1.38475e+07 1.02421e+07 1.06536e+07 1.07972e+07 7.57389e+06 3.64868e+06 5.21731e+06 6.05057e+06 7.15826e+06 3.05037e+06 7.20748e+06 2.66822e+06 5.08504e+06 3.99479e+06 4.91694e+06 5.29962e+06 4.46075e+06 3.63891e+06 2.59986e+06 3.99116e+06 88197.5 2.6924e+06 3.90296e+06 2.82859e+06 3.44616e+06 1.22252e+06
internal_count=44600940 37907945 6692995 25308962 12598983 19245076 5914079 10820149 15925789 778916 6063886 13704400 8027370 1778834 4588824 3319287 12208251 5008300 3438823 6401676 11135307 2792779 3290813 10331355 168237 3540186 10163118 689859 1325255 1055586
cat_boundaries=0 1 2 3 4 63 120 197
cat_threshold=6 120 6 6 0 0 0 0 0 0 0 1610727424 14680064 0 0 0 12 0 0 224 0 4194304 0 2684354560 0 0 25165824 0 0 0 0 0 0 4096 0 0 0 131072 0 65536 0 0 0 0 0 0 0 0 536870912 0 0 0 0 2097152 67108864 0 0 12288 0 0 49152 131072 33152 0 0 0 0 0 0 0 0 0 0 4194304 0 0 0 0 0 0 1073741824 0 67108864 0 1073741824 268435456 512 0 2147483648 33562624 541065216 2048 4 16385 83886080 8388608 2048 33587200 65536 0 32768 8 0 0 71303168 16 1048576 0 0 0 0 0 0 0 0 0 2 0 66048 128 0 0 0 0 0 0 4194304 0 0 0 0 0 0 0 0 1024 0 0 0 4096 0 1024 0 0 0 0 16384 1073741825 0 8192 268435456 0 1 1074004992 4194304 0 32896 49408 0 0 0 4195328 131104 0 4096 0 0 0 0 0 0 2147483648 0 0 0 0 0 0 0 0 0 0 0 16 0 268435456 0 0 0 0 0 1 1107296256 0 0 0 34078720
is_linear=0
shrinkage=0.1


Tree=13
num_leaves=31
num_cat=8
split_feature=19 16 19 13 16 22 13 17 24 13 17 20 22 22 16 22 26 3 22 15 0 13 18 0 0 0 0 0 0 21
split_gain=4.42402e+06 1.25356e+06 858667 520251 307910 305478 186068 185768 156047 148048 147595 90724.8 75546.8 74491.5 64748.1 59857.5 58359.3 47011.7 43485 42781.9 39782.3 39246.4 38723.2 38410.1 58197.9 44385.1 39941.3 42637.9 45512.9 41592.3
threshold=2.5000000000000004 1.0000000180025095e-35 11.500000000000002 1.0000000180025095e-35 3.5000000000000004 1.0000000180025095e-35 30.500000000000004 4.5000000000000009 1.0000000180025095e-35 5.5000000000000009 1.5000000000000002 1.0000000180025095e-35 1.0000000180025095e-35 1.5000000000000002 10.500000000000002 3.5000000000000004 1.0000000180025095e-35 0 2.5000000000000004 1.0000000180025095e-35 1 13.500000000000002 19.500000000000004 2 3 4 5 6 7 1.0000000180025095e-35
decision_type=2 2 2 2 2 2 2 2 2 2 2 2 2 2 2 2 2 1 2 2 9 2 2 9 9 9 9 9 9 2
left_child=1 3 7 5 10 8 22 15 11 13 12 16 -3 17 -6 -2 19 -5 -7 20 -1 -11 -4 -22 -25 -26 -27 -28 -29 -30
right_child=2 4 6 9 14 18 -8 -9 -10 21 -12 -13 -14 -15 -16 -17 -18 -19 -20 -21 23 -23 -24 24 25 26 27 28 29 -31
leaf_value=0.066036289407037013 0.013004917935943964 -0.027656537744733051 0.065162102723765963 -0.0096739295489320157 0.02221591333481316 -0.031691801605118947 0.12387995059634323 0.047052331089399567 -0.036847204520269232 0.029136575303603324 0.0075032477075803981 -0.043491483665459879 -0.006778222963361849 0.0018952747922729445 0.066161180036088688 0.033814021978576851 -0.051048165978504915 -0.034433230008238502 0.0020076821434171148 -0.054256750965550861 0.055955932515421039 0.10972960332380371 0.090239068334935571 0.051618165126036654 0.048682538328333573 0.04528933058637595 0.041797554300994882 0.037599234891677213 -0.094738582192061646 -0.057092336086060361
leaf_weight=17213.984997689724 4159443.620575726 3402309.680767417 1888288.4920120239 1070301.4976140559 2634321.9387457073 2124255.5364416242 984344.95888501406 4241821.7561671138 1523233.6546947062 242254.19832369685 3797898.5669402182 903835.75757458806 3532562.8661497831 1125611.9215621948 384170.79869070649 2070394.4869568944 699756.15260478854 2705387.1896011829 467105.00004675984 488964.72977238894 18884.143549904227 80502.475618422031 913748.96437853575 30050.420311361551 23581.057925209403 22041.823037624359 24494.218193680048 27505.225551053882 3420010.6620290279 321021.38836151361
leaf_count=12107 3062606 4333191 580619 1186823 1638755 3009450 123003 1669317 2233611 144967 2948915 1462781 3535708 1009394 135108 1072791 1191212 3450605 464921 829478 18168 20735 183961 32973 27741 25577 29006 38512 9512773 616132
internal_value=0 -0.0223307 0.0456676 -0.0419886 -0.000407451 -0.055227 0.0864787 0.030911 -0.0654296 -0.0163636 -0.00834305 -0.0726891 -0.0170213 -0.0206836 0.0278089 0.0199205 -0.0778702 -0.0274148 -0.0256173 -0.0821418 -0.0856337 0.0492382 0.0733397 -0.0863052 -0.0869997 -0.088085 -0.0889305 -0.0897106 -0.0905655 -0.0915079
internal_weight=0 2.90873e+07 1.4258e+07 1.5336e+07 1.37513e+07 1.0112e+07 3.78638e+06 1.04717e+07 7.52059e+06 5.22406e+06 1.07328e+07 5.99736e+06 6.93487e+06 4.9013e+06 3.01849e+06 6.22984e+06 5.09352e+06 3.77569e+06 2.59136e+06 4.39377e+06 3.9048e+06 322757 2.80204e+06 3.88759e+06 3.8687e+06 3.83865e+06 3.81507e+06 3.79303e+06 3.76854e+06 3.74103e+06
internal_count=44600940 37908643 6692297 25316966 12591677 19504442 887583 5804714 16030071 5812524 10817814 13796460 7868899 5646822 1773863 4135397 12333679 4637428 3474371 11142467 10312989 165702 764580 10300882 10282714 10249741 10222000 10196423 10167417 10128905
cat_boundaries=0 1 81 159 242 321 407 487 563
cat_threshold=6 0 0 0 2 0 0 0 0 0 0 0 0 0 0 0 134217728 0 0 0 0 0 1073742848 2097152 0 4194304 0 131072 1073741888 0 131072 16777216 0 0 32 0 0 2129984 0 2147483648 0 1024 0 0 0 524288 0 0 0 0 0 0 0 0 0 0 0 0 0 0 0 0 0 0 16 0 16384 0 4 786432 8388608 262144 0 33817088 0 0 0 524290 0 1024 8 33554440 0 0 0 256 1048576 0 0 0 0 0 16384 134217728 0 0 0 0 524288 0 128 0 2048 0 128 0 32772 0 0 536870912 256 0 8192 1 0 32768 264192 128 0 0 1 67108864 8192 33554464 4194304 260 67108864 0 0 0 0 0 0 0 0 0 0 0 0 0 0 0 0 0 0 0 0 0 0 0 0 0 131072 0 64 0 0 0 4 65536 4096 0 0 16777216 0 0 0 0 0 0 0 0 0 0 0 0 0 0 0 8 0 196736 4096 8192 0 0 0 1048576 12 536887296 75497472 8388608 2048 8388608 0 0 64 0 0 16384 0 0 1 131104 0 0 0 0 0 0 0 0 0 0 2097152 0 0 0 0 0 0 0 0 0 4 67108864 0 0 0 0 0 536870912 1024 0 2098176 0 0 0 0 0 0 524288 0 0 2147483648 0 0 67371008 4194304 0 0 0 33554432 0 0 0 0 1024 512 0 0 0 128 67108864 268435456 0 0 8192 320 0 2048 0 0 524288 0 33555456 33554432 0 0 32768 0 65536 1056784 8 0 0 8421888 0 0 0 0 0 0 0 0 0 0 0 8388608 0 0 0 0 0 0 0 4194304 16777216 0 0 0 0 0 0 0 0 0 0 33554432 0 8192 0 256 524288 0 2147500032 0 0 0 0 2 0 0 0 1048576 0 0 0 1073741824 0 0 0 0 512 0 0 2147500032 33554432 0 67108864 1073741824 268435456 16777216 0 262144 0 65536 0 0 0 0 0 0 1 262144 5120 2048 0 0 0 0 0 0 0 0 0 32 0 0 0 0 0 0 0 0 68 268435456 0 0 0 0 0 0 0 524288 8192 131072 0 2147483648 131072 0 0 0 0 0 0 33554432 0 0 0 0 0 131072 524288 0 0 0 0 0 8192 0 0 0 0 0 0 0 0 134348800 0 32768 0 0 8192 0 144 0 32768 0 2 0 8192 0 71303170 67112964 8 0 0 4195328 64 34603008 0 0 0 0 0 0 0 0 0 0 0 0 32 0 0 0 0 0 0 0 0 0 0 16 1 134217728 0 67108865 1073741824 0 0 0 0 0 0 1 0 16777216 0 0 0 1073742336 0 1024 1048576 0 0 0 0 0 0 0 0 4096 0 12288 0 0 16384 0 0 0 4096 541065216 33088 0 1048576 0 0 1073758208 138412032 0 524288 16777472 0 0 0 0 16 0 0 0 0 2148532224 0 0 0 0 0 524288 0 0 0 0 0 0 0 0 0 0 67108864 134217728 0 0 0 0 0 0 0 2 32768 64
is_linear=0
shrinkage=0.1


Tree=14
num_leaves=31
num_cat=10
split_feature=23 14 23 20 14 17 13 19 24 25 3 0 13 21 21 15 14 3 19 3 3 0 25 21 3 0 13 22 0 3
split_gain=3.70489e+06 1.09296e+06 739264 456700 278569 229266 168225 164461 154869 130202 99952.2 96234 83071.9 72538.3 71753 58796.5 55501.4 54929.6 49991.8 48658.5 47697.5 41005.7 37830.1 37749.5 36310.1 39151.7 33282.5 33169.4 31604 31079.3
threshold=2.5000000000000004 1.0000000180025095e-35 12.500000000000002 1.0000000180025095e-35 5.5000000000000009 1.0000000180025095e-35 4.5000000000000009 1.5000000000000002 36.500000000000007 1.0000000180025095e-35 0 1 1.5000000000000002 1.5000000000000002 1.0000000180025095e-35 1.5000000000000002 15.500000000000002 2 1.0000000180025095e-35 3 4 5 8.5000000000000018 1.5000000000000002 6 7 19.500000000000004 4.5000000000000009 8 9
decision_type=2 2 2 2 2 2 2 2 2 2 1 9 2 2 2 2 2 1 2 1 1 9 2 2 1 9 2 2 9 1
left_child=1 3 6 5 7 9 17 10 26 11 -3 -1 14 20 18 23 -6 -2 21 -9 -5 -13 -8 -12 25 -23 -4 -19 -27 -7
right_child=2 4 8 13 16 29 22 19 -10 -11 15 12 -14 -15 -16 -17 -18 27 -20 -21 -22 24 -24 -25 -26 28 -28 -29 -30 -31
leaf_value=0.073013494303223181 0.031255000705470146 0.0034259529439473226 0.06342453602127153 -0.0046354301825816732 0.031892365502887543 -0.011784247422509969 0.037973717108819 0.026899189473101926 0.12260126915205266 -0.034336092350607625 -0.033449127756010895 -0.16065082652147392 -0.019350082991388833 0.0058601230172037255 -0.042842432261294007 -0.0056400167666150816 0.084311347253759383 0.0065389159519937609 -0.047084111613115681 0.0036419410059589149 -0.029278487734508973 0.065645514150298415 0.057944576791777141 -0.0098491502402858581 -0.067719918540258203 0.053351881089869851 0.0875192539549485 0.026341416447366373 -0.088493664211637665 -0.034301656937035588
leaf_weight=48853.866671323776 2367861.9964547753 2339841.191868633 1755528.7092128396 1147057.7999375463 1283579.7772375643 1006890.8428931236 2843301.2433505058 1244604.0152390003 759740.49048340321 1561713.294806242 2965708.2235969305 60685.536905691028 332629.20888364315 1319505.1499148011 789622.94802391529 1682237.6214213669 239709.99864035845 2973539.7679407299 553363.91472843289 3245082.7616335452 2491408.2448297441 16812.703893810511 1423335.7902659774 878564.45231106877 1921440.8140133917 15815.727169603109 851281.42290860415 1182126.0045584738 2251398.7156992555 1566882.4305037856
leaf_count=25897 1405210 2280851 517566 1308709 663636 1198216 1229179 830141 91547 2307501 3900846 224724 396630 1178901 1328119 1490534 63722 2233341 969372 2554859 3315849 16503 440388 885708 4744142 18777 160648 617445 6078053 2123926
internal_value=0 -0.0204588 0.0419609 -0.0390926 -0.000207566 -0.0512681 0.0291966 -0.00518188 0.0828718 -0.0600521 -0.0138978 -0.0667561 -0.0679053 -0.0142255 -0.0707848 -0.0212324 0.0401412 0.0190986 -0.0753629 0.0100892 -0.0215096 -0.0790309 0.0446359 -0.0280556 -0.0778526 -0.0863763 0.0712929 0.0121719 -0.0875039 -0.0254928
internal_weight=0 2.89634e+07 1.41567e+07 1.50841e+07 1.38793e+07 1.01261e+07 1.07902e+07 1.2356e+07 3.36655e+06 7.55234e+06 7.86635e+06 5.99062e+06 5.94177e+06 4.95797e+06 5.60914e+06 5.52651e+06 1.52329e+06 6.52353e+06 4.81952e+06 4.48969e+06 3.63847e+06 4.26615e+06 4.26664e+06 3.84427e+06 4.20547e+06 2.28403e+06 2.60681e+06 4.15567e+06 2.26721e+06 2.57377e+06
internal_count=44600940 37905616 6695324 25235319 12670297 19431860 5925563 11942939 769761 16109718 8557939 13802217 13776320 5803459 13379690 6277088 727358 4255996 12051571 3385000 4624558 11082199 1669567 4786554 10857475 6113333 678214 2850786 6096830 3322142
cat_boundaries=0 1 80 81 82 83 178 179 258 338 339
cat_threshold=6 0 0 0 0 0 0 0 0 0 0 0 0 0 0 0 0 0 0 0 4096 0 1073742848 0 0 0 16384 16384 1073741824 16 0 268435456 0 1 263168 4194304 0 32896 256 0 0 1048576 1026 131104 0 5120 0 0 0 0 0 0 0 0 0 0 0 0 0 0 0 0 0 0 16 0 268451840 0 0 0 0 0 0 33554432 1024 0 2097154 524416 0 8192 6 6 6 0 0 0 134217728 0 0 16777216 2097152 0 1073741824 0 0 0 2147483648 4194304 0 2 134349056 512 0 0 0 0 0 0 0 0 0 0 0 0 0 0 0 0 0 0 0 0 16 0 0 0 0 0 0 0 268435456 0 0 0 8388608 0 0 2048 8 0 0 0 0 0 524288 0 65576 16385 0 512 0 0 4194304 0 0 16777216 131072 0 268435456 0 0 256 0 0 0 0 0 128 0 0 0 4194304 0 0 0 256 0 67108864 120 8 4096 524288 0 256 0 0 0 0 0 0 16384 134225920 1048576 0 0 0 0 0 0 0 0 66048 128 0 32772 256 0 603979776 4 0 0 8388608 0 0 262144 2097216 32832 2147483648 0 67117056 8192 64 0 0 0 0 0 0 0 0 0 0 0 0 0 131072 0 0 0 0 0 0 0 0 0 0 0 0 0 0 0 524288 0 0 0 0 0 2147483648 0 0 2147483648 0 0 0 0 1024 0 0 33554432 0 0 0 0 1024 0 524288 0 8192 0 2048 131072 0 0 2147483648 0 0 0 131328 0 524288 2 33554465 0 0 67108864 4 0 0 17408 0 0 262144 655620 0 0 0 0 0 0 0 0 0 0 0 0 0 0 0 0 0 0 0 0 4 0 0 0 0 0 67239937 0 0 0 0 0 64 131072 1 6
is_linear=0
shrinkage=0.1


Tree=15
num_leaves=31
num_cat=10
split_feature=26 18 25 13 18 22 26 17 22 13 16 19 3 3 18 15 24 20 0 0 2 0 15 3 14 15 22 3 0 0
split_gain=3.11263e+06 951182 618099 398652 249341 214498 141769 136250 114120 111311 111240 73163.7 68316.6 65049.2 53561 50948 49958.2 42454.1 39180.5 38910.9 36912.6 36527.8 34807.8 33487 31635.1 31373.3 29923 29609 29404.7 31271
threshold=2.5000000000000004 1.0000000180025095e-35 12.500000000000002 1.0000000180025095e-35 3.5000000000000004 1.0000000180025095e-35 6.5000000000000009 42.500000000000007 1.5000000000000002 4.5000000000000009 1.0000000180025095e-35 1.0000000180025095e-35 0 1 9.5000000000000018 1.5000000000000002 1.0000000180025095e-35 1.5000000000000002 2 3 4 5 1.0000000180025095e-35 6 19.500000000000004 4.5000000000000009 1.5000000000000002 7 8 9
decision_type=2 2 2 2 2 2 2 2 2 2 2 2 1 1 2 2 2 2 9 9 9 9 2 1 2 2 2 1 9 9
left_child=1 3 6 5 8 10 13 24 12 15 11 16 -3 25 -6 23 18 -14 -1 -11 21 -20 28 -5 -4 -2 -7 -10 -22 -30
right_child=2 4 7 9 14 26 -8 -9 27 19 -12 -13 17 -15 -16 -17 -18 -19 20 -21 22 -23 -24 -25 -26 -27 -28 -29 29 -31
leaf_value=-0.15564445117533721 0.0056246695417196662 -0.00066444720773451034 0.060172604747342089 -0.032480174375894399 0.019466004890458063 -0.031522646926239961 0.043645192339243501 0.12303336293016087 0.021365617168705477 0.11941025717391536 -0.031713190953542039 -0.035988939706169724 -0.02716504730533173 0.030196171642722782 0.054404056471705278 -0.00071430093695597338 -0.04236216564626033 -0.0058815324907315206 0.17461911652761475 0.022801476046137761 -0.14782844799646508 -0.029102618248636254 -0.045704840148591976 -0.013014893603203306 0.083374559332672737 0.025599152413389493 -0.009342307166325883 0.0016872358654442311 -0.1404744049739037 -0.072450229957291293
leaf_weight=54403.883743390441 2939702.9739618897 2462696.5795376599 1659703.2193315625 2110902.6568491161 2543031.7336941063 1545532.9911265373 3639141.7890858054 554789.95261216164 1099111.5451644659 46112.087834388018 1453394.4122487009 877493.47750762105 3371502.3257061839 3132693.0066580772 530280.84241425991 1220568.2385314107 691829.36075422168 1298022.9276273549 9907.8788061141968 434137.14980357885 54379.484952285886 78170.389524161816 461613.33745872974 1520421.8878654838 909778.88249260187 1073480.1824526489 1002921.5155422091 2512446.0679634511 68898.46376055479 3568733.1825617105
leaf_count=213992 2214967 2526039 477045 2771630 1589074 2287168 1470767 59765 785713 9087 2098306 1430164 4268405 1792661 192095 1081018 1173503 1204677 1921 270263 204137 167436 801031 1764107 170925 512814 1152292 2055414 248591 9605933
internal_value=0 -0.018612 0.0389251 -0.0358745 0.000377568 -0.0477797 0.0275792 0.0780914 -0.00680721 -0.0138436 -0.0564799 -0.0626168 -0.0141411 0.0193973 0.0254943 -0.0183893 -0.0673013 -0.0212487 -0.0713174 0.0320805 -0.0702353 -0.00616884 -0.0715938 -0.0243303 0.0683877 0.0109676 -0.0227938 0.00767606 -0.0748309 -0.073739
internal_weight=0 2.90165e+07 1.39093e+07 1.51994e+07 1.38171e+07 9.86728e+06 1.0785e+07 3.12427e+06 1.07438e+07 5.33214e+06 7.31882e+06 5.86543e+06 7.13222e+06 7.14588e+06 3.07331e+06 4.85189e+06 4.98794e+06 4.66953e+06 4.29611e+06 480249 4.2417e+06 88078.3 4.15362e+06 3.63132e+06 2.56948e+06 4.01318e+06 2.54845e+06 3.61156e+06 3.69201e+06 3.63763e+06
internal_count=44600940 37901996 6698944 25280579 12621417 19384474 5991209 707735 10840248 5896105 15945014 13846708 7999121 4520442 1781169 5616755 12416544 5473082 11243041 279350 11029049 169357 10859692 4535737 647970 2727781 3439460 2841127 10058661 9854524
cat_boundaries=0 1 2 91 136 195 252 253 254 348 443
cat_threshold=6 120 0 0 0 134217728 0 0 16777216 2097280 0 0 0 0 0 2147483648 4194304 0 2 134349056 512 0 0 0 0 0 0 0 1073741824 0 0 0 0 0 0 0 0 0 0 0 0 0 0 0 0 0 0 0 0 268435456 0 32 0 0 0 0 2048 8 0 0 0 0 0 524288 0 65576 16385 0 512 0 0 4194304 0 0 16777216 147456 0 268435456 0 0 256 0 0 0 33554432 0 128 0 0 0 4194304 0 0 0 0 0 0 0 0 0 0 0 0 0 0 0 0 0 1073741824 0 0 8 1073741824 268435584 1024 0 16384 155648 1610612736 2048 8196 268451840 0 536870912 2049 33587200 0 32768 32768 8 0 8192 4194304 537001984 262144 4608 0 0 0 0 0 0 0 1883357185 14680064 0 0 0 8 0 0 224 0 4194304 0 3758096384 0 0 20971520 0 0 0 0 0 0 4096 0 0 0 0 0 65536 0 0 0 0 0 0 0 0 536870912 0 0 0 0 4194304 67108864 0 0 24576 0 0 32768 262144 384 0 0 0 0 0 0 0 0 0 0 4194304 0 0 0 0 0 0 1073741824 0 603979776 0 1073741824 0 512 0 2147483648 33562624 541065216 2048 0 16385 83886080 8388608 2048 33587200 0 0 0 8 0 0 4194304 16 1114112 0 0 0 0 0 0 1024 0 2097664 134217728 0 66048 128 120 6 0 0 0 0 0 0 0 0 0 1073741824 131072 0 0 0 0 0 0 0 0 0 0 8388608 0 0 0 0 262145 512 0 0 33554432 0 0 8 0 0 0 0 0 16 0 0 0 0 16777216 0 0 134217856 4 0 0 8388608 0 0 258 131072 1048576 0 0 0 0 0 0 33685504 0 0 2097168 134217728 0 0 128 0 2 0 4096 8192 0 0 16777728 134217728 0 0 0 0 0 0 0 0 0 0 0 0 256 32 0 0 0 0 0 0 0 0 0 0 0 2147483652 0 16 1048576 0 0 0 4096 0 536903680 0 4194306 134217728 0 4096 0 0 0 0 0 0 0 0 0 0 65536 0 0 8388736 0 0 0 0 0 0 65536 0 256 0 0 0 268435456 0 0 0 0 0 0 0 2048 0 0 0 0 0 2684354560 1073750016 8 0 0 34603008 8388624 0 0 0 0 0 0 0 32768 0 0 0 0 0 0 2147483648 0 16777216 0 33554432 0 0 67108864
is_linear=0
shrinkage=0.1


Tree=16
num_leaves=31
num_cat=13
split_feature=25 15 24 21 16 13 25 15 16 23 21 17 3 16 0 0 0 3 0 3 14 21 20 3 0 15 2 0 3 3
split_gain=2.60531e+06 799211 531473 441880 211304 138587 137849 123567 106364 104585 78697.8 64759.2 51747.4 49836.5 44986 45197 41566.6 41361.5 36896.7 34000.1 33784.9 33731.4 33675 31730.7 33277 31639.2 28985.3 28920.2 28288.5 28175.2
threshold=2.5000000000000004 1.5000000000000002 14.500000000000002 1.0000000180025095e-35 1.0000000180025095e-35 1.5000000000000002 6.5000000000000009 6.5000000000000009 42.500000000000007 1.0000000180025095e-35 1.5000000000000002 1.0000000180025095e-35 0 4.5000000000000009 1 2 3 4 5 6 1.5000000000000002 4.5000000000000009 2.5000000000000004 7 8 18.500000000000004 9 10 11 12
decision_type=2 2 2 2 2 2 2 2 2 2 2 2 1 2 9 9 9 1 9 1 2 2 2 1 9 2 9 9 1 1
left_child=1 3 6 4 5 9 13 12 -4 11 17 14 -3 26 -1 -16 -7 -5 -17 -6 23 28 -14 -20 -25 -9 -2 -8 -12 -28
right_child=2 7 8 10 19 16 27 25 -10 -11 21 -13 22 -15 15 18 -18 -19 20 -21 -22 -23 -24 24 -26 -27 29 -29 -30 -31
leaf_value=-0.13951554199335636 -0.19965102973616436 0.018340150799969781 0.065951404367633443 -0.003518589833669919 -0.0061650481287671413 0.13437841845859919 0.066103592487213481 0.032720055143090898 0.11627582774894835 -0.029295413230331181 0.012531874902958921 -0.034880867795635616 -0.006396325950928811 0.030704985097202455 -0.12752803174497612 -0.12305789311682375 -0.012378033939716501 -0.025131955382389937 -0.050688051349241287 -0.02609580764935937 -0.019686621125362756 0.024111377252130348 0.011383457244101914 0.070497972543121915 -0.067747608755590757 0.078608424554185707 0.023355617427631582 0.038042990735340669 -0.0083683148017885626 0.0075994531676869094
leaf_weight=73020.452935576439 6420.429489582777 1934778.5063201785 2104377.4214511514 1281183.3210627586 1324847.7704171538 19745.64071649313 408518.9834112525 978983.11225166917 524706.15528082848 1713715.4464951754 903413.90219138563 1094313.3823094666 3459073.7437977493 2133898.1221052706 98708.738941475749 89015.313802540302 836315.9585211575 2866450.5752601177 2145065.0956742764 2418307.2543616593 218992.9462993741 562391.87897256017 1539300.7843447328 17516.844230383635 2763706.0098283589 177493.25876009464 1692845.4371648729 3642566.6909912229 2287007.9874554873 3443644.4337991476
leaf_count=278748 9536 1429761 499757 1429630 1491258 3903 118353 464723 58689 2542732 797949 1700775 3220324 952747 338767 296759 919283 3734690 5037130 3131036 304111 395054 1017535 14725 6944816 44583 1106387 1466076 2366058 2485045
internal_value=0 -0.0171529 0.0354892 -0.0275627 -0.0390315 -0.0472812 0.0260882 0.00950184 0.075995 -0.0512717 -0.0089621 -0.0570654 0.00445418 0.0178574 -0.0615561 -0.0604883 -0.00899157 -0.0184558 -0.0592238 -0.0190416 -0.0581193 0.00153036 -0.000920857 -0.0598279 -0.0668767 0.0397629 0.0125267 0.0408729 -0.00245011 0.0127923
internal_weight=0 2.88033e+07 1.3957e+07 2.07137e+07 1.28133e+07 9.07012e+06 1.13279e+07 8.08963e+06 2.62908e+06 8.21405e+06 7.90045e+06 6.50034e+06 6.93315e+06 7.27681e+06 5.40603e+06 5.333e+06 856062 4.14763e+06 5.2343e+06 3.74316e+06 5.14528e+06 3.75281e+06 4.99837e+06 4.92629e+06 2.78122e+06 1.15648e+06 5.14291e+06 4.05109e+06 3.19042e+06 5.13649e+06
internal_count=44600940 37904350 6696590 31727424 23004043 18381749 6138144 6176926 558446 17458563 8723381 14915831 5667620 4553715 13215056 12936308 923186 5164320 12597541 4622294 12300782 3559061 4237859 11996671 6959541 509306 3600968 1584429 3164007 3591432
