tree
version=v3
num_class=1
num_tree_per_iteration=1
label_index=0
max_feature_idx=25
objective=tweedie
feature_names=cat_id d wday month year event_name_1 event_type_1 event_name_2 event_type_2 snap_CA snap_TX snap_WI sales_lag_1 sales_lag_2 sales_lag_3 sales_lag_4 sales_lag_5 sales_lag_6 sales_lag_7 sales_lag_8 sales_lag_9 sales_lag_10 sales_lag_11 sales_lag_12 sales_lag_13 sales_lag_14
feature_infos=-1:0:1:2 -1:42:43:44:45:46:47:48:49:50:51:52:53:54:55:56:57:58:59:60:61:62:63:64:65:66:67:68:69:70:71:72:73:74:75:76:77:78:79:80:81:82:83:84:85:86:87:88:89:90:91:92:93:94:95:96:97:98:99:100:101:102:103:104:105:106:107:108:109:110:111:112:113:114:115:116:117:118:119:120:121:122:123:124:125:126:127:128:129:130:131:132:133:134:135:136:137:138:139:140:141:142:143:144:145:146:147:148:149:150:151:152:153:154:155:156:157:158:159:160:161:162:163:164:165:166:167:168:169:170:171:172:173:174:175:176:177:178:179:180:181:182:183:184:185:186:187:188:189:190:191:192:193:194:195:196:197:198:199:200:201:202:203:204:205:206:207:208:209:210:211:212:213:214:215:216:217:218:219:220:221:222:223:224:225:226:227:228:229:230:231:232:233:234:235:236:237:238:239:240:241:242:243:244:245:246:247:248:249:250:251:252:253:254:255:256:257:258:259:260:261:262:263:264:265:266:267:268:269:270:271:272:273:274:275:276:277:278:279:280:281:282:283:284:285:286:287:288:289:290:291:292:293:294:295:296:297:298:299:300:301:302:303:304:305:306:307:308:309:310:311:312:313:314:315:316:317:318:319:320:321:322:323:324:325:326:327:328:329:330:331:332:333:334:335:336:337:338:339:340:341:342:343:344:345:346:347:348:349:350:351:352:353:354:355:356:357:358:359:360:361:362:363:364:365:366:367:368:369:370:371:372:373:374:375:376:377:378:379:380:381:382:383:384:385:386:387:388:389:390:391:392:393:394:395:396:397:398:399:400:401:402:403:404:405:406:407:408:409:410:411:412:413:414:415:416:417:418:419:420:421:422:423:424:425:426:427:428:429:430:431:432:433:434:435:436:437:438:439:440:441:442:443:444:445:446:447:448:449:450:451:452:453:454:455:456:457:458:459:460:461:462:463:464:465:466:467:468:469:470:471:472:473:474:475:476:477:478:479:480:481:482:483:484:485:486:487:488:489:490:491:492:493:494:495:496:497:498:499:500:501:502:503:504:505:506:507:508:509:510:511:512:513:514:515:516:517:518:519:520:521:522:523:524:525:526:527:528:529:530:531:532:533:534:535:536:537:538:539:540:541:542:543:544:545:546:547:548:549:550:551:552:553:554:555:556:557:558:559:560:561:562:563:564:565:566:567:568:569:570:571:572:573:574:575:576:577:578:579:580:581:582:583:584:585:586:587:588:589:590:591:592:593:594:595:596:597:598:599:600:601:602:603:604:605:606:607:608:609:610:611:612:613:614:615:616:617:618:619:620:621:622:623:624:625:626:627:628:629:630:631:632:633:634:635:636:637:638:639:640:641:642:643:644:645:646:647:648:649:650:651:652:653:654:655:656:657:658:659:660:661:662:663:664:665:666:667:668:669:670:671:672:673:674:675:676:677:678:679:680:681:682:683:684:685:686:687:688:689:690:691:692:693:694:695:696:697:698:699:700:701:702:703:704:705:706:707:708:709:710:711:712:713:714:715:716:717:718:719:720:721:722:723:724:725:726:727:728:729:730:731:732:733:734:735:736:737:738:739:740:741:742:743:744:745:746:747:748:749:750:751:752:753:754:755:756:757:758:759:760:761:762:763:764:765:766:767:768:769:770:771:772:773:774:775:776:777:778:779:780:781:782:783:784:785:786:787:788:789:790:791:792:793:794:795:796:797:798:799:800:801:802:803:804:805:806:807:808:809:810:811:812:813:814:815:816:817:818:819:820:821:822:823:824:825:826:827:828:829:830:831:832:833:834:835:836:837:838:839:840:841:842:843:844:845:846:847:848:849:850:851:852:853:854:855:856:857:858:859:860:861:862:863:864:865:866:867:868:869:870:871:872:873:874:875:876:877:878:879:880:881:882:883:884:885:886:887:888:889:890:891:892:893:894:895:896:897:898:899:900:901:902:903:904:905:906:907:908:909:910:911:912:913:914:915:916:917:918:919:920:921:922:923:924:925:926:927:928:929:930:931:932:933:934:935:936:937:938:939:940:941:942:943:944:945:946:947:948:949:950:951:952:953:954:955:956:957:958:959:960:961:962:963:964:965:966:967:968:969:970:971:972:973:974:975:976:977:978:979:980:981:982:983:984:985:986:987:988:989:990:991:992:993:994:995:996:997:998:999:1000:1001:1002:1003:1004:1005:1006:1007:1008:1009:1010:1011:1012:1013:1014:1015:1016:1017:1018:1019:1020:1021:1022:1023:1024:1025:1026:1027:1028:1029:1030:1031:1032:1033:1034:1035:1036:1037:1038:1039:1040:1041:1042:1043:1044:1045:1046:1047:1048:1049:1050:1051:1052:1053:1054:1055:1056:1057:1058:1059:1060:1061:1062:1063:1064:1065:1066:1067:1068:1069:1070:1071:1072:1073:1074:1075:1076:1077:1078:1079:1080:1081:1082:1083:1084:1085:1086:1087:1088:1089:1090:1091:1092:1093:1094:1095:1096:1097:1098:1099:1100:1101:1102:1103:1104:1105:1106:1107:1108:1109:1110:1111:1112:1113:1114:1115:1116:1117:1118:1119:1120:1121:1122:1123:1124:1125:1126:1127:1128:1129:1130:1131:1132:1133:1134:1135:1136:1137:1138:1139:1140:1141:1142:1143:1144:1145:1146:1147:1148:1149:1150:1151:1152:1153:1154:1155:1156:1157:1158:1159:1160:1161:1162:1163:1164:1165:1166:1167:1168:1169:1170:1171:1172:1173:1174:1175:1176:1177:1178:1179:1180:1181:1182:1183:1184:1185:1186:1187:1188:1189:1190:1191:1192:1193:1194:1195:1196:1197:1198:1199:1200:1201:1202:1203:1204:1205:1206:1207:1208:1209:1210:1211:1212:1213:1214:1215:1216:1217:1218:1219:1220:1221:1222:1223:1224:1225:1226:1227:1228:1229:1230:1231:1232:1233:1234:1235:1236:1237:1238:1239:1240:1241:1242:1243:1244:1245:1246:1247:1248:1249:1250:1251:1252:1253:1254:1255:1256:1257:1258:1259:1260:1261:1262:1263:1264:1265:1266:1267:1268:1269:1270:1271:1272:1273:1274:1275:1276:1277:1278:1279:1280:1281:1282:1283:1284:1285:1286:1287:1288:1289:1290:1291:1292:1293:1294:1295:1296:1297:1298:1299:1300:1301:1302:1303:1304:1305:1306:1307:1308:1309:1310:1311:1312:1313:1314:1315:1316:1317:1318:1319:1320:1321:1322:1323:1324:1325:1326:1327:1328:1329:1330:1331:1332:1333:1334:1335:1336:1337:1338:1339:1340:1341:1342:1343:1344:1345:1346:1347:1348:1349:1350:1351:1352:1353:1354:1355:1356:1357:1358:1359:1360:1361:1362:1363:1364:1365:1366:1367:1368:1369:1370:1371:1372:1373:1374:1375:1376:1377:1378:1379:1380:1381:1382:1383:1384:1385:1386:1387:1388:1389:1390:1391:1392:1393:1394:1395:1396:1397:1398:1399:1400:1401:1402:1403:1404:1405:1406:1407:1408:1409:1410:1411:1412:1413:1414:1415:1416:1417:1418:1419:1420:1421:1422:1423:1424:1425:1426:1427:1428:1429:1430:1431:1432:1433:1434:1435:1436:1437:1438:1439:1440:1441:1442:1443:1444:1445:1446:1447:1448:1449:1450:1451:1452:1453:1454:1455:1456:1457:1458:1459:1460:1461:1462:1463:1464:1465:1466:1467:1468:1469:1470:1471:1472:1473:1474:1475:1476:1477:1478:1479:1480:1481:1482:1483:1484:1485:1486:1487:1488:1489:1490:1491:1492:1493:1494:1495:1496:1497:1498:1499:1500:1501:1502:1503:1504:1505:1506:1507:1508:1509:1510:1511:1512:1513:1514:1515:1516:1517:1518:1519:1520:1521:1522:1523:1524:1525:1526:1527:1528:1529:1530:1531:1532:1533:1534:1535:1536:1537:1538:1539:1540:1541:1542:1543:1544:1545:1546:1547:1548:1549:1550:1551:1552:1553:1554:1555:1556:1557:1558:1559:1560:1561:1562:1563:1564:1565:1566:1567:1568:1569:1570:1571:1572:1573:1574:1575:1576:1577:1578:1579:1580:1581:1582:1583:1584:1585:1586:1587:1588:1589:1590:1591:1592:1593:1594:1595:1596:1597:1598:1599:1600:1601:1602:1603:1604:1605:1606:1607:1608:1609:1610:1611:1612:1613:1614:1615:1616:1617:1618:1619:1620:1621:1622:1623:1624:1625:1626:1627:1628:1629:1630:1631:1632:1633:1634:1635:1636:1637:1638:1639:1640:1641:1642:1643:1644:1645:1646:1647:1648:1649:1650:1651:1652:1653:1654:1655:1656:1657:1658:1659:1660:1661:1662:1663:1664:1665:1666:1667:1668:1669:1670:1671:1672:1673:1674:1675:1676:1677:1678:1679:1680:1681:1682:1683:1684:1685:1686:1687:1688:1689:1690:1691:1692:1693:1694:1695:1696:1697:1698:1699:1700:1701:1702:1703:1704:1705:1706:1707:1708:1709:1710:1711:1712:1713:1714:1715:1716:1717:1718:1719:1720:1721:1722:1723:1724:1725:1726:1727:1728:1729:1730:1731:1732:1733:1734:1735:1736:1737:1738:1739:1740:1741:1742:1743:1744:1745:1746:1747:1748:1749:1750:1751:1752:1753:1754:1755:1756:1757:1758:1759:1760:1761:1762:1763:1764:1765:1766:1767:1768:1769:1770:1771:1772:1773:1774:1775:1776:1777:1778:1779:1780:1781:1782:1783:1784:1785:1786:1787:1788:1789:1790:1791:1792:1793:1794:1795:1796:1797:1798:1799:1800:1801:1802:1803:1804:1805:1806:1807:1808:1809:1810:1811:1812:1813:1814:1815:1816:1817:1818:1819:1820:1821:1822:1823:1824:1825:1826:1827:1828:1829:1830:1831:1832:1833:1834:1835:1836:1837:1838:1839:1840:1841:1842:1843:1844:1845:1846:1847:1848:1849:1850:1851:1852:1853:1854:1855:1856:1857:1858:1859:1860:1861:1862:1863:1864:1865:1866:1867 -1:1:2:7:3:4:5:6 -1:3:1:5:7:8:10:12:4:6:9:11:2 -1:2012:2013:2014:2015:2011:2016 -1:0:5:6:7:1:2:3:4:9:11:12:13:14:16:17:18:19:20:21:22:23:24:25:26:27:28:29:30:8:10 -1:0:4:3:2 -1:0:1:2:3 -1:0:1 -1:0:1 -1:0:1 -1:0:1 [0:37412] [0:37412] [0:37412] [0:37412] [0:37412] [0:37412] [0:37412] [0:37412] [0:37412] [0:37412] [0:37412] [0:37412] [0:37412] [0:37412]
tree_sizes=3273 3446 3354 3670 3435 3577 3411 3437 3440 3416 3706 3429 3502 3691 3415 3545 3543 3416 3437 3415 3460 3570 3427 3668 3451 3292 3568 3710 3444 3431 3579 3445 3591 3687 3594 3480 3560 3585 3598 3478 3602 3567 3832 3362 3473 3428 3599 3518 3592 3366 3651 3602 3630 3640 3633 3503 3585 3613 3851 3603 3748 3629 3596 3373 3347 3497 3462 3386 3841 3321 3630 3510 3490 3376 3469 3639 3344 3380 3380 3355 3534 3502 3477 3401 3355 3488 3390 3402 3768 3363 3388 3415 3377 3363 3517 3386 3395 3420 3382 3488 3420 3340 3431 3400 3511 3396 3396 3401 3399 3413 3498 3503 3451 3479 3398 3359 3414 3371 3516 3376 3518 3507 3396 3365 3522 3476 3371 3401 3637 3363 3408 3639 3558 3382 3520 3400 3735 3503 3408 3528 3527 3383 3400 3488 3394 3537 3404 3504 3403 3502 3413 3412 3388 3610 3463 3525 3503 3410 3731 3445 3412 3415 3415 3360 3417 3413 3635 3408 3499 3520 3399 3396 3672 3629 3391 3773 3371 3404 3537 3370 3439 3423 3413 3431 3389 3618 3617 3420 3546 3539 3639 3534 3435 3547 3436 3418 3481 3395 3397 3417 3406 3390 3394 3503 3379 3403 3378 3560 3566 3388 3644 3465 3388 3539 3408 3614 3683 3435 3435 3420 3396 3513 3380 3415 3442 3386 3499 3533 3494 3442 3413 3414 3451 3635 3443 3538 3360 3410 3397 3401 3454 3539 3525 3520 3530 3396 3387 3427 3442 3541 3525 3395 3438 3425 3386 3414 3429 3433 3429 3427 3424 3513 3636 3534 3439 3539 3417 3432 3547 3524 3439 3415 3547 3432 3427 3426 3434 3426 3430 3447 3415 3423 3571 3407 3443 3442 3398 3413 3446 3499 3405 3426 3684 3419 3516 3547 3424 3683 3416 3528 3542 3429 3455 3429 3394 3421 3677 3547 3407 3365 3509 3548 3463 3415 3425 3420 3435 3388 3382 3414 3445 3437 3636 3414 3427 3442 3420 3487 3408 3493 3411 3434 3674 3646 3407 3441 3376 3437 3400 3565 3402 3446 3461

Tree=0
num_leaves=31
num_cat=10
split_feature=0 12 12 12 12 12 2 2 19 12 19 4 12 15 12 11 3 0 12 12 12 12 19 11 19 18 3 12 3 19
split_gain=295106 40094.2 4297.87 3434.64 2484.23 1214.23 722.271 548.2 504.237 321.19 273.272 239.022 229.342 223.434 153.294 135.159 120.482 98.1569 91.4923 85.7809 81.909 68.4138 67.7553 60.768 64.9588 59.0278 55.216 50.7038 48.4106 47.8885
threshold=0 5300.5000000000009 23933.000000000004 8114.0000000000009 3782.0000000000005 19373.500000000004 1 2 3013.5000000000005 6684.5000000000009 18110.500000000004 3 4476.0000000000009 20831.000000000004 21770.000000000004 4 5 6 2671.0000000000005 7613.5000000000009 15337.500000000002 3279.0000000000005 4275.0000000000009 7 21647.000000000004 23910.500000000004 8 9193.0000000000018 9 6339.0000000000009
decision_type=1 2 2 2 2 2 1 1 2 2 2 1 2 2 2 1 1 1 2 2 2 2 2 1 2 2 1 2 1 2
left_child=2 4 5 9 8 10 13 11 18 16 20 -5 22 -4 -7 25 -3 21 -2 28 -1 -10 -6 24 -16 -8 -13 -9 -11 -18
right_child=1 3 6 7 12 14 15 27 17 19 -12 26 -14 -15 23 -17 29 -19 -20 -21 -22 -23 -24 -25 -26 -27 -28 -29 -30 -31
leaf_value=9.3743702934953141 9.2198677433648264 9.3011118177498542 9.4285167258451192 9.3488387272707527 9.2493453748809742 9.4071836670434248 9.4099326843926434 9.3166189434382716 9.2330089185947717 9.3078173937686692 9.3988129515157208 9.3266541729122405 9.2669731740155203 9.4391433056169927 9.4052482736407441 9.4251998591963613 9.281890478586627 9.2645039314546302 9.2282001048621609 9.3103601186001228 9.3878334563981731 9.2406001311069321 9.2594527979747241 9.418735340837932 9.4148017986525296 9.4192768744129172 9.3363360942071285 9.3258967717125145 9.2987172923876678 9.2918598383990094
leaf_weight=6436.6641693115234 26614.953159332275 8433.6212768554688 31707.582809448242 13914.818664550781 19258.546482086182 51323.383277893066 11061.986465454102 17818.989250183105 21051.02751159668 8938.1337890625 27819.672924041748 9895.7311706542969 18788.822845458984 52625.461975097656 9944.1268844604492 30846.989700317383 10648.227531433105 1362.7923736572266 26101.894184112549 15902.798034667969 15167.482231140137 27226.653636932373 10116.034767150879 22638.755340576172 25036.152404785156 17385.158020019531 14815.094863891602 8799.1930694580078 21960.321563720703 8800.6193237304688
leaf_count=52 407 97 176 129 268 336 71 192 309 100 193 102 246 266 66 176 132 18 389 176 113 390 136 136 155 104 146 91 255 105
internal_value=9.34741 9.27544 9.41662 9.31397 9.23962 9.40526 9.42915 9.33074 9.2308 9.29933 9.39226 9.33835 9.25835 9.43514 9.41116 9.4206 9.29083 9.23804 9.22399 9.30439 9.38382 9.23729 9.25283 9.4147 9.41209 9.41564 9.33245 9.3197 9.30132 9.28643
internal_weight=0 290448 301993 139928 150521 158366 143627 65243.8 102357 74683.7 49423.8 38625.6 48163.4 84333 108942 59294.1 27882.5 49640.5 52716.8 46801.3 21604.1 48277.7 29374.6 57619 34980.3 28447.1 24710.8 26618.2 30898.5 19448.8
internal_count=5532 3688 1844 1525 2163 1051 793 660 1513 865 358 377 650 442 693 351 334 717 796 531 165 699 404 357 221 175 248 283 355 237
cat_boundaries=0 1 2 3 67 68 69 70 71 72 73
cat_threshold=1 6 6 0 0 0 0 0 0 0 0 0 0 0 0 0 0 0 0 0 0 0 0 0 0 0 0 0 0 0 0 0 0 0 0 0 0 0 0 0 0 0 0 0 0 0 0 0 0 0 0 0 0 0 0 0 0 0 0 0 0 0 0 0 0 2147483648 1 1 324 2 1 6306 332
is_linear=0
shrinkage=1


Tree=1
num_leaves=31
num_cat=7
split_feature=12 19 12 12 19 12 12 12 19 12 19 12 19 16 19 11 12 19 12 3 11 4 19 19 13 3 19 19 9 9
split_gain=243035 32160.7 4883.8 2409.63 2288.73 1555.32 1235.44 416.31 375.37 337.69 306.025 301.603 194.516 181.022 172.42 171.419 167.287 128.264 117.598 91.7736 87.8061 87.2465 67.4294 65.7446 62.6437 57.0437 54.9462 52.2149 50.632 49.9657
threshold=11585.500000000002 5183.5000000000009 21770.000000000004 3647.0000000000005 8098.5000000000009 15337.500000000002 27317.000000000004 6342.5000000000009 3013.5000000000005 4937.5000000000009 9499.5000000000018 18688.000000000004 26055.500000000004 10409.500000000002 11959.500000000002 0 7785.5000000000009 4056.5000000000005 8894.0000000000018 1 2 3 29011.500000000004 17260.000000000004 20266.500000000004 4 23128.000000000004 3317.5000000000005 5 6
decision_type=2 2 2 2 2 2 2 2 2 2 2 2 2 2 2 1 2 2 2 1 1 1 2 2 2 1 2 2 1 1
left_child=1 3 5 8 7 13 12 19 21 17 18 23 15 -2 -12 26 25 -5 -6 -3 22 -1 -8 -7 -13 -9 29 -10 -18 -4
right_child=2 4 6 9 10 11 20 16 27 -11 14 24 -14 -15 -16 -17 28 -19 -20 -21 -22 -23 -24 -25 -26 -27 -28 -29 -30 -31
leaf_value=-0.11927429160290914 0.0031170062812153169 -0.047693815755603386 0.052093895683284264 -0.091995402388362166 -0.028925691686616507 0.033724773904110848 0.073740269130486466 -0.038641064212929309 -0.10705064821941541 -0.063959034399440257 -0.011961690847296222 0.049065423994469705 0.071618866176252835 0.025376683968256448 0.017630513304719066 0.06713103451555022 -0.03476107372513125 -0.081276456883028703 -0.01564633386486259 -0.062058412995131443 0.0851657223604462 -0.10941993043092524 0.081736256052851383 0.043990845520892836 0.055556255143722401 -0.04651746637794113 0.062127962925924332 -0.099915451457484386 -0.023215954969703488 0.061021504294554753
leaf_weight=31512.051425933838 7399.0017471313477 8146.5969390869141 16737.284469604492 21286.846313476562 19135.570899963379 9069.7156295776367 18903.385803222656 18694.799110412598 17478.042121887207 7908.6335296630859 26369.890350341797 23940.996116638184 31547.504165649414 7216.7163009643555 2127.8157577514648 43172.644927978516 11498.107620239258 23473.994873046875 10236.000534057617 11378.192962646484 31395.345520019531 18692.283229827881 23855.886169433594 19980.608558654785 39238.112419128418 20508.21395111084 22680.679672241211 24821.113185882568 5672.7614212036133 10023.369682312012
leaf_count=500 68 97 112 305 208 69 107 213 265 101 263 164 182 58 18 258 128 322 104 144 161 287 126 142 257 242 141 367 60 63
internal_value=0 -0.067488 0.0616512 -0.100082 -0.0321149 0.044416 0.0709368 -0.0435365 -0.109804 -0.0830083 -0.0171348 0.0492189 0.0648371 0.014108 -0.00975215 0.0625271 -0.039178 -0.086374 -0.0242978 -0.0561211 0.0811499 -0.115651 0.0782013 0.0407857 0.0530966 -0.0427832 0.0585068 -0.102864 -0.0309469 0.0554378
internal_weight=0 278941 305161 145173 133768 106845 198316 75898.7 92503.5 52669.5 57869.3 92229.4 124161 14615.7 28497.7 92614 56373.9 44760.8 29371.6 19524.8 74154.6 50204.3 42759.3 29050.3 63179.1 39203 49441.3 42299.2 17170.9 26760.7
internal_count=5532 3624 1908 2147 1477 758 1150 884 1419 728 593 632 756 126 281 574 643 627 312 241 394 787 233 211 421 455 316 632 188 175
cat_boundaries=0 1 2 3 66 67 68 69
cat_threshold=1 964 1 0 0 0 0 0 0 0 0 0 0 0 0 0 0 0 0 0 0 0 0 0 0 0 0 0 0 0 0 0 0 0 0 0 0 0 0 0 0 0 0 0 0 0 0 0 0 0 0 0 0 0 0 0 0 0 0 0 0 0 0 0 0 402653184 476 1 1
is_linear=0
shrinkage=0.1


Tree=2
num_leaves=31
num_cat=5
split_feature=12 19 12 19 12 12 12 12 2 17 12 12 19 25 11 12 12 12 16 12 12 11 19 19 19 19 3 19 3 20
split_gain=199625 27712 4133.12 2183.28 1812.28 1330.43 1034.29 404.721 393.849 332.656 285.961 261.362 164.701 158.661 143.11 138.058 110.454 90.9968 87.0063 78.4134 77.5201 77.3175 63.2933 61.3776 58.9834 53.7805 51.8861 49.1318 48.1686 47.755
threshold=11585.500000000002 4942.5000000000009 21907.000000000004 7731.5000000000009 3513.5000000000005 16972.000000000004 27317.000000000004 6342.5000000000009 0 12281.500000000002 4275.0000000000009 2845.5000000000005 26055.500000000004 12245.500000000002 1 19923.500000000004 5300.5000000000009 5605.5000000000009 7778.5000000000009 8051.0000000000009 8158.0000000000009 2 2550.5000000000005 3775.5000000000005 29011.500000000004 17551.500000000004 3 3190.5000000000005 4 20266.500000000004
decision_type=2 2 2 2 2 2 2 2 1 2 2 2 2 2 1 2 2 2 2 2 2 1 2 2 2 2 1 2 1 2
left_child=1 4 5 7 11 9 12 16 18 -2 23 22 14 20 29 25 -3 -12 28 26 -10 24 -1 -6 -8 -7 -9 -13 -5 -4
right_child=2 3 6 8 10 15 21 19 13 -11 17 27 -14 -15 -16 -17 -18 -19 -20 -21 -22 -23 -24 -25 -26 -27 -28 -29 -30 -31
leaf_value=-0.11371862016436173 0.0033498172463089291 -0.062549386614507249 0.047366996519817503 -0.0068920399157077943 -0.089552545228944791 0.034672531861121424 0.067283828452213118 -0.045663114022996831 -0.031411228765429337 0.028132310215565882 -0.072502042406434111 -0.10122681323379992 0.065477889363752748 -0.00051301295534509131 0.061277701921154282 0.050465997894715259 -0.04829814121348866 -0.047337015057845606 0.0019309191567719243 -0.027485282576307127 -0.021940422278800015 0.078069065618314545 -0.10557509387816442 -0.081130511614153036 0.07481606329037703 0.044122382217667816 -0.03680659590542279 -0.094385987264082441 -0.01551970405280817 0.054948998367876589
leaf_weight=17161.009876251221 7755.7668533325195 8338.0060119628906 10729.072521209717 11237.854965209961 17605.27087020874 7429.1936874389648 18659.203872680664 9227.4644737243652 16412.01118850708 17956.322906494141 19616.655612945557 20929.217433929443 30692.633361816406 2536.1090393066406 41438.774169921875 44595.741401672363 15638.807033538818 1550.487922668457 5489.1090621948242 7041.8967895507812 18256.188232421875 30854.350463867188 21502.774448394775 17017.422908782959 23477.258178710938 31805.893741607666 28923.207138061523 21067.036834716797 15439.80012512207 36800.051300048828
leaf_count=284 71 110 72 110 263 55 107 111 184 139 271 330 179 24 250 294 192 19 51 77 194 161 345 245 126 220 334 322 158 234
internal_value=0 -0.0616851 0.0560654 -0.0301805 -0.0936724 0.0405562 0.0648841 -0.0427524 -0.0176452 0.0206569 -0.0798151 -0.103257 0.0591615 -0.024651 0.0569824 0.0466596 -0.0532541 -0.0706587 -0.00953166 -0.0371807 -0.0264239 0.0742656 -0.10919 -0.085413 0.0714806 0.042333 -0.0389703 -0.0977952 -0.0118937 0.0532375
internal_weight=0 274990 302194 138540 136450 109543 192651 69169.4 69371.1 25712.1 55789.8 80660 119661 37204.3 88967.9 83830.8 23976.8 21167.1 32166.8 45192.6 34668.2 72990.8 38663.8 34622.7 42136.5 39235.1 38150.7 41996.3 26677.7 47529.1
internal_count=5532 3624 1908 1545 2079 779 1129 824 721 210 798 1281 735 402 556 569 302 290 319 522 378 394 629 508 233 275 445 652 268 306
cat_boundaries=0 1 2 3 4 5
cat_threshold=6 1 1 6146 1804
is_linear=0
shrinkage=0.1


Tree=3
num_leaves=31
num_cat=12
split_feature=0 12 12 12 12 12 2 19 2 0 12 19 15 4 3 11 4 4 11 19 13 12 13 2 19 18 3 18 12 12
split_gain=163657 25424.7 2733.22 1913.27 1897.26 699.862 503.23 359.921 276.285 236.93 215.283 212.239 164.603 131.641 96.5545 94.0878 90.9364 85.164 71.5485 79.2166 67.8181 64.015 63.5593 61.1219 56.403 42.8472 41.4365 39.5327 39.429 38.492
threshold=0 5300.5000000000009 23933.000000000004 8237.5000000000018 3647.0000000000005 19923.500000000004 1 3013.5000000000005 2 3 6821.5000000000009 18110.500000000004 20831.000000000004 4 5 6 7 8 9 22630.000000000004 4345.5000000000009 7613.5000000000009 15365.000000000002 10 3834.0000000000005 24481.500000000004 11 15734.500000000002 6017.5000000000009 3305.5000000000005
decision_type=1 2 2 2 2 2 1 2 1 1 2 2 2 1 1 1 1 1 1 2 2 2 2 1 2 2 1 2 2 2
left_child=2 4 5 10 7 11 12 16 13 24 14 22 -4 -5 -3 25 23 -11 19 -7 29 -12 -1 -2 -6 -8 -15 -24 -16 -9
right_child=1 3 6 8 9 18 15 20 -10 17 21 -13 -14 26 28 -17 -18 -19 -20 -21 -22 -23 27 -25 -26 -27 -28 -29 -30 -31
leaf_value=0.01738229961959974 -0.094855680265582831 -0.032639015829797356 0.061718018389099905 0.001673286414387637 -0.080809535064760241 0.042786207021971133 0.046382924459685615 -0.091058368273910617 -0.020004238231693335 -0.066936377158382659 -0.033905027876739539 0.039126121005655309 0.071041859927966258 -0.014892348894546626 -0.051183840861912501 0.059068308913369706 -0.093601022913818555 -0.053577219704981596 0.0521558633404203 0.04972123793287813 -0.070274096337027719 -0.026408073885281769 0.022499962277295636 -0.10677341164310201 -0.071947048091037413 0.054347281922163329 -0.0065916946682898899 0.032980413058187934 -0.042154490824903371 -0.084728699495999885
leaf_weight=5518.6056442260742 7941.9612197875977 9118.8999633789062 30465.797088623047 13813.502975463867 12531.643886566162 32106.62964630127 11741.630523681641 20353.195343017578 23006.464218139648 14089.079925537109 26780.118118286133 35579.794979095459 50023.038055419922 11563.368316650391 7190.9375610351562 29741.955856323242 17703.333751678467 8236.6071281433105 31208.409317016602 33821.892303466797 2267.2473258972168 19818.649742126465 5205.8364944458008 21626.882614135742 16819.053077697754 15905.079292297363 12650.615791320801 11661.311584472656 14768.77025604248 18197.192165374756
leaf_count=45 130 106 176 128 189 217 77 324 245 198 311 249 266 119 92 176 287 109 196 217 33 220 41 370 242 98 124 86 180 281
internal_value=0 -0.0549358 0.0521287 -0.0246054 -0.0850372 0.0430221 0.062373 -0.0939609 -0.0113561 -0.0698255 -0.0350159 0.0343264 0.0675043 -0.00611709 -0.0414622 0.0551549 -0.0999006 -0.0620618 0.0482112 0.0463439 -0.087082 -0.0307165 0.0266979 -0.103606 -0.075731 0.0509648 -0.0105602 0.0297458 -0.0450907 -0.0880705
internal_weight=0 278478 292980 138711 139766 155102 137878 88089.8 61034 51676.4 77677.4 57965.5 80488.8 38027.5 31078.6 57388.7 47272.2 22325.7 97136.9 65928.5 40817.6 46598.8 22385.8 29568.8 29350.7 27646.7 24214 16867.1 21959.7 38550.4
internal_count=5532 3688 1844 1525 2163 1051 793 1425 616 738 909 421 442 371 378 351 787 307 630 434 638 531 172 500 431 175 243 127 272 605
cat_boundaries=0 1 2 3 4 68 69 70 133 196 197 198 199
cat_threshold=1 6 6 2 0 0 0 0 0 0 0 0 0 0 0 0 0 0 0 0 0 0 0 0 0 0 0 0 0 0 0 0 0 0 0 0 0 0 0 0 0 0 0 0 0 0 0 0 0 0 0 0 0 0 0 0 0 0 0 0 0 0 0 0 0 0 2147483648 1 324 1 0 0 0 0 0 0 0 0 0 0 0 0 0 0 0 0 0 0 0 0 0 0 0 0 0 0 0 0 0 0 0 0 0 0 0 0 0 0 0 0 0 0 0 0 0 0 0 0 0 0 0 0 0 0 0 0 0 0 0 0 0 0 402653184 0 0 0 0 0 0 0 0 0 0 0 0 0 0 0 0 0 0 0 0 0 0 0 0 0 0 0 0 0 0 0 0 0 0 0 0 0 0 0 0 0 0 0 0 0 0 0 0 0 0 0 0 0 0 0 0 0 0 0 0 0 0 134217728 1 134 6370
is_linear=0
shrinkage=0.1


Tree=4
num_leaves=31
num_cat=9
split_feature=0 12 12 12 19 12 2 12 12 2 19 15 19 4 12 3 11 3 19 19 11 13 14 12 25 12 13 25 18 3
split_gain=133860 21496.8 2293.52 1790.63 1410.32 580.548 427.889 267.889 265.253 252.723 220.758 141.053 138.478 111.993 109.328 79.9738 79.1567 76.3355 74.9364 64.0038 62.8057 49.8593 40.7733 39.429 38.6852 37.6815 36.6791 43.6287 36.3649 35.5189
threshold=0 5004.0000000000009 23933.000000000004 8114.0000000000009 3489.0000000000005 19373.500000000004 1 2994.5000000000005 6342.5000000000009 2 4478.5000000000009 20831.000000000004 18110.500000000004 3 3838.5000000000005 4 5 6 23264.000000000004 2550.5000000000005 7 15365.000000000002 4770.5000000000009 7477.5000000000009 18362.000000000004 5407.0000000000009 17830.500000000004 21347.500000000004 23781.500000000004 8
decision_type=1 2 2 2 2 2 1 2 2 1 2 2 2 1 2 1 1 1 2 2 1 2 2 2 2 2 2 2 2 1
left_child=2 4 5 8 7 12 11 19 17 13 14 -4 21 -5 -6 -10 28 22 20 -2 29 -1 -3 -17 -23 -19 27 -14 -8 -7
right_child=1 3 6 9 10 18 16 -9 15 -11 -12 -13 26 -15 -16 23 -18 25 -20 -21 -22 24 -24 -25 -26 -27 -28 -29 -30 -31
leaf_value=0.015655938832553281 -0.097696317936220675 -0.047441235772277005 0.056082062272817958 0.0014427445851767683 -0.075728225947769456 0.042742615693978275 0.041575975676449356 -0.080920151973282242 -0.034919723340525795 -0.018423800586421048 -0.0563167192889093 0.064757384183705455 0.018474921879079651 -0.0097776438121979226 -0.065527208959758637 -0.029345529598691824 0.053630862891936283 -0.055306668674193885 0.046538017047762295 -0.089911771731540163 0.045353907761141191 0.023084120029356836 -0.031174300650870696 -0.02253365918925368 0.033446093818282285 -0.043820826862769183 0.036877150808490709 0.034295870120314625 0.049051473822514791 0.036602188929691602
leaf_weight=5514.6454544067383 17376.996555328369 1997.8250503540039 30190.139152526855 13913.192764282227 21358.778064727783 16015.327484130859 10586.203174591064 31660.73318862915 18993.107456207275 26468.222366333008 14273.535259246826 49423.3076171875 2694.6390037536621 24665.42261505127 20676.846969604492 23128.21183013916 29495.461486816406 3973.9707489013672 39200.130447387695 26930.10347366333 22291.750411987305 10343.95401763916 6736.6085739135742 13432.430053710938 5528.6958618164062 10155.738567352295 19664.404769897461 4935.7659225463867 16888.921226501465 28203.595085144043
leaf_count=45 304 26 176 129 332 106 70 507 226 283 198 266 21 248 302 268 176 54 250 453 143 80 80 149 40 129 137 35 105 194
internal_value=0 -0.0499771 0.047259 -0.0231666 -0.0790552 0.0389086 0.0566982 -0.087945 -0.0333417 -0.0109 -0.0670619 0.0614599 0.0298725 -0.00573174 -0.0707105 -0.0296105 0.0500245 -0.0424074 0.0430699 -0.0929648 0.0410259 0.0238474 -0.0348551 -0.0268355 0.0266934 -0.0470179 0.0345936 0.0287088 0.0461712 0.0388441
internal_weight=0 275742 290977 143465 132277 154393 136584 75967.8 78417.9 65046.8 56309.2 79613.4 48682.1 38578.6 42035.6 55553.7 56970.6 22864.1 105711 44307.1 66510.7 21387.3 8734.43 36560.6 15872.6 14129.7 27294.8 7630.4 27475.1 44218.9
internal_count=5532 3688 1844 1592 2096 1051 793 1264 932 660 832 442 358 377 634 643 351 289 693 757 443 165 106 417 120 183 193 56 175 300
cat_boundaries=0 1 2 3 67 68 69 70 71 72
cat_threshold=1 6 6 0 0 0 0 0 0 0 0 0 0 0 0 0 0 0 0 0 0 0 0 0 0 0 0 0 0 0 0 0 0 0 0 0 0 0 0 0 0 0 0 0 0 0 0 0 0 0 0 0 0 0 0 0 0 0 0 0 0 0 0 0 0 2147483648 1 7170 1 452 1 4548
is_linear=0
shrinkage=0.1


Tree=5
num_leaves=31
num_cat=10
split_feature=12 19 12 12 19 12 18 4 19 12 13 19 12 2 11 3 19 12 11 12 19 19 25 13 3 9 2 4 12 9
split_gain=109337 16176.7 2928.59 1277.85 1123.08 1006.07 770.319 213.457 205.347 190.956 188.355 134.626 114.229 109.44 100.272 91.6692 88.5936 82.2051 70.785 60.5006 54.7072 52.8141 52.1199 51.9139 48.7134 44.0701 39.6598 50.1684 38.5782 36.7028
threshold=11132.500000000002 4942.5000000000009 19923.500000000004 3513.5000000000005 7613.5000000000009 26319.000000000004 14623.000000000002 0 9400.5000000000018 4386.0000000000009 5300.5000000000009 23264.000000000004 16972.000000000004 1 2 3 11585.500000000002 8237.5000000000018 4 6491.0000000000009 28699.500000000004 3747.0000000000005 4698.5000000000009 13614.000000000002 5 6 7 8 22263.500000000004 9
decision_type=2 2 2 2 2 2 2 1 2 2 2 2 2 1 1 1 2 2 1 2 2 2 2 2 1 1 1 1 2 1
left_child=1 3 6 7 10 11 23 13 17 21 -3 14 -8 -1 29 -12 -10 -6 20 -17 -7 -5 -11 -2 -13 -21 -9 -28 -26 -4
right_child=2 4 5 9 8 18 12 26 16 22 15 24 -14 -15 -16 19 -18 -19 -20 25 -22 -23 -24 -25 28 -27 27 -29 -30 -31
leaf_value=-0.091548265128452599 0.00084210277239595694 -0.044315772736048753 0.033994984880862798 -0.068743321753575212 -0.022632751850740249 0.049286610906600227 0.021473499297593828 -0.068423435942584043 -0.0087532545689765675 -0.055992035368856857 -0.024785397915169548 0.049158642834972226 0.031772319274735186 -0.079387061199117398 0.04305865764159645 -0.039836950311155889 0.011746779985100151 -0.013805988132103106 0.058614714447522913 -0.033183523711815932 0.055936045401048184 -0.061199586432741787 -0.044259958073520622 0.014658503562090334 0.038426363419194642 -0.023247166127977208 -0.070468144724139148 -0.080155578967831848 0.044618007005282963 0.040466263968299325
leaf_weight=21036.225448608398 12584.592147827148 10786.876747131348 34343.361911773682 16765.701992034912 21025.624557495117 23790.394088745117 15059.273052215576 7771.1623687744141 24097.471977233887 9995.7254905700684 21831.627838134766 18801.110977172852 37807.912857055664 14015.537708282471 30207.108673095703 9776.2967338562012 2310.2141036987305 21179.141662597656 35084.101898193359 15862.332485198975 25781.577011108398 20787.536251068115 6095.9265785217285 3469.2313919067383 13655.15510559082 6211.5697784423828 9221.0941772460938 23443.257164001465 38254.249481201172 11767.336502075195
leaf_count=378 117 142 235 263 237 142 116 124 243 143 252 114 267 236 191 125 20 222 192 190 144 310 82 28 90 71 148 395 238 77
internal_value=0 -0.0472474 0.0411098 -0.0724623 -0.0227806 0.0464932 0.0230129 -0.0808482 -0.0138759 -0.060662 -0.0322577 0.0414929 0.0288387 -0.0867096 0.0385802 -0.0298347 -0.00695986 -0.0182033 0.0551775 -0.0332775 0.0527449 -0.0645675 -0.0515476 0.00382783 0.0446366 -0.0303874 -0.0757271 -0.0774432 0.042981 0.0356464
internal_weight=0 262213 300605 129132 133081 231684 68921 75487.3 68612.5 53644.9 64468.7 147028 52867.2 35051.8 76317.8 53681.8 26407.7 42204.8 84656.1 31850.2 49572 37553.2 16091.7 16053.8 70710.5 22073.9 40435.5 32664.4 51909.4 46110.7
internal_count=5532 3581 1951 2079 1502 1423 528 1281 722 798 780 945 383 614 503 638 263 459 478 386 286 573 225 145 442 261 667 543 328 312
cat_boundaries=0 63 64 65 66 67 68 69 70 134 135
cat_threshold=0 0 0 0 0 0 0 0 0 0 0 0 0 0 0 0 0 0 0 0 0 0 0 0 0 0 0 0 0 0 0 0 0 0 0 0 0 0 0 0 0 0 0 0 0 0 0 0 0 0 0 0 0 0 0 0 0 0 0 0 0 0 402653184 120 1 844 1 70 1 134 0 0 0 0 0 0 0 0 0 0 0 0 0 0 0 0 0 0 0 0 0 0 0 0 0 0 0 0 0 0 0 0 0 0 0 0 0 0 0 0 0 0 0 0 0 0 0 0 0 0 0 0 0 0 0 0 0 0 0 0 0 0 2147483648 1 1
is_linear=0
shrinkage=0.1


Tree=6
num_leaves=31
num_cat=11
split_feature=0 12 12 12 19 2 12 0 19 2 12 15 12 19 10 4 3 20 3 14 18 12 10 15 15 19 3 19 11 12
split_gain=89175.8 15082.8 1614.76 1194.75 1067.74 387.992 336.427 226.735 183.307 173.28 160.234 123.297 96.2216 90.7171 86.3876 76.1554 68.3115 58.7772 53.6552 48.167 44.0681 40.5514 39.1543 47.8399 48.9785 36.9309 36.0712 38.5903 35.4873 35.3412
threshold=0 5004.0000000000009 23225.000000000004 8114.0000000000009 3317.5000000000005 1 17551.500000000004 2 6339.0000000000009 3 2780.5000000000005 20051.500000000004 3926.5000000000005 20831.000000000004 4 5 6 20557.000000000004 7 4930.5000000000009 20221.000000000004 7613.5000000000009 8 22466.500000000004 19690.500000000004 5300.5000000000009 9 2335.5000000000005 10 3986.5000000000005
decision_type=1 2 2 2 2 1 2 1 2 1 2 2 2 2 1 1 1 2 1 2 2 2 1 2 2 2 1 2 1 2
left_child=2 4 6 8 10 11 17 12 18 15 26 -4 -6 -8 20 -5 -10 22 -3 -20 -7 -18 23 24 -1 -9 -2 -28 -15 -12
right_child=1 3 5 9 7 14 13 25 16 -11 29 -13 -14 28 -16 -17 21 -19 19 -21 -22 -23 -24 -25 -26 -27 27 -29 -30 -31
leaf_value=0.016102378996945218 -0.073622336176288952 -0.04012583147144469 0.044457539455946084 0.0013915086516122293 -0.06396917423005398 0.028517744336614949 0.029266286403446303 -0.049054538348973956 -0.019777806188357044 -0.015038716281988163 -0.071188387492179803 0.05312806787072917 -0.054454587199823878 0.03396758823298001 0.043811161622105396 -0.0078616208386099451 -0.029128318383925933 0.029142017685383267 -0.039617557288242809 -0.026338801971747094 0.038371087397654088 -0.021007145484176998 0.025901666318477568 0.02572197116946617 0.0014395175468261039 -0.034362906302363765 -0.089689928155322132 -0.080353104342164194 0.039053625404274178 -0.055520670701196519
leaf_weight=8093.0990142822266 7712.3514633178711 10174.223728179932 23015.520027160645 13912.956016540527 30691.308208465576 5380.0945892333984 39022.487182617188 16197.027786254883 22830.542358398438 26428.681900024414 32038.06107711792 57063.648254394531 16260.248924255371 55101.77307510376 36566.725326538086 24654.362953186035 23574.506031036377 5697.0873184204102 3877.9246788024902 9242.0317230224609 29032.660606384277 8317.8725814819336 4326.8186950683594 3265.3902587890625 3170.5309524536133 1913.093994140625 6092.528133392334 16189.945877075195 18266.593872070312 1507.4307594299316
leaf_count=64 135 133 138 129 492 37 272 233 259 283 542 315 242 369 223 248 284 41 51 111 185 94 32 24 27 25 114 290 117 23
internal_value=0 -0.0411624 0.0387095 -0.0188164 -0.0660125 0.0458389 0.0308453 -0.0570078 -0.027159 -0.00880257 -0.0752329 0.0506298 -0.0606741 0.0331619 0.0404211 -0.00452411 -0.0239965 0.0202408 -0.0345884 -0.0302406 0.0368306 -0.0270018 0.0175514 0.0150646 0.011975 -0.0475026 -0.0805435 -0.0828688 0.0352339 -0.0704843
internal_weight=0 271615 288002 143013 128602 151059 136944 65061.7 78017.1 64996 63540.3 80079.2 46951.6 112391 70979.5 38567.3 54722.9 24552.9 23294.2 13120 34412.8 31892.4 18855.8 14529 11263.6 18110.1 29994.8 22282.5 73368.4 33545.5
internal_count=5532 3688 1844 1592 2096 898 946 992 932 660 1104 453 734 758 445 377 637 188 295 162 222 378 147 115 91 258 539 404 486 565
cat_boundaries=0 1 2 3 4 5 69 70 71 72 73 74
cat_threshold=1 6 2 6 1 0 0 0 0 0 0 0 0 0 0 0 0 0 0 0 0 0 0 0 0 0 0 0 0 0 0 0 0 0 0 0 0 0 0 0 0 0 0 0 0 0 0 0 0 0 0 0 0 0 0 0 0 0 0 0 0 0 0 0 0 0 0 2147483648 1 468 6194 1 84 1
is_linear=0
shrinkage=0.1


Tree=7
num_leaves=31
num_cat=10
split_feature=19 12 12 12 12 12 19 4 12 12 13 19 2 11 12 19 12 3 25 13 13 3 2 3 3 0 13 20 18 3
split_gain=72652.5 11116.1 2168.36 869.618 767.564 703.387 621.054 172.958 169.531 130.463 121.229 100.372 87.8725 82.9094 61.2951 61.2595 61.1584 57.4133 51.1603 47.819 44.3745 51.4495 37.9749 37.4675 36.8217 33.3254 28.171 28.1496 28.8596 27.2974
threshold=10906.000000000002 4937.5000000000009 19923.500000000004 3437.0000000000005 7613.5000000000009 26319.000000000004 14709.000000000002 0 8894.0000000000018 4016.0000000000005 5300.5000000000009 24387.000000000004 1 2 11585.500000000002 18110.500000000004 30250.000000000004 3 5898.0000000000009 12927.000000000002 4016.0000000000005 4 5 6 7 8 21770.000000000004 20266.500000000004 21875.000000000004 9
decision_type=2 2 2 2 2 2 2 1 2 2 2 2 1 1 2 2 2 1 2 2 2 1 1 1 1 1 2 2 2 1
left_child=1 3 6 7 10 11 19 12 -6 -5 -3 13 -1 24 -10 -8 23 -12 -19 -2 21 -9 -13 -7 -4 -11 -17 28 -26 -15
right_child=2 4 5 9 8 16 15 20 14 25 17 22 -14 29 -16 26 -18 18 -20 -21 -22 -23 -24 -25 27 -27 -28 -29 -30 -31
leaf_value=-0.077489455387173542 -0.00067137224223802125 -0.036209367694995241 0.033426610897015999 -0.055820553687352753 -0.016134453056177847 0.039606363603424996 0.018722099214988346 -0.069063887018948028 -0.0073088635877262866 -0.049546565244335102 -0.017476860298044627 0.040599641834114346 -0.066320057418944783 0.032952971674195551 0.0095566338427182998 0.024507867578434515 0.04875927270949168 -0.032881118603098898 -0.024424173671784538 0.011049006871000432 -0.051495311963590334 -0.060453516751092541 0.034843806650081202 0.045461095353999371 0.019495434698496988 -0.042573384301062778 0.031339660137747964 0.029823008355896477 0.028625948218684839 0.038544663538187758
leaf_weight=20285.223117828369 13797.593803405762 10908.695449829102 18226.886123657227 28530.271965026855 35051.223861694336 19558.474548339844 17156.850135803223 13577.795429229736 30094.635940551758 14122.541683197021 9425.0957336425781 23122.167327880859 12929.581966400146 20110.662261962891 2321.1011047363281 27447.601718902588 32834.495788574219 9024.8924102783203 34493.315444946289 4655.7448654174805 3099.6967620849609 19706.488090515137 26318.06510925293 31150.228042602539 6657.1429634094238 13315.239253997803 7737.2105445861816 25978.422569274902 7212.2132568359375 18137.934814453125
leaf_count=378 130 144 120 453 385 117 131 236 305 212 108 141 224 130 20 196 182 115 412 38 49 331 168 179 48 190 53 175 49 113
internal_value=0 -0.0390928 0.0333581 -0.060366 -0.0187514 0.0380811 0.0180599 -0.0678287 -0.0113138 -0.0510858 -0.0266102 0.0338882 -0.0731628 0.0320082 -0.00610122 0.0236213 0.0453969 -0.0246323 -0.026172 0.00228566 -0.0629219 -0.0640049 0.037551 0.0432197 0.0296272 -0.0461626 0.0260102 0.027874 0.0242434 0.0356233
internal_weight=0 256886 300102 125567 131319 229307 70795 69598.8 67467 55968.1 63852 145763 33214.8 96323.3 32415.7 52341.7 83543.2 52943.3 43518.2 18453.3 36384 33284.3 49440.2 50708.7 58074.7 27437.8 35184.8 39847.8 13869.4 38248.6
internal_count=5532 3562 1970 2073 1489 1422 548 1218 710 855 779 944 602 635 325 380 478 635 527 168 616 567 309 296 392 402 249 272 97 243
cat_boundaries=0 63 64 65 66 67 68 69 70 71 72
cat_threshold=0 0 0 0 0 0 0 0 0 0 0 0 0 0 0 0 0 0 0 0 0 0 0 0 0 0 0 0 0 0 0 0 0 0 0 0 0 0 0 0 0 0 0 0 0 0 0 0 0 0 0 0 0 0 0 0 0 0 0 0 0 0 402653184 120 1 68 4874 14 7208 452 2 6698
is_linear=0
shrinkage=0.1


Tree=8
num_leaves=31
num_cat=11
split_feature=12 19 12 12 19 12 18 4 0 19 12 12 2 3 12 3 11 3 19 19 3 3 25 18 19 12 18 3 3 12
split_gain=59149.1 9158.5 1797.61 807.879 605.725 579.871 485.231 138.302 132.544 120.503 93.0283 85.7984 71.3762 69.9821 65.2135 55.9585 55.7582 55.3694 53.4867 49.7096 48.9668 41.9038 37.6915 34.1873 33.2192 29.6176 28.9984 29.2777 28.8011 28.7861
threshold=10906.000000000002 4942.5000000000009 19923.500000000004 3437.0000000000005 7419.5000000000009 26319.000000000004 14623.000000000002 0 1 9400.5000000000018 5300.5000000000009 22712.000000000004 2 3 16972.000000000004 4 5 6 11585.500000000002 3775.5000000000005 7 8 6047.0000000000009 20826.000000000004 6339.0000000000009 12927.000000000002 21985.000000000004 9 10 8158.0000000000009
decision_type=2 2 2 2 2 2 2 1 1 2 2 2 1 1 2 1 1 1 2 2 1 1 2 2 2 2 2 1 1 2
left_child=1 3 6 7 10 11 25 12 19 17 -3 26 -1 -12 -8 -13 20 -6 -11 -5 -7 -9 -10 -17 -15 -2 -4 -28 -16 -19
right_child=2 4 5 8 9 16 14 21 22 18 13 15 -14 24 28 23 -18 29 -20 -21 -22 -23 -24 -25 -26 -27 27 -29 -30 -31
leaf_value=-0.070810673112965114 -0.00038546272328927428 -0.034503644622916267 0.025479364103568505 -0.052589858481784157 -0.0080885116776182302 0.035169634288624789 0.015474574463884819 -0.062054351083628383 -0.040214254470925609 -0.0064688482696319445 -0.018190879482166515 0.037416870993419657 -0.060648715842043066 -0.030834096091112592 0.026785964489858361 0.026294769213129222 0.04415514491666498 -0.018528777265859418 0.010250974142487216 -0.045460731591538163 0.041753780177507464 -0.054542452547571875 -0.02451628674800525 0.032398749122379736 -0.023688397162375384 0.0086348985039788571 0.032835886984455297 0.027113675068232895 0.021005584577104212 -0.012767323470963519
leaf_weight=19995.711833953857 13181.089530944824 7961.2459526062012 27781.529319763184 20335.150569915771 13023.516014099121 21268.850234985352 15013.881534576416 14530.750137329102 15823.803298950195 22335.187873840332 19757.682823181152 20339.656951904297 12716.153739929199 9413.0742874145508 14647.531085968018 11355.088634490967 34389.908737182617 18056.718635559082 2092.5522384643555 18844.201751708984 27473.146041870117 21057.348213195801 1693.1861190795898 47806.819686889648 21064.048439025879 5028.7048492431641 17340.703170776367 20892.524322509766 22933.448295593262 16685.337829589844
leaf_count=378 124 109 189 330 138 128 116 254 229 226 230 125 223 121 102 76 192 208 18 287 158 356 22 303 253 42 112 140 165 178
internal_value=0 -0.0354105 0.0300976 -0.0547518 -0.0168691 0.0344092 0.0161745 -0.0620765 -0.045928 -0.0107496 -0.0244604 0.0306028 -0.0668801 -0.0228688 0.0210456 0.0328155 0.0410719 -0.0136713 -0.00503658 -0.0491609 0.0388965 -0.0576262 -0.0386969 0.0312219 -0.0258869 0.00210554 0.0279381 0.0297247 0.0232713 -0.0157572
internal_weight=0 255386 299453 124996 130389 228648 70804.7 68300 56696.3 72193.3 58196.1 145516 32711.9 50234.8 52594.9 79501.6 83131.9 47765.6 24427.7 39179.4 48742 35588.1 17517 59161.9 30477.1 18209.8 66014.8 38233.2 37581 34742.1
internal_count=5532 3560 1972 2079 1481 1423 549 1211 868 768 713 945 601 604 383 504 478 524 244 617 286 610 251 379 374 166 441 252 267 386
cat_boundaries=0 63 64 65 66 67 68 69 70 71 72 73
cat_threshold=0 0 0 0 0 0 0 0 0 0 0 0 0 0 0 0 0 0 0 0 0 0 0 0 0 0 0 0 0 0 0 0 0 0 0 0 0 0 0 0 0 0 0 0 0 0 0 0 0 0 0 0 0 0 0 0 0 0 0 0 0 0 402653184 2 120 844 196 1 388 7328 906 118 4576
is_linear=0
shrinkage=0.1


Tree=9
num_leaves=31
num_cat=12
split_feature=0 12 12 19 12 2 13 12 19 13 25 15 2 18 10 19 3 3 17 12 11 3 4 14 3 19 19 3 9 18
split_gain=48101.2 8528.61 920.597 759.274 598.464 246.971 201.234 143.701 129.538 98.2058 92.1906 89.9556 81.4332 72.8826 65.4274 53.7561 49.6771 48.2619 45.5333 43.7183 40.0835 39.5966 37.9026 37.6027 36.7934 31.042 30.6631 27.4549 26.9065 26.0967
threshold=0 5183.5000000000009 23225.000000000004 3489.0000000000005 8358.0000000000018 1 18436.000000000004 2780.5000000000005 4431.0000000000009 7785.5000000000009 20347.000000000004 21502.500000000004 2 8127.0000000000009 3 20831.000000000004 4 5 7216.0000000000009 3838.5000000000005 6 7 8 20081.000000000004 9 5605.5000000000009 2335.5000000000005 10 11 3773.0000000000005
decision_type=1 2 2 2 2 1 2 2 2 2 2 2 1 2 1 2 1 1 2 2 1 1 1 2 1 2 2 1 1 2
left_child=2 3 6 7 9 11 10 21 19 13 20 24 16 17 23 -8 -6 -3 -18 -5 -1 26 -9 -7 -4 -10 -2 -24 -14 -29
right_child=1 4 5 8 12 14 15 22 25 -11 -12 -13 28 -15 -16 -17 18 -19 -20 -21 -22 -23 27 -25 -26 -27 -28 29 -30 -31
leaf_value=0.0075036141401048119 -0.073385679706711865 -0.019773099025217945 0.030795101153256399 -0.04697016472102631 0.0018586227142015127 0.016564892080750414 0.021553468966539771 -0.046150134635998201 -0.034925629718798389 -0.013739716466920977 0.020976605772135486 0.041265877632761856 -0.013072656445508377 -0.015219091071907928 0.032578556289105519 0.026383790243442951 -0.011112493563002075 -0.026723711499462018 -0.0021520237204038467 -0.040314187921551323 0.018862550784022755 -0.057568202797941004 -0.048312761080728621 0.027585863502595894 0.037112779559039411 -0.02146708000418672 -0.062753034283895934 -0.056959778210810309 -0.005468935986382757 -0.046956803963304969
leaf_weight=12088.547660827637 3732.4736061096191 19289.689819335938 16759.011123657227 20274.530406951904 13849.647491455078 3443.3417663574219 34786.178535461426 9217.2149276733398 16044.382469177246 24807.305557250977 16847.70520401001 38465.459045410156 14530.380073547363 14517.090251922607 36159.177673339844 68229.643951416016 9349.8596420288086 21702.909275054932 14413.54753112793 19226.268592834473 4181.1512832641602 15590.043682098389 8022.3678207397461 30676.663345336914 23657.163642883301 1918.7192993164062 9923.0035972595215 21564.254383087158 6846.5701217651367 2966.9610366821289
leaf_count=97 74 231 102 331 131 24 244 152 230 281 120 213 157 166 223 454 97 274 139 291 31 286 136 198 138 25 186 381 71 49
internal_value=0 -0.0304919 0.0285189 -0.0490747 -0.0133532 0.0339457 0.0225728 -0.0559898 -0.0405287 -0.0189704 0.0157918 0.0377996 -0.00570525 -0.021308 0.0296105 0.0247527 -0.00290138 -0.0234643 -0.00567519 -0.0437305 0.0104227 -0.0613658 -0.0522259 0.0264736 0.0345099 -0.0334881 -0.0656112 -0.0539154 -0.0106324 -0.0557272
internal_weight=0 267787 285294 128480 139307 149161 136133 71016.3 57463.9 80317 33117.4 78881.6 58990 55509.7 70279.2 103016 37613.1 40992.6 23763.4 39500.8 16269.7 29245.5 41770.8 34120 40416.2 17963.1 13655.5 32553.6 21377 24531.2
internal_count=5532 3688 1844 2141 1547 898 946 1264 877 952 248 453 595 671 445 698 367 505 236 622 128 546 718 222 240 255 260 566 228 430
cat_boundaries=0 1 2 3 4 5 6 7 8 72 73 74 75
cat_threshold=1 6 6 1 780 1988 1 7042 0 0 0 0 0 0 0 0 0 0 0 0 0 0 0 0 0 0 0 0 0 0 0 0 0 0 0 0 0 0 0 0 0 0 0 0 0 0 0 0 0 0 0 0 0 0 0 0 0 0 0 0 0 0 0 0 0 0 0 0 0 0 2147483648 1 7328 1092 1
is_linear=0
shrinkage=0.1


Tree=10
num_leaves=31
num_cat=11
split_feature=12 13 12 12 19 12 12 4 18 18 2 3 2 19 2 3 18 4 13 18 3 3 20 2 19 15 4 12 13 25
split_gain=39099.6 6357.66 1131.77 572.799 424.738 387.418 272.56 135.919 104.582 88.6183 69.653 66.3806 62.9407 56.168 53.0856 52.6815 47.2841 46.9731 44.3075 40.0948 38.5225 33.0845 32.5967 30.6586 29.1983 25.9649 25.5429 24.9303 24.7437 54.4596
threshold=11132.500000000002 4942.5000000000009 21770.000000000004 3628.0000000000005 7731.5000000000009 15337.500000000002 27317.000000000004 0 4920.5000000000009 5802.5000000000009 1 2 3 20246.000000000004 4 5 11869.000000000002 6 7904.5000000000009 19505.500000000004 7 8 15444.500000000002 9 4275.0000000000009 6475.0000000000009 10 30250.000000000004 20266.500000000004 21100.500000000004
decision_type=2 2 2 2 2 2 2 1 2 2 1 1 1 2 1 1 2 1 2 2 1 1 2 1 2 2 1 2 2 2
left_child=1 3 5 7 8 22 11 10 -3 24 -1 -4 21 -7 -9 -10 26 -16 -17 -13 -8 25 -2 -21 -5 -6 -14 -22 29 -15
right_child=2 4 6 9 12 13 20 14 15 -11 -12 19 16 28 17 18 -18 -19 -20 23 27 -23 -24 -25 -26 -27 -28 -29 -30 -31
leaf_value=-0.059040060156278752 0.0012320430955941545 -0.027988425616959883 0.029844919536759412 -0.03986134712595342 -0.015202927078684571 0.016481789128002158 0.030786938565318986 -0.039742863782099874 -0.010876166746735774 -0.024813767714910898 -0.049527373637861485 0.018975713169240526 -0.0092167759974578264 0.0060467040351314897 -0.051118318678494472 -0.020591325897442614 0.00053532222716192693 -0.042825776219319753 -0.013627841792200541 0.027381506429582727 0.033879940469141313 -0.001178965717526918 0.010775899911609757 0.022933023086637319 -0.034172546581886135 -0.0049244244598630818 -0.014901566551710578 0.038478189706947587 0.023181729484648323 0.02096456060791424
leaf_weight=19690.776908874512 14264.174034118652 10833.48998260498 40002.195083618164 25116.567527770996 3617.4719543457031 39067.056114196777 21471.393051147461 9890.3341598510742 10612.760124206543 6049.1435470581055 14531.366142272949 10302.00887298584 19456.541812896729 2913.8443222045898 22754.58963394165 34139.461036682129 3585.7015686035156 11201.794166564941 12476.851745605469 41789.529441833496 24919.721710205078 16428.815971374512 4777.2661056518555 26331.250198364258 14080.041530609131 7665.7686080932617 13532.598335266113 22379.803863525391 32477.531997680664 15279.229679107666
leaf_count=380 131 148 249 396 39 285 126 163 121 80 257 70 210 22 405 419 35 187 143 264 144 161 38 173 207 77 153 124 219 106
internal_value=0 -0.0286949 0.024694 -0.0450317 -0.0134733 0.016582 0.0294078 -0.0502203 -0.018979 -0.0360793 -0.0550164 0.0265 -0.00764435 0.019331 -0.0464537 -0.0172735 -0.0103678 -0.0483961 -0.0187235 0.0247869 0.0344151 -0.00404467 0.00362648 0.0256694 -0.0378178 -0.00821249 -0.0115561 0.036048 0.0215278 0.0185753
internal_weight=0 255664 295975 123315 132349 108779 187196 78068.9 68062.6 45245.8 34222.1 118425 64286.9 89737.7 43846.7 57229.1 36574.8 33956.4 46616.3 78422.8 68770.9 27712.1 19041.4 68120.8 39196.6 11283.2 32989.1 47299.5 50670.6 18193.1
internal_count=5532 3581 1951 2075 1506 801 1150 1392 831 683 637 756 675 632 755 683 398 592 562 507 394 277 169 437 603 116 363 268 347 128
cat_boundaries=0 63 64 65 66 67 68 131 132 133 134 198
cat_threshold=0 0 0 0 0 0 0 0 0 0 0 0 0 0 0 0 0 0 0 0 0 0 0 0 0 0 0 0 0 0 0 0 0 0 0 0 0 0 0 0 0 0 0 0 0 0 0 0 0 0 0 0 0 0 0 0 0 0 0 0 0 0 402653184 120 452 6 134 68 0 0 0 0 0 0 0 0 0 0 0 0 0 0 0 0 0 0 0 0 0 0 0 0 0 0 0 0 0 0 0 0 0 0 0 0 0 0 0 0 0 0 0 0 0 0 0 0 0 0 0 0 0 0 0 0 0 0 0 0 0 0 1610612736 6304 6320 142 0 0 0 0 0 0 0 0 0 0 0 0 0 0 0 0 0 0 0 0 0 0 0 0 0 0 0 0 0 0 0 0 0 0 0 0 0 0 0 0 0 0 0 0 0 0 0 0 0 0 0 0 0 0 0 0 0 0 0 0 0 0 2147483648 1
is_linear=0
shrinkage=0.1


Tree=11
num_leaves=31
num_cat=11
split_feature=19 13 12 19 12 2 19 15 12 11 12 12 18 3 3 15 4 18 19 3 3 3 3 10 13 18 25 14 15 3
split_gain=31783.2 5138.1 979.32 469.634 350.237 323.809 294.94 109.779 107.949 95.893 78.9747 77.6206 75.707 55.2558 48.3158 44.0033 38.0646 37.9186 35.132 34.921 32.9432 30.1937 27.4166 25.4344 25.4102 22.7233 21.9293 28.8437 21.1302 19.8331
threshold=10906.000000000002 4942.5000000000009 20266.500000000004 3317.5000000000005 7613.5000000000009 0 14709.000000000002 20051.500000000004 3986.5000000000005 1 9297.5000000000018 2615.5000000000005 4920.5000000000009 2 3 16684.000000000004 4 5802.5000000000009 18110.500000000004 5 6 7 8 9 7975.0000000000009 2521.0000000000005 21709.500000000004 22712.000000000004 8487.5000000000018 10
decision_type=2 2 2 2 2 1 2 2 2 1 2 2 2 1 1 2 1 2 2 1 1 1 1 1 2 2 2 2 2 1
left_child=1 3 6 11 12 7 28 15 -5 13 22 25 -3 -7 -14 -4 -13 -10 -8 -11 -9 -12 -6 26 -16 -1 27 -15 -2 -27
right_child=2 4 5 8 10 9 18 20 17 19 21 16 14 23 24 -17 -18 -19 -20 -21 -22 -23 -24 -25 -26 29 -28 -29 -30 -31
leaf_value=-0.055722534058152723 -0.0016866536102101268 -0.025239190490201742 0.018333441252653428 -0.038543445978223186 -0.0052831714131961541 0.015615536861370048 0.012130881407989616 0.029649427184095994 -0.032046297865661592 0.029237594726274671 0.001044640877464013 -0.040123655047041754 -0.022454817090599065 0.0081042947013855223 -0.015786015634584073 0.027497231699063381 -0.046898979504636715 -0.023063438627574838 0.017484532597163132 0.023821639276417225 0.034798703215024582 -0.0058222870302067527 -0.011445445053071377 0.025989735424460755 -0.0096046976863118569 -0.044075305168349614 0.022017336724271672 0.019683498762922844 0.0051186316598538064 -0.053536192291935507
leaf_weight=9374.377685546875 10177.611572265625 10813.334014892578 6886.1987762451172 33600.009525299072 9468.7397994995117 19802.490196228027 17536.194282531738 21104.638198852539 22679.046329498291 18584.430694580078 10884.277206420898 14164.826667785645 9681.2182655334473 2743.0924530029297 34599.781593322754 21920.274085998535 25843.342823028564 5927.3585510253906 40720.505340576172 36797.116973876953 35491.11247253418 15544.542953491211 31239.225028991699 11468.310043334961 8232.7819900512695 5350.1530303955078 35944.024932861328 9970.9227142333984 8269.980827331543 5644.7382621765137
leaf_count=184 97 148 46 553 100 136 134 122 340 113 105 243 122 20 417 133 468 79 288 235 198 158 344 73 94 98 237 67 71 109
internal_value=0 -0.0260973 0.0221174 -0.0407977 -0.0122848 0.0255002 0.0123836 0.0303285 -0.0346997 0.0224489 -0.00725268 -0.0470803 -0.0176196 0.0202346 -0.0160507 0.0253066 -0.0445219 -0.030185 0.015873 0.0256487 0.0328899 -0.00299606 -0.0100162 0.0217496 -0.0145945 -0.0521053 0.0207547 0.0171852 0.00136413 -0.0490213
internal_weight=0 253048 297417 122584 130464 220713 76704.3 85402.2 62206.4 135310 67136.8 60377.4 63327.1 79928.8 52513.8 28806.5 40008.2 28606.4 58256.7 55381.5 56595.8 26428.8 40708 60126.4 42832.6 20369.3 48658 12714 18447.6 10994.9
internal_count=5532 3562 1970 2074 1488 1380 590 499 972 881 707 1102 781 533 633 179 711 419 422 348 320 263 444 397 511 391 324 87 168 207
cat_boundaries=0 1 2 3 4 68 69 70 71 72 73 74
cat_threshold=6 1 3074 6144 0 0 0 0 0 0 0 0 0 0 0 0 0 0 0 0 0 0 0 0 0 0 0 0 0 0 0 0 0 0 0 0 0 0 0 0 0 0 0 0 0 0 0 0 0 0 0 0 0 0 0 0 0 0 0 0 0 0 0 0 0 0 2684354560 1 960 6320 398 324 1 1110
is_linear=0
shrinkage=0.1


Tree=12
num_leaves=31
num_cat=16
split_feature=0 12 12 19 12 13 12 2 4 25 16 0 2 3 19 3 3 11 3 14 10 19 2 11 20 3 14 9 4 19
split_gain=25802.5 4712.93 515.828 457.008 310.179 156.467 120.674 96.5875 75.0383 58.3348 57.8083 53.797 49.7119 48.1224 46.3371 44.5364 42.2596 37.894 34.5978 34.265 32.1428 31.5548 30.7146 30.5828 29.3471 28.6471 27.4333 26.4134 25.2875 23.333
threshold=0 5300.5000000000009 24493.500000000004 3645.5000000000005 8894.0000000000018 18436.000000000004 2980.0000000000005 1 2 20347.000000000004 21624.000000000004 3 4 5 7419.5000000000009 6 7 8 9 22850.000000000004 10 2335.5000000000005 11 12 4576.5000000000009 13 20246.000000000004 14 15 24543.500000000004
decision_type=1 2 2 2 2 2 2 1 1 2 2 1 1 1 2 1 1 1 1 2 1 2 1 1 2 1 2 1 1 2
left_child=2 3 5 6 8 9 15 10 -3 20 -4 -5 26 19 18 -2 24 27 -10 -14 -1 -17 -16 28 -13 -6 -7 29 -15 -9
right_child=1 4 7 11 25 12 -8 17 14 -11 -12 16 13 23 22 21 -18 -19 -20 -21 -22 -23 -24 -25 -26 -27 -28 -29 -30 -31
leaf_value=0.0044570747423368908 -0.040218076434405926 -0.0076824986084971739 0.025335094610274514 -0.03156205672183001 0.0018909332799458283 0.019925216690064442 -0.037023118236566149 0.012809068979793697 -0.013429282708282182 0.015289596831095528 0.030917684073971552 -0.026082807944358622 0.01628872314882733 0.016626681521944364 -0.0078871323701033835 -0.055240604786017625 -0.02841399918166922 0.02509800517701884 -0.018919568265012447 0.021777852429879275 0.01483905214941092 -0.045863305758755538 -0.015124698533734555 0.019260959511319814 -0.014051745087667697 -0.0041488795593723274 0.026450503789913496 0.023352678017752329 0.011284227408693117 0.021585508833532812
leaf_weight=12471.011100769043 14606.73123550415 21252.926696777344 36505.564811706543 27309.721771240234 10107.353065490723 14654.592041015625 39773.077419281006 7613.3865585327148 22229.191520690918 17091.604320526123 37709.656478881836 3542.4758644104004 16641.804775238037 18930.645111083984 14104.424774169922 4341.9476852416992 13197.418186187744 22741.301681518555 24476.019538879395 35914.206161499023 3919.300048828125 20678.952388763428 10154.511703491211 16808.650131225586 4740.8033828735352 35163.480224609375 11497.904937744141 9159.9379272460938 17134.623519897461 5030.9846649169922
leaf_count=100 268 234 217 430 97 97 679 52 264 122 211 52 116 130 154 88 193 139 306 235 29 390 119 111 63 351 72 58 123 32
internal_value=0 -0.0224406 0.0209216 -0.036234 -0.00957997 0.0173056 -0.0409145 0.0259476 -0.0129079 0.0112021 0.0281679 -0.0286171 0.0188586 0.0178807 -0.0144698 -0.0448201 -0.024873 0.0222371 -0.0163134 0.0200359 0.00693964 -0.0474716 -0.0109262 0.0157351 -0.0191739 -0.0028009 0.0227853 0.0192634 0.0140962 0.0163011
internal_weight=0 265679 283825 128191 137488 165064 79400.7 118761 92217.1 33481.9 74215.2 48790.4 131582 105430 70964.1 39627.6 21480.7 44545.6 46705.2 52556 16390.3 25020.9 24258.9 52873.9 8283.28 45270.8 26152.5 21804.3 36065.3 12644.4
internal_count=5532 3688 1844 2163 1525 1135 1425 709 1077 251 428 738 884 715 843 746 308 281 570 351 129 478 273 364 115 448 169 142 253 84
cat_boundaries=0 1 2 66 67 68 69 70 71 72 73 74 75 76 77 78 142
cat_threshold=1 6 0 0 0 0 0 0 0 0 0 0 0 0 0 0 0 0 0 0 0 0 0 0 0 0 0 0 0 0 0 0 0 0 0 0 0 0 0 0 0 0 0 0 0 0 0 0 0 0 0 0 0 0 0 0 0 0 0 0 0 0 0 0 2147483648 1 2 134 4580 1108 198 1 972 1 134 1 262 1 0 0 0 0 0 0 0 0 0 0 0 0 0 0 0 0 0 0 0 0 0 0 0 0 0 0 0 0 0 0 0 0 0 0 0 0 0 0 0 0 0 0 0 0 0 0 0 0 0 0 0 0 0 0 0 0 0 0 0 0 0 0 3221225472 1
is_linear=0
shrinkage=0.1


Tree=13
num_leaves=31
num_cat=12
split_feature=19 13 12 12 19 12 19 19 4 25 12 11 2 13 3 16 3 10 3 3 3 13 4 3 12 15 4 12 25 20
split_gain=20968.3 3438.74 655.345 319.416 254.04 238.798 148.089 66.3637 62.8801 60.2501 55.0645 49.9818 43.1789 39.6853 38.1484 37.3069 37.1623 31.1573 31.156 29.5305 27.3073 26.3224 26.2541 24.5969 22.3897 20.7546 20.168 20.391 19.9318 22.4736
threshold=10906.000000000002 4878.5000000000009 21907.000000000004 3387.0000000000005 15410.000000000002 7546.5000000000009 27105.500000000004 4275.0000000000009 0 4976.5000000000009 9408.5000000000018 1 2 20266.500000000004 3 2088.5000000000005 4 5 6 7 8 7975.0000000000009 9 10 17247.500000000004 10008.500000000002 11 18131.000000000004 20792.000000000004 20414.500000000004
decision_type=2 2 2 2 2 2 2 2 1 2 2 1 1 2 1 2 1 1 1 1 1 2 1 1 2 2 1 2 2 2
left_child=1 3 4 8 24 9 11 -5 12 -3 19 14 -1 28 -4 -10 -11 -8 -17 -7 -13 -18 -20 -14 -2 -12 27 -15 29 -6
right_child=2 5 6 7 13 10 17 -9 15 16 25 20 23 26 -16 18 21 -19 22 -21 -22 -23 -24 -25 -26 -27 -28 -29 -30 -31
leaf_value=-0.037232094991556448 0.00095668582746447073 -0.020825846707391137 0.02123651191612895 -0.030467898828451141 0.011316623295219501 -0.0038685122990943228 0.023637012860871564 -0.023222278473933725 -0.01894758509399002 -0.0072655852917487933 -0.0031749414428965429 0.024877334665046994 -0.042567253150541301 0.0054822004143053769 0.015882649325690834 -0.040999015966693225 -0.015534699838151943 0.02799097417008848 -0.031294700896081176 -0.0096923924855719257 0.019993512785904347 -0.0090566290442159591 -0.037491140218794863 -0.05312919319984593 0.01123436079823454 0.0067974851075570837 0.017807886951487734 0.015043022825832201 0.013863750865507445 0.0023122273368666331
leaf_weight=6998.838996887207 18743.752975463867 12353.108329772949 19710.209854125977 37850.480667114258 14684.520278930664 11929.123664855957 42344.366928100586 18979.568557739258 1195.219425201416 9217.1648635864258 22188.38500213623 18634.925323486328 5299.8915176391602 2735.202808380127 43034.317344665527 13574.17338180542 33497.996543884277 26862.29460144043 12484.848552703857 32685.562660217285 32479.460571289062 7717.4901657104492 18604.153347015381 5141.6797294616699 2389.8827056884766 2303.6172256469727 31189.922050476074 12094.944900512695 28377.475002288818 3416.7466087341309
leaf_count=127 171 170 125 615 110 126 250 274 20 106 222 113 103 21 285 251 414 152 215 361 204 90 341 106 18 21 211 83 201 26
internal_value=0 -0.0212505 0.0179761 -0.0334901 0.0120109 -0.0101026 0.0216789 -0.0280481 -0.0383761 -0.0145667 -0.00604678 0.0194615 -0.0435913 0.0142709 0.0175704 -0.0363752 -0.0130336 0.025327 -0.0368497 -0.00813824 0.0217828 -0.0143182 -0.0350136 -0.0478141 0.00211893 -0.00223698 0.0163525 0.0132707 0.0122098 0.00961698
internal_weight=0 252021 296698 120129 113632 131892 183066 56830 63298.8 62785.8 69106.7 113859 17440.4 92498.8 62744.5 45858.4 50432.7 69206.7 44663.2 44614.7 51114.4 41215.5 31089 10441.6 21133.6 24492 46020.1 14830.1 46478.7 18101.3
internal_count=5532 3562 1970 2052 841 1510 1129 889 1163 780 730 727 336 652 410 827 610 402 807 487 317 504 556 209 189 243 315 104 337 136
cat_boundaries=0 63 64 65 66 67 68 69 70 71 135 136 199
cat_threshold=0 0 0 0 0 0 0 0 0 0 0 0 0 0 0 0 0 0 0 0 0 0 0 0 0 0 0 0 0 0 0 0 0 0 0 0 0 0 0 0 0 0 0 0 0 0 0 0 0 0 0 0 0 0 0 0 0 0 0 0 0 0 268435456 1 134 332 68 1 2570 388 1220 0 0 0 0 0 0 0 0 0 0 0 0 0 0 0 0 0 0 0 0 0 0 0 0 0 0 0 0 0 0 0 0 0 0 0 0 0 0 0 0 0 0 0 0 0 0 0 0 0 0 0 0 0 0 0 0 0 0 0 0 0 0 2684354560 1 222 0 0 0 0 0 0 0 0 0 0 0 0 0 0 0 0 0 0 0 0 0 0 0 0 0 0 0 0 0 0 0 0 0 0 0 0 0 0 0 0 0 0 0 0 0 0 0 0 0 0 0 0 0 0 0 0 0 0 0 0 0 0 1207959552
is_linear=0
shrinkage=0.1


Tree=14
num_leaves=31
num_cat=13
split_feature=12 25 12 19 19 18 2 15 20 13 11 4 15 2 3 3 16 9 2 17 12 3 12 3 12 3 18 3 3 15
split_gain=17018.9 2811.4 541.265 253.74 199.166 167.343 165.606 64.1689 60.5991 55.3244 48.3463 45.4286 40.4084 38.8108 38.613 34.9383 32.927 31.5112 31.1777 29.4611 29.3008 28.6262 28.1396 23.3778 22.4251 22.111 21.6421 21.0942 20.5878 20.2193
threshold=10906.000000000002 4761.0000000000009 21014.500000000004 3256.5000000000005 7419.5000000000009 15323.500000000002 0 16684.000000000004 4930.5000000000009 4724.5000000000009 1 2 23085.500000000004 3 4 5 2088.5000000000005 6 7 11869.000000000002 3926.5000000000005 8 17551.500000000004 9 6546.5000000000009 10 3594.0000000000005 11 12 6331.5000000000009
decision_type=2 2 2 2 2 2 1 2 2 2 1 1 2 1 1 1 2 1 1 2 2 1 2 1 2 1 2 1 1 2
left_child=1 3 5 11 9 -2 7 -4 20 -3 15 18 25 21 -11 -8 -13 -16 -1 27 -5 -6 -7 -12 -19 -9 -18 -15 -20 -23
right_child=2 4 6 8 13 22 10 12 -10 14 23 16 -14 19 17 -17 26 24 28 -21 -22 29 -24 -25 -26 -27 -28 -29 -30 -31
leaf_value=-0.033808133161955758 0.0018513367235683681 -0.020202918086263927 0.012105937449709434 -0.029130652764885925 0.001069049023362784 0.0087769703652768784 0.011085780505389456 0.024559075764725546 -0.018584967806466183 -0.0061845809272318385 0.02190249780063382 -0.018234288364683666 0.026937282656762609 -0.0059518906858068103 -0.015126142496242221 0.016274002849796847 -0.034792900358641618 -0.014151770564728059 -0.038493549166611907 -0.00015904326363412567 -0.024299948132636997 -0.012094444407195782 0.01328214528740472 0.017404641586639232 -0.0054378972994415745 0.020323700792123853 -0.027071458032926616 -0.01057157811396019 -0.048167695701411675 -0.0035061788346348768
leaf_weight=6025.0974960327148 20502.305313110352 10003.013324737549 5547.6139984130859 33664.188617706299 11742.324325561523 18805.21216583252 17660.521697998047 19892.656555175781 9298.7613868713379 9209.1545791625977 18260.814590454102 1380.343864440918 21395.071044921875 19187.009796142578 29584.511425018311 51327.08918762207 33625.405334472656 5070.4996337890625 5277.0367202758789 4934.7475204467773 20025.361991882324 3559.9428787231445 52766.077209472656 34212.495849609375 7073.0730514526367 36310.354873657227 4069.2474517822266 20644.006038665771 5107.1354713439941 11920.702125549316
leaf_count=110 184 144 37 565 115 143 121 115 128 106 112 23 119 210 367 338 619 65 103 50 306 39 369 218 81 216 70 233 106 120
internal_value=0 -0.01918 0.0161839 -0.0303815 -0.00919665 0.00981667 0.0190492 0.0224932 -0.026038 -0.0134037 0.0166884 -0.0353125 0.0232387 -0.00563528 -0.0120685 0.0149498 -0.0333953 -0.0133623 -0.0398332 -0.00744574 -0.0273289 -0.00265442 0.0120984 0.0189774 -0.00907634 0.0218308 -0.0339593 -0.00835038 -0.0432932 -0.00547761
internal_weight=0 251402 296680 118473 132929 92073.6 204607 83145.7 62988.3 60940.3 121461 55484.3 77598.1 71988.7 50937.2 68987.6 39075 41728.1 16409.3 44765.8 53689.6 27223 71571.3 52473.3 12143.6 56203 37694.7 39831 10384.2 15480.6
internal_count=5532 3560 1972 2030 1530 696 1276 487 999 763 789 1031 450 767 619 459 712 513 319 493 871 274 512 330 146 331 689 443 209 159
cat_boundaries=0 1 2 65 66 67 68 69 70 71 72 73 74 75
cat_threshold=6 1 0 0 0 0 0 0 0 0 0 0 0 0 0 0 0 0 0 0 0 0 0 0 0 0 0 0 0 0 0 0 0 0 0 0 0 0 0 0 0 0 0 0 0 0 0 0 0 0 0 0 0 0 0 0 0 0 0 0 0 0 0 0 268435456 6 68 3074 1 134 782 1728 326 500 222
is_linear=0
shrinkage=0.1


Tree=15
num_leaves=31
num_cat=13
split_feature=12 25 12 12 19 12 2 13 20 19 14 19 2 3 9 3 13 3 4 10 23 23 4 22 3 18 9 3 9 17
split_gain=13815.8 2468.43 328.734 210.05 193.123 88.5644 88.3484 50.9717 43.9279 43.8045 42.6178 41.906 36.2092 33.239 32.138 33.8354 27.663 27.3958 32.2335 26.4339 24.2562 36.2155 23.3075 22.4228 20.4593 20.4483 27.8883 20.1853 20.0025 19.8865
threshold=11959.500000000002 4761.0000000000009 22712.000000000004 3387.0000000000005 7651.5000000000009 16972.000000000004 0 5300.5000000000009 4513.0000000000009 2461.0000000000005 22002.000000000004 12379.000000000002 1 2 3 4 2956.5000000000005 5 6 7 23618.000000000004 22080.500000000004 8 16603.500000000004 9 23517.500000000004 10 11 12 15734.500000000002
decision_type=2 2 2 2 2 2 1 2 2 2 2 2 1 1 1 1 2 1 1 1 2 2 1 2 1 2 1 1 1 2
left_child=1 3 5 9 7 20 10 27 -5 24 -4 12 -6 22 15 -9 -15 23 -19 25 21 29 -11 -7 -1 26 -8 -3 -20 -2
right_child=2 4 6 8 11 17 19 14 -10 13 -12 -13 -14 16 -16 -17 -18 18 28 -21 -22 -23 -24 -25 -26 -27 -28 -29 -30 -31
leaf_value=-0.041318306331197187 0.0031532328845981917 -0.012798333809161545 0.017622449151643415 -0.02456736304620212 -0.0022588723172935329 0.0082130799462180725 0.0082215293845847616 -0.0068342382646088152 -0.018110098613851888 -0.020884120763793132 0.02235761282061537 0.010258621446300985 -0.0067805955072732758 -0.035001166940472818 -0.0063654504536675566 -0.013602459268610347 -0.029209358782733719 0.013850895873899463 0.0072169139586266253 0.017530924036892152 0.012467959806564372 -0.0067082575522667519 -0.029004097352979791 0.014874225749105116 -0.032836109512461818 0.015936605144408863 0.016368373502126561 -0.020111222506520064 0.013017097598606427 0.010331441471765505
leaf_weight=5582.1236953735352 10035.321998596191 7324.3655815124512 31660.120056152344 41081.595817565918 33391.676048278809 5670.5818328857422 10826.303604125977 10227.908782958984 14168.721282958984 5671.4519462585449 47560.719757080078 1933.8948974609375 37782.806381225586 15311.561475753784 15620.09203338623 27302.514621734619 17872.056550979614 21489.104202270508 22167.588088989258 41205.673889160156 4307.2478408813477 2641.3625564575195 10969.097553253174 46438.422462463379 7544.3585472106934 22289.113731384277 6867.1141967773438 8221.285285949707 8124.8697357177734 6271.3247375488281
leaf_count=114 87 100 192 664 332 41 75 120 202 96 270 16 415 290 182 333 320 146 159 258 32 22 199 314 145 143 44 117 56 48
internal_value=0 -0.0167389 0.0150703 -0.0274111 -0.00784314 0.0112725 0.0180805 -0.0116502 -0.0229114 -0.0313604 0.0204627 -0.00426584 -0.00466049 -0.0300064 -0.010177 -0.0117634 -0.0318722 0.0125212 0.0108806 0.0157516 0.00569416 0.00415435 -0.0262508 0.0141466 -0.0364997 0.0139217 0.0113835 -0.0166869 0.00876971 0.00591388
internal_weight=0 260006 287555 118201 141805 127146 160409 68696.2 55250.3 62950.6 79220.8 73108.4 71174.5 49824.2 53150.5 37530.4 33183.6 103891 51781.6 81188.2 23255.3 18948 16640.5 52109 13126.5 39982.5 17693.4 15545.7 30292.5 16306.6
internal_count=5532 3645 1887 2030 1615 905 982 852 866 1164 462 763 747 905 635 453 610 716 361 520 189 157 295 355 259 262 119 217 215 135
cat_boundaries=0 1 2 3 4 5 6 70 71 134 135 136 137 138
cat_threshold=6 6 1108 1 262 4580 0 0 0 0 0 0 0 0 0 0 0 0 0 0 0 0 0 0 0 0 0 0 0 0 0 0 0 0 0 0 0 0 0 0 0 0 0 0 0 0 0 0 0 0 0 0 0 0 0 0 0 0 0 0 0 0 0 0 0 0 0 0 3221225472 1 1 0 0 0 0 0 0 0 0 0 0 0 0 0 0 0 0 0 0 0 0 0 0 0 0 0 0 0 0 0 0 0 0 0 0 0 0 0 0 0 0 0 0 0 0 0 0 0 0 0 0 0 0 0 0 0 0 0 0 0 0 0 0 2684354560 6914 1 5060 1
is_linear=0
shrinkage=0.1


Tree=16
num_leaves=31
num_cat=15
split_feature=18 19 19 12 12 13 4 2 19 10 3 3 2 3 3 25 4 2 25 12 3 16 3 9 19 16 21 10 3 13
split_gain=11205.1 2058.53 263.993 176.735 157.302 119.676 61.334 51.5337 48.7416 47.7765 47.1363 33.3231 32.8041 32.7962 31.2562 31.166 30.5919 29.9509 29.7802 28.6328 28.3229 26.8834 22.1582 19.6829 22.2565 19.4593 25.2732 19.4232 18.8615 16.3392
threshold=12281.500000000002 4878.5000000000009 24672.000000000004 3647.0000000000005 8503.0000000000018 17830.500000000004 0 1 6761.5000000000009 2 3 4 5 6 7 4456.0000000000009 8 9 20347.000000000004 5937.0000000000009 10 2197.0000000000005 11 12 9944.0000000000018 28632.500000000004 22106.000000000004 13 14 4942.5000000000009
decision_type=2 2 2 2 2 2 1 1 2 1 1 1 1 1 1 2 1 1 2 2 1 2 1 1 2 2 2 1 1 2
left_child=1 3 5 6 8 18 11 -4 10 13 -3 -1 21 -7 -9 -5 28 -15 -2 -12 -11 -8 -6 24 -24 26 -19 -16 -14 -17
right_child=2 4 7 15 22 9 12 14 -10 20 19 -13 16 17 27 29 -18 25 -20 -21 -22 -23 23 -25 -26 -27 -28 -29 -30 -31
leaf_value=-0.026272016113762054 0.0026831593435028608 -0.0090352902466736083 0.01372750856813619 -0.021147186781572173 0.00091375279337439514 0.0087551558727494618 -0.0093994262328920188 0.020570860838461727 -0.0074864601310544836 0.018208639798269359 -0.021471928732676501 -0.035647254594485311 -0.025669253390758345 0.015257772388077226 0.015003530000270583 -0.017332527194985722 -0.022799335789350249 0.0033784879817084328 0.0091323402858188747 -0.012819734070545048 0.013166255241592057 -0.023328786185665917 -0.0083725027442365773 -0.00051648443054782298 -0.0025887809965434395 0.014466810783886692 0.010990784313692006 0.019507422680556989 -0.030960957562468402 -0.0090570413941746097
leaf_weight=6002.2126922607422 16914.744709014893 20289.381889343262 28182.90739440918 29332.448390960693 13758.807899475098 36808.206443786621 1523.2870292663574 43703.863662719727 53359.387916564941 17311.63053894043 6455.9144172668457 12238.514614105225 11650.032258987427 24373.063079833984 25622.727279663086 9024.56640625 11312.74393081665 5906.342170715332 12415.696743011475 9384.9720764160156 32615.984954833984 15323.345125198364 12482.898864746094 12763.855804443359 14246.980842590332 9147.7419281005859 16674.024993896484 15288.312622070312 19777.26399230957 3243.2964859008789
leaf_count=112 140 253 181 461 133 257 25 253 614 109 91 242 212 160 156 135 192 43 90 117 214 264 134 127 139 61 115 88 371 43
internal_value=0 -0.0149513 0.013695 -0.0246388 -0.00684608 0.0112313 -0.0274513 0.0174553 -0.00940687 0.012426 -0.012243 -0.0325784 -0.0258719 0.0110854 0.0186931 -0.0193771 -0.0273705 0.0126104 0.00541312 -0.0163356 0.0149209 -0.0220562 -0.00254272 -0.00374617 -0.00528979 0.0105726 0.00899964 0.0166825 -0.0290081 -0.0151447
internal_weight=0 262170 284965 119428 142742 172167 77827.4 112798 89489.7 142837 36130.3 18240.7 59586.7 92909.4 84614.9 41600.3 42740 56101.2 29330.4 15840.9 49927.6 16846.6 53252.5 39493.7 26729.9 31728.1 22580.4 40911 31427.3 12267.9
internal_count=5532 3665 1867 2057 1608 1189 1418 678 1075 959 461 354 1064 636 497 639 775 379 230 208 323 289 533 400 273 219 158 244 583 178
cat_boundaries=0 63 64 65 66 67 68 69 70 133 134 135 136 137 138 139
cat_threshold=0 0 0 0 0 0 0 0 0 0 0 0 0 0 0 0 0 0 0 0 0 0 0 0 0 0 0 0 0 0 0 0 0 0 0 0 0 0 0 0 0 0 0 0 0 0 0 0 0 0 0 0 0 0 0 0 0 0 0 0 0 0 268435456 240 1 718 92 134 3632 846 0 0 0 0 0 0 0 0 0 0 0 0 0 0 0 0 0 0 0 0 0 0 0 0 0 0 0 0 0 0 0 0 0 0 0 0 0 0 0 0 0 0 0 0 0 0 0 0 0 0 0 0 0 0 0 0 0 0 0 0 0 0 1744830464 142 1220 262 1 1 5200
is_linear=0
shrinkage=0.1


Tree=17
num_leaves=31
num_cat=15
split_feature=12 18 13 19 13 2 25 25 11 2 13 15 3 4 3 3 12 3 25 3 25 3 17 13 3 2 3 19 10 3
split_gain=9090.64 1641.64 226.611 152.852 131.44 112.31 75.581 54.2273 38.7786 36.042 35.1866 34.8666 31.8543 31.6553 30.067 28.0266 26.6659 26.532 28.2878 26.1323 24.5227 23.9874 23.09 20.1498 26.9206 19.3532 17.9156 20.4431 17.5747 16.8845
threshold=11959.500000000002 4847.0000000000009 22263.500000000004 3256.5000000000005 7785.5000000000009 0 23607.500000000004 8074.0000000000009 1 2 3647.0000000000005 8637.5000000000018 3 4 5 6 5937.0000000000009 7 20347.000000000004 8 19330.000000000004 9 26987.500000000004 29924.000000000004 10 11 12 4583.5000000000009 13 14
decision_type=2 2 2 2 2 1 2 2 1 1 2 2 1 1 1 1 2 1 2 1 2 1 2 2 1 1 1 2 1 1
left_child=1 3 6 13 7 23 8 14 17 11 29 -6 -9 25 -3 -7 -16 -2 20 22 -19 -15 -8 24 -4 -1 27 -12 -21 -5
right_child=2 4 5 10 9 15 19 12 -10 -11 26 -13 -14 21 16 -17 -18 18 -20 28 -22 -23 -24 -25 -26 -27 -28 -29 -30 -31
leaf_value=-0.030349923875097485 0.0084996214094588043 -0.0083413627264927875 0.013219700981104726 -0.016808245839899788 -0.0018376230869655509 0.013566008964201001 0.017875753345734602 -0.00076125130484327574 0.010220104273304356 -0.0054205464050286426 -0.015823570613466988 0.0093886348570801394 -0.0082228350027411558 -0.020086985255592476 -0.017660498878415736 0.018098394367517891 -0.011091775942856477 0.0023638847392956751 0.0065365616302161854 0.0093371318940908884 -0.0075467086542175535 -0.026341301194686279 0.010268382224058476 0.015136568840718576 0.0092720558541166658 -0.024774686504138024 -0.018111955109594534 -0.0049267943284405273 0.016960059290931036 -0.022940862938604978
leaf_weight=18913.009164810181 14900.900436401367 20548.768783569336 35168.277793884277 6070.9047203063965 31055.410591125488 17603.005157470703 10539.797378540039 9138.1288299560547 20873.478057861328 34559.384643554688 6271.3434791564941 3037.1190795898438 15340.421508789062 11876.570182800293 9637.507755279541 66599.293350219727 17226.853645324707 13389.891319274902 14840.596481323242 29227.523696899414 3068.9613418579102 13921.274745941162 6420.1999664306641 16665.404968261719 34566.736274719238 10468.912185668945 27675.155830383301 2373.1798706054688 3373.5291442871094 21433.482555389404
leaf_count=378 112 255 229 99 310 106 67 98 148 384 97 28 174 208 138 388 211 107 106 198 24 255 43 105 233 192 425 31 21 362
internal_value=0 -0.0135931 0.0122281 -0.0222359 -0.00627488 0.0145505 0.00883109 -0.00926332 0.00664289 -0.00314541 -0.0189035 -0.000837291 -0.00544101 -0.0260903 -0.0112367 0.0171526 -0.0134433 0.0050267 0.00336953 0.0117925 0.000515929 -0.0234709 0.0149871 0.0120113 0.0112661 -0.0283725 -0.0168603 -0.0128173 0.0101228 -0.0216017
internal_weight=0 259547 287238 119004 140544 170603 116635 71891.7 67073.8 68651.9 63824.1 34092.5 24478.6 55179.8 47413.1 84202.3 26864.4 46200.3 31299.4 49561.1 16458.9 25797.8 16960 86400.4 69735 29381.9 36319.7 8644.52 32601.1 27504.4
internal_count=5532 3645 1887 2047 1598 1061 826 876 497 722 1014 338 272 1033 604 494 349 349 237 329 131 463 110 567 462 570 553 128 219 461
cat_boundaries=0 1 2 3 4 67 68 69 70 71 72 73 74 75 76 77
cat_threshold=120 1 134 278 0 0 0 0 0 0 0 0 0 0 0 0 0 0 0 0 0 0 0 0 0 0 0 0 0 0 0 0 0 0 0 0 0 0 0 0 0 0 0 0 0 0 0 0 0 0 0 0 0 0 0 0 0 0 0 0 0 0 0 0 0 0 402653184 710 6176 2372 4194 5220 4580 120 1092 1 1044
is_linear=0
shrinkage=0.1


Tree=18
num_leaves=31
num_cat=14
split_feature=18 13 13 12 2 2 4 25 13 3 3 15 3 3 3 15 3 25 9 20 3 11 24 19 19 11 25 14 17 10
split_gain=7381.31 1360.47 181.702 159.647 95.1977 90.744 64.5173 52.6756 52.2247 40.1756 33.0489 31.3845 31.1728 30.4158 30.3935 26.3035 24.1843 30.9151 23.6026 22.4242 20.9254 19.3102 23.9251 18.0892 18.0485 18.0295 16.6953 15.8161 14.9848 14.7395
threshold=12281.500000000002 5300.5000000000009 21770.000000000004 3838.5000000000005 0 1 2 20347.000000000004 2956.5000000000005 3 4 6582.5000000000009 5 6 7 25665.000000000004 8 28616.500000000004 9 6812.5000000000009 10 11 18810.500000000004 2550.5000000000005 2335.5000000000005 12 3877.0000000000005 20398.000000000004 2396.5000000000005 13
decision_type=2 2 2 2 1 1 1 2 2 1 1 2 1 1 1 2 1 2 1 2 1 1 2 2 2 1 2 2 2 1
left_child=1 3 7 8 10 12 20 9 13 15 -3 -12 27 23 -5 21 -9 -18 19 -8 -6 22 -2 -1 -15 -7 -10 -4 -25 -11
right_child=2 4 5 14 6 25 18 16 26 29 11 -13 -14 24 -16 -17 17 -19 -20 -21 -22 -23 -24 28 -26 -27 -28 -29 -30 -31
leaf_value=-0.025284083433448651 -0.00030123962361998163 -3.5788837112230849e-05 0.0057111236952471188 -0.010909745966343278 0.00026853248338509008 0.0096309097901834066 -0.014892600337012792 0.012709535715987173 -0.02059223043038716 0.0055075414525631271 -0.0090494919596856155 -0.0022911507194804002 0.0162865689110069 -0.033200834614602479 -0.016552840945597058 0.008311948598229776 0.0068467368828294978 0.012478930629139287 -0.0065682131416668734 -0.0093544066889694379 -0.0057870650462762269 0.0047919101810100411 -0.011594962710924077 -0.0085549658018713847 -0.025779904792530353 0.012423379265040446 -0.015350961534606558 0.013081674032934226 -0.019966594614337231 0.011447046130583449
leaf_weight=6058.3124465942383 5340.1544876098633 32047.101867675781 3555.4201049804688 15345.696067810059 9642.2210006713867 53856.274269104004 11096.468124389648 16081.116050720215 39900.329130172729 11875.225608825684 10543.063583374023 19729.746391296387 69464.178375244141 3918.7743701934814 26148.959373474121 3416.1804962158203 38892.97501373291 13004.365585327148 16161.818576812744 21431.477691650391 13984.656494140625 3293.7120513916016 2891.3881454467773 1368.6744995117188 20023.156902313232 40514.052719116211 7169.4822273254395 16072.435882568359 7224.7719879150391 6446.0938873291016
leaf_count=117 44 327 23 222 104 363 145 107 702 93 122 200 406 82 391 24 273 84 193 256 154 26 24 23 380 258 118 96 129 46
internal_value=0 -0.0121458 0.0111182 -0.0195636 -0.0051401 0.0129948 -0.00760832 0.00771738 -0.0220297 0.00445652 -0.00227436 -0.00464333 0.0152865 -0.0247565 -0.0144725 0.000604897 0.00931297 0.00825645 -0.00968974 -0.0112437 -0.00331668 -0.00167901 -0.00426824 -0.0210849 -0.0269833 0.0108286 -0.0197939 0.0117406 -0.0181491 0.00759313
internal_weight=0 261795 284704 127158 134637 183462 72316.6 101241 85663.5 33262.8 62319.9 30272.8 89092 38593.7 41494.7 14941.4 67978.5 51897.3 48689.8 32527.9 23626.9 11525.3 8231.54 14651.8 23941.9 94370.3 47069.8 19627.9 8593.45 18321.3
internal_count=5532 3665 1867 2164 1501 1146 852 721 1551 257 649 322 525 731 613 118 464 357 594 401 258 94 68 269 462 621 820 119 152 139
cat_boundaries=0 1 2 66 67 68 69 70 71 72 73 74 75 76 77
cat_threshold=134 134 0 0 0 0 0 0 0 0 0 0 0 0 0 0 0 0 0 0 0 0 0 0 0 0 0 0 0 0 0 0 0 0 0 0 0 0 0 0 0 0 0 0 0 0 0 0 0 0 0 0 0 0 0 0 0 0 0 0 0 0 0 0 2147483648 1 6200 846 6176 1108 1860 4288 1 4324 1 1 1
is_linear=0
shrinkage=0.1


Tree=19
num_leaves=31
num_cat=15
split_feature=13 25 13 13 12 2 5 25 4 13 10 2 3 24 16 3 22 3 3 25 25 3 11 3 3 25 25 3 13 3
split_gain=5993.89 1116.72 143.332 103.364 86.5411 76.8976 53.1773 44.7536 42.9282 39.1119 38.3659 30.2926 29.8275 27.5246 24.7001 24.1742 23.7878 33.6256 21.2593 21.0335 20.8001 19.4048 19.3875 19.2944 19.2936 18.6275 22.6865 17.4462 15.988 21.1048
threshold=12379.000000000002 4761.0000000000009 22263.500000000004 3647.0000000000005 8894.0000000000018 0 1 23607.500000000004 2 7785.5000000000009 3 4 5 3877.0000000000005 2197.0000000000005 6 28790.500000000004 7 8 2932.0000000000005 6204.5000000000009 9 10 11 12 20501.000000000004 19330.000000000004 13 29924.000000000004 14
decision_type=2 2 2 2 2 1 9 2 1 2 1 1 1 2 2 1 2 1 1 2 2 1 1 1 1 2 2 1 2 1
left_child=1 3 7 6 9 28 8 10 15 12 16 14 -3 19 -10 -1 17 -2 22 -8 -14 -6 -7 -9 -13 26 -19 -5 29 -4
right_child=2 4 5 27 21 18 13 23 11 -11 -12 24 20 -15 -16 -17 -18 25 -20 -21 -22 -23 -24 -25 -26 -27 -28 -29 -30 -31
leaf_value=-0.029551746652802975 0.0066468345643642193 -0.0050664160546174848 0.010826165616408673 -0.011627179133454194 0.0024737715621531531 0.010449498536187443 -0.031495582157824373 0.0066845111409067045 -0.003303345032200266 -0.0038702013610462573 0.0093667551888522316 -0.022903762869348247 -0.012725958697971938 -0.043665900870071411 -0.01620771351690712 -0.021282774196499332 0.0089773777672936626 0.00012767036466572427 0.015471962956549743 -0.017511784230736595 -0.0080835044702093264 -0.0024950387627832513 0.015034080632509765 0.010929504176412362 -0.0179436287571536 0.003603170380945632 -0.010348144462533579 -0.015873311652220248 0.012541150865268275 0.0073395036453087108
leaf_weight=5550.7108688354492 14860.055023193359 22440.471759796143 35142.732231140137 17053.160167694092 10288.092430114746 23349.67057800293 2877.5631351470947 16057.299705505371 1603.7885665893555 33580.987190246582 18584.56763458252 14469.710552215576 14084.445999145508 1133.7612457275391 19741.594318389893 11090.119575500488 7883.2285614013672 9728.9199905395508 45812.174705505371 1717.6938285827637 30659.234657287598 33208.533805847168 15247.397506713867 33011.430732727051 18742.763877868652 10687.990242004395 2625.0243911743164 23554.10364151001 16650.302139282227 34824.55428314209
leaf_count=112 112 268 229 260 97 142 57 109 26 375 131 269 194 22 331 212 55 78 266 30 371 332 88 217 339 77 21 372 105 235
internal_value=0 -0.0109429 0.0100252 -0.0181786 -0.00504768 0.0118533 -0.0203332 0.007269 -0.0195758 -0.00665687 0.00553482 -0.0182048 -0.00804975 -0.0296596 -0.015231 -0.0240571 0.00397941 0.00293988 0.0140037 -0.0262685 -0.00954273 -0.00131979 0.0122574 0.00954396 -0.0201109 0.000546098 -0.00209828 -0.0140969 0.00975499 0.00909336
internal_weight=0 261797 284465 117535 144262 171027 76927.7 113439 71198.7 100765 64369.8 54557.9 67184.2 5729.02 21345.4 16640.8 45785.2 37902 84409.2 4595.26 44743.7 43496.6 38597.1 49068.7 33212.5 23041.9 12353.9 40607.3 86617.6 69967.3
internal_count=5532 3667 1865 2030 1637 1065 1398 800 1289 1208 474 965 833 109 357 324 343 288 496 87 565 429 230 326 608 176 99 632 569 464
cat_boundaries=0 1 2 65 66 67 68 69 70 71 72 73 74 75 76 77
cat_threshold=120 1 0 0 0 0 0 0 0 0 0 0 0 0 0 0 0 0 0 0 0 0 0 0 0 0 0 0 0 0 0 0 0 0 0 0 0 0 0 0 0 0 0 0 0 0 0 0 0 0 0 0 0 0 0 0 0 0 0 0 0 0 0 0 268435456 1 134 452 3360 1984 7344 262 1 3840 794 3396 4580
is_linear=0
shrinkage=0.1


Tree=20
num_leaves=31
num_cat=11
split_feature=19 12 13 2 13 13 19 3 25 10 15 2 3 25 3 15 14 3 11 16 19 3 18 19 19 17 19 4 3 25
split_gain=4865.19 829.795 171.272 90.2448 77.6841 70.6431 36.4264 33.7585 30.4719 30.1459 29.3593 27.3601 26.3495 26.0557 24.1771 19.4293 19.1204 18.2906 17.4298 17.2924 16.8498 16.76 15.8559 14.8346 13.7037 13.632 13.6278 12.9772 12.5691 13.2495
threshold=10906.000000000002 4476.0000000000009 19373.500000000004 0 7613.5000000000009 2956.5000000000005 14709.000000000002 1 6125.0000000000009 2 23225.000000000004 3 4 3830.5000000000005 5 8637.5000000000018 21146.500000000004 6 7 4930.5000000000009 6017.5000000000009 8 2688.5000000000005 19366.000000000004 2335.5000000000005 30953.500000000004 2550.5000000000005 9 10 8127.0000000000009
decision_type=2 2 2 1 2 2 2 1 2 1 2 1 1 2 1 2 2 1 1 2 2 1 2 2 2 2 2 1 1 2
left_child=1 5 6 10 7 14 -2 -3 18 16 12 15 -4 21 26 28 23 -11 19 -9 -21 -7 -23 -5 -16 -12 -1 -18 29 -6
right_child=2 4 3 9 11 13 -8 8 -10 17 25 -13 -14 -15 24 -17 27 -19 -20 20 -22 22 -24 -25 -26 -27 -28 -29 -30 -31
leaf_value=-0.020627789833405293 0.0002191696321582516 -0.0029106248681906983 0.012687315581187943 -0.0035267347485136986 -0.0081462057630706068 -0.013574395322114841 0.0055531637506060806 -0.010490782010838072 -0.0067172113417072257 0.012374770157234968 0.015699476386778953 -0.0045233196808495352 0.0089974899506570002 -0.012007500763983776 -0.027635922488612415 0.0089037133996366664 0.0086949303052237231 0.008358312625802139 -0.0076981474971716535 -0.014310269270319021 -0.026212400699193901 -0.022761041939403114 -0.016605580604843264 0.0052864428689212203 -0.021167170130472285 0.010554968356087657 -0.014437263879750762 0.0059060659850046389 0.00050706630161872004 -0.00081082162674940117
leaf_weight=6041.6247749328613 17915.706909179688 13592.113357543945 42126.869117736816 2830.4254989624023 4307.7107620239258 16624.377067565918 44863.414478302002 8318.3912124633789 38559.822280883789 19765.413131713867 24446.647506713867 37274.000350952148 36393.903839111328 21271.563617706299 3901.4916114807129 2070.0939712524414 36164.175201416016 27262.669677734375 8333.5772171020508 4408.759838104248 1628.9134101867676 4940.826286315918 27346.522451400757 5872.5889587402344 20390.761735916138 6525.7048645019531 8643.7508430480957 31447.625289916992 17050.382537841797 5748.1466674804688
leaf_count=117 164 161 252 22 46 282 326 116 460 124 139 418 225 333 82 19 242 179 112 63 22 94 469 41 387 40 153 216 170 58
internal_value=0 -0.0102765 0.00866648 0.00991634 -0.00521707 -0.016825 0.00403097 -0.00742653 -0.00842682 0.00805863 0.0120072 -0.00272862 0.0109799 -0.0149292 -0.0202386 -0.000434106 0.00683204 0.0100508 -0.0113359 -0.0134476 -0.0175214 -0.0161999 -0.0175421 0.00242019 -0.022197 0.0146156 -0.0169725 0.00739993 -0.00114739 -0.00394921
internal_weight=0 250453 295615 232836 141292 109161 62779.1 74841.6 61249.5 123343 109493 66450.3 78520.8 70183.3 38977.6 29176.3 76314.8 47028.1 22689.6 14356.1 6037.67 48911.7 32287.3 8703.01 24292.3 30972.4 14685.4 67611.8 27106.2 10055.9
internal_count=5532 3562 1970 1480 1645 1917 490 934 773 824 656 711 477 1178 739 293 521 303 313 201 85 845 563 63 469 179 270 458 274 104
cat_boundaries=0 1 2 3 4 5 6 7 8 9 73 74
cat_threshold=134 68 1 134 350 1108 964 1 1100 0 0 0 0 0 0 0 0 0 0 0 0 0 0 0 0 0 0 0 0 0 0 0 0 0 0 0 0 0 0 0 0 0 0 0 0 0 0 0 0 0 0 0 0 0 0 0 0 0 0 0 0 0 0 0 0 0 0 0 0 0 0 2684354560 1 5170
is_linear=0
shrinkage=0.1


Tree=21
num_leaves=31
num_cat=14
split_feature=18 13 6 13 13 2 23 2 4 12 2 2 22 24 2 3 14 3 4 9 3 3 19 20 20 15 9 16 13 20
split_gain=3942.45 715.453 116.383 116.129 86.5118 58.1204 53.3975 47.8732 44.6004 39.8796 27.8847 27.5373 26.3739 24.9453 24.9375 24.1927 21.1559 20.073 18.6161 18.4742 17.5076 17.2295 16.6181 15.858 15.638 15.5761 14.3146 15.7268 16.6369 21.2271
threshold=11524.500000000002 5300.5000000000009 0 21770.000000000004 3305.5000000000005 1 3796.5000000000005 2 3 14652.500000000002 4 5 19315.000000000004 19671.500000000004 6 7 2822.5000000000005 8 9 10 11 12 21647.000000000004 21162.000000000004 4466.0000000000009 6582.5000000000009 13 18616.000000000004 19923.500000000004 17002.000000000004
decision_type=2 2 9 2 2 1 2 1 1 2 1 1 2 2 1 1 2 1 1 1 1 1 2 2 2 2 1 2 2 2
left_child=1 2 4 9 10 15 16 17 20 -2 -1 23 13 -13 -6 25 -4 -5 -12 21 -7 -10 -15 26 -16 -3 27 -11 29 -29
right_child=3 5 6 7 14 8 -8 -9 19 11 18 12 -14 22 24 -17 -18 -19 -20 -21 -22 -23 -24 -25 -26 -27 -28 28 -30 -31
leaf_value=-0.013647822187253342 -0.00023396118641473416 -0.007282482934253146 -0.036251828199636481 0.0083434765183104456 -0.0083025895144958686 0.0011588351646781134 -0.045952608555246105 0.0079465719802403537 -0.0054255550825893437 -0.0051793122866550523 -0.022164270136850829 0.0090261800016143683 0.010481683807217904 0.0047556702304665539 -0.01367904011870935 0.00016485922517584667 -0.019571787423080182 0.011988786897333834 -0.016874346925977359 -0.0046916601990785872 -0.0043918396668282409 -0.010416782734670914 -0.0040366284199167745 0.0064072520550044051 -0.0093880596908482959 -0.0019324973649217933 0.0065624284084311417 -0.0034448554623363599 -0.0039182608516714268 0.0059553106976825516
leaf_weight=21198.795959472656 11385.021629333496 8885.7880020141602 961.57745361328125 19609.97248840332 20582.167995452881 9502.5994644165039 1309.3702125549316 94303.842514038086 10193.38232421875 2931.6960144042969 9355.0859489440918 9204.4698333740234 20912.89990234375 6235.4421081542969 32192.245426177979 35407.187576293945 3634.3346252441406 69356.798889160156 26079.084926605225 16031.292385101318 14121.57600402832 22072.935810089111 3280.7568511962891 25258.51016998291 11536.860656738281 14041.288208007812 8098.0947265625 2997.5409164428711 3133.9200134277344 12096.540542602539
leaf_count=368 105 103 20 119 300 102 24 621 124 24 191 63 134 45 541 364 65 406 485 192 156 275 23 176 170 143 58 24 23 88
internal_value=0 -0.00902628 -0.0143718 0.00799865 -0.0136985 -0.00382057 -0.0280897 0.00952032 -0.00572272 0.00535614 -0.0165497 0.00603213 0.00803899 0.00531454 -0.0111899 -0.00147412 -0.0230617 0.0111863 -0.0182768 -0.00746478 -0.00215959 -0.00884489 0.00172448 0.00457082 -0.0125441 -0.00400423 0.00298697 0.00161859 0.00271193 0.00408853
internal_weight=0 257106 126850 288806 120944 130256 5905.28 183271 71921.8 105535 56633 94149.9 39633.6 18720.7 64311.3 58334.3 4595.91 88966.8 35434.2 48297.6 23624.2 32266.3 9516.2 54516.3 43729.1 22927.1 29257.8 21159.7 18228 15094.1
internal_count=5532 3623 2164 1909 2055 1459 109 1146 849 763 1044 658 265 131 1011 610 85 525 676 591 258 399 68 393 711 246 217 159 135 112
cat_boundaries=0 1 2 3 67 68 69 70 71 72 135 136 137 138 139
cat_threshold=17 134 134 0 0 0 0 0 0 0 0 0 0 0 0 0 0 0 0 0 0 0 0 0 0 0 0 0 0 0 0 0 0 0 0 0 0 0 0 0 0 0 0 0 0 0 0 0 0 0 0 0 0 0 0 0 0 0 0 0 0 0 0 0 0 2147483648 1 134 120 130 7216 6176 0 0 0 0 0 0 0 0 0 0 0 0 0 0 0 0 0 0 0 0 0 0 0 0 0 0 0 0 0 0 0 0 0 0 0 0 0 0 0 0 0 0 0 0 0 0 0 0 0 0 0 0 0 0 0 0 0 0 0 0 0 0 268435456 1 4516 308 1
is_linear=0
shrinkage=0.1


Tree=22
num_leaves=31
num_cat=14
split_feature=19 18 13 6 2 2 13 16 21 22 14 25 4 3 19 11 18 3 3 3 3 3 3 22 21 9 3 20 25 18
split_gain=3199.81 556.169 112.956 76.4229 68.2489 57.4978 46.4877 44.405 29.0719 29.9316 26.111 25.5657 24.573 23.9921 23.6134 23.5558 19.8134 18.4354 17.2444 17.2096 16.8478 16.7683 14.8834 14.1172 13.2937 13.2334 18.7651 14.8655 13.1543 13.0675
threshold=10906.000000000002 4847.0000000000009 19247.000000000004 0 1 2 8158.0000000000009 3949.5000000000005 3332.5000000000005 2884.0000000000005 23529.500000000004 8074.0000000000009 3 4 14709.000000000002 5 10409.500000000002 6 7 8 9 10 11 3252.0000000000005 6561.0000000000009 12 13 21650.500000000004 19330.000000000004 3804.5000000000005
decision_type=2 2 2 9 1 1 2 2 2 2 2 2 1 1 2 1 2 1 1 1 1 1 1 2 2 1 1 2 2 2
left_child=1 3 14 4 19 10 11 12 9 -5 17 13 22 -3 -2 25 24 -4 -14 -1 -9 -13 -6 -21 -8 26 27 -7 -28 -10
right_child=2 6 5 8 7 15 16 20 29 -11 -12 21 18 -15 -16 -17 -18 -19 -20 23 -22 -23 -24 -25 -26 -27 28 -29 -30 -31
leaf_value=-0.0048792633620463564 7.5144151252456277e-05 -0.0036871021977681732 0.010031300762450632 -0.023980117029104006 -0.015757195588470996 0.0023771525080094422 0.0055265976108245397 -0.015126310299091263 -0.01400840206971414 -0.046028175358079383 0.011720579749628493 0.00023842778005716582 -0.01263243037932224 -0.0082326792436114623 0.0044327067542073864 0.0082881553609017496 0.0044738074868293969 0.006775870446839978 -0.016754074116603176 -0.011899513922113384 -0.0092217943408390984 -0.0047050752319732492 -0.022960949985510147 -0.0069028056001839968 -0.0025125290842584916 0.0077598575368106716 -0.0023716926721016954 0.0091465822409832875 0.0040912813515431795 -0.026573885516392989
leaf_weight=8135.6661834716797 17639.777679443359 17716.7214012146 37719.481491088867 1691.6457996368408 5287.619987487793 4309.0697631835938 2162.4877243041992 6689.9095268249512 2430.5277938842773 968.09801864624023 39975.174697875977 10373.053070068359 20344.603023529053 34014.887660980225 42152.593139648438 47904.951248168945 5078.8571472167969 32741.682678222656 21283.993965148926 16582.025379180908 18223.906406402588 20286.310298919678 7016.2483444213867 8579.9969711303711 42157.762054443359 18985.671295166016 3437.868293762207 13123.846641540527 37508.128257751465 1254.9608879089355
leaf_count=127 162 215 228 33 102 31 21 110 42 20 230 112 361 439 307 308 48 205 390 280 292 227 145 125 453 126 26 88 259 20
internal_value=0 -0.00833767 0.00702901 -0.0133092 -0.0127011 0.00801373 -0.00386786 -0.0143069 -0.0239995 -0.0320052 0.00967827 -0.00532214 -0.0159217 -0.00667824 0.00314715 0.006545 -0.00144233 0.00852096 -0.0147433 -0.00889551 -0.0108171 -0.00303399 -0.0198804 -0.0101916 -0.00212028 0.00546646 0.00472062 0.00746903 0.00354778 -0.0182871
internal_weight=0 250279 295498 118489 112144 235706 131790 78846.3 6345.23 2659.74 110436 82391 53932.5 51731.6 59792.4 125270 49399.1 70461.2 41628.6 33297.7 24913.8 30659.4 12303.9 25162 44320.2 77364.6 58378.9 17432.9 40946 3685.49
internal_count=5532 3562 1970 2047 1932 1501 1515 1400 115 53 663 993 998 654 469 838 522 433 751 532 402 339 247 405 474 530 404 119 285 62
cat_boundaries=0 1 2 3 66 67 68 69 70 71 72 73 74 75 76
cat_threshold=17 6 134 0 0 0 0 0 0 0 0 0 0 0 0 0 0 0 0 0 0 0 0 0 0 0 0 0 0 0 0 0 0 0 0 0 0 0 0 0 0 0 0 0 0 0 0 0 0 0 0 0 0 0 0 0 0 0 0 0 0 0 0 0 0 268435456 708 1 350 7268 1030 522 54 220 1 4196
is_linear=0
shrinkage=0.1


Tree=23
num_leaves=31
num_cat=16
split_feature=13 0 18 2 25 2 3 17 4 3 4 16 10 4 9 3 23 3 3 3 13 11 9 16 15 22 18 16 22 12
split_gain=2595.18 411.564 151.536 59.6779 53.4666 52.5505 36.7396 28.5491 26.1124 25.1222 21.6238 20.6609 19.7593 18.8361 18.6031 17.4853 16.7159 16.704 14.447 14.2832 14.5888 12.5825 12.3364 11.8395 11.8069 11.7 11.0955 10.4421 14.8748 15.6215
threshold=10024.000000000002 0 16684.000000000004 1 8127.0000000000009 2 3 20221.000000000004 4 5 6 17531.500000000004 7 8 9 10 6339.0000000000009 11 12 13 7613.5000000000009 14 15 10880.000000000002 16684.000000000004 16603.500000000004 2637.0000000000005 19682.000000000004 22422.500000000004 17830.500000000004
decision_type=2 1 2 1 2 1 1 2 1 1 1 2 1 1 1 1 2 1 1 1 2 1 1 2 2 2 2 2 2 2
left_child=1 5 15 7 6 13 10 24 18 14 -3 -11 -9 -1 -5 -2 -12 26 -7 -6 -21 27 -19 -8 25 -4 -10 -13 29 -29
right_child=2 4 3 9 19 8 23 12 17 11 16 21 -14 -15 -16 -17 -18 22 -20 20 -22 -23 -24 -25 -26 -27 -28 28 -30 -31
leaf_value=-0.012644231820317868 0.0036839380702683058 -0.0077594169674485951 -0.0012816688593208529 0.0065206009621047133 0.0012237296362941187 -0.022334632587894879 -0.0083185659921256299 0.0083339252299174816 -0.021354287141993313 -0.0026816988930586623 0.000943125016632971 0.00956436947147285 0.011429805951998858 -0.0074843678342743627 0.012413530868379055 -0.00084237713804200204 -0.0039278479362967259 -0.01321854693148063 -0.015359397405270323 -0.0050872556632637301 -0.00099387279923484196 0.0065854705609983289 -0.0094613465010569345 -0.0013849248201184435 0.0071221748397799619 0.0066881897932835254 -0.014596350609672884 -0.0052799904884759507 0.004979662660023647 0.0029100668901389862
leaf_weight=10652.515165328979 11965.111778259277 10111.984336853027 3754.8334579467773 15688.564094543457 13288.310371398926 5167.4264087677002 38244.958827972412 52165.732376098633 2838.3475952148438 3427.8599014282227 9998.7835464477539 3742.0850982666016 34087.13996887207 21586.796360015869 8134.6953125 29697.974464416504 23851.180770874023 26095.079385757446 7746.9905242919922 14363.358169555664 22108.320251464844 41736.298210144043 13139.049335479736 2632.1914978027344 28258.532333374023 3615.7037658691406 16866.688892364502 2761.6730117797852 53079.435905456543 14860.840614318848
leaf_count=190 104 143 27 105 136 109 498 316 57 26 116 26 197 338 51 278 277 467 152 164 227 272 230 30 181 24 301 22 366 102
internal_value=0 -0.00783706 0.00606493 0.00694537 -0.00418541 -0.0125589 -0.00571179 0.00857306 -0.014066 0.00556124 -0.00370223 0.00496942 0.00955742 -0.00919268 0.00852922 0.000458205 -0.0024883 -0.0131648 -0.0181655 -0.00158299 -0.00260522 0.0051956 -0.0119573 -0.00787016 0.00619248 0.00262804 -0.0155619 0.00441638 0.0041439 0.00162658
internal_weight=0 238692 306976 265313 134599 104093 84839.1 121882 71853.6 143431 43961.9 119608 86252.9 32239.3 23823.3 41663.1 33850 58939.2 12914.4 49760 36471.7 116180 39234.1 40877.2 35629.1 7370.54 19705 74444 70701.9 17622.5
internal_count=5532 3435 2097 1715 1591 1844 1064 745 1316 970 536 814 513 528 156 382 393 1055 261 527 391 788 697 528 232 51 358 516 490 124
cat_boundaries=0 1 2 3 4 67 68 131 132 195 196 197 198 199 200 201 202
cat_threshold=2 14 6 972 0 0 0 0 0 0 0 0 0 0 0 0 0 0 0 0 0 0 0 0 0 0 0 0 0 0 0 0 0 0 0 0 0 0 0 0 0 0 0 0 0 0 0 0 0 0 0 0 0 0 0 0 0 0 0 0 0 0 0 0 0 0 268435456 192 0 0 0 0 0 0 0 0 0 0 0 0 0 0 0 0 0 0 0 0 0 0 0 0 0 0 0 0 0 0 0 0 0 0 0 0 0 0 0 0 0 0 0 0 0 0 0 0 0 0 0 0 0 0 0 0 0 0 0 0 0 0 134217728 1 0 0 0 0 0 0 0 0 0 0 0 0 0 0 0 0 0 0 0 0 0 0 0 0 0 0 0 0 0 0 0 0 0 0 0 0 0 0 0 0 0 0 0 0 0 0 0 0 0 0 0 0 0 0 0 0 0 0 0 0 0 0 402653184 1 452 2570 7936 262 1 1
is_linear=0
shrinkage=0.1


Tree=24
num_leaves=31
num_cat=13
split_feature=25 20 18 2 2 3 5 20 25 16 3 15 4 14 2 2 10 15 14 14 15 18 11 9 12 3 13 3 22 15
split_gain=2109.08 359.414 95.1907 53.532 44.5786 36.1693 39.7207 38.1612 37.1816 33.0514 26.8422 32.8123 24.3954 23.857 21.9131 17.2903 17.0049 16.9462 16.7596 16.6841 16.5567 16.2711 15.9686 14.1754 14.0793 13.8966 13.1295 13.016 12.9516 12.589
threshold=10489.500000000002 4930.5000000000009 16684.000000000004 0 1 2 3 6812.5000000000009 5641.0000000000009 4225.0000000000009 4 17229.500000000004 5 4265.0000000000009 6 7 8 21748.500000000004 4042.5000000000005 8726.5000000000018 7778.5000000000009 21624.000000000004 9 10 3413.5000000000005 11 7419.5000000000009 12 17213.000000000004 2764.5000000000005
decision_type=2 2 2 1 1 1 9 2 2 2 1 2 1 2 1 1 1 2 2 2 2 2 1 1 2 1 2 1 2 2
left_child=1 4 22 10 13 -3 14 8 -8 18 11 28 -12 15 20 27 17 21 24 -9 -7 -5 26 25 -6 -22 -2 -1 -4 -17
right_child=2 5 3 16 9 6 7 19 -10 -11 12 -13 -14 -15 -16 29 -18 -19 -20 -21 23 -23 -24 -25 -26 -27 -28 -29 -30 -31
leaf_value=-0.0034020157006953173 -0.0079892070703940967 0.0021294365741953802 -0.0058916846261673353 0.0031168742481866955 -0.014371309612993714 -0.0070091479548062153 -0.0082010727685689743 -0.011228800367854955 -0.030811088633798073 -0.0090496373244115212 0.0097974879991729481 0.0065208605184540573 0.0068091432399575201 -0.0009633156844401497 -0.0014366333793729971 -0.013025187620419047 0.006213060506489225 0.0042093966909398997 -0.01019010704647956 -0.00062469047872690286 -0.0075775405216462659 -0.0050235720958155244 0.0040348033027933364 -0.00096072279117530692 -0.022697792949050478 -0.0030076332535745928 -2.0980439723802948e-05 -0.0089628401951816587 0.0028116733923901349 -0.0089309909992394063
leaf_weight=7290.544261932373 2288.2430801391602 11811.90251159668 2934.7423858642578 5969.4676132202148 35993.899564743042 17047.431053161621 1454.5756072998047 2764.7165832519531 1454.7096290588379 19926.26428604126 54441.233123779297 45343.932571411133 55434.72346496582 3815.4579887390137 44053.02953338623 12637.25093460083 36721.009956359863 56297.968368530273 9722.4303283691406 3202.2999038696289 10479.052398681641 4171.0315551757812 9653.2268676757812 15998.72827911377 2152.1863574981689 18347.272399902344 21473.37621307373 10090.729606628418 4096.4411239624023 18511.567949295044
leaf_count=113 26 125 22 45 696 221 20 32 20 317 326 285 349 51 473 230 241 389 167 35 124 31 85 181 39 213 187 162 28 299
internal_value=0 -0.00685693 0.00563515 0.00626843 -0.0107749 -0.00313927 -0.00368123 -0.0101049 -0.0195066 -0.01247 0.00740119 0.00553418 0.00829056 -0.00857545 -0.00314204 -0.00917569 0.00448566 0.00353158 -0.0138964 -0.00553793 -0.00435586 -0.000231487 0.000605034 -0.00334776 -0.0148411 -0.00467257 -0.00078832 -0.00663366 -0.000821017 -0.0105886
internal_weight=0 246754 298825 265411 120140 126614 114802 8876.3 2909.29 67794.8 162251 52375.1 109876 52345.6 105926 48530.1 103159 66438.5 47868.5 5967.02 61872.5 10140.5 33414.8 44825.1 38146.1 28826.3 23761.6 17381.3 7031.18 31148.8
internal_count=5532 3518 2014 1716 2074 1444 1319 107 40 1219 1010 335 675 855 1212 804 706 465 902 67 739 76 298 518 735 337 213 275 50 529
cat_boundaries=0 1 2 3 4 5 69 70 71 72 73 74 75 76
cat_threshold=142 134 4 1 6192 0 0 0 0 0 0 0 0 0 0 0 0 0 0 0 0 0 0 0 0 0 0 0 0 0 0 0 0 0 0 0 0 0 0 0 0 0 0 0 0 0 0 0 0 0 0 0 0 0 0 0 0 0 0 0 0 0 0 0 0 0 0 2684354560 1 120 2 1 1 1 1602 1110
is_linear=0
shrinkage=0.1


Tree=25
num_leaves=31
num_cat=14
split_feature=13 25 13 6 2 2 25 24 14 11 2 25 3 14 10 15 14 20 3 3 15 19 3 3 3 9 3 23 16 25
split_gain=1715.01 254.131 113.376 57.2374 42.0141 40.069 28.4314 26.2999 25.1763 37.414 24.8623 19.8182 19.4825 19.2833 18.6349 15.3682 14.7864 15.775 14.1755 13.5867 12.8612 19.1019 12.605 12.1963 11.9772 12.6649 11.411 11.2716 14.18 20.4675
threshold=9666.5000000000018 4761.0000000000009 17830.500000000004 0 1 2 8127.0000000000009 3092.5000000000005 3305.5000000000005 3 4 15288.500000000002 5 23386.000000000004 6 3978.5000000000005 20246.000000000004 19373.500000000004 7 8 3921.5000000000005 3575.5000000000005 9 10 11 12 13 27470.000000000004 21875.000000000004 25586.500000000004
decision_type=2 2 2 9 1 1 2 2 2 1 1 2 1 2 1 2 2 2 1 1 2 2 1 1 1 1 1 2 2 2
left_child=1 3 10 5 13 15 12 23 9 -5 27 -12 -3 18 16 26 17 -6 -4 -16 21 -10 -9 -7 -8 -26 -1 28 29 -2
right_child=2 6 4 8 14 7 24 22 20 -11 11 -13 -14 -15 19 -17 -18 -19 -20 -21 -22 -23 -24 -25 25 -27 -28 -29 -30 -31
leaf_value=-0.0035273277302273519 0.0022065794135860193 -0.0021721879323525015 0.0036679644874407801 -0.038715503770180931 -0.0056851294871963923 -0.011006331312928028 0.00020852933832879071 -0.0075585470757798014 -0.010356501591965451 -0.012638898050509976 -0.00029642852041185017 -0.0095646790552785053 -0.0057514158331363214 0.0088387274752260974 0.0036961071903066295 0.00060375310979995846 0.0041387892263242583 0.0027487267659575768 0.0069186837851837966 0.0072464779675627967 -0.0073446646406783271 -0.027878462013675127 -0.01070082412478613 -0.015387866666788822 -0.0044903070005709042 0.00055397043723641275 -0.008108693558957011 0.0088027181683144832 -0.0019514264378849172 0.01118396509873943
