tree
version=v3
num_class=1
num_tree_per_iteration=1
label_index=0
max_feature_idx=26
objective=tweedie
feature_names=state_id cat_id d wday month year event_name_1 event_type_1 event_name_2 event_type_2 snap_CA snap_TX snap_WI sales_lag_1 sales_lag_2 sales_lag_3 sales_lag_4 sales_lag_5 sales_lag_6 sales_lag_7 sales_lag_8 sales_lag_9 sales_lag_10 sales_lag_11 sales_lag_12 sales_lag_13 sales_lag_14
feature_infos=-1:0:1:2 -1:0:1:2 -1:42:43:44:45:46:47:48:49:50:51:52:53:54:55:56:57:58:59:60:61:62:63:64:65:66:67:68:69:70:71:72:73:74:75:76:77:78:79:80:81:82:83:84:85:86:87:88:89:90:91:92:93:94:95:96:97:98:99:100:101:102:103:104:105:106:107:108:109:110:111:112:113:114:115:116:117:118:119:120:121:122:123:124:125:126:127:128:129:130:131:132:133:134:135:136:137:138:139:140:141:142:143:144:145:146:147:148:149:150:151:152:153:154:155:156:157:158:159:160:161:162:163:164:165:166:167:168:169:170:171:172:173:174:175:176:177:178:179:180:181:182:183:184:185:186:187:188:189:190:191:192:193:194:195:196:197:198:199:200:201:202:203:204:205:206:207:208:209:210:211:212:213:214:215:216:217:218:219:220:221:222:223:224:225:226:227:228:229:230:231:232:233:234:235:236:237:238:239:240:241:242:243:244:245:246:247:248:249:250:251:252:253:254:255:256:257:258:259:260:261:262:263:264:265:266:267:268:269:270:271:272:273:274:275:276:277:278:279:280:281:282:283:284:285:286:287:288:289:290:291:292:293:294:295:296:297:298:299:300:301:302:303:304:305:306:307:308:309:310:311:312:313:314:315:316:317:318:319:320:321:322:323:324:325:326:327:328:329:330:331:332:333:334:335:336:337:338:339:340:341:342:343:344:345:346:347:348:349:350:351:352:353:354:355:356:357:358:359:360:361:362:363:364:365:366:367:368:369:370:371:372:373:374:375:376:377:378:379:380:381:382:383:384:385:386:387:388:389:390:391:392:393:394:395:396:397:398:399:400:401:402:403:404:405:406:407:408:409:410:411:412:413:414:415:416:417:418:419:420:421:422:423:424:425:426:427:428:429:430:431:432:433:434:435:436:437:438:439:440:441:442:443:444:445:446:447:448:449:450:451:452:453:454:455:456:457:458:459:460:461:462:463:464:465:466:467:468:469:470:471:472:473:474:475:476:477:478:479:480:481:482:483:484:485:486:487:488:489:490:491:492:493:494:495:496:497:498:499:500:501:502:503:504:505:506:507:508:509:510:511:512:513:514:515:516:517:518:519:520:521:522:523:524:525:526:527:528:529:530:531:532:533:534:535:536:537:538:539:540:541:542:543:544:545:546:547:548:549:550:551:552:553:554:555:556:557:558:559:560:561:562:563:564:565:566:567:568:569:570:571:572:573:574:575:576:577:578:579:580:581:582:583:584:585:586:587:588:589:590:591:592:593:594:595:596:597:598:599:600:601:602:603:604:605:606:607:608:609:610:611:612:613:614:615:616:617:618:619:620:621:622:623:624:625:626:627:628:629:630:631:632:633:634:635:636:637:638:639:640:641:642:643:644:645:646:647:648:649:650:651:652:653:654:655:656:657:658:659:660:661:662:663:664:665:666:667:668:669:670:671:672:673:674:675:676:677:678:679:680:681:682:683:684:685:686:687:688:689:690:691:692:693:694:695:696:697:698:699:700:701:702:703:704:705:706:707:708:709:710:711:712:713:714:715:716:717:718:719:720:721:722:723:724:725:726:727:728:729:730:731:732:733:734:735:736:737:738:739:740:741:742:743:744:745:746:747:748:749:750:751:752:753:754:755:756:757:758:759:760:761:762:763:764:765:766:767:768:769:770:771:772:773:774:775:776:777:778:779:780:781:782:783:784:785:786:787:788:789:790:791:792:793:794:795:796:797:798:799:800:801:802:803:804:805:806:807:808:809:810:811:812:813:814:815:816:817:818:819:820:821:822:823:824:825:826:827:828:829:830:831:832:833:834:835:836:837:838:839:840:841:842:843:844:845:846:847:848:849:850:851:852:853:854:855:856:857:858:859:860:861:862:863:864:865:866:867:868:869:870:871:872:873:874:875:876:877:878:879:880:881:882:883:884:885:886:887:888:889:890:891:892:893:894:895:896:897:898:899:900:901:902:903:904:905:906:907:908:909:910:911:912:913:914:915:916:917:918:919:920:921:922:923:924:925:926:927:928:929:930:931:932:933:934:935:936:937:938:939:940:941:942:943:944:945:946:947:948:949:950:951:952:953:954:955:956:957:958:959:960:961:962:963:964:965:966:967:968:969:970:971:972:973:974:975:976:977:978:979:980:981:982:983:984:985:986:987:988:989:990:991:992:993:994:995:996:997:998:999:1000:1001:1002:1003:1004:1005:1006:1007:1008:1009:1010:1011:1012:1013:1014:1015:1016:1017:1018:1019:1020:1021:1022:1023:1024:1025:1026:1027:1028:1029:1030:1031:1032:1033:1034:1035:1036:1037:1038:1039:1040:1041:1042:1043:1044:1045:1046:1047:1048:1049:1050:1051:1052:1053:1054:1055:1056:1057:1058:1059:1060:1061:1062:1063:1064:1065:1066:1067:1068:1069:1070:1071:1072:1073:1074:1075:1076:1077:1078:1079:1080:1081:1082:1083:1084:1085:1086:1087:1088:1089:1090:1091:1092:1093:1094:1095:1096:1097:1098:1099:1100:1101:1102:1103:1104:1105:1106:1107:1108:1109:1110:1111:1112:1113:1114:1115:1116:1117:1118:1119:1120:1121:1122:1123:1124:1125:1126:1127:1128:1129:1130:1131:1132:1133:1134:1135:1136:1137:1138:1139:1140:1141:1142:1143:1144:1145:1146:1147:1148:1149:1150:1151:1152:1153:1154:1155:1156:1157:1158:1159:1160:1161:1162:1163:1164:1165:1166:1167:1168:1169:1170:1171:1172:1173:1174:1175:1176:1177:1178:1179:1180:1181:1182:1183:1184:1185:1186:1187:1188:1189:1190:1191:1192:1193:1194:1195:1196:1197:1198:1199:1200:1201:1202:1203:1204:1205:1206:1207:1208:1209:1210:1211:1212:1213:1214:1215:1216:1217:1218:1219:1220:1221:1222:1223:1224:1225:1226:1227:1228:1229:1230:1231:1232:1233:1234:1235:1236:1237:1238:1239:1240:1241:1242:1243:1244:1245:1246:1247:1248:1249:1250:1251:1252:1253:1254:1255:1256:1257:1258:1259:1260:1261:1262:1263:1264:1265:1266:1267:1268:1269:1270:1271:1272:1273:1274:1275:1276:1277:1278:1279:1280:1281:1282:1283:1284:1285:1286:1287:1288:1289:1290:1291:1292:1293:1294:1295:1296:1297:1298:1299:1300:1301:1302:1303:1304:1305:1306:1307:1308:1309:1310:1311:1312:1313:1314:1315:1316:1317:1318:1319:1320:1321:1322:1323:1324:1325:1326:1327:1328:1329:1330:1331:1332:1333:1334:1335:1336:1337:1338:1339:1340:1341:1342:1343:1344:1345:1346:1347:1348:1349:1350:1351:1352:1353:1354:1355:1356:1357:1358:1359:1360:1361:1362:1363:1364:1365:1366:1367:1368:1369:1370:1371:1372:1373:1374:1375:1376:1377:1378:1379:1380:1381:1382:1383:1384:1385:1386:1387:1388:1389:1390:1391:1392:1393:1394:1395:1396:1397:1398:1399:1400:1401:1402:1403:1404:1405:1406:1407:1408:1409:1410:1411:1412:1413:1414:1415:1416:1417:1418:1419:1420:1421:1422:1423:1424:1425:1426:1427:1428:1429:1430:1431:1432:1433:1434:1435:1436:1437:1438:1439:1440:1441:1442:1443:1444:1445:1446:1447:1448:1449:1450:1451:1452:1453:1454:1455:1456:1457:1458:1459:1460:1461:1462:1463:1464:1465:1466:1467:1468:1469:1470:1471:1472:1473:1474:1475:1476:1477:1478:1479:1480:1481:1482:1483:1484:1485:1486:1487:1488:1489:1490:1491:1492:1493:1494:1495:1496:1497:1498:1499:1500:1501:1502:1503:1504:1505:1506:1507:1508:1509:1510:1511:1512:1513:1514:1515:1516:1517:1518:1519:1520:1521:1522:1523:1524:1525:1526:1527:1528:1529:1530:1531:1532:1533:1534:1535:1536:1537:1538:1539:1540:1541:1542:1543:1544:1545:1546:1547:1548:1549:1550:1551:1552:1553:1554:1555:1556:1557:1558:1559:1560:1561:1562:1563:1564:1565:1566:1567:1568:1569:1570:1571:1572:1573:1574:1575:1576:1577:1578:1579:1580:1581:1582:1583:1584:1585:1586:1587:1588:1589:1590:1591:1592:1593:1594:1595:1596:1597:1598:1599:1600:1601:1602:1603:1604:1605:1606:1607:1608:1609:1610:1611:1612:1613:1614:1615:1616:1617:1618:1619:1620:1621:1622:1623:1624:1625:1626:1627:1628:1629:1630:1631:1632:1633:1634:1635:1636:1637:1638:1639:1640:1641:1642:1643:1644:1645:1646:1647:1648:1649:1650:1651:1652:1653:1654:1655:1656:1657:1658:1659:1660:1661:1662:1663:1664:1665:1666:1667:1668:1669:1670:1671:1672:1673:1674:1675:1676:1677:1678:1679:1680:1681:1682:1683:1684:1685:1686:1687:1688:1689:1690:1691:1692:1693:1694:1695:1696:1697:1698:1699:1700:1701:1702:1703:1704:1705:1706:1707:1708:1709:1710:1711:1712:1713:1714:1715:1716:1717:1718:1719:1720:1721:1722:1723:1724:1725:1726:1727:1728:1729:1730:1731:1732:1733:1734:1735:1736:1737:1738:1739:1740:1741:1742:1743:1744:1745:1746:1747:1748:1749:1750:1751:1752:1753:1754:1755:1756:1757:1758:1759:1760:1761:1762:1763:1764:1765:1766:1767:1768:1769:1770:1771:1772:1773:1774:1775:1776:1777:1778:1779:1780:1781:1782:1783:1784:1785:1786:1787:1788:1789:1790:1791:1792:1793:1794:1795:1796:1797:1798:1799:1800:1801:1802:1803:1804:1805:1806:1807:1808:1809:1810:1811:1812:1813:1814:1815:1816:1817:1818:1819:1820:1821:1822:1823:1824:1825:1826:1827:1828:1829:1830:1831:1832:1833:1834:1835:1836:1837:1838:1839:1840:1841:1842:1843:1844:1845:1846:1847:1848:1849:1850:1851:1852:1853:1854:1855:1856:1857:1858:1859:1860:1861:1862:1863:1864:1865:1866:1867 -1:1:2:7:3:4:5:6 -1:3:1:5:7:8:10:12:4:6:9:11:2 -1:2012:2013:2014:2015:2011:2016 -1:0:5:6:7:1:2:3:4:9:11:12:13:14:16:17:18:19:20:21:22:23:24:25:26:27:28:29:30:8:10 -1:0:4:3:2 -1:0:1:2:3 -1:0:1 -1:0:1 -1:0:1 -1:0:1 [0:16523] [0:16523] [0:16523] [0:16523] [0:16523] [0:16523] [0:16523] [0:16523] [0:16523] [0:16523] [0:16523] [0:16523] [0:16523] [0:16523]
tree_sizes=3237 3376 3401 3363 3377 3530 3374 3437 3336 3449 3457 3293 3455 3433 3310 3294 3302 3418 3260 3288 3412 3428 3238 3262 3259 3258 3629 3391 3388 3275 3553 3753 3521 3413 3652 3895 3844 3740 4101 3757 3949 4819 4315 3859 5330 4357 5676 4140 6008 3946 5995 6517 3994 4525 5987 4270 3866 4313 3810 6839 5045 3887 4546 3926 4854 3826 5155 6086 3709 6010 4324 5870 4614 6131 3843 5000 4583 3688 5673 4222 4060 4109 4096 4165 4705 3577 4517 3941 3723 3845 3773 3863 3860 4770 3572 3816 3991 3882 5804 4040 3843 3819 3751 3688 4530 3907 3794 3798 4151 4785 4190 5297 3983 3640 3660 4051

Tree=0
num_leaves=31
num_cat=4
split_feature=13 20 13 20 13 13 13 13 20 13 13 20 14 13 20 13 13 13 12 13 20 15 20 13 13 20 0 3 20 12
split_gain=529000 53645.5 29065.1 8197.12 6910.74 5953.26 4653.76 1385.69 1064.07 922.829 786.03 760.116 731.364 719.742 708.476 662.081 394.13 368.743 293.064 246.672 203.004 196.762 186.334 183.432 171.032 167.037 160.026 172.24 157.922 155.885
threshold=3483.5000000000005 1511.5000000000002 7124.0000000000009 2331.5000000000005 4981.0000000000009 1057.5000000000002 9674.5000000000018 1819.5000000000002 2932.5000000000005 4153.5000000000009 11306.500000000002 8049.5000000000009 5804.0000000000009 5804.0000000000009 874.50000000000011 1436.5000000000002 2654.0000000000005 2150.5000000000005 0 2915.0000000000005 3941.5000000000005 2620.5000000000005 5718.5000000000009 759.50000000000011 8373.5000000000018 5186.5000000000009 1 2 1175.5000000000002 3
decision_type=2 2 2 2 2 2 2 2 2 2 2 2 2 2 2 2 2 2 1 2 2 2 2 2 2 2 1 1 2 1
left_child=1 5 4 7 9 14 11 -3 16 20 -8 18 19 22 23 28 -5 -9 26 -10 -2 -17 -6 -1 -13 -11 -4 -28 -7 -15
right_child=2 3 6 8 13 15 10 17 12 25 -12 24 -14 29 -16 21 -18 -19 -20 -21 -22 -23 -24 -25 -26 -27 27 -29 -30 -31
leaf_value=8.1091532273240308 8.2429932160018424 8.171191276654497 8.3199722831509106 8.2038249408249726 8.2819524404236127 8.1402334917650556 8.339152917883256 8.1856954281587608 8.2164363457340226 8.2669958408100204 8.3544869779554194 8.3226304386283996 8.3047006381878923 8.2994357368614562 8.1285795575490134 8.1644337949330463 8.2203649824441936 8.199268062543613 8.3214671968902501 8.2324957567582828 8.2587983159467484 8.2081280057238466 8.2932975881414421 8.118573186977887 8.3308752508173711 8.2819503784883839 8.3122089084928099 8.2974708880534429 8.1513246128089634 8.3074081970704459
leaf_weight=57963.729200363159 22593.008686065674 56573.511219024658 11711.277145385742 35033.329557418823 25645.147974014282 23404.836318969727 70153.720037460327 46343.793190002441 12879.27988243103 24487.605892181396 63858.497856140137 39598.702217102051 1287.3028411865234 76005.818685531616 39467.813861846924 22961.392938613892 24469.233678817749 35236.038579940796 41276.476219177246 37161.530473709106 12691.827537536621 1079.0405158996582 33242.165023803711 32130.384912490845 69004.371715545654 10747.111293792725 20918.886154174805 13568.730096817017 28434.587781906128 36209.955230712891
leaf_count=1592 376 1270 122 694 346 584 622 986 242 360 487 404 15 918 1022 528 452 711 425 650 195 21 418 858 658 145 231 166 684 414
internal_value=8.24879 8.16826 8.31281 8.19947 8.28645 8.13043 8.3321 8.18322 8.21973 8.26011 8.34646 8.32228 8.23028 8.29731 8.11741 8.15268 8.21063 8.19156 8.31534 8.22836 8.24868 8.16639 8.28836 8.11251 8.32787 8.27156 8.30987 8.30644 8.14632 8.30201
internal_weight=0 454426 571713 248984 241623 205442 330091 138153 110831 70519.6 134012 196078 51328.1 171103 129562 75879.9 59502.6 81579.8 87475.4 50040.8 35284.8 24040.4 58887.3 90094.1 108603 35234.7 46198.9 34487.6 51839.4 112216
internal_count=16596 10309 6287 5020 3172 5289 3115 2967 2053 1076 1109 2006 907 2096 3472 1817 1146 1697 944 892 571 549 764 2450 1062 505 519 397 1268 1332
cat_boundaries=0 1 2 3 4
cat_threshold=1 1 134 1
is_linear=0
shrinkage=1


Tree=1
num_leaves=31
num_cat=4
split_feature=13 20 13 20 13 13 13 13 20 20 20 13 13 14 13 13 13 13 13 12 13 20 13 18 13 0 3 20 11 20
split_gain=436480 48839.3 23737.2 7914.03 5169.89 4942.49 4139.15 1248.9 1108.74 763.045 712.252 701.748 641.154 600.204 508.284 486.996 310.202 278.459 261.71 257.8 239.906 181.158 171.732 171.54 150.211 137.06 146.064 131.265 121.881 113.655
threshold=3528.5000000000005 1460.5000000000002 7124.0000000000009 2283.5000000000005 5066.0000000000009 1002.5000000000001 9777.5000000000018 1819.5000000000002 2847.5000000000005 4127.5000000000009 8049.5000000000009 1288.0000000000002 11306.500000000002 5804.0000000000009 5983.5000000000009 768.50000000000011 2521.5000000000005 2796.5000000000005 2106.5000000000005 0 1889.5000000000002 5030.0000000000009 8445.5000000000018 4482.5000000000009 1436.5000000000002 1 2 908.50000000000011 3 11007.500000000002
decision_type=2 2 2 2 2 2 2 2 2 2 2 2 2 2 2 2 2 2 2 1 2 2 2 2 2 1 1 2 1 2
left_child=1 5 4 7 9 15 10 24 16 -2 19 -7 29 17 23 -1 -5 -10 -9 25 -13 -11 -12 -6 -3 -4 -27 -17 -16 -8
right_child=2 3 6 8 14 11 12 18 13 21 22 20 -14 -15 28 27 -18 -19 -20 -21 -22 -23 -24 -25 -26 26 -28 -29 -30 -31
leaf_value=-0.13106429563121913 -0.00010737511725070496 -0.081612312064601289 0.06490906769212669 -0.043410797522059258 0.026647594783977682 -0.10051101379541894 0.081012645877190981 -0.058431227008144675 -0.032259639469133808 0.015355549207742836 0.067672132145555147 -0.083436417900946719 0.097864270908857035 0.050713790356374959 0.046682898695658039 -0.12197934265868771 -0.028948196950565844 -0.015167898326442889 -0.046685568703866476 0.066417479062672549 -0.049874103027834876 0.028705684136691108 0.075728318622517318 0.040093029575187768 -0.069513555139763858 0.057654337564858299 0.044074974865409261 -0.11162827591988989 0.054321544191126704 0.090867097050675694
leaf_weight=62655.254346847534 29495.305419921875 12935.798282623291 11668.148765563965 30073.165580749512 11338.53991317749 43428.422857284546 46428.121364593506 40654.891677856445 11882.388925552368 24518.000762939453 42386.915138244629 30086.592525482178 62163.443099975586 1277.7455825805664 65232.23571395874 31365.045093536377 29259.447784423828 48191.613101959229 35564.858861923218 41283.576141357422 2292.0447425842285 17362.519582748413 70420.222896575928 58168.690324783325 49640.380851745605 20991.050117492676 13492.30553817749 20103.609382629395 30727.939449310303 15648.483764648438
leaf_count=1797 477 307 123 606 156 1114 427 877 227 363 437 722 487 15 788 871 551 846 728 430 48 237 679 736 1125 234 166 538 352 132
internal_value=0 -0.0734646 0.0587782 -0.0452608 0.0347084 -0.111996 0.0763469 -0.0615456 -0.026532 0.0122131 0.0674506 -0.0922034 0.0906856 -0.0171061 0.0444119 -0.125144 -0.0362787 -0.0185486 -0.0529506 0.0606763 -0.0810606 0.0208902 0.0727012 0.0378997 -0.0720146 0.0555406 0.0523706 -0.117936 0.0491289 0.0834968
internal_weight=0 449411 561325 259480 236843 189931 324482 138796 120684 71375.8 200242 75807.1 124240 61351.7 165467 114124 59332.6 60074 76219.8 87435.1 32378.6 41880.5 112807 69507.2 62576.2 46151.5 34483.4 51468.7 95960.2 62076.6
internal_count=16596 10372 6224 5282 3109 5090 3115 3037 2245 1077 2069 1884 1046 1088 2032 3206 1157 1073 1605 953 770 600 1116 892 1432 523 400 1409 1140 559
cat_boundaries=0 1 2 3 4
cat_threshold=1 1 134 1
is_linear=0
shrinkage=0.1


Tree=2
num_leaves=31
num_cat=2
split_feature=13 20 13 20 13 13 13 13 20 13 13 13 20 15 20 20 13 13 13 26 14 12 20 3 20 13 13 13 20 13
split_gain=359238 41933.9 20837.5 6444.48 4689.58 4424.92 3637.44 1131.24 826.451 712.743 659.386 603.603 530.98 507.311 487.508 459.682 252.292 237.032 230.774 227.219 215.63 202.487 156.258 152.326 122.522 114.429 108.814 108.093 107.77 106.324
threshold=3483.5000000000005 1441.5000000000002 7124.0000000000009 2283.5000000000005 4790.5000000000009 1002.5000000000001 9570.5000000000018 1785.0000000000002 2810.5000000000005 11031.000000000002 5804.0000000000009 1269.5000000000002 8049.5000000000009 6514.5000000000009 779.50000000000011 4028.5000000000005 2106.5000000000005 2549.5000000000005 2915.0000000000005 2239.5000000000005 5289.0000000000009 0 6633.5000000000009 1 6905.0000000000009 8373.5000000000018 870.50000000000011 1491.5000000000002 1125.5000000000002 3867.0000000000005
decision_type=2 2 2 2 2 2 2 2 2 2 2 2 2 2 2 2 2 2 2 2 2 1 2 1 2 2 2 2 2 2
left_child=1 5 4 7 15 14 12 27 17 -8 20 28 21 18 -1 29 -9 -5 -10 -13 -6 24 -12 -11 -4 -14 -16 -3 -7 -2
right_child=2 3 6 8 10 11 9 16 13 23 22 19 25 -15 26 -17 -18 -19 -20 -21 -22 -23 -24 -25 -26 -27 -28 -29 -30 -31
leaf_value=-0.12307893001914626 -0.0068352098277827209 -0.07307677571508904 0.04402190643355619 -0.039118394668445113 0.024101946448331354 -0.098326728004235267 0.07495136296586602 -0.053532310699154276 -0.026816596391234151 0.09202745551609641 0.040034908325880456 -0.076545645031065257 0.061308118981346305 0.049902763857142929 -0.11391254164493479 0.015085534781502994 -0.042283908427267841 -0.02597290776067317 -0.013501310175302048 -0.030405346671489804 0.035692411667354006 0.060020688261474109 0.047545436534272491 0.079779283402005491 0.054631333488684458 0.068243641306424116 -0.10425553063764624 -0.063902726675215613 -0.087927077452972249 0.005787868984086857
leaf_weight=62524.601858139038 18400.133327484131 18833.947212219238 18661.379867553711 31156.048969268799 26251.972564697266 21230.124967575073 67086.563591003418 45865.177421569824 19090.992593765259 53606.469192504883 56424.510200500488 30270.721454620361 38662.628509521484 1129.6810607910156 26251.460981369019 32473.78431892395 35276.067272186279 24505.710844039917 40906.133037567139 1106.3018531799316 41308.12682723999 39681.326225280762 54417.626285552979 14181.273132324219 26121.726463317871 61837.49133682251 21003.580623626709 40377.341661453247 18778.604566574097 10469.238822937012
leaf_count=1866 309 451 223 630 362 570 623 1001 361 423 694 739 404 13 756 477 726 462 718 22 528 419 638 125 289 609 582 928 484 164
internal_value=0 -0.0678326 0.0530631 -0.0418702 0.0307746 -0.104683 0.0697702 -0.0563112 -0.0245155 0.0822587 0.0389758 -0.0853023 0.0606636 -0.0164881 -0.117286 0.00692351 -0.0486421 -0.0333309 -0.0177382 -0.0749188 0.0311887 0.0548192 0.0437222 0.0894905 0.0502103 0.0655755 -0.10962 -0.0668208 -0.0934455 -0.00225755
internal_weight=0 438306 559584 257141 239745 181165 319839 140353 116789 134874 178402 71385.8 184965 61126.8 109780 61343.2 81141.2 55661.8 59997.1 31377 67560.1 84464.4 110842 67787.7 44783.1 100500 47255 59211.3 40008.7 28869.4
internal_count=16596 10309 6287 5290 3172 5019 3115 3106 2184 1171 2222 1815 1944 1092 3204 950 1727 1092 1079 761 890 931 1332 548 512 1013 1338 1379 1054 473
cat_boundaries=0 1 2
cat_threshold=1 6
is_linear=0
shrinkage=0.1


Tree=3
num_leaves=31
num_cat=4
split_feature=13 20 13 20 13 13 13 13 20 1 13 14 13 13 13 20 13 18 12 13 16 11 20 13 20 24 13 1 26 13
split_gain=295037 34911.3 18821.1 4894.48 4431.62 4065.48 3272.52 891.949 823.705 729.573 636.728 541.003 524.304 492.95 476.063 396.49 200.46 195.404 179.179 176.393 149.818 140.046 129.075 120.74 118.194 117.039 110.649 108.696 105.45 100.289
threshold=3402.5000000000005 1441.5000000000002 7062.5000000000009 2137.5000000000005 4790.5000000000009 1002.5000000000001 9282.5000000000018 2689.5000000000005 11287.000000000002 0 1819.5000000000002 5753.5000000000009 1269.5000000000002 759.50000000000011 3867.0000000000005 7986.5000000000009 2256.5000000000005 5126.0000000000009 1 1889.5000000000002 6514.5000000000009 2 908.50000000000011 11031.000000000002 6766.5000000000009 6496.5000000000009 1656.5000000000002 3 6970.5000000000009 12608.000000000002
decision_type=2 2 2 2 2 2 2 2 2 1 2 2 2 2 2 2 2 2 1 2 2 1 2 2 2 2 2 1 2 2
left_child=1 5 4 10 14 13 15 9 20 -5 26 17 -7 -1 -2 18 -11 -6 28 -14 -8 24 -15 -22 -13 -16 -3 -12 -4 -10
right_child=2 3 6 7 11 12 8 -9 29 16 27 21 19 22 25 -17 -18 -19 -20 -21 23 -23 -24 -25 -26 -27 -28 -29 -30 -31
leaf_value=-0.11583830869442824 -0.0044771788423331538 -0.063888480852618404 0.038877412279775175 0.042025719708231546 0.019309483616300895 -0.085989989671743622 0.054308052052467817 -0.01673923759474252 0.079481001705476229 -0.040763086629372912 -0.053314594096344647 0.033189826341321442 -0.070589561569502718 -0.10614371200814512 0.0099687225071871804 0.058380431691737761 -0.029858977022319752 0.031296880100612233 0.053703433157763172 -0.040334212766612886 0.067335470060662025 0.044354374558035814 -0.095728527879603731 0.076530078979938354 0.041223656983995195 0.025501727618531117 -0.055203251413925319 -0.043199511105155859 0.048812008737590895 0.087782860233990498
leaf_weight=55626.101722717285 30413.293476104736 38510.773462295532 19621.520778656006 1263.4022064208984 19912.573150634766 39176.127246856689 7251.6247863769531 61369.477323532104 32167.429557800293 30142.52788734436 14353.365226745605 42071.715408325195 28826.001136779785 31386.361968994141 32637.821538925171 88568.146598815918 38258.824893951416 42882.941795349121 38061.57421875 2065.022575378418 67629.550682067871 35016.28816986084 19164.325832366943 18105.334350585938 32427.433788299561 5697.7082061767578 23693.084024429321 40883.68141746521 23456.992263793945 26571.107116699219
leaf_count=1727 507 919 237 15 278 1054 76 1111 273 631 320 532 716 934 492 912 754 551 408 44 644 410 543 157 388 78 543 871 263 208
internal_value=0 -0.0629628 0.0474536 -0.0388167 0.026331 -0.0970049 0.0632946 -0.0255296 0.0739659 -0.0332733 -0.0536417 0.0348954 -0.0783086 -0.109343 0.00486544 0.053754 -0.0346641 0.0274957 0.0487041 -0.068567 0.0681098 0.0391384 -0.102195 0.0692772 0.0366867 0.0122774 -0.0605803 -0.0458279 0.044287 0.0832365
internal_weight=0 424719 562493 248475 241060 176244 321433 131034 151725 69664.8 117441 172311 70067.2 106177 68748.8 169708 68401.4 62795.5 81140.1 30891 92986.5 109515 50550.7 85734.9 74499.1 38335.5 62203.9 55237 43078.5 58738.5
internal_count=16596 10182 6414 5164 3236 5018 3178 2511 1358 1400 2653 2159 1814 3204 1077 1820 1385 829 908 760 877 1330 1477 801 920 570 1462 1191 500 481
cat_boundaries=0 1 2 3 4
cat_threshold=1 1 1 2
is_linear=0
shrinkage=0.1


Tree=4
num_leaves=31
num_cat=4
split_feature=20 13 13 13 13 20 13 20 20 13 20 14 20 13 13 20 16 20 20 20 20 13 13 14 4 11 13 22 0 12
split_gain=241783 31237 15271.9 4580.33 4100.43 3301.28 2149.86 703.35 596.239 583.161 489.52 435.922 394.248 374.527 370.447 272.584 194.743 140.452 138.384 137.017 120.786 119.907 116.511 113.052 110.159 108.14 105.268 91.8762 89.9191 89.0339
threshold=3420.5000000000005 1436.5000000000002 7555.0000000000009 2278.5000000000005 5214.5000000000009 943.50000000000011 10275.500000000002 4127.5000000000009 1808.5000000000002 2796.5000000000005 1175.5000000000002 6347.5000000000009 8836.5000000000018 6291.5000000000009 759.50000000000011 10265.500000000002 6776.5000000000009 7040.5000000000009 6267.5000000000009 7109.5000000000009 1983.5000000000002 12608.000000000002 1100.5000000000002 1718.5000000000002 0 1 3867.0000000000005 966.50000000000011 2 3
decision_type=2 2 2 2 2 2 2 2 2 2 2 2 2 2 2 2 2 2 2 2 2 2 2 2 1 1 2 2 1 1
left_child=1 5 4 8 7 14 12 26 23 -5 22 -11 17 18 -1 -8 -9 29 -6 25 27 -17 -7 -3 -10 -15 -2 -12 -16 -4
right_child=2 3 6 9 13 10 15 16 24 11 20 -13 -14 19 28 21 -18 -19 -20 -21 -22 -23 -24 -25 -26 -27 -28 -29 -30 -31
leaf_value=-0.10842225914368159 -0.0049680159307335181 -0.057767513355197864 0.037590492802433047 -0.027218108118378322 0.026294026460857763 -0.087582549453929917 0.062624182514118415 0.013907388562250364 -0.03420948439924245 -0.014261708471471133 -0.080863133926682151 0.041830485362737105 0.058670447293465267 0.032384857104669561 -0.072155045519074881 0.071905451349399727 0.030627659445542983 0.051727025909518956 0.034377641605947556 0.04326890825413944 -0.034941079536133339 0.08032293677598859 -0.075841323154058379 -0.049292057318723367 -0.043155676887358337 0.0412951129475106 0.0066239934656209965 -0.066408087197235607 -0.096668109253686962 0.048848385602965533
leaf_weight=51740.582931518555 25802.323013305664 35805.257406234741 13554.9833984375 55368.324514389038 44105.311363220215 23016.630460739136 22160.367431640625 44823.872608184814 19128.64839553833 57086.969245910645 5034.1203308105469 1419.9537887573242 84591.014186859131 34520.938785552979 1554.4105262756348 41355.956237792969 8247.5711288452148 73891.524784088135 40738.338176727295 45276.481101989746 1120.1808853149414 28644.845848083496 13355.849613189697 28080.971633911133 54732.620113372803 22497.953125 11249.330703735352 34746.941209793091 40118.657190322876 14582.191719055176
leaf_count=1663 436 859 161 1095 575 662 209 649 403 1025 138 17 836 427 42 359 106 777 501 516 24 229 360 643 1196 260 173 887 1211 157
internal_value=0 -0.0571006 0.0432664 -0.0347008 0.0266484 -0.0901218 0.0597938 0.00912436 -0.046968 -0.0198619 -0.074831 -0.0129004 0.0536226 0.0350877 -0.102771 0.07229 0.0165058 0.0494375 0.0301754 0.0391618 -0.0673254 0.0753499 -0.0832712 -0.0540422 -0.0408493 0.0359006 -0.00144854 -0.0682373 -0.0957538 0.0434249
internal_weight=0 422310 556043 251623 277262 170687 278781 90123.1 137747 113875 77273.7 58506.9 186620 187139 93413.7 92161.2 53071.4 102029 84843.6 102295 40901.2 70000.8 36372.5 63886.2 73861.3 57018.9 37051.7 39781.1 41673.1 28137.2
internal_count=16596 10225 6371 5238 3643 4987 2728 1364 3101 2137 2071 1042 1931 2279 2916 797 755 1095 1076 1203 1049 588 1022 1502 1599 687 609 1025 1253 318
cat_boundaries=0 1 2 3 4
cat_threshold=324 1 1 1
is_linear=0
shrinkage=0.1


Tree=5
num_leaves=31
num_cat=3
split_feature=13 14 13 13 20 13 13 20 13 20 20 20 13 26 20 20 18 26 13 18 14 20 12 11 13 21 13 5 21 20
split_gain=197948 24432.6 14384.1 3496.38 3355.82 2628.29 2573.95 618.018 615.581 513.513 446.005 440.969 357.2 346.023 252.148 222.073 193.865 172.582 136.711 127.231 108.002 105.89 101.613 100.52 95.3758 95.0317 92.303 86.9852 86.5246 83.6988
threshold=3279.0000000000005 1368.5000000000002 6925.5000000000009 4518.5000000000009 2137.5000000000005 9282.5000000000018 915.50000000000011 11287.000000000002 1785.0000000000002 6021.5000000000009 2699.5000000000005 1175.5000000000002 8074.5000000000009 5540.0000000000009 746.50000000000011 3847.5000000000005 5126.0000000000009 1428.5000000000002 2323.5000000000005 7044.5000000000009 2256.5000000000005 7538.0000000000009 0 1 1546.5000000000002 1274.5000000000002 11531.500000000002 2 8121.5000000000009 12581.000000000002
decision_type=2 2 2 2 2 2 2 2 2 2 2 2 2 2 2 2 2 2 2 2 2 2 1 1 2 2 2 1 2 2
left_child=1 6 3 15 8 12 14 19 17 16 18 -8 21 -12 27 -2 -5 -3 -6 -7 -10 23 -11 -4 -13 -16 -21 -1 -14 -9
right_child=2 4 5 9 10 7 11 29 20 22 13 24 28 -15 25 -17 -18 -19 -20 26 -22 -23 -24 -25 -26 -27 -28 -29 -30 -31
leaf_value=-0.10509624322819433 -0.0048476847123844966 -0.058665003360698666 0.031534893581250473 0.015120495703504913 -0.032033790034943298 0.047961645048112872 -0.077379609144437367 0.065758192366672616 -0.040477228689006557 0.030190924403451058 -0.016319789325551892 -0.064357868089207876 0.044491464656078304 0.035410779436360701 -0.090933811209973042 0.0068996005997866193 0.025124741576535128 -0.048035251378221122 -0.022904602522872471 0.056734227873412951 -0.031118631256529746 0.042791826934387212 0.037954490259712093 0.040733321540750808 -0.050528705335673364 -0.059667503836948216 0.066778205669726101 -0.095396817691098451 0.050789127421275886 0.073431306366516208
leaf_weight=27318.010850906372 39013.842956542969 23291.232160568237 25095.405002593994 32192.054508209229 31925.464384078979 14664.974266052246 40781.912755966187 27185.427680969238 43509.532569885254 70968.197040557861 52032.416917800903 25398.222555160522 38463.164421081543 1325.9872817993164 36729.019481658936 27390.307384490967 48632.138683319092 44372.091514587402 33739.165414810181 65832.297733306885 17208.540771484375 41650.759635925293 22111.599800109863 22560.20597076416 6205.5821914672852 998.5380744934082 10626.56908416748 19600.50244140625 50407.283584594727 29798.173278808594
leaf_count=916 660 591 303 453 670 151 1172 238 965 880 962 667 417 16 1151 417 630 1054 659 634 362 457 259 253 147 27 92 634 516 243
internal_value=0 -0.0535024 0.038084 0.0195179 -0.0339207 0.0517579 -0.0843534 0.061602 -0.0451347 0.0269715 -0.021825 -0.0705087 0.0435751 -0.0150343 -0.0961928 -2.17801e-06 0.0211401 -0.0516943 -0.0273431 0.0564937 -0.0378248 0.0391086 0.0320352 0.0358894 -0.0616424 -0.0901063 0.0581302 -0.101087 0.0480635 0.0697707
internal_weight=0 404436 566592 240308 247404 326284 157032 148107 128381 173904 119023 72385.7 178177 53358.4 84646.1 66404.2 80824.2 67663.3 65664.6 91123.8 60718.1 89306.4 93079.8 47655.6 31603.8 37727.6 76458.9 46918.5 88870.4 56983.6
internal_count=16596 9993 6603 3299 5279 3304 4714 1358 2972 2222 2307 1986 1946 978 2728 1077 1083 1645 1329 877 1327 1013 1139 556 814 1178 726 1550 933 481
cat_boundaries=0 1 2 65
cat_threshold=1 1 0 0 0 0 0 0 0 0 0 0 0 0 0 0 0 0 0 0 0 0 0 0 0 0 0 0 0 0 0 0 0 0 0 0 0 0 0 0 0 0 0 0 0 0 0 0 0 0 0 0 0 0 0 0 0 0 0 0 0 0 0 0 402653184
is_linear=0
shrinkage=0.1


Tree=6
num_leaves=31
num_cat=5
split_feature=13 14 13 20 20 20 20 13 13 13 13 20 13 26 13 13 13 12 0 13 26 20 13 14 19 14 12 0 15 4
split_gain=161647 20710.4 11866.6 3016.28 2758.87 2304.46 2084.52 519.469 461.706 433.832 372.272 368.042 407.546 363.814 304.394 298.327 150.967 128.52 170.293 121.55 110.838 93.5533 88.6061 87.3349 84.2413 83.3486 83.2074 106.59 77.7668 72.4689
threshold=3279.0000000000005 1368.5000000000002 7062.5000000000009 4944.5000000000009 2137.5000000000005 943.50000000000011 9663.5000000000018 1656.5000000000002 4153.5000000000009 11031.000000000002 8223.0000000000018 4127.5000000000009 2654.0000000000005 1280.5000000000002 5804.0000000000009 730.50000000000011 2035.5000000000002 0 1 1100.5000000000002 1318.5000000000002 7765.5000000000009 2256.5000000000005 5066.0000000000009 943.50000000000011 3794.5000000000005 2 3 7175.5000000000009 4
decision_type=2 2 2 2 2 2 2 2 2 2 2 2 2 2 2 2 2 1 1 2 2 2 2 2 2 2 1 1 2 1
left_child=1 5 3 8 7 15 10 20 25 -8 21 12 22 19 23 -1 -9 18 -12 -7 -3 -4 -6 -5 -17 -2 -16 -28 -10 -14
right_child=2 4 6 14 11 13 9 16 28 -11 17 -13 29 -15 26 24 -18 -19 -20 -21 -22 -23 -24 -25 -26 -27 27 -29 -30 -31
leaf_value=-0.093893834961215547 -0.0059666446349643035 -0.056402366519057029 0.033253878974479172 0.015188771015204753 -0.029779454332663432 -0.073628032546034325 0.051877409758488036 -0.039158259689037016 0.010534267580387599 0.063880953987259723 0.046379723254588667 0.027455014180866551 -0.0084463507014036314 -0.053585935057755718 0.027786117958661729 -0.084823824151408128 -0.030098195108171712 0.049138914824554923 0.035881315100691813 -0.062659113250900705 -0.045915227934413813 0.039920887760969047 -0.022308997173607459 0.023264133524007261 -0.075028747397504994 0.0023876548981851976 0.04303797842280456 0.030185794876086303 0.027761497410560262 -0.016384787171129813
leaf_weight=42838.642807006836 32409.527988433838 14427.54182434082 49730.832046508789 18847.13383102417 29069.985918045044 23634.746702194214 61804.042903900146 51172.057302474976 33003.97066116333 58712.887588500977 37581.065189361572 1634.4804077148438 16970.741256713867 24649.345331192017 67690.493125915527 33645.003206253052 28710.335454940796 42949.652412414551 26238.007263183594 17644.337717056274 33428.976623535156 36491.380851745605 34984.181629180908 46275.172912597656 11880.822280883789 18909.764644622803 9247.5896072387695 21353.576591491699 2846.3621978759766 36206.933044433594
leaf_count=1456 551 377 576 263 614 702 600 1171 477 499 382 21 304 635 835 1077 611 432 292 482 813 397 695 600 362 303 103 257 36 673
internal_value=0 -0.0486131 0.0344395 0.0182163 -0.0306348 -0.0773477 0.0474066 -0.0408379 0.00319453 0.0577252 0.0409629 -0.0196701 -0.0203271 -0.0631991 0.0262294 -0.0879039 -0.035902 0.0449097 0.0420635 -0.0689395 -0.0490768 0.0360755 -0.0256993 0.020927 -0.0822676 -0.00288831 0.0297424 0.0340697 0.011902 -0.013856
internal_weight=0 400898 564091 250584 246605 154293 313508 127739 87169.6 120517 192991 118866 117232 65928.4 163414 88364.5 79882.4 106769 63819.1 41279.1 47856.5 86222.2 64054.2 65122.3 45525.8 51319.3 98291.7 30601.2 35850.3 53177.7
internal_count=16596 9993 6603 3425 5279 4714 3178 2972 1367 1099 2079 2307 2286 1819 2058 2895 1782 1106 674 1184 1190 973 1309 863 1439 854 1195 360 513 977
cat_boundaries=0 1 2 3 4 5
cat_threshold=1 1 1 4 836
is_linear=0
shrinkage=0.1


Tree=7
num_leaves=31
num_cat=10
split_feature=20 13 13 13 20 13 13 20 13 20 20 13 14 20 0 20 3 12 11 5 13 16 13 3 4 4 4 16 12 20
split_gain=131866 18985 8634.34 2534.7 2279.85 2233.74 1335.86 373.507 347.97 338.267 324.688 287.998 274.681 242.768 238.764 213.4 175.095 145.854 139.429 138.013 123.514 114.772 108.225 103.731 101.407 91.7258 87.6209 86.8108 84.7842 82.9948
threshold=3420.5000000000005 1436.5000000000002 7555.0000000000009 2256.5000000000005 943.50000000000011 5214.5000000000009 10138.500000000002 4579.5000000000009 2759.5000000000005 1808.5000000000002 1258.5000000000002 845.50000000000011 6347.5000000000009 6567.0000000000009 0 12581.000000000002 1 2 3 4 1167.5000000000002 6914.5000000000009 3867.0000000000005 5 6 7 8 6452.5000000000009 9 10265.500000000002
decision_type=2 2 2 2 2 2 2 2 2 2 2 2 2 2 1 2 1 1 1 1 2 2 2 1 1 1 1 2 1 2
left_child=1 4 5 9 11 7 14 22 26 24 20 19 -10 18 -4 29 21 -18 -7 23 -6 -16 -2 -1 -3 -11 -5 -9 -15 -8
right_child=2 3 6 8 10 13 15 27 12 25 -12 -13 -14 28 16 -17 17 -19 -20 -21 -22 -23 -24 -25 -26 -27 -28 -29 -30 -31
leaf_value=-0.080285432545337376 -0.003151914701739365 -0.031769075004703377 0.043265628955672181 -0.014762486937647847 -0.06548687498387544 0.019549536267014181 0.04667073151210039 0.011190378947532425 -0.010645109685998473 -0.024123643093398994 -0.048480386757602294 -0.071074295089485193 0.034034375115863574 0.027646914365419273 0.03659498350218901 0.06135889077261665 0.022668492829574838 0.035809805688876865 0.027682595506207858 -0.079012729731959205 -0.054196470604551586 0.046718231270253381 0.0061186395134428763 -0.093168322441041521 -0.042293356146477223 -0.03240240712539489 -0.023330067288555342 0.021926168149611663 0.034499204166030528 0.053896253964111587
leaf_weight=10930.573408126831 28162.960880279541 11600.606819152832 86621.480861663818 17813.117813110352 31136.522024154663 62816.056842803955 26093.450302124023 28874.870349884033 60287.202966690063 18516.53832244873 29454.675882339478 23870.761299133301 1408.1201705932617 66393.40633392334 40188.670837402344 28897.722305297852 14538.498207092285 20153.631401062012 31724.359832763672 31628.415916442871 14066.870542526245 15526.159782409668 22777.028594970703 21049.388126373291 50754.877628326416 51845.614976882935 37211.171224594116 10189.940227508545 24802.382850646973 40680.866554260254
leaf_count=368 474 268 882 346 924 812 253 413 1087 394 764 744 17 800 435 241 177 220 385 1055 383 155 344 749 1225 1148 753 133 282 365
internal_value=0 -0.0428468 0.032042 -0.025531 -0.0694859 0.0195641 0.044659 0.00663458 -0.0147818 -0.0349844 -0.05665 -0.0804406 -0.00962536 0.0258295 0.0395137 0.0541797 0.0359189 0.0302939 0.0222787 -0.0839555 -0.0619734 0.039409 0.00099327 -0.0887915 -0.0403473 -0.0302318 -0.0205634 0.0139908 0.0295105 0.0510727
internal_weight=0 411574 548441 249437 162137 275741 272700 90004.8 116720 132718 74658.1 87479.1 61695.3 185736 177028 95672 90407 34692.1 94540.4 63608.4 45203.4 55714.8 50940 31980 62355.5 70362.2 55024.3 39064.8 91195.8 66774.3
internal_count=16596 10225 6371 5238 4987 3643 2728 1364 2203 3035 2071 2916 1104 2279 1869 859 987 397 1197 2172 1307 590 818 1117 1493 1542 1099 546 1082 618
cat_boundaries=0 1 2 3 4 67 68 69 70 71 72
cat_threshold=1 6 1 1 0 0 0 0 0 0 0 0 0 0 0 0 0 0 0 0 0 0 0 0 0 0 0 0 0 0 0 0 0 0 0 0 0 0 0 0 0 0 0 0 0 0 0 0 0 0 0 0 0 0 0 0 0 0 0 0 0 0 0 0 0 0 402653184 134 68 324 326 1
is_linear=0
shrinkage=0.1


Tree=8
num_leaves=31
num_cat=7
split_feature=13 14 13 20 13 20 13 13 20 25 20 13 26 14 20 13 26 1 4 3 11 16 13 26 10 26 4 12 26 13
split_gain=107498 14653.3 8068.94 2141.13 1928.83 1529.37 1442.5 475.242 410.826 265.334 259.72 256.581 221.399 216.56 193.996 151.413 118.673 115.625 109.345 109.32 108.972 90.3825 89.3006 87.6226 86.8345 79.7307 77.6156 75.4004 76.1037 73.4649
threshold=3279.0000000000005 1288.0000000000002 6525.0000000000009 2137.5000000000005 9192.5000000000018 4579.5000000000009 915.50000000000011 1656.5000000000002 10642.500000000002 7166.5000000000009 7109.5000000000009 2654.0000000000005 1280.5000000000002 5804.0000000000009 683.50000000000011 4153.5000000000009 1318.5000000000002 0 1 2 3 8592.0000000000018 8074.5000000000009 6322.5000000000009 4 1042.5000000000002 5 6 8195.5000000000018 1167.5000000000002
decision_type=2 2 2 2 2 2 2 2 2 2 2 2 2 2 2 2 2 1 1 1 1 2 2 2 1 2 1 1 2 2
left_child=1 6 5 7 10 15 14 16 27 11 20 26 29 23 -1 -2 -3 -9 -19 21 -4 -10 -12 -7 -20 -16 -5 28 -6 -8
right_child=2 3 4 9 8 13 12 17 19 -11 22 -13 -14 -15 25 -17 -18 18 24 -21 -22 -23 -24 -25 -26 -27 -28 -29 -30 -31
leaf_value=-0.080897018305549795 -0.002639765334983806 -0.047997383783518727 0.02236686012912048 -0.015709810485870133 0.031037348515568466 0.011469571515077066 -0.060763490006753157 -0.034686607789056821 0.048302629927670038 0.034657398528420293 0.03085542449966952 -0.011232343020818054 -0.045209976904483751 0.022594767997522251 -0.072318713303729257 0.007546429479107177 -0.038157589915479434 -0.016559357338152458 -0.031672365466343347 0.044942996034848748 0.030257698716060145 0.056996349660399931 0.036076468878309634 0.018561314363802133 -0.022154365790733353 -0.059784908231356695 -0.023091270793790464 0.044683023652636183 0.040571173794617936 -0.051100894819012359
leaf_weight=31660.117902755737 48800.141899108887 18205.238943099976 37671.748943328857 21729.569618225098 10879.213661193848 38446.973411560059 31462.577095031738 27200.155834197998 18758.95987701416 1028.5629501342773 63168.352619171143 53444.331171035767 18479.121625900269 68121.398433685303 42152.840623855591 20818.123714447021 37512.522085189819 9000.109733581543 30877.3948097229 20124.90315246582 32686.460304260254 32986.53736114502 68052.097942352295 31860.069267272949 13900.20288848877 5769.9975032806396 42650.031749725342 31644.506767272949 36342.843421936035 10492.621355056763
leaf_count=1123 816 489 461 433 117 537 952 634 169 12 712 982 488 849 1414 304 926 189 696 190 372 276 718 414 300 180 885 307 361 290
internal_value=0 -0.0399758 0.0281119 -0.0257292 0.0373331 0.0124963 -0.0659776 -0.0342643 0.0458895 -0.0159126 0.0309347 -0.0163541 -0.05433 0.0185765 -0.0748226 0.000406238 -0.0413726 -0.0293734 -0.026686 0.0513583 0.0260327 0.0538343 0.0335631 0.0146832 -0.0287113 -0.0708096 -0.0206059 0.0409059 0.0383747 -0.058347
internal_weight=0 395565 560362 255548 352316 208047 140017 136696 150737 118852 201579 117824 60434.3 138428 79583 69618.3 55717.8 80977.9 53777.7 71870.4 70358.2 51745.5 131220 70307 44777.6 47922.8 64379.6 78866.6 47222.1 41955.2
internal_count=16596 9993 6603 5546 3683 2920 4447 3234 1420 2312 2263 2300 1730 1800 2717 1120 1415 1819 1185 635 833 445 1430 951 996 1594 1318 785 478 1242
cat_boundaries=0 1 2 3 4 5 6 7
cat_threshold=2 68 6 1 1 326 1
is_linear=0
shrinkage=0.1


Tree=9
num_leaves=31
num_cat=10
split_feature=20 13 13 13 20 20 20 13 13 14 13 21 15 0 13 12 5 3 4 19 19 3 10 26 20 13 4 15 4 4
split_gain=87587.4 12488.1 6391.8 2025.75 1843.55 1078.91 937.87 292.05 264.849 257.532 223.866 220.394 202.368 177.591 163.507 149.266 147.223 132.701 118.702 116.693 111.434 104.871 95.9809 92.3281 90.129 90.1009 85.268 77.8843 72.1174 65.1671
threshold=3294.0000000000005 1269.5000000000002 7555.0000000000009 2086.5000000000005 4944.5000000000009 874.50000000000011 10122.000000000002 2689.5000000000005 1561.5000000000002 6295.5000000000009 4153.5000000000009 1256.5000000000002 5850.5000000000009 0 11031.000000000002 1 2 3 4 6331.0000000000009 7054.5000000000009 5 6 1960.5000000000002 1794.5000000000002 1002.5000000000001 7 7175.5000000000009 8 9
decision_type=2 2 2 2 2 2 2 2 2 2 2 2 2 1 2 1 1 1 1 2 2 1 1 2 2 2 1 2 1 1
left_child=1 5 4 8 10 16 13 18 26 19 -2 25 29 22 -8 17 21 -15 -5 -6 28 -1 -4 -10 -13 -7 -3 -12 -11 -9
right_child=2 3 6 7 9 11 14 12 23 20 27 24 -14 15 -16 -17 -18 -19 -20 -21 -22 -23 -24 -25 -26 -27 -28 -29 -30 -31
leaf_value=-0.066413537858091551 -0.0016256930587375104 -0.028879030103338227 0.033075577442223072 -0.0045288923891320457 0.013015606187114469 -0.058795102762329757 0.039647911745054304 -0.004875433637289206 -0.031373964947997705 0.025819920993015385 0.00736427035182248 -0.042808108887151225 0.033349940614989866 0.028826419572088237 0.048151895608425442 0.033361248059698846 -0.064666664266587168 0.017249921200569486 -0.019754761069037109 0.019910288304708697 0.028049668479606604 -0.078594405338542575 0.040074230828747781 -0.024677012063541472 -0.014473304519960746 -0.050202001013999298 -0.040776145795262037 0.024056344268049763 0.018783594816826961 -0.012192748498515702
leaf_weight=12506.856819152832 49464.467414855957 7630.7816505432129 56083.381500244141 5568.0816421508789 46664.957118988037 23783.087032318115 38374.936000823975 17827.958202362061 56381.770040512085 22701.478828430176 31933.170822143555 13622.427345275879 1103.6797027587891 32179.581596374512 55034.043487548828 43980.114868164062 38605.11304473877 14490.311668395996 67112.061876296997 51794.179332733154 38517.198547363281 20736.639957427979 30119.064651489258 32425.798187255859 1223.4163932800293 25057.969799041748 33871.126159667969 3063.4682159423828 42056.58833694458 38664.449281692505
leaf_count=429 825 187 584 106 627 755 374 318 1326 270 461 374 13 352 478 465 1307 177 1387 646 445 763 298 723 27 727 877 38 523 714
internal_value=0 -0.036 0.0255236 -0.0231948 0.0151086 -0.0606197 0.0365525 -0.0143768 -0.0320107 0.0203018 0.00270475 -0.0511431 -0.00905805 0.0322713 0.0446582 0.0291811 -0.0690197 0.025242 -0.0185916 0.0166425 0.0237904 -0.0740331 0.0355209 -0.0289287 -0.0404731 -0.0543864 -0.0386055 0.00882543 0.0212571 -0.00988656
internal_weight=0 396121 556457 260586 286196 135536 270261 130276 130309 201734 84461.1 63686.9 57596.1 176852 93409 90650 71848.6 46669.9 72680.1 98459.1 103275 33243.5 86202.4 88807.6 14845.8 48841.1 41501.9 34996.6 64758.1 56492.4
internal_count=16596 10033 6563 5651 3835 4382 2728 2538 3113 2511 1324 1883 1045 1876 852 994 2499 529 1493 1273 1238 1192 882 2049 401 1482 1064 499 793 1032
cat_boundaries=0 1 2 65 66 67 68 69 70 71 72
cat_threshold=1 1 0 0 0 0 0 0 0 0 0 0 0 0 0 0 0 0 0 0 0 0 0 0 0 0 0 0 0 0 0 0 0 0 0 0 0 0 0 0 0 0 0 0 0 0 0 0 0 0 0 0 0 0 0 0 0 0 0 0 0 0 0 0 402653184 6 4 134 1 68 452 452
is_linear=0
shrinkage=0.1


Tree=10
num_leaves=31
num_cat=9
split_feature=13 19 13 13 14 13 13 26 20 20 26 13 19 22 26 12 14 0 4 4 14 3 26 26 3 11 18 15 5 10
split_gain=71240.5 10055.9 5621.96 1497.66 1415.39 1034.22 907.502 354.852 282.953 219.575 205.929 176.708 160.044 154.243 141.56 118.854 115.796 107.146 98.7902 88.4919 81.0056 78.9266 73.401 73.3857 74.452 70.1474 65.5774 64.9763 62.2755 60.6805
threshold=3235.5000000000005 1276.5000000000002 6291.5000000000009 9192.5000000000018 2129.5000000000005 915.50000000000011 4415.5000000000009 1960.5000000000002 11287.000000000002 7907.5000000000009 2388.5000000000005 1167.5000000000002 4948.5000000000009 6384.5000000000009 782.50000000000011 0 1508.5000000000002 1 2 3 3794.5000000000005 4 1552.5000000000002 7040.5000000000009 5 6 7044.5000000000009 5058.5000000000009 7 8
decision_type=2 2 2 2 2 2 2 2 2 2 2 2 2 2 2 1 2 1 1 1 2 1 2 2 1 1 2 2 1 1
left_child=1 5 6 9 7 14 20 16 26 15 18 -7 -8 -12 21 23 -3 -17 -6 -9 -2 -1 -13 24 -4 -14 -5 -27 -23 -28
right_child=2 4 3 8 10 11 12 19 -10 -11 13 22 25 -15 -16 17 -18 -19 -20 -21 -22 28 -24 -25 -26 27 29 -29 -30 -31
leaf_value=-0.057757527949144141 -0.0036761088977318545 -0.036331825384268213 0.020748900635408442 0.028483020244930005 -0.012517654043662917 -0.049521187480698128 0.0073184220839256535 -0.0084681068423950318 0.043359786415957002 0.028283084593185345 -0.0095674763828084847 -0.040380608855725732 0.014269333862082687 0.027038557681816067 -0.057162016990013588 0.020808775911621946 -0.028880742726358696 0.029700312664252482 -0.020897250519075414 -0.022743834922907463 0.0034821788251048363 -0.072323155311291673 -0.023190879250756573 0.022464614042300435 0.011600204015801053 0.0092307793981089657 0.032929495640888477 0.023304312941666634 -0.063454649117277537 0.038498435250615907
leaf_weight=10324.539312362671 38933.739250183105 35495.734468460083 17406.40869140625 15972.271438598633 25020.425712585449 34367.236059188843 29486.232997894287 4847.5458602905273 54694.050430297852 95814.751880645752 57079.26838684082 21851.746730804443 73616.692367553711 1174.7596817016602 30511.032135009766 25943.156425476074 50574.488258361816 28376.128982543945 32563.160959243774 45274.643224716187 26615.897300720215 19410.793294906616 2802.6727390289307 35569.324188232422 18429.968078613281 4018.9029426574707 42210.151058197021 17856.675598144531 17114.639984130859 36472.64574432373
leaf_count=351 659 930 210 168 506 1050 420 99 481 1036 1076 593 959 14 1031 305 1202 311 690 996 417 726 65 420 236 56 421 217 601 350
internal_value=0 -0.0329834 0.022722 0.0298943 -0.021147 -0.0548565 0.0087601 -0.0280583 0.0376337 0.0246768 -0.0130213 -0.0448867 0.0137583 -0.00882927 -0.0624627 0.0219285 -0.0319536 0.0254537 -0.0172621 -0.0213694 -0.000769544 -0.0659148 -0.0384265 0.0192468 0.0160529 0.0157468 0.034325 0.0207188 -0.0681862 0.0355109
internal_weight=0 388413 561417 370889 252030 136383 190528 136192 149349 221540 115838 59021.7 124979 58254 77361 125725 86070.2 54319.3 57583.6 50122.2 65549.6 46850 24654.4 71405.7 35836.4 95492.3 94655.1 21875.6 36525.4 78682.8
internal_count=16596 9930 6666 3938 5513 4417 2728 3227 1420 2518 2286 1708 1652 1090 2709 1482 2132 616 1196 1095 1076 1678 658 866 446 1232 939 273 1327 771
cat_boundaries=0 1 2 3 4 5 6 7 70 71
cat_threshold=1 2 844 4 6 14 1 0 0 0 0 0 0 0 0 0 0 0 0 0 0 0 0 0 0 0 0 0 0 0 0 0 0 0 0 0 0 0 0 0 0 0 0 0 0 0 0 0 0 0 0 0 0 0 0 0 0 0 0 0 0 0 0 0 0 0 0 0 0 402653184 1
is_linear=0
shrinkage=0.1


Tree=11
num_leaves=31
num_cat=12
split_feature=20 13 13 13 13 20 20 20 20 13 19 21 20 26 4 13 0 12 4 4 14 21 4 3 6 4 3 21 1 4
split_gain=57959.3 8547.25 4310.68 1376.96 1339.86 788.455 544.472 209.092 198.582 192.939 152.948 149.587 143.499 122.197 118.406 114.518 106.69 110.642 89.3707 86.2176 79.2978 76.1457 73.5356 71.2364 70.7019 67.5186 66.83 66.4504 66.175 64.2697
threshold=3294.0000000000005 1269.5000000000002 7855.5000000000009 2086.5000000000005 5214.5000000000009 887.50000000000011 10265.500000000002 4028.5000000000005 1566.0000000000002 2689.5000000000005 7054.5000000000009 1256.5000000000002 1477.5000000000002 782.50000000000011 0 12608.000000000002 1 2 3 4 8005.5000000000009 6833.5000000000009 5 6 7 8 9 1910.5000000000002 10 11
decision_type=2 2 2 2 2 2 2 2 2 2 2 2 2 2 1 2 1 1 1 1 2 2 1 1 9 1 1 2 1 1
left_child=1 5 4 8 7 13 16 -2 29 18 14 25 -11 -1 -6 22 -4 26 -5 28 -16 -9 -8 -12 -21 -7 -18 -13 -10 -3
right_child=2 3 6 9 10 11 15 21 19 12 23 27 -14 -15 20 -17 17 -19 -20 24 -22 -23 -24 -25 -26 -27 -28 -29 -30 -31
leaf_value=-0.060268762890155606 -0.0016670214235378776 -0.023494193942006331 0.029597718640253259 -0.0028264040681190514 0.019624371468126407 -0.037274752585576436 0.038041763913140951 0.0063075205483293572 -0.027325300613503647 0.023594294418072297 0.018983052027977915 -0.034903549281236963 -0.0080787445719428599 -0.051795909032071423 0.01149115368517413 0.042457321275232301 0.023363650572394139 0.028436032464504525 -0.016034743392565009 -0.023486149975744747 0.019431248842013998 0.018900873186861698 0.030880661476542972 0.025566017201351845 -0.035520843480113577 -0.046560083395462248 0.014147440315713853 -0.011099213364559071 -0.0067354859652301834 -0.033412596222967564
leaf_weight=45010.080326080322 44714.139810562134 8269.114444732666 85463.458232879639 5567.0981483459473 40797.677715301514 10802.757869720459 30551.981468200684 50967.323257446289 2238.4703330993652 1467.8733100891113 62061.191669464111 13343.099353790283 56094.633554458618 27373.688650131226 65703.332626342773 26843.145706176758 27972.604545593262 35934.885284423828 66995.40379524231 72611.206243515015 15555.888553619385 5300.6926918029785 28709.079483032227 22719.264251708984 5317.2915134429932 35495.103746414185 11132.818321228027 1285.6930961608887 5157.2598571777344 36123.88666343689
leaf_count=1632 749 203 873 106 497 320 281 739 53 19 742 369 1026 933 847 229 306 377 1387 1683 187 68 277 256 130 1099 135 29 108 936
internal_value=0 -0.0294236 0.0207721 -0.0188625 0.0128797 -0.0500089 0.0306234 0.0034375 -0.0261535 -0.0115944 0.0174896 -0.0416264 -0.00727107 -0.0570645 0.0152232 0.0370387 0.0271818 0.0244304 -0.015024 -0.0233313 0.0130096 0.00749387 0.0345842 0.0207524 -0.0243118 -0.0444116 0.0207495 -0.0328114 -0.0129499 -0.0315779
internal_weight=0 393153 554427 259842 307820 133310 246608 100982 129717 130125 206837 60926.7 57562.5 72383.8 122057 86104.2 160504 75040.3 72562.5 85324.2 81259.2 56268 59261.1 84780.5 77928.5 46297.9 39105.4 14628.8 7395.73 44393
internal_count=16596 10033 6563 5651 4085 4382 2478 1556 3113 2538 2529 1817 1045 2565 1531 787 1691 818 1493 1974 1034 807 558 998 1813 1419 441 398 161 1139
cat_boundaries=0 1 2 3 4 5 6 7 8 9 10 11 12
cat_threshold=452 1 1 4 4 474 240 1 1092 6 2 68
is_linear=0
shrinkage=0.1


Tree=12
num_leaves=31
num_cat=11
split_feature=13 19 13 14 20 19 13 26 14 14 13 26 14 13 25 3 5 15 4 4 4 4 3 11 4 19 3 14 13 3
split_gain=47080.1 6882.03 3758.47 960 845.151 803.572 746.424 249.736 169.95 152.805 149.306 138.746 124.653 115.178 111.138 103.762 100.058 85.8403 82.7817 81.1348 75.0038 74.2406 67.1379 64.8724 62.6474 61.8084 61.1143 61.0388 52.7832 51.6984
threshold=3235.5000000000005 1276.5000000000002 6716.0000000000009 2129.5000000000005 9663.5000000000018 4849.0000000000009 870.50000000000011 1823.5000000000002 8074.5000000000009 1057.5000000000002 11031.000000000002 2304.5000000000005 5689.5000000000009 3794.5000000000005 7166.5000000000009 0 1 5489.5000000000009 2 3 4 5 6 7 8 7384.0000000000009 9 1436.5000000000002 1921.5000000000002 10
decision_type=2 2 2 2 2 2 2 2 2 2 2 2 2 2 2 1 1 2 1 1 1 1 1 1 1 2 1 2 2 1
left_child=1 6 5 7 8 13 16 19 15 -8 -6 20 -7 -2 -13 24 22 -17 -11 -3 -5 -9 -1 26 -4 -10 -14 -21 -23 -18
right_child=2 3 4 11 10 12 9 21 25 18 -12 14 23 -15 -16 17 29 -19 -20 27 -22 28 -24 -25 -26 -27 -28 -29 -30 -31
leaf_value=-0.050464145265765717 -0.0031426696032504833 -0.019691566681747309 0.014307143571199284 -0.010727596769288831 0.028630383462664406 0.0095786146333858655 -0.042607227220778365 -0.0076741370908449888 0.020900413923911482 -0.026524135131539228 0.035776241807205018 -0.0078580314982275388 0.021022166534296123 0.0042274688781997758 0.025410940840852526 -0.0073179513996792251 -0.041323230905192111 0.015876078416690382 -0.036795605220238531 -0.032682299670344292 -0.018349724695745771 -0.022918143890839609 -0.060374125771072366 0.020004655740930417 0.022524754104608261 0.026174158540413481 0.012430661708366195 -0.026015499774560719 -0.016821412432398899 -0.0508686840543634
leaf_weight=11964.131185531616 38572.720031738281 12977.678226470947 11167.484512329102 27858.894641876221 60554.692844390869 57063.665649414062 31775.506666183472 5986.437084197998 32663.409317016602 12816.238952636719 56540.604881286621 62559.4128074646 9990.4635391235352 47090.270820617676 1020.4922637939453 1659.7820892333984 7910.2407112121582 41299.504322052002 21626.435789108276 21938.952518463135 24287.052751541138 24729.798366546631 19995.047815322876 24190.695617675781 59521.125118255615 69529.314266204834 49916.344875335693 36717.078182220459 33351.787488937378 28467.306615829468
leaf_count=423 659 313 130 569 603 775 1003 124 367 344 499 1184 120 695 12 23 262 488 616 593 521 588 763 289 661 722 635 896 713 1006
internal_value=0 -0.0269193 0.0184769 -0.0171511 0.0252404 0.00854943 -0.0451722 -0.0228573 0.0215294 -0.0376059 0.0320808 -0.0104598 0.0131861 0.000908809 -0.00732405 0.0188685 -0.0525039 0.0149765 -0.0329919 -0.0269144 -0.0142832 -0.0183212 -0.0566812 0.0156339 0.0212287 0.0244885 0.013869 -0.0285042 -0.0194139 -0.048805
internal_weight=0 385982 559760 251428 332936 226824 134555 135702 215841 66218.2 117095 115726 141161 85663 63579.9 113648 68336.7 42959.3 34442.7 71633.7 52145.9 64068 31959.2 84097.5 70688.6 102193 59906.8 58656 58081.6 36377.5
internal_count=16596 9930 6666 5513 3493 3173 4417 3227 2391 1963 1102 2286 1819 1354 1196 1302 2454 511 960 1802 1090 1425 1186 1044 791 1089 755 1489 1301 1268
cat_boundaries=0 1 64 65 66 67 68 69 70 71 72 73
cat_threshold=134 0 0 0 0 0 0 0 0 0 0 0 0 0 0 0 0 0 0 0 0 0 0 0 0 0 0 0 0 0 0 0 0 0 0 0 0 0 0 0 0 0 0 0 0 0 0 0 0 0 0 0 0 0 0 0 0 0 0 0 0 0 0 402653184 1094 68 972 4 134 1 2080 134 134
is_linear=0
shrinkage=0.1


Tree=13
num_leaves=31
num_cat=13
split_feature=14 19 14 13 13 19 20 14 13 19 19 20 4 4 4 12 19 14 26 3 3 13 14 4 5 4 1 12 4 0
split_gain=38269.7 5821.21 2917.58 777.309 730.744 691.842 653.543 159.383 149.589 145.757 138.443 128.025 117.882 115.738 77.4042 74.1936 72.5271 70.6532 69.5689 66.6688 62.0134 58.3504 57.5919 56.5215 54.8698 54.1892 53.6357 51.0859 49.6408 49.5797
threshold=3279.0000000000005 1354.5000000000002 6872.5000000000009 2198.5000000000005 948.50000000000011 4482.5000000000009 9352.0000000000018 1819.5000000000002 11531.500000000002 6699.5000000000009 7054.5000000000009 683.50000000000011 0 1 2 3 3420.5000000000005 1622.5000000000002 3295.5000000000005 4 5 4153.5000000000009 893.50000000000011 6 7 8 9 10 11 12
decision_type=2 2 2 2 2 2 2 2 2 2 2 2 1 1 1 1 2 2 2 1 1 2 2 1 1 1 1 1 1 1
left_child=1 4 5 7 11 16 10 23 14 25 15 -1 24 19 -8 -4 -2 -14 -15 21 -11 -5 -13 26 -6 -7 -3 -22 -10 -17
right_child=2 3 6 13 12 9 8 -9 28 20 -12 22 17 18 -16 29 -18 -19 -20 -21 27 -23 -24 -25 -26 -27 -28 -29 -30 -31
leaf_value=-0.051351470680456396 -0.0030889352879398669 -0.024196598597920737 0.01380206867835914 -0.0019830799760825264 -0.017497750960960512 0.012683495522625222 0.032828345664451329 -0.015971137506988725 0.028163433374649924 0.019858450929589624 0.021553877058052777 -0.045447008480824364 -0.036149942416757071 -0.012501767486148946 0.02463324142561266 0.026323190028246842 0.0033398034987875734 -0.025481341368739419 -0.0053926795599601937 -0.0097337735014136513 0.011296309785705986 0.020191239061067043 -0.038244583233646004 -0.024227511972738681 -0.029471992919131242 0.0073872832309054663 -0.011549835962967159 0.017642962646417345 0.035294725031573444 0.017179892169478808
leaf_weight=30567.684980392456 35569.000965118408 5942.8260288238525 51119.283542633057 22309.496269226074 6857.566442489624 28929.724655151367 13991.440711975098 58653.512744903564 15041.20304107666 20271.614753723145 108824.77558135986 35299.523244857788 38161.006414413452 58300.361400604248 72151.381103515625 9073.7729339599609 34638.697551727295 7413.4165019989014 18020.087955474854 12951.746517181396 38229.553230285645 1253.3780097961426 16195.820726394653 61430.167015075684 9065.7995414733887 58643.784378051758 7696.5603942871094 18978.989814758301 31534.43431854248 17120.548370361328
leaf_count=1144 614 147 619 410 181 376 133 1311 136 228 1175 1238 1134 1160 724 99 528 187 320 249 481 16 536 1530 257 794 176 222 273 198
internal_value=0 -0.0240403 0.0168452 -0.0147192 -0.0400487 0.00839758 0.023078 -0.0198769 0.0284396 0.0119344 0.0192552 -0.0462249 -0.0318072 -0.00860668 0.025971 0.0160196 8.28414e-05 -0.034407 -0.0108218 -0.00397269 0.0150937 -0.000803222 -0.0431818 -0.0229285 -0.0243294 0.00913917 -0.0170477 0.0133995 0.0330054 0.0203472
internal_weight=0 390119 554118 246558 143561 235261 318857 133723 132718 165054 186138 82063 61497.8 112835 86142.8 77313.6 70207.7 45574.4 76320.4 36514.6 77480.2 23562.9 51495.3 75069.6 15923.4 87573.5 13639.4 57208.5 46575.6 26194.3
internal_count=16596 9996 6600 5319 4677 3243 3357 3164 1266 2101 2091 2918 1759 2155 857 916 1142 1321 1480 675 931 426 1774 1853 438 1170 323 703 409 297
cat_boundaries=0 1 2 3 4 5 6 7 70 71 72 73 74 75
cat_threshold=1092 326 66 1 134 2 68 0 0 0 0 0 0 0 0 0 0 0 0 0 0 0 0 0 0 0 0 0 0 0 0 0 0 0 0 0 0 0 0 0 0 0 0 0 0 0 0 0 0 0 0 0 0 0 0 0 0 0 0 0 0 0 0 0 0 0 0 0 0 805306368 4292 2 1 6304 4
is_linear=0
shrinkage=0.1


Tree=14
num_leaves=31
num_cat=11
split_feature=20 26 20 13 13 13 14 3 12 7 26 14 19 17 20 24 13 0 20 4 26 4 4 13 4 4 4 3 22 15
split_gain=31113.5 4819.41 2379.28 703.644 548.625 528.356 497.248 151.406 139.547 138.447 128.299 124.644 117.815 114.558 108.488 101.466 100.969 99.3704 84.4982 74.6946 70.9209 67.409 65.6467 58.5162 58.3357 54.4038 54.11 52.0684 51.9458 50.7063
threshold=3294.0000000000005 1261.5000000000002 6905.0000000000009 2086.5000000000005 9570.5000000000018 4518.5000000000009 915.50000000000011 0 1 2 1676.5000000000002 2759.5000000000005 984.50000000000011 955.50000000000011 12581.000000000002 1955.5000000000002 8074.5000000000009 3 1495.5000000000002 4 5667.5000000000009 5 6 1819.5000000000002 7 8 9 10 1725.5000000000002 2278.5000000000005
decision_type=2 2 2 2 2 2 2 1 1 9 2 2 2 2 2 2 2 1 2 1 2 1 1 2 1 1 1 1 2 2
left_child=1 6 5 9 16 22 7 -1 20 15 -11 21 -8 -9 19 28 26 -10 -13 -6 -7 -5 -2 -17 -20 -22 -4 -23 -3 -29
right_child=2 3 4 11 14 8 12 13 17 10 -12 18 -14 -15 -16 23 -18 -19 24 -21 25 27 -24 -25 -26 -27 -28 29 -30 -31
leaf_value=-0.036691713770195672 0.0031555159327700077 -0.040316074931973644 0.019485216797087795 -0.00070513894355996682 0.02030765779568898 0.0045581997476345183 -0.03530435791733777 -0.049437991246471816 0.019361704016088364 -0.021847336456545477 -0.015381532343767318 0.018591824130800523 -0.026090647754212749 -0.038853239084182485 0.031603788583987338 -0.075871715591719513 0.019974423067459071 0.011083250727462067 -0.010263622280281335 0.026430262739744321 0.01367159412472454 -0.0097692542702301748 -0.003243907005613487 -0.03648989989501502 -0.0029686302009921104 0.0081407653412718696 0.014080680362075111 -0.023165975408690708 -0.015848045122789214 -0.012936190463904807
leaf_weight=28559.292915344238 31395.190402984619 1483.7215557098389 24731.543846130371 5881.0367050170898 29451.469100952148 33242.667156219482 24586.226678848267 31887.299961090088 24166.187950134277 55369.6989402771 68847.727155685425 1516.4819793701172 31865.154922485352 15051.401596069336 28066.853942871094 783.85612297058105 92788.26481628418 36249.112277984619 16342.493202209473 64721.330551147461 27362.447341918945 45179.654235839844 32732.364976882935 727.44330978393555 33342.91841506958 51308.601203918457 76363.449935913086 6337.9419841766357 2089.7078857421875 20575.346271514893
leaf_count=956 501 41 283 110 293 458 799 1210 282 1412 1590 20 889 523 243 24 983 455 313 618 343 901 541 18 612 663 900 141 49 425
internal_value=0 -0.0216526 0.0152252 -0.0137145 0.0209003 0.00763805 -0.0372027 -0.042511 0.0105216 -0.0189294 -0.0182622 -0.00849438 -0.0301035 -0.0460341 0.0261468 -0.035125 0.0175924 0.0143946 -0.00466104 0.0245205 0.00843082 -0.0110116 -0.000110929 -0.0569158 -0.00537076 0.0100672 0.0154061 -0.0118506 -0.0260074 -0.0153396
internal_weight=0 390427 552579 258478 316123 236457 131949 75498 172329 129302 124217 129176 56451.4 46938.7 122240 5084.73 193883 60415.3 51201.9 94172.8 111914 77974 64127.6 1511.3 49685.4 78671 101095 72092.9 3573.43 26913.3
internal_count=16596 10033 6563 5656 3320 3243 4377 2689 2201 3134 3002 2522 1688 1733 1154 132 2166 737 945 911 1464 1577 1042 42 925 1006 1183 1467 90 566
cat_boundaries=0 1 2 3 4 5 6 7 8 9 10 11
cat_threshold=134 1 12 4 7200 4 486 7200 4420 70 134
is_linear=0
shrinkage=0.1


Tree=15
num_leaves=31
num_cat=13
split_feature=19 21 13 14 14 19 13 7 3 19 20 3 15 14 24 16 16 13 4 4 3 4 10 4 4 18 11 21 1 3
split_gain=25261.5 4214.25 1781.37 612.706 598.536 505.217 234.195 190.807 126.895 123.733 121.985 102.016 135.183 92.1196 90.4851 83.9925 75.0686 68.6777 63.876 63.8383 62.4953 60.8988 58.4664 59.2748 58.3624 57.0477 53.2277 52.4267 50.4548 48.6816
threshold=3420.5000000000005 1331.5000000000002 8074.5000000000009 2129.5000000000005 4981.0000000000009 943.50000000000011 10275.500000000002 0 1 2113.5000000000005 2810.5000000000005 2 6983.0000000000009 1148.5000000000002 1871.5000000000002 6391.0000000000009 1017.5000000000001 3714.0000000000005 3 4 5 6 7 8 9 7172.5000000000009 10 6833.5000000000009 11 12
decision_type=2 2 2 2 2 2 2 9 1 2 2 1 2 2 2 2 2 2 1 1 1 1 1 1 1 2 1 2 1 1
left_child=1 5 4 7 17 8 21 14 -1 19 22 15 -13 -7 -3 -6 24 -2 -8 28 -20 -4 23 -5 -10 26 -14 -23 -9 -21
right_child=2 3 6 10 11 13 18 9 16 -11 -12 12 25 -15 -16 -17 -18 -19 20 29 -22 27 -24 -25 -26 -27 -28 -29 -30 -31
leaf_value=-0.031963040316886182 -0.0023958378521554708 -0.027490574416954211 0.022011742841951874 -0.0075132463437977666 0.012709735553269673 -0.029312351374896069 0.020929254839271078 -0.018240422521827414 -0.037598452436437828 -0.010851086536117771 -0.0032778777496579752 0.0064814177786153672 0.0081564446126921129 -0.021302155582446962 -0.05833942019107629 0.020166711584098138 -0.033980911845426065 0.003804846961699259 0.029275534414283589 -0.016054657710186711 0.022369623647039913 0.01194919914801227 -0.0056557101194537676 -0.014350899292651435 -0.045428210589512998 0.015342323329571295 0.014564617234258601 0.018082319265408136 -0.0015069304049499057 -0.021063241977869702
leaf_weight=24014.156259536743 27508.404233932495 3146.8347301483154 34202.588920593262 22668.484313964844 56132.823593139648 34509.512752532959 27626.866882324219 3216.6144390106201 15626.009908676147 35970.103622436523 56048.54594039917 59029.908828735352 36026.232276916504 24585.39782333374 1362.5056972503662 20665.740699768066 12777.066543579102 50938.666019439697 37625.477569580078 37816.449611663818 20812.710029602051 16461.691459655762 27588.548858642578 29026.358509063721 28629.073360443115 41703.603050231934 20246.413997650146 90900.890655517578 4096.9219970703125 41028.995412826538
leaf_count=792 480 82 352 456 679 1077 261 79 572 773 980 778 458 652 39 231 438 739 331 907 200 188 558 615 1079 483 240 952 90 1035
internal_value=0 -0.0190145 0.0140934 -0.0115269 0.00918892 -0.0330113 0.020821 -0.0165263 -0.0381384 -0.015776 -0.00684864 0.0117249 0.0102611 -0.0259799 -0.0367302 0.0147144 -0.0407258 0.0016305 0.0249348 -0.0178339 0.0268202 0.0183201 -0.00937296 -0.0113568 -0.0426824 0.0125393 0.010462 0.0171403 -0.00885449 -0.0186633
internal_weight=0 402112 539882 261970 312252 140141 227630 126638 81046.3 122129 135332 233805 157006 59094.9 4509.34 76798.6 57032.1 78447.1 86065.1 86159 58438.2 141565 79283.4 51694.8 44255.1 97976.2 56272.6 107363 7313.54 78845.4
internal_count=16596 10224 6372 5614 4088 4610 2284 3005 2881 2884 2609 2869 1959 1729 121 910 2089 1219 792 2111 531 1492 1629 1071 1651 1181 698 1140 169 1942
cat_boundaries=0 1 2 3 4 5 6 7 8 9 10 11 12 13
cat_threshold=12 6 134 7200 4 6 70 1 454 1108 1 2 38
is_linear=0
shrinkage=0.1


Tree=16
num_leaves=31
num_cat=13
split_feature=14 26 14 14 26 14 20 3 3 14 3 16 4 19 16 17 19 4 4 15 4 4 4 14 20 4 15 0 4 12
split_gain=20551.3 3000.43 1833.8 517.877 408.928 345.041 282.418 157.706 153.848 118.058 109.518 98.2071 94.9527 93.7742 87.9777 69.9296 67.276 64.9464 64.8845 63.24 59.9463 52.3308 52.1223 49.5365 48.4439 44.1109 43.7578 42.5462 41.7894 37.8092
threshold=3105.5000000000005 1261.5000000000002 6124.5000000000009 9192.5000000000018 2091.5000000000005 882.50000000000011 5186.5000000000009 0 1 1869.5000000000002 2 6331.0000000000009 3 874.50000000000011 8204.0000000000018 920.50000000000011 3420.5000000000005 4 5 9870.5000000000018 6 7 8 2256.5000000000005 2667.5000000000005 9 10138.500000000002 10 11 12
decision_type=2 2 2 2 2 2 2 1 1 2 1 2 1 2 2 2 2 1 1 2 1 1 1 2 2 1 2 1 1 1
left_child=1 5 6 7 9 10 16 11 19 17 -1 22 24 -7 20 -12 -2 -3 -15 -5 -9 -11 -4 -14 -6 -18 -10 -16 -13 -8
right_child=2 4 3 8 12 13 29 14 26 21 15 28 23 18 27 -17 25 -19 -20 -21 -22 -23 -24 -25 -26 -27 -28 -29 -30 -31
leaf_value=-0.030067111612966935 -0.0026273495180759317 -0.012878512807535762 0.01571233476835 0.021738813535966302 -0.0062772665459707323 -0.030670738255053294 0.0072265769929347051 0.010844390912996833 0.013307588774815964 -0.0081096303888726004 -0.041461065676578326 0.023856311102905776 -0.012851171863397319 -0.0098391963337489848 0.008588329778720637 -0.033144102075369178 0.0066316854976731484 -0.019658930305065801 -0.023565222512790949 0.027943651379436708 0.0044810574213018668 -0.014493243452197069 0.0090357688637339364 -0.0073062775153051127 0.00035309492708293617 0.00077581692763247271 0.018861281324308529 0.014486079989842228 0.017198757205091068 0.012794807519883872
leaf_weight=25967.549304962158 43291.531488418579 18933.951807022095 23812.090751647949 46460.274375915527 30016.893699645996 19769.421529769897 66022.434638977051 31541.946491241455 19252.472137451172 21987.840427398682 27285.91367149353 11879.960639953613 28540.155776977539 3839.4013862609863 15947.757118225098 16059.749622344971 18298.782165527344 57786.404495239258 38160.024360656738 25409.434120178223 27989.748218536377 31244.185398101807 23223.0888671875 36997.743787765503 17411.565765380859 43284.336357116699 53921.452964782715 52493.817451477051 49372.606941223145 14957.086570739746
leaf_count=877 763 464 267 440 617 667 857 387 213 472 1052 122 620 96 197 572 270 1480 1112 221 358 702 269 706 304 659 544 585 520 183
internal_value=0 -0.0182333 0.0119636 0.0159334 -0.0116538 -0.0304265 0.00381887 0.0130458 0.0206369 -0.0154792 -0.0352697 0.0158563 -0.00725319 -0.0249916 0.0106656 -0.0383707 0.000393466 -0.0179898 -0.0223184 0.0239292 0.00785515 -0.0118607 0.0124211 -0.00971946 -0.00384237 0.00251703 0.0173977 0.0131118 0.0184967 0.00825504
internal_weight=0 374001 567159 381305 242919 131082 185854 236261 145044 129952 69313.2 108288 112966 61768.8 127973 43345.7 104875 76720.4 41999.4 71869.7 59531.7 53232 47035.2 65537.9 47428.5 61583.1 73173.9 68441.6 61252.6 80979.5
internal_count=16596 9741 6855 4123 5365 4376 2732 2705 1418 3118 2501 1178 2247 1875 1527 1624 1692 1944 1208 661 745 1174 536 1326 921 929 757 782 642 1040
cat_boundaries=0 1 2 3 4 5 6 7 8 9 10 11 12 13
cat_threshold=134 134 134 454 1092 4 4580 844 846 198 2 66 1
is_linear=0
shrinkage=0.1


Tree=17
num_leaves=31
num_cat=14
split_feature=14 21 14 13 26 13 3 3 4 7 16 20 6 15 11 4 7 1 14 16 19 4 26 4 4 15 5 15 11 20
split_gain=16687 2787.67 1223.03 403.465 384.803 377.359 181.231 103.293 103.21 103.988 93.5668 87.7751 84.5727 82.2265 82.0854 79.2952 102.908 96.0971 83.6685 63.801 63.5131 63.4153 66.4674 59.9321 58.6627 57.8829 55.8756 55.4321 58.0355 54.2467
threshold=3403.5000000000005 1374.5000000000002 8223.0000000000018 5436.0000000000009 1001.5000000000001 2256.5000000000005 0 1 2 3 6331.0000000000009 791.50000000000011 4 9870.5000000000018 5 6 7 8 1735.5000000000002 8673.5000000000018 3774.5000000000005 9 3773.5000000000005 10 11 10138.500000000002 12 785.50000000000011 13 1929.5000000000002
decision_type=2 2 2 2 2 2 1 1 1 9 2 2 9 2 1 1 9 1 2 2 2 1 2 1 1 2 1 2 1 2
left_child=1 4 3 20 8 15 13 10 26 27 -5 -11 21 24 19 17 18 -3 -17 -9 -2 -7 -23 -6 -4 -8 -1 28 -10 -18
right_child=2 5 6 7 23 12 25 14 9 11 -12 -13 -14 -15 -16 16 29 -19 -20 -21 -22 22 -24 -25 -26 -27 -28 -29 -30 -31
leaf_value=-0.019203080011507449 -0.00063001524413331821 -0.015797125034387027 0.024680360368418437 0.0098007598547478897 -0.015531940952911966 0.0042629856220970262 0.011996872586015212 0.0038314957058083543 -0.089717595224591815 -0.035358430944111001 0.015713762634098311 -0.02786508892307718 -0.015585408774550603 0.025239582407728112 0.01144187916328469 -0.046793035205300669 -0.015296970572932393 -0.0050273730715516517 -0.019411316388451772 0.010438888367182986 0.00441450367712376 -0.006101826725456139 0.00095338297588756435 -0.022489279720912227 0.017387291617044869 0.016563851475042708 -0.02918284494589303 -0.040576108552514562 -0.043900894581717469 -0.010482838142322627
leaf_weight=9966.7818508148193 41068.954334259033 12613.572946548462 13564.846206665039 69101.834484100342 19118.174118041992 8051.8673210144043 50705.280937194824 50337.133148193359 615.00396823883057 33769.688234329224 43675.515018463135 29105.188856124878 7032.0012798309326 25592.159873962402 39412.210975646973 1615.5959606170654 59683.173517227173 24143.722515106201 3608.2987842559814 20592.316848754883 63626.406768798828 82814.042381286621 15920.391708374023 36469.860744476318 62738.638206481934 61305.282135009766 13480.256574630737 1739.4604988098145 502.25016784667969 38509.024921417236
leaf_count=327 685 308 128 824 523 141 570 650 28 1276 474 965 141 223 466 48 1478 528 87 246 902 1596 259 1066 618 625 482 63 19 850
internal_value=0 -0.0155585 0.0113953 0.00755714 -0.0266335 -0.0092462 0.0172774 0.00996031 -0.030704 -0.0327474 0.0120896 -0.0318846 -0.00496865 0.0203325 0.00778219 -0.0127195 -0.0141386 -0.00872073 -0.0278264 0.00574976 0.00243569 -0.00426767 -0.00496371 -0.0201033 0.0186893 0.0144952 -0.0249507 -0.0515595 -0.0691212 -0.0134076
internal_weight=0 398758 541721 327814 144767 253992 213906 223119 89178.6 65731.6 112777 62874.9 113818 101896 110342 140173 103416 36757.3 5223.89 70929.4 104695 106786 98734.4 55588 76303.5 112011 23447 2856.71 1117.25 98192.2
internal_count=16596 10185 6411 4247 4749 5436 2164 2660 3160 2351 1298 2241 2137 969 1362 3299 2463 836 135 896 1587 1996 1855 1589 746 1195 809 110 47 2328
cat_boundaries=0 1 2 3 4 5 6 7 8 9 10 11 12 76 77
cat_threshold=134 134 1092 12 1 1 324 12 2 4 1094 66 0 0 0 0 0 0 0 0 0 0 0 0 0 0 0 0 0 0 0 0 0 0 0 0 0 0 0 0 0 0 0 0 0 0 0 0 0 0 0 0 0 0 0 0 0 0 0 0 0 0 0 0 0 0 0 0 0 0 0 0 0 0 2684354560 1 1
is_linear=0
shrinkage=0.1


Tree=18
num_leaves=31
num_cat=17
split_feature=13 14 20 13 6 14 14 26 6 12 10 24 13 0 4 0 3 14 3 3 0 16 12 0 4 14 4 14 4 3
split_gain=13557.4 1978.37 1280.98 317.351 284.925 262.689 246.762 204.143 128.592 87.3923 86.5049 129.595 78.4904 74.747 65.6583 64.9926 63.7591 63.5472 59.7356 59.5479 66.2582 61.2121 58.4883 60.0633 52.7667 49.7812 48.5596 48.1266 46.8868 46.526
threshold=3066.0000000000005 1217.5000000000002 6322.5000000000009 9023.5000000000018 0 1889.5000000000002 4613.5000000000009 793.50000000000011 1 2 3 1994.5000000000002 12234.500000000002 4 5 6 7 2689.5000000000005 8 9 10 6391.0000000000009 11 12 13 749.50000000000011 14 1735.5000000000002 15 16
decision_type=2 2 2 2 9 2 2 2 9 1 1 2 2 1 1 1 1 2 1 1 1 2 1 1 1 2 1 2 1 1
left_child=1 7 6 14 5 16 24 29 -6 -8 11 27 28 26 -4 -11 -3 18 -7 21 -21 -16 -22 -24 -2 -15 -9 -10 -5 -1
right_child=2 4 3 12 8 17 9 13 10 15 -12 -13 -14 25 19 -17 -18 -19 -20 20 22 -23 23 -25 -26 -27 -28 -29 -30 -31
leaf_value=-0.025286397469044666 0.0029798345268829286 -0.0093051779330581685 0.014642325337895661 0.013008235723520287 -0.012342812935122082 -0.011717008390123329 0.0043729645509610589 -0.0046727919168838691 -0.050668654970908292 0.014572249527769827 -0.022744072270252789 -0.069844790430100778 0.020819786376143148 -0.02777132066964455 0.010294773853681598 0.00667454737349381 -0.014729810232134542 -0.0028678121804937883 -0.0060679612092904896 0.011991599450177795 0.0049073353135957922 0.017688274562130592 0.0058366628477674138 0.014864398365719581 -0.0022441135137199141 -0.021355802192212333 -0.019154215417414328 -0.017944766493118543 0.017035173157288107 -0.031951491040896604
leaf_weight=15309.192553520203 28351.698665618896 32246.183862686157 34129.072280883789 48735.717346191406 4310.4297847747803 25781.505828857422 79224.09395980835 3712.2594985961914 698.39071655273438 17921.328048706055 3066.1555137634277 1353.7591133117676 34632.557525634766 16717.103755950928 34554.78084564209 24893.58056640625 67064.378704071045 40291.757827758789 68738.239322662354 38887.140205383301 50833.05046081543 16566.488914489746 14254.520957946777 15258.5771484375 60750.571151733398 43743.567650794983 6245.2412185668945 1260.7005653381348 72855.446258544922 37525.884596824646
leaf_count=522 452 744 383 494 100 584 1062 98 22 212 75 39 304 588 397 321 1713 766 1418 428 638 176 171 169 1002 1369 179 29 717 1424
internal_value=0 -0.0150001 0.00960525 0.0132263 -0.00979806 -0.00906776 0.00341909 -0.0253327 -0.0257608 0.0063402 -0.034794 -0.0460517 0.0166198 -0.0218075 0.0106337 0.00998034 -0.0129708 -0.00619317 -0.00761069 0.00982921 0.00860243 0.0126882 0.00696316 0.0105041 -0.000581808 -0.0231297 -0.0137793 -0.0296104 0.0154236 -0.0300311
internal_weight=0 368065 571849 360707 244812 234122 211141 123253 10689.4 122039 6379.01 3312.85 156224 70418.2 204484 42814.9 99310.6 134812 94519.7 170355 119233 51121.3 80346.1 29513.1 89102.3 60460.7 9957.5 1959.09 121591 52835.1
internal_count=16596 9670 6926 3877 5490 5225 3049 4180 265 1595 165 90 1515 2234 2362 533 2457 2768 2002 1979 1406 573 978 340 1454 1957 277 51 1211 1946
cat_boundaries=0 1 2 3 4 5 6 7 8 9 10 11 12 13 14 15 16 17
cat_threshold=612905659 4604996 1 1 1 68 4 130 24 6 1 1 2 452 86 7712 6
is_linear=0
shrinkage=0.1


Tree=19
num_leaves=31
num_cat=15
split_feature=19 14 14 20 14 14 3 3 7 3 17 14 4 6 11 7 15 12 4 24 16 4 26 4 19 16 4 4 4 19
split_gain=11020.4 2019.84 745.975 281.87 254.235 220.828 125.89 102.225 92.4391 84.8046 84.7839 79.6619 73.6371 88.1735 64.36 62.3435 59.0445 60.9609 58.5464 55.7508 54.2116 53.5528 50.3865 46.9958 50.3394 44.2625 43.4278 41.7539 39.4726 38.6507
threshold=3567.5000000000005 1436.5000000000002 8223.0000000000018 1022.5000000000001 2278.5000000000005 5066.0000000000009 0 1 2 3 8575.5000000000018 710.50000000000011 4 5 6 7 785.50000000000011 8 9 10113.500000000002 6914.5000000000009 10 2495.0000000000005 11 8130.5000000000009 6699.5000000000009 12 13 14 2554.5000000000005
decision_type=2 2 2 2 2 2 1 1 9 1 2 2 1 9 1 9 2 1 1 2 2 1 2 1 2 2 1 1 1 2
left_child=1 3 5 8 9 25 10 20 16 -3 -4 21 -6 22 19 -11 17 -1 -5 -9 26 -10 -14 -8 -25 -2 -7 -16 -17 -20
right_child=2 4 6 18 12 7 23 14 11 15 -12 -13 13 -15 27 28 -18 -19 29 -21 -22 -23 -24 24 -26 -27 -28 -29 -30 -31
leaf_value=-0.072826800029452299 0.0009436243486764394 -0.0062075861874968776 0.014347155255985681 -0.010582690207898404 0.00078626551709082325 0.012114314385364887 0.0080624720112605804 0.0034773530048824546 -0.024160373994499079 -0.02329064773731624 0.020850780094823808 -0.021784838012693396 -0.0068765305256045716 -0.015918995300216281 0.01224592078385838 -0.0039306577634783879 -0.030789012127967277 -0.030448318980958535 -0.018263896305622199 0.010602047897583487 0.014060363355408273 -0.032173530760343606 -0.0020860113655913038 0.0098416053136275543 0.01449835921827719 0.010842325548306213 0.0072486820706531771 0.0059997610633957359 -0.011682727702553769 0.0025198362245545786
leaf_weight=868.47867107391357 67557.828023910522 42182.649244308472 45464.432456970215 14837.473936080933 28766.064758300781 27776.271030426025 22820.03197479248 76477.103332519531 18304.290105819702 4374.8316993713379 35851.333137512207 54333.317144393921 38475.334888458252 6837.2327270507812 22065.530353546143 7193.243091583252 2514.6015625 557.22530746459961 44698.412220001221 12824.692985534668 26942.852416992188 16143.341674804688 51136.752754211426 33498.141700744629 75609.053871154785 4841.0034866333008 54552.724235534668 20927.069034576416 80102.634761810303 913.04491424560547
leaf_count=39 1039 898 453 397 522 320 246 997 674 116 314 1859 787 137 259 161 91 21 1271 149 287 618 901 383 764 62 647 256 1909 19
internal_value=0 -0.0122758 0.00954994 -0.0213792 -0.00689358 0.00644989 0.0141142 0.00790178 -0.024843 -0.00992345 0.0172124 -0.0241672 -0.0036547 -0.00497878 0.00603048 -0.0116314 -0.0399051 -0.0562635 -0.0160663 0.00450054 0.0101659 -0.027932 -0.00414238 0.0122024 0.0130674 0.00160551 0.00889261 0.00920979 -0.0110445 -0.0178439
internal_weight=0 412239 527208 153170 259069 313965 213243 241566 92721.3 133853 81315.8 88780.9 125215 96449.3 132294 91670.7 3940.31 1425.7 60448.9 89301.8 109272 34447.6 89612.1 131927 109107 72398.8 82329 42992.6 87295.9 45611.5
internal_count=16596 10420 6176 4989 5431 4016 2160 2915 3302 3084 767 3151 2347 1825 1661 2186 151 60 1687 1146 1254 1292 1688 1393 1147 1101 967 515 2070 1290
cat_boundaries=0 1 2 3 4 5 6 7 8 9 10 11 12 13 14 15
cat_threshold=6 134 12 130 324 537399297 1 12 1 1092 5236 3072 326 5572 4
is_linear=0
shrinkage=0.1


Tree=20
num_leaves=31
num_cat=17
split_feature=14 19 14 14 13 19 7 19 25 18 4 3 7 11 14 4 4 3 6 4 25 4 1 18 3 5 4 12 3 16
split_gain=8967.68 1612.78 612.605 257.152 182.164 179.976 147.814 106.01 94.2648 102.368 92.744 94.4329 87.481 79.9839 67.3896 66.5938 62.6905 60.8167 60.8017 55.925 55.3334 51.2217 85.8031 49.2274 47.8122 46.1469 45.9776 43.8524 43.0801 43.9883
threshold=3528.5000000000005 1460.5000000000002 8223.0000000000018 948.50000000000011 2351.5000000000005 4482.5000000000009 0 9360.5000000000018 7595.5000000000009 8733.5000000000018 1 2 3 4 6184.5000000000009 5 6 7 8 9 813.50000000000011 10 11 8663.5000000000018 12 13 14 15 16 2953.5000000000005
decision_type=2 2 2 2 2 2 9 2 2 2 1 1 9 1 2 1 1 1 9 1 2 1 1 2 1 1 1 1 1 2
left_child=1 3 5 12 21 -2 8 27 14 -10 -8 -12 20 23 -7 25 -5 26 -18 -6 -1 22 -3 -13 -17 -14 -9 -4 -21 -30
right_child=2 4 7 16 19 6 10 17 9 -11 11 13 15 -15 -16 24 18 -19 -20 28 -22 -23 -24 -25 -26 -27 -28 -29 29 -31
leaf_value=-0.032107562598675164 0.00055244359965971556 -0.012785650307641559 0.0088957075965910813 -0.0099477007926181554 -0.0063629888776317997 -0.016780091266309149 0.011330690279563412 0.012885215939878859 -0.036110631432768665 -0.00023141467219993953 0.0098202110384133044 0.0022117915850444893 -0.014163426368681904 0.0084649564641705033 0.0086175022379939951 -0.020874710868476504 -0.015668188194786561 0.012761501847743023 -0.028441948035360834 0.00022006471773857125 -0.063947785813989494 -0.0097467132729583839 -0.0021607736420617175 0.0072918972675973977 -0.027622211109477431 -0.021865604509793524 0.019657465589078774 0.013057107107199937 -0.011357395811541569 -0.0023746201266648965
leaf_weight=2031.858624458313 54741.111057281494 10883.51432800293 66414.034984588623 19176.475908279419 37456.785793304443 1412.087833404541 46533.761192321777 14628.767799377441 1730.6264381408691 1471.2133712768555 57748.478553771973 76429.049579620361 12586.363033294678 47049.715084075928 4015.9810485839844 17973.239820480347 52333.841342926025 58345.689712524414 4041.0352325439453 47030.251667022705 746.26464462280273 103253.41656684875 25198.86364364624 25418.776298522949 26867.919637680054 21182.973348617554 33195.839797973633 40928.574920654297 7380.5488777160645 20857.490921020508
leaf_count=79 861 264 725 527 705 21 554 134 27 18 664 1005 421 562 48 610 1509 582 126 839 32 2409 541 298 1015 766 291 432 151 380
internal_value=0 -0.0111498 0.00855905 -0.019108 -0.00619486 0.00576705 0.00685735 0.0126984 -0.00600952 -0.0196245 0.00729588 0.0063868 -0.023008 0.00505461 0.00201043 -0.0223813 -0.0149066 0.0149389 -0.0165887 -0.00320604 -0.0405147 -0.00861287 -0.00536406 0.00347966 -0.0249229 -0.0189999 0.0175891 0.0104824 -0.00163394 -0.00472077
internal_weight=0 409001 530064 156940 252061 316551 261810 213513 8629.91 3201.84 253180 206646 81388.6 148898 5428.07 78610.5 75551.4 106170 56374.9 112725 2778.12 139336 36082.4 101848 44841.2 33769.3 47824.6 107343 75268.3 28238
internal_count=16596 10374 6222 5085 5289 4058 3197 2164 114 45 3083 2529 2923 1865 69 2812 2162 1007 1635 2075 111 3214 805 1303 1625 1187 425 1157 1370 531
cat_boundaries=0 1 2 3 4 5 6 7 8 9 10 11 12 13 77 78 79 80
cat_threshold=12 4160 6 12 1 5204 1092 6 536875009 7200 324 2 134 0 0 0 0 0 0 0 0 0 0 0 0 0 0 0 0 0 0 0 0 0 0 0 0 0 0 0 0 0 0 0 0 0 0 0 0 0 0 0 0 0 0 0 0 0 0 0 0 0 0 0 0 0 0 0 0 0 0 0 0 0 0 2684354560 1 6304 1 134
is_linear=0
shrinkage=0.1


Tree=21
num_leaves=31
num_cat=14
split_feature=14 26 14 14 19 7 19 24 11 20 7 24 3 14 4 4 21 3 3 14 3 4 10 4 5 16 16 3 15 16
split_gain=7302.28 1013.28 777.251 231.826 138.086 132.587 146.421 115.575 149.159 91.7828 86.5701 137.673 83.2563 67.1241 67.0385 66.5303 65.003 55.9114 55.8526 55.7711 55.0212 58.1154 46.7123 57.0566 45.3301 43.2352 40.5514 39.4547 38.6465 38.081
threshold=2915.0000000000005 1261.5000000000002 5804.0000000000009 9478.0000000000018 813.50000000000011 0 2137.5000000000005 1994.5000000000002 1 4383.0000000000009 2 8043.5000000000009 3 1889.5000000000002 4 5 8195.5000000000018 6 7 749.50000000000011 8 9 10 11 12 7993.0000000000009 6699.5000000000009 13 1819.5000000000002 8743.5000000000018
decision_type=2 2 2 2 2 9 2 2 1 2 9 2 1 2 1 1 2 1 1 2 1 1 1 1 1 2 2 1 2 2
left_child=1 4 9 10 18 7 20 13 -9 22 11 -4 15 -3 -14 -12 -13 29 -1 -6 -7 -22 23 -2 -20 -16 -17 -8 -23 -5
right_child=2 5 3 17 19 6 27 8 -10 -11 12 16 14 -15 25 26 -18 -19 24 -21 21 28 -24 -25 -26 -27 -28 -29 -30 -31
leaf_value=-0.013148821206529205 0.00064297492708112209 -0.03203122240014205 0.005812922168565696 0.012319852300092809 -0.021112359526817913 -0.0058210790253297642 -0.00024763868501474789 -0.068357501682387647 -0.010618484076700112 0.0036319494136225804 0.013855675485119921 -0.03452296079141897 0.0093736198392776696 0.0010137569120506667 0.0022254749281038367 0.0066619164846758051 -0.0054077667512016448 0.010993909598904259 -0.026285613466630095 -0.014123455248725819 -0.0062573934775742041 -0.014315070215333556 0.0022541054847706981 -0.0055747470820591552 -0.020232772091735993 0.006580182160997281 0.01088782074020112 -0.0050703556121650941 -0.0095078881499897055 0.017653886917655331
leaf_weight=6364.7220230102539 28697.930435180664 966.71780776977539 8311.6173210144043 24301.460342407227 14180.328584671021 36130.489511489868 22343.701061248779 1047.2865257263184 781.11716461181641 88144.346538543701 31996.689643859863 1431.809268951416 49448.307502746582 1688.1494903564453 38115.649723052979 50705.818626403809 1651.0714416503906 72457.380374908447 24530.554946899414 58614.477993965149 24454.990798950195 34211.131519317627 30688.826168060303 30377.437984466553 26165.184621810913 56736.895614624023 41123.550094604492 70566.075786590576 32716.613807678223 29793.389762878418
leaf_count=208 486 28 100 232 506 815 411 32 18 1190 341 21 579 37 487 581 19 740 956 1767 583 902 519 544 936 657 428 1449 765 259
internal_value=0 -0.0113386 0.00685153 0.0092663 -0.018372 -0.00727763 -0.0069302 -0.0242892 -0.0436907 0.00133983 0.0076586 -0.000880716 0.00802122 -0.0110189 0.00638738 0.00992456 -0.01893 0.0128173 -0.0220552 -0.0154849 -0.00913054 -0.0104372 -0.000910919 -0.00255511 -0.0231662 0.00482977 0.00855345 -0.00391112 -0.0119634 0.0152548
internal_weight=0 354762 583982 406074 129855 224906 220423 4483.27 1828.4 177909 279521 11394.5 268127 2654.87 144301 123826 3082.88 126552 57060.5 72794.8 127513 91382.7 89764.2 59075.4 50695.7 94852.5 91829.4 92909.8 66927.7 54094.9
internal_count=16596 9413 7183 4444 4373 5040 4925 115 50 2739 3213 140 3073 65 1723 1350 40 1231 2100 2273 3065 2250 1549 1030 1892 1144 1009 1860 1667 491
cat_boundaries=0 1 2 3 4 5 6 7 8 9 10 11 12 75 76
cat_threshold=8 1 12 134 4292 70 6 2 6 4164 1 486 0 0 0 0 0 0 0 0 0 0 0 0 0 0 0 0 0 0 0 0 0 0 0 0 0 0 0 0 0 0 0 0 0 0 0 0 0 0 0 0 0 0 0 0 0 0 0 0 0 0 0 0 0 0 0 0 0 0 0 0 0 0 402653184 2
is_linear=0
shrinkage=0.1


Tree=22
num_leaves=31
num_cat=20
split_feature=19 14 20 7 26 0 6 15 3 10 12 15 25 16 0 6 1 4 3 4 3 3 4 12 0 4 17 4 10 21
split_gain=5931.64 848.586 633.697 178.826 164.215 157.995 136.908 134.806 101.212 79.9244 73.5669 73.1078 83.9635 68.0919 66.5009 64.4553 57.8504 81.9397 56.2992 57.7434 54.9622 49.4941 52.7062 48.8817 48.782 45.5417 44.9082 44.0513 47.417 38.532
threshold=2932.5000000000005 1436.5000000000002 6322.5000000000009 0 974.50000000000011 1 2 5489.5000000000009 3 4 5 785.50000000000011 1125.5000000000002 2086.5000000000005 6 7 8 9 10 11 12 13 14 15 16 17 864.50000000000011 18 19 1613.5000000000002
decision_type=2 2 2 9 2 1 9 2 1 1 1 2 2 2 1 9 1 1 1 1 1 1 1 1 1 1 2 1 1 2
left_child=1 3 7 11 20 9 8 25 16 18 21 -1 -13 -10 -12 -8 -3 -18 19 -4 -5 22 -7 -9 -25 -2 -22 -15 -29 -17
right_child=2 6 5 4 -6 10 15 23 13 -11 14 12 -14 27 -16 29 17 -19 -20 -21 26 -23 -24 24 -26 -27 -28 28 -30 -31
leaf_value=-0.0669722722771674 0.0023526137785913432 -0.0068145951481730117 0.01790516472333066 -0.015006942314681788 -0.011574713910862343 0.01064600679047779 -0.0079517732347942106 0.0031446094538831342 -0.010786735048191188 0.013825503709863711 0.0061233566551149891 -0.021225814466424294 -0.063235862772125437 0.0020927586228875169 0.012528693665071028 -0.043081092061242311 -0.0050172245163090604 0.0027499610917182168 0.0078555736252191779 0.009728735041321053 -0.023163962231674023 0.0032469524661690244 0.0043799995629305857 0.012201717440044189 0.0046288682959814229 -0.0014671910001579534 -0.017215044494785853 -0.0081289191434295634 -0.0027481131001752899 -0.02042213947948612
leaf_weight=719.09879302978516 50218.781909942627 22454.588481903076 13143.712478637695 32255.227844238281 65882.998682022095 25953.487586975098 4653.4816627502441 54583.289489746094 36543.60097694397 61258.852676391602 31714.140167236328 2037.9810562133789 620.64106559753418 6851.6660804748535 33151.854293823242 873.68099212646484 24927.759449005127 29818.138969421387 79827.631332397461 25546.294033050537 26536.352712631226 61483.337387084961 27904.572563171387 15156.162422180176 19387.298732757568 82432.51993560791 24318.94952583313 48052.025075912476 24844.873180389404 5322.2645301818848
leaf_count=34 794 518 117 1082 1887 286 104 716 906 590 361 73 22 137 352 27 510 573 844 238 1023 767 319 176 242 1349 861 1038 526 124
internal_value=0 -0.0101735 0.00620471 -0.0158218 -0.0153024 0.00879523 -0.00596176 0.00199986 -0.00534786 0.0108927 0.00670275 -0.03857 -0.0310328 -0.00721151 0.00939701 -0.0168899 -0.00253995 -0.00078713 0.00937683 0.0125103 -0.0182593 0.00518755 0.00740092 0.00500765 0.0079515 -2.10326e-05 -0.0203152 -0.00557412 -0.00629416 -0.0235792
internal_weight=0 356713 581762 152371 148994 359984 204342 221778 193493 179776 180207 3377.72 2658.62 116292 64866 10849.4 77200.5 54745.9 118518 38690 83110.5 115341 53858.1 89126.8 34543.5 132651 50855.3 79748.6 72896.9 6195.95
internal_count=16596 9445 7151 4982 4853 3874 4463 3277 4208 1789 2085 129 95 2607 713 255 1601 1083 1199 355 2966 1372 605 1134 418 2143 1884 1701 1564 151
cat_boundaries=0 1 2 3 4 5 6 7 8 9 10 11 12 13 14 15 16 17 18 19 20
cat_threshold=8 1 549991097 134 1 1 2 68616262 2 7344 6 834 134 6 854 1 4 454 4 1
is_linear=0
shrinkage=0.1


Tree=23
num_leaves=31
num_cat=19
split_feature=21 14 14 19 6 14 7 4 11 26 25 18 3 4 24 4 11 4 4 10 4 3 20 4 4 0 6 3 3 15
split_gain=4838.91 955.176 284.95 156.7 150.151 109.52 104.156 89.5313 161.134 88.4867 71.6163 86.2724 65.8494 57.5878 52.5981 52.2676 53.7796 46.6257 46.0609 43.8421 49.2736 42.6929 41.0194 40.1978 38.3179 44.591 36.7778 37.0661 35.8714 35.6514
threshold=3847.5000000000005 1508.5000000000002 8223.0000000000018 943.50000000000011 0 2256.5000000000005 1 2 3 6322.5000000000009 7595.5000000000009 8733.5000000000018 4 5 1994.5000000000002 6 7 8 9 10 11 12 2493.5000000000005 13 14 15 16 17 18 5058.5000000000009
decision_type=2 2 2 2 9 2 9 1 1 2 2 2 1 1 2 1 1 1 1 1 1 1 2 1 1 1 9 1 1 2
left_child=1 3 6 13 5 24 10 8 14 17 29 -12 23 -1 -6 -11 21 -8 -5 20 -7 -17 -22 -4 25 -3 27 -15 -26 -2
right_child=2 4 12 18 7 19 9 -9 -10 15 11 -13 -14 26 -16 16 -18 -19 -20 -21 22 -23 -24 -25 28 -27 -28 -29 -30 -31
leaf_value=-0.012537765886629826 -0.0096857439674582838 -0.0079896675639729766 0.0081905214575114012 -0.0066712939042933355 -0.024378487863577394 0.00547381956825891 0.0047968651440370678 -0.0076562675117117134 -0.010961036366190415 0.010371852431429105 -0.032714834736055375 0.00025562566946018162 0.0076602315859484989 -0.013945545808942536 -0.058276660703002081 0.0075196713362769068 0.0091983873369847272 0.0008716838981056434 -0.012174580404578278 0.00083029102960440924 -0.0070341310460231054 0.0031735924682743995 -0.0021788697471123311 0.012515755057837988 -0.0048930477378381606 0.0058176016847015614 -0.027633044164792422 -0.019641760898914742 -0.0086389575061732813 0.004572135161303191
leaf_weight=21300.519348144531 2549.5797882080078 3966.3652000427246 31241.638534545898 20255.049034118652 693.72762298583984 6405.3432197570801 61543.83129119873 7543.4144744873047 3285.8638496398926 27902.859901428223 1724.0835380554199 1470.5798988342285 111784.62582015991 16641.302394866943 1345.5959644317627 32867.527275085449 32215.952781677246 59561.648853302002 62203.747763633728 45788.980163574219 24770.990921020508 72537.479011535645 58481.365688323975 70151.314002990723 62585.445125579834 5700.8790245056152 4274.5268087387085 38465.270515441895 43370.993371963501 5618.4197082519531
leaf_count=745 41 90 304 555 18 112 820 162 72 322 27 18 1195 556 38 370 361 818 1793 836 526 908 1027 664 1383 115 165 1441 1043 71
internal_value=0 -0.00787539 0.00654563 -0.0138907 -0.00415733 -0.00361679 0.00454867 -0.0146892 -0.0246187 0.00492082 -0.00483911 -0.0175377 0.00933711 -0.0170239 -0.0467453 0.00642389 0.00562228 0.00286687 -0.010825 -0.00168724 -0.00297297 0.00452981 -0.00362307 0.011184 -0.00587746 0.000152472 -0.0186278 -0.0179244 -0.00642703 0.000121645
internal_weight=0 427079 511170 163140 263939 251070 297992 12868.6 5325.19 286629 11362.7 3194.66 213178 80681.6 2039.32 165524 137621 121105 82458.8 135447 89657.7 105405 83252.4 101393 115624 9667.24 59381.1 55106.6 105956 8168
internal_count=16596 10677 5919 5255 5422 5132 3756 290 128 3599 157 45 2163 2907 56 1961 1639 1638 2348 2501 1665 1278 1553 968 2631 205 2162 1997 2426 112
cat_boundaries=0 1 2 3 4 5 6 7 8 9 10 11 12 13 14 15 16 17 18 19
cat_threshold=549991097 12 6194 1 134 1092 4160 1 4580 1092 1 4 6 6304 4 1 1 6 198
is_linear=0
shrinkage=0.1


Tree=24
num_leaves=31
num_cat=18
split_feature=19 15 14 7 14 3 7 17 14 26 24 0 14 4 10 4 12 3 4 16 4 0 4 12 24 15 11 0 0 4
split_gain=3936.44 771.376 242.191 122.717 113.73 108.218 88.3264 85.7976 68.2261 66.9193 63.4223 88.6187 65.7569 53.7464 50.5548 54.4798 48.3318 48.0325 44.8437 41.6294 37.9869 36.8793 35.9522 33.7442 70.5267 49.8305 33.4058 33.3163 32.9933 34.414
threshold=3774.5000000000005 1370.5000000000002 7855.5000000000009 0 2256.5000000000005 1 2 955.50000000000011 11031.000000000002 6692.5000000000009 7036.0000000000009 3 5497.0000000000009 4 5 6 7 8 9 1767.5000000000002 10 11 12 13 1048.5000000000002 740.50000000000011 14 15 16 17
decision_type=2 2 2 9 2 1 9 2 2 2 2 1 2 1 1 1 1 1 1 2 1 1 1 1 2 2 1 1 1 1
left_child=1 5 3 10 17 22 23 20 13 16 12 -12 -2 -4 15 -6 21 -3 -16 -19 -8 -5 -1 24 25 -7 -23 -17 29 -18
right_child=2 4 8 9 14 6 7 -9 -10 -11 11 -13 -14 -15 18 27 28 19 -20 -21 -22 26 -24 -25 -26 -27 -28 -29 -30 -31
leaf_value=0.0012060413463112175 -0.017884876753840265 -0.0037108063738765813 0.0096835294288388982 -0.0018074017299452379 0.0052749021446681036 -0.057248263905381541 -0.013826744884987342 -0.010692192696980633 0.011138123962512497 0.0058733969646308989 -0.0020028798301011635 -0.036994385815708908 0.0053625477935737931 0.0060159337732316473 -0.0038904417618757202 -0.0080002158758740987 0.012499754488537048 -0.010851900825351877 0.0027241809175316384 -0.0061113899949215254 -0.018749773796776153 0.0015926402243008867 -0.0088976032439308395 -0.016239272683001359 -0.063543839259218235 -0.020178585356364045 0.0080047994777786412 -0.0031120169552468994 0.0031472132477562195 0.0041443386905632724
leaf_weight=4211.2322635650635 1760.1793842315674 52425.722728729248 59452.018676757812 27190.618591308594 6652.5559043884277 434.18367481231689 32273.869787216187 49171.281692504883 58607.40975189209 126200.71375274658 1408.378303527832 1488.9380874633789 3940.7893600463867 122517.72512435913 15104.033195495605 17548.502620697021 9843.9054107666016 26493.974939346313 31833.96293258667 61585.091651916504 31287.826591491699 49892.038459777832 21627.059761047363 1742.5363502502441 629.54775524139404 2200.231333732605 9705.3054504394531 67865.111055374146 33032.694911956787 9933.4115982055664
leaf_count=116 29 1144 617 382 117 21 1153 1492 547 1498 19 23 49 1308 285 348 117 708 579 1450 1147 701 630 60 25 81 128 1257 442 123
internal_value=0 -0.00716377 0.0058547 0.0038241 -0.00410347 -0.0131214 -0.0144078 -0.0138275 0.00817076 0.00420443 -0.00792853 -0.0199851 -0.00181512 0.00721505 -0.00207545 -0.00343715 0.00269593 -0.00610982 0.000595433 -0.00753647 -0.0162552 0.00124447 -0.00725104 -0.0274206 -0.0334739 -0.0262881 0.00263685 -0.00411583 0.00508126 0.00831156
internal_weight=0 423087 514974 274397 279509 143578 117739 112733 240577 265799 8598.29 2897.32 5700.97 181970 139004 92066.2 139598 140505 46938 88079.1 63561.7 86788 25838.3 5006.5 3263.96 2634.42 59597.3 85413.6 52810 19777.3
internal_count=16596 10613 5983 3511 5888 4725 3979 3792 2472 3391 120 42 78 1925 2586 1722 1893 3302 864 2158 2300 1211 746 187 127 102 829 1605 682 240
cat_boundaries=0 1 2 3 4 5 6 7 8 9 10 11 12 13 14 15 16 17 18
cat_threshold=12 2 12 2 198 1 4 1 134 6178 5236 4 6 1 1 4 4 5346
is_linear=0
shrinkage=0.1


Tree=25
num_leaves=31
num_cat=19
split_feature=14 6 21 19 10 14 26 15 6 13 26 3 3 4 12 0 13 17 4 0 11 4 4 10 4 11 4 1 0 17
split_gain=3209.8 600.528 451.577 350.413 281.716 97.511 81.4703 80.9916 51.9072 94.2423 49.5313 46.5494 44.4723 47.8392 43.2319 44.9641 42.3393 71.9905 41.4572 37.1906 45.3695 37.4603 34.7787 32.6801 33.5328 32.5468 32.0323 38.0916 29.0412 41.2177
threshold=2915.0000000000005 0 1062.5000000000002 6699.5000000000009 1 9478.0000000000018 1676.5000000000002 4968.5000000000009 2 5863.5000000000009 793.50000000000011 3 4 5 6 7 1100.5000000000002 1689.5000000000002 8 9 10 11 12 13 14 15 16 17 18 11850.500000000002
decision_type=2 9 2 2 1 2 2 2 9 2 2 1 1 1 1 1 2 2 1 1 1 1 1 1 1 1 1 1 1 2
left_child=1 4 10 7 16 8 22 11 18 -10 -3 -2 26 -14 19 -16 -1 -18 -5 20 -9 -21 -4 24 -7 -23 27 -8 29 -11
right_child=3 2 6 5 -6 23 12 14 9 28 -12 -13 13 -15 15 -17 17 -19 -20 21 -22 25 -24 -25 -26 -27 -28 -29 -30 -31
leaf_value=-0.093493965846467034 0.0016457153124382889 -0.015009846969521946 -0.0043381171681510363 0.0073157321979938645 -0.020509076742721944 0.0056030176703982786 -0.0057417521983035456 0.0028486311092382715 -0.027242437968462124 -0.014488340678872256 -0.010557333369567552 -0.0023807726313860721 -0.0020675838710581223 -0.0062044239855336509 0.010371439394426635 0.0036384904228282389 -0.038239855632334625 -0.082426354646006714 0.0044111244523770002 -0.0036568274732788593 0.011198583271811655 0.0036433657351482686 -0.0085222931076930613 0.010962179267784977 0.010116882773571043 -0.0047054344368537299 -0.0026954563430013601 0.0057937796581757151 0.0057000438865113775 0.0056097611278560361
leaf_weight=595.73281192779541 63257.63436126709 48986.600011825562 29431.959644317627 95933.847389221191 2364.2288398742676 37661.745208740234 3797.1481857299805 40559.387763977051 1214.3637466430664 2108.6089820861816 50991.349882125854 52558.286457061768 48427.416934967041 66224.08411026001 15312.82349395752 28157.336658477783 687.72841453552246 794.89557075500488 101056.42442321777 16188.515468597412 7750.7297286987305 27323.522956848145 61620.367830276489 49982.471252441406 29394.305770874023 5631.8308029174805 28718.282901763916 11630.289691925049 7565.7927780151367 1977.2449111938477
leaf_count=31 981 1824 756 1064 69 368 84 519 19 25 1671 920 1037 1459 180 352 21 28 1150 222 92 353 1647 475 282 74 574 212 86 21
internal_value=0 -0.00752398 -0.00705904 0.00454249 -0.0440204 0.006714 -0.00478649 0.00177761 0.00542419 -0.000731224 -0.0127389 -0.000181604 -0.00341912 -0.00445741 0.00338775 0.00601024 -0.0709774 -0.0619301 0.00582596 0.00221797 0.00418827 0.000281097 -0.0071712 0.0090267 0.00758403 0.00221594 -0.000721419 0.00295263 0.00203121 -0.00476238
internal_weight=0 354270 349827 583635 4442.59 326895 249850 256740 209856 12866 99977.9 115816 158797 114652 140924 43470.2 2078.36 1482.62 196990 97454 48310.1 49143.9 91052.3 117039 67056.1 32955.4 44145.7 15427.4 11651.6 4085.85
internal_count=16596 9413 9264 7183 149 3490 5769 3693 2365 151 3495 1901 3366 2496 1792 532 80 49 2214 1260 611 649 2403 1125 650 427 870 296 132 46
cat_boundaries=0 1 2 3 4 5 6 7 8 9 10 11 12 13 14 15 16 17 18 19
cat_threshold=1526728704 1 65 134 6 4548 1 4 4310 2 1 1176 1094 1 3736 1 774 2 1
is_linear=0
shrinkage=0.1


Tree=26
num_leaves=31
num_cat=22
split_feature=21 6 1 6 10 26 0 11 6 13 19 25 4 12 3 26 0 5 5 4 0 11 4 4 14 5 4 10 17 4
split_gain=2609.48 606.998 516.424 198.389 190.451 157.588 145.339 142.82 108.741 82.7264 99.8295 79.7814 78.633 73.741 69.1383 60.0039 57.9881 56.8311 55.5731 53.2515 44.3882 62.3373 45.3659 42.4045 41.1406 39.1712 38.9587 37.9643 36.0834 35.1396
threshold=3847.5000000000005 0 1 2 3 8195.5000000000018 4 5 6 7555.0000000000009 6578.5000000000009 2667.5000000000005 7 8 9 2021.5000000000002 10 11 12 13 14 15 16 17 1184.5000000000002 18 19 20 1689.5000000000002 21
decision_type=2 9 1 9 1 2 1 1 9 2 2 2 1 1 1 2 1 1 1 1 1 1 1 1 2 1 1 1 2 1
left_child=1 4 6 5 7 13 17 11 -5 10 -10 28 14 20 -4 -14 29 24 -8 -7 22 -22 -2 -20 -3 -21 -18 -27 -1 -15
right_child=3 2 12 8 -6 19 18 -9 9 -11 -12 -13 15 16 -16 -17 26 -19 23 25 21 -23 -24 -25 -26 27 -28 -29 -30 -31
leaf_value=-0.076454903209362546 0.0029926820718627792 0.011267162273537632 0.003033774063138232 0.0047283332821453292 -0.018750393277748009 0.0038575984275806756 -0.015242169258398816 -0.017988060785515039 -0.011919792008971183 -0.0029588994349938271 -0.04319816358466344 -0.046798754361100682 -0.0075641774834657787 0.0036192799123593504 -0.0021768156723450073 -0.0027706606717135701 0.00016438681255484243 -0.008487675303524846 -0.0050144708889441007 0.013406352188027848 0.0026103568051481308 0.0088453293853064299 -0.0023730693711088153 -0.01147577193345631 -0.0037726162899991917 0.0067716150468518496 0.0055207120642619756 0.010422130930753315 -0.11194701549506934 0.010279279643258442
leaf_weight=771.56611442565918 31893.594665527344 1943.3662204742432 35678.697330474854 8160.2962455749512 1846.3784160614014 35701.423248291016 34404.128700256348 586.07478904724121 4899.055248260498 7818.6092376708984 1288.8477668762207 673.54071807861328 37833.717403411865 10542.341758728027 88887.687232971191 84300.019119262695 19504.449562072754 42141.803009033203 12451.939764022827 12945.792900085449 97414.885257720947 19195.027267456055 31123.423225402832 56431.62025642395 28378.336868286133 115608.37544250488 44750.323657989502 37804.054908752441 455.58421516418457 32324.43371963501
leaf_count=36 405 50 664 94 51 373 1308 16 72 84 21 19 931 122 1862 1622 244 1099 412 127 1258 231 415 1918 670 1213 538 361 19 361
internal_value=0 -0.00578594 -0.00540327 0.00480705 -0.0429815 0.0052266 -0.00954578 -0.0611455 -0.00444492 -0.00978889 -0.0184346 -0.074453 -0.00245233 0.00371947 -0.000684258 -0.00425521 0.00579606 -0.00611253 -0.0119544 0.00736567 0.00248108 0.00363669 0.000342694 -0.0103087 -0.00280777 0.0081178 0.00389569 0.00767068 -0.0896315 0.00864461
internal_weight=0 426784 422451 510975 4333.14 488808 175751 2486.77 22166.8 14006.5 6187.9 1900.69 246700 286748 124566 122134 107122 72463.5 103288 202060 179627 116610 63017 68883.6 30321.7 166358 64254.8 153412 1227.15 42866.8
internal_count=16596 10677 10536 5919 141 5648 5457 90 271 177 93 74 5079 3574 2526 2553 1265 1819 3638 2074 2309 1489 820 2330 720 1701 782 1574 55 483
cat_boundaries=0 1 2 3 4 5 6 7 8 9 10 11 74 137 138 139 140 141 142 206 207 208 209
