tree
version=v3
num_class=1
num_tree_per_iteration=1
label_index=0
max_feature_idx=25
objective=tweedie
feature_names=dept_id d wday month year event_name_1 event_type_1 event_name_2 event_type_2 snap_CA snap_TX snap_WI sales_lag_1 sales_lag_2 sales_lag_3 sales_lag_4 sales_lag_5 sales_lag_6 sales_lag_7 sales_lag_8 sales_lag_9 sales_lag_10 sales_lag_11 sales_lag_12 sales_lag_13 sales_lag_14
feature_infos=-1:0:1:2:3:4:5:6 -1:42:43:44:45:46:47:48:49:50:51:52:53:54:55:56:57:58:59:60:61:62:63:64:65:66:67:68:69:70:71:72:73:74:75:76:77:78:79:80:81:82:83:84:85:86:87:88:89:90:91:92:93:94:95:96:97:98:99:100:101:102:103:104:105:106:107:108:109:110:111:112:113:114:115:116:117:118:119:120:121:122:123:124:125:126:127:128:129:130:131:132:133:134:135:136:137:138:139:140:141:142:143:144:145:146:147:148:149:150:151:152:153:154:155:156:157:158:159:160:161:162:163:164:165:166:167:168:169:170:171:172:173:174:175:176:177:178:179:180:181:182:183:184:185:186:187:188:189:190:191:192:193:194:195:196:197:198:199:200:201:202:203:204:205:206:207:208:209:210:211:212:213:214:215:216:217:218:219:220:221:222:223:224:225:226:227:228:229:230:231:232:233:234:235:236:237:238:239:240:241:242:243:244:245:246:247:248:249:250:251:252:253:254:255:256:257:258:259:260:261:262:263:264:265:266:267:268:269:270:271:272:273:274:275:276:277:278:279:280:281:282:283:284:285:286:287:288:289:290:291:292:293:294:295:296:297:298:299:300:301:302:303:304:305:306:307:308:309:310:311:312:313:314:315:316:317:318:319:320:321:322:323:324:325:326:327:328:329:330:331:332:333:334:335:336:337:338:339:340:341:342:343:344:345:346:347:348:349:350:351:352:353:354:355:356:357:358:359:360:361:362:363:364:365:366:367:368:369:370:371:372:373:374:375:376:377:378:379:380:381:382:383:384:385:386:387:388:389:390:391:392:393:394:395:396:397:398:399:400:401:402:403:404:405:406:407:408:409:410:411:412:413:414:415:416:417:418:419:420:421:422:423:424:425:426:427:428:429:430:431:432:433:434:435:436:437:438:439:440:441:442:443:444:445:446:447:448:449:450:451:452:453:454:455:456:457:458:459:460:461:462:463:464:465:466:467:468:469:470:471:472:473:474:475:476:477:478:479:480:481:482:483:484:485:486:487:488:489:490:491:492:493:494:495:496:497:498:499:500:501:502:503:504:505:506:507:508:509:510:511:512:513:514:515:516:517:518:519:520:521:522:523:524:525:526:527:528:529:530:531:532:533:534:535:536:537:538:539:540:541:542:543:544:545:546:547:548:549:550:551:552:553:554:555:556:557:558:559:560:561:562:563:564:565:566:567:568:569:570:571:572:573:574:575:576:577:578:579:580:581:582:583:584:585:586:587:588:589:590:591:592:593:594:595:596:597:598:599:600:601:602:603:604:605:606:607:608:609:610:611:612:613:614:615:616:617:618:619:620:621:622:623:624:625:626:627:628:629:630:631:632:633:634:635:636:637:638:639:640:641:642:643:644:645:646:647:648:649:650:651:652:653:654:655:656:657:658:659:660:661:662:663:664:665:666:667:668:669:670:671:672:673:674:675:676:677:678:679:680:681:682:683:684:685:686:687:688:689:690:691:692:693:694:695:696:697:698:699:700:701:702:703:704:705:706:707:708:709:710:711:712:713:714:715:716:717:718:719:720:721:722:723:724:725:726:727:728:729:730:731:732:733:734:735:736:737:738:739:740:741:742:743:744:745:746:747:748:749:750:751:752:753:754:755:756:757:758:759:760:761:762:763:764:765:766:767:768:769:770:771:772:773:774:775:776:777:778:779:780:781:782:783:784:785:786:787:788:789:790:791:792:793:794:795:796:797:798:799:800:801:802:803:804:805:806:807:808:809:810:811:812:813:814:815:816:817:818:819:820:821:822:823:824:825:826:827:828:829:830:831:832:833:834:835:836:837:838:839:840:841:842:843:844:845:846:847:848:849:850:851:852:853:854:855:856:857:858:859:860:861:862:863:864:865:866:867:868:869:870:871:872:873:874:875:876:877:878:879:880:881:882:883:884:885:886:887:888:889:890:891:892:893:894:895:896:897:898:899:900:901:902:903:904:905:906:907:908:909:910:911:912:913:914:915:916:917:918:919:920:921:922:923:924:925:926:927:928:929:930:931:932:933:934:935:936:937:938:939:940:941:942:943:944:945:946:947:948:949:950:951:952:953:954:955:956:957:958:959:960:961:962:963:964:965:966:967:968:969:970:971:972:973:974:975:976:977:978:979:980:981:982:983:984:985:986:987:988:989:990:991:992:993:994:995:996:997:998:999:1000:1001:1002:1003:1004:1005:1006:1007:1008:1009:1010:1011:1012:1013:1014:1015:1016:1017:1018:1019:1020:1021:1022:1023:1024:1025:1026:1027:1028:1029:1030:1031:1032:1033:1034:1035:1036:1037:1038:1039:1040:1041:1042:1043:1044:1045:1046:1047:1048:1049:1050:1051:1052:1053:1054:1055:1056:1057:1058:1059:1060:1061:1062:1063:1064:1065:1066:1067:1068:1069:1070:1071:1072:1073:1074:1075:1076:1077:1078:1079:1080:1081:1082:1083:1084:1085:1086:1087:1088:1089:1090:1091:1092:1093:1094:1095:1096:1097:1098:1099:1100:1101:1102:1103:1104:1105:1106:1107:1108:1109:1110:1111:1112:1113:1114:1115:1116:1117:1118:1119:1120:1121:1122:1123:1124:1125:1126:1127:1128:1129:1130:1131:1132:1133:1134:1135:1136:1137:1138:1139:1140:1141:1142:1143:1144:1145:1146:1147:1148:1149:1150:1151:1152:1153:1154:1155:1156:1157:1158:1159:1160:1161:1162:1163:1164:1165:1166:1167:1168:1169:1170:1171:1172:1173:1174:1175:1176:1177:1178:1179:1180:1181:1182:1183:1184:1185:1186:1187:1188:1189:1190:1191:1192:1193:1194:1195:1196:1197:1198:1199:1200:1201:1202:1203:1204:1205:1206:1207:1208:1209:1210:1211:1212:1213:1214:1215:1216:1217:1218:1219:1220:1221:1222:1223:1224:1225:1226:1227:1228:1229:1230:1231:1232:1233:1234:1235:1236:1237:1238:1239:1240:1241:1242:1243:1244:1245:1246:1247:1248:1249:1250:1251:1252:1253:1254:1255:1256:1257:1258:1259:1260:1261:1262:1263:1264:1265:1266:1267:1268:1269:1270:1271:1272:1273:1274:1275:1276:1277:1278:1279:1280:1281:1282:1283:1284:1285:1286:1287:1288:1289:1290:1291:1292:1293:1294:1295:1296:1297:1298:1299:1300:1301:1302:1303:1304:1305:1306:1307:1308:1309:1310:1311:1312:1313:1314:1315:1316:1317:1318:1319:1320:1321:1322:1323:1324:1325:1326:1327:1328:1329:1330:1331:1332:1333:1334:1335:1336:1337:1338:1339:1340:1341:1342:1343:1344:1345:1346:1347:1348:1349:1350:1351:1352:1353:1354:1355:1356:1357:1358:1359:1360:1361:1362:1363:1364:1365:1366:1367:1368:1369:1370:1371:1372:1373:1374:1375:1376:1377:1378:1379:1380:1381:1382:1383:1384:1385:1386:1387:1388:1389:1390:1391:1392:1393:1394:1395:1396:1397:1398:1399:1400:1401:1402:1403:1404:1405:1406:1407:1408:1409:1410:1411:1412:1413:1414:1415:1416:1417:1418:1419:1420:1421:1422:1423:1424:1425:1426:1427:1428:1429:1430:1431:1432:1433:1434:1435:1436:1437:1438:1439:1440:1441:1442:1443:1444:1445:1446:1447:1448:1449:1450:1451:1452:1453:1454:1455:1456:1457:1458:1459:1460:1461:1462:1463:1464:1465:1466:1467:1468:1469:1470:1471:1472:1473:1474:1475:1476:1477:1478:1479:1480:1481:1482:1483:1484:1485:1486:1487:1488:1489:1490:1491:1492:1493:1494:1495:1496:1497:1498:1499:1500:1501:1502:1503:1504:1505:1506:1507:1508:1509:1510:1511:1512:1513:1514:1515:1516:1517:1518:1519:1520:1521:1522:1523:1524:1525:1526:1527:1528:1529:1530:1531:1532:1533:1534:1535:1536:1537:1538:1539:1540:1541:1542:1543:1544:1545:1546:1547:1548:1549:1550:1551:1552:1553:1554:1555:1556:1557:1558:1559:1560:1561:1562:1563:1564:1565:1566:1567:1568:1569:1570:1571:1572:1573:1574:1575:1576:1577:1578:1579:1580:1581:1582:1583:1584:1585:1586:1587:1588:1589:1590:1591:1592:1593:1594:1595:1596:1597:1598:1599:1600:1601:1602:1603:1604:1605:1606:1607:1608:1609:1610:1611:1612:1613:1614:1615:1616:1617:1618:1619:1620:1621:1622:1623:1624:1625:1626:1627:1628:1629:1630:1631:1632:1633:1634:1635:1636:1637:1638:1639:1640:1641:1642:1643:1644:1645:1646:1647:1648:1649:1650:1651:1652:1653:1654:1655:1656:1657:1658:1659:1660:1661:1662:1663:1664:1665:1666:1667:1668:1669:1670:1671:1672:1673:1674:1675:1676:1677:1678:1679:1680:1681:1682:1683:1684:1685:1686:1687:1688:1689:1690:1691:1692:1693:1694:1695:1696:1697:1698:1699:1700:1701:1702:1703:1704:1705:1706:1707:1708:1709:1710:1711:1712:1713:1714:1715:1716:1717:1718:1719:1720:1721:1722:1723:1724:1725:1726:1727:1728:1729:1730:1731:1732:1733:1734:1735:1736:1737:1738:1739:1740:1741:1742:1743:1744:1745:1746:1747:1748:1749:1750:1751:1752:1753:1754:1755:1756:1757:1758:1759:1760:1761:1762:1763:1764:1765:1766:1767:1768:1769:1770:1771:1772:1773:1774:1775:1776:1777:1778:1779:1780:1781:1782:1783:1784:1785:1786:1787:1788:1789:1790:1791:1792:1793:1794:1795:1796:1797:1798:1799:1800:1801:1802:1803:1804:1805:1806:1807:1808:1809:1810:1811:1812:1813:1814:1815:1816:1817:1818:1819:1820:1821:1822:1823:1824:1825:1826:1827:1828:1829:1830:1831:1832:1833:1834:1835:1836:1837:1838:1839:1840:1841:1842:1843:1844:1845:1846:1847:1848:1849:1850:1851:1852:1853:1854:1855:1856:1857:1858:1859:1860:1861:1862:1863:1864:1865:1866:1867 -1:1:2:7:3:4:5:6 -1:3:1:5:7:8:10:12:4:6:9:11:2 -1:2012:2013:2014:2015:2011:2016 -1:0:5:6:7:1:2:3:4:9:11:12:13:14:16:17:18:19:20:21:22:23:24:25:26:27:28:29:30:8:10 -1:0:4:3:2 -1:0:1:2:3 -1:0:1 -1:0:1 -1:0:1 -1:0:1 [0:28663] [0:28663] [0:28663] [0:28663] [0:28663] [0:28663] [0:28663] [0:28663] [0:28663] [0:28663] [0:28663] [0:28663] [0:28663] [0:28663]
tree_sizes=3198 3348 3374 3382 3380 3462 3472 3495 3467 3589 3444 3433 3535 3563 3542 3261 3687 3511 3392 3756 3510 3648 3497 3499 3479 3263 3624 3676 3516 3511 3538 3391 3533 3639 3889 3540 3785 3553 3385 3689 3521 3307 3536 3612 3604 3466 3750 3384 3413 3688 3816 3587 3714 3591 3432 3579 3433 3452 3584 3565 3732 3690 3450 3822 3711 3347 3886 3487 3461 3733 3627 3576 3749 3495 3457 3463 3450 3454 3612 3475 3752 3597 3360 3550 3388 3532 3358 3523 3737 3643 3650 3667 3476 3332 3481 3439 3439 3642 3478 3623 3819 3378 3327 3494 3461 3372 3591 3511 3765 3601 3497 3505 3474 3477 3477 3443 3661 3505 3651 3890 3472 3491 3526 3437 3618 3365 3515 3499 3409 3500 3646 3505 3494 3410 3356 3623 3608 3593 3732 3521 3503 3634 3486 3486 3601 3471 3514 3638 3541 3435

Tree=0
num_leaves=31
num_cat=6
split_feature=12 19 0 0 12 19 12 12 12 17 12 12 12 19 2 12 19 19 2 12 19 19 3 9 17 12 15 12 19 19
split_gain=559601 100064 49637.6 16997.8 13381.5 3001.58 2814.51 2392.13 2249.16 1220.24 919.26 906.901 673.816 458.229 451.537 416.899 407.199 406.071 373.362 219.177 153.551 146.711 133.79 133.374 128.732 124.14 118.184 99.1683 98.967 94.8727
threshold=5292.0000000000009 1712.5000000000002 0 1 3275.5000000000005 2550.5000000000005 16974.500000000004 4159.0000000000009 6671.0000000000009 5788.0000000000009 2122.5000000000005 2266.5000000000005 14015.000000000002 3531.5000000000005 2 1377.5000000000002 2985.5000000000005 4423.0000000000009 3 11560.000000000002 304.50000000000006 6066.0000000000009 4 5 6547.5000000000009 2949.5000000000005 14586.500000000002 3687.5000000000005 2152.5000000000005 3107.5000000000005
decision_type=2 2 1 1 2 2 2 2 2 2 2 2 2 2 1 2 2 2 1 2 2 2 1 1 2 2 2 2 2 2
left_child=1 3 6 20 5 10 12 13 21 16 28 15 19 23 26 -5 -7 -9 24 -2 -1 -4 -12 29 -10 -18 -8 -15 -3 -6
right_child=2 4 8 11 7 9 14 17 18 -11 22 -13 -14 27 -16 -17 25 -19 -20 -21 -22 -23 -24 -25 -26 -27 -28 -29 -30 -31
leaf_value=8.3183455681790832 8.5789640718775004 8.4106228145632222 8.5142130362202213 8.3814161359389203 8.4499094514509974 8.4438166951536928 8.6200605769901379 8.485636917064765 8.5485308654212044 8.5534162206872733 8.4418694236158238 8.4597208704136442 8.6054525590387332 8.4710193684178847 8.6132812733846364 8.3973053018047636 8.4502613323880418 8.5021383420792329 8.5357120632088819 8.5946905537228471 8.3286646879234834 8.5245453982470973 8.430984780407865 8.4687656142845924 8.5613055392544002 8.4592362869141393 8.6278788098340033 8.4800215890991417 8.4244728060256815 8.462205405664994
leaf_weight=47601.058135986328 11458.764591217041 26446.671012878418 33792.07954788208 30226.683940887451 9975.6195831298828 58923.224075317383 30129.015609741211 26609.104797363281 25531.704208374023 1147.0434303283691 17698.881435394287 1924.8964691162109 93621.485977172852 21912.105770111084 58796.055263519287 36397.162998199463 26994.555278778076 33926.686199188232 21154.829429626465 39105.602073669434 20686.775501251221 23161.703109741211 37406.5920753479 18001.382946014404 11415.255401611328 35917.327114105225 53967.93115234375 27714.090957641602 6409.7423667907715 16915.598243713379
leaf_count=1296 99 546 448 687 178 1077 172 407 276 12 326 33 632 358 364 786 481 479 248 294 548 290 718 297 113 617 278 435 126 287
internal_value=8.50011 8.42979 8.58804 8.35683 8.45706 8.44067 8.61028 8.47936 8.53253 8.45076 8.42656 8.39207 8.60043 8.46942 8.62023 8.3901 8.44979 8.49488 8.54638 8.59113 8.3215 8.51841 8.43446 8.4621 8.55246 8.45539 8.62506 8.47605 8.41332 8.45764
internal_weight=0 502835 402134 136837 365999 210944 287079 155055 115056 122982 87961.9 68548.7 144186 94518.8 142893 66623.8 121835 60535.8 58101.8 50564.4 68287.8 56953.8 55105.5 44892.6 36947 62911.9 84096.9 49626.2 32856.4 26891.2
internal_count=12908 9694 3214 3350 6344 3903 1839 2441 1375 2187 1716 1506 1025 1555 814 1473 2175 886 637 393 1844 738 1044 762 389 1098 450 793 672 465
cat_boundaries=0 1 2 3 4 5 6
cat_threshold=4 16 6 6 4292 1
is_linear=0
shrinkage=1


Tree=1
num_leaves=31
num_cat=5
split_feature=12 19 0 0 12 19 12 12 12 14 12 12 12 2 19 19 12 12 2 12 19 12 15 15 19 12 9 19 14 15
split_gain=464296 91997.6 41569.3 16847.4 12294.8 2901.68 2659.88 2291.09 1711.36 1115.34 734.644 688.654 616.761 441.313 424.45 363.452 362.894 345.952 310.306 187.953 168.922 137.257 120.092 119.995 111.639 111.069 108.83 116.924 105.858 105.627
threshold=5399.5000000000009 1660.5000000000002 0 1 3235.5000000000005 2225.5000000000005 16974.500000000004 4159.0000000000009 6671.0000000000009 5471.0000000000009 2196.5000000000005 2753.5000000000005 13098.000000000002 2 3642.0000000000005 4423.0000000000009 1924.5000000000002 1354.5000000000002 3 304.50000000000006 3147.5000000000005 14586.500000000002 5702.5000000000009 15867.000000000002 2550.5000000000005 11560.000000000002 4 3107.5000000000005 2494.5000000000005 4075.5000000000005
decision_type=2 2 1 1 2 2 2 2 2 2 2 2 2 1 2 2 2 2 1 2 2 2 2 2 2 2 1 2 2 2
left_child=1 3 6 19 5 16 12 14 29 11 17 24 25 23 26 -9 -3 -5 22 -1 -13 -14 -10 -8 -7 -2 27 -6 -18 -4
right_child=2 4 8 10 7 9 13 15 18 -11 -12 20 21 -15 -16 -17 28 -19 -20 -21 -22 -23 -24 -25 -26 -27 -28 -29 -30 -31
leaf_value=-0.17837390113057308 0.072094522963524921 -0.085680160516369369 0.0023847607296646847 -0.11154450933731636 -0.045771779889078476 -0.059972083958788724 0.11403862578402441 -0.012761957844325348 0.041742068365762601 0.049957099162578615 -0.03707676409007616 -0.046589017803476206 0.09070507872980027 0.10523586088557098 -0.020933716932063536 0.0024781690574244299 -0.072980523205230449 -0.09626804375100978 0.032147387011959065 -0.16655083758979425 -0.037011220465589544 0.098392395331760918 0.053182282592240837 0.12196615135302047 -0.052529729782918616 0.084651103494842006 -0.028362274777272902 -0.033378238595636212 -0.059591187368048554 0.018388226053507189
leaf_weight=43675.123561859131 11289.492816925049 22924.434585571289 4505.1495628356934 26636.11775970459 11402.907440185547 35782.743061065674 50134.301445007324 27094.095855712891 18346.519157409668 1137.2447738647461 1737.0898323059082 43550.301048278809 33160.452587127686 57006.218204498291 44825.524127960205 37042.659770965576 17650.021686553955 33428.762142181396 21091.104919433594 19426.520133972168 31904.293796539307 77532.050727844238 18356.694747924805 30838.47721862793 46151.442726135254 18734.720752716064 21034.546424865723 22898.587047576904 8873.458911895752 48785.283966064453
leaf_count=1290 99 489 63 628 205 686 289 414 202 12 30 787 246 364 715 521 357 744 248 554 551 533 187 161 854 147 348 388 170 626
internal_value=0 -0.0640802 0.0816949 -0.138344 -0.0391635 -0.0553161 0.102312 -0.018717 0.0299585 -0.0487192 -0.101172 -0.0494322 0.0926415 0.112181 -0.0281665 -0.00395991 -0.0764654 -0.103042 0.0418799 -0.174706 -0.0425393 0.0960895 0.0474508 0.117043 -0.05578 0.0799297 -0.0340254 -0.0374982 -0.0685011 0.0170353
internal_weight=0 497176 389780 124904 372272 207974 278696 164298 111085 158526 61802 157389 140717 137979 100162 64136.8 49447.9 60064.9 57794.3 63101.6 75454.6 110693 36703.2 80972.8 81934.2 30024.2 55336 34301.5 26523.5 53290.4
internal_count=12908 9743 3165 3246 6497 3906 1839 2591 1326 2890 1402 2878 1025 814 1656 935 1016 1372 637 1844 1338 779 389 450 1540 246 941 593 527 689
cat_boundaries=0 1 2 3 4 5
cat_threshold=4 16 6 6 1
is_linear=0
shrinkage=0.1


Tree=2
num_leaves=31
num_cat=4
split_feature=12 0 12 19 12 12 12 12 19 19 13 12 2 14 19 12 25 12 12 25 12 12 12 19 15 19 12 3 19 11
split_gain=384086 81362.2 38935.6 21536.9 5810.16 2449.49 2270.46 1625.68 1105.02 856.896 760.37 551.213 420.807 385.819 303.031 258.823 226.938 226.315 197.646 174.86 161.42 147.594 141.66 129.005 118.56 108.008 106.779 96.8227 95.7638 93.2328
threshold=5200.5000000000009 0 10142.000000000002 2225.5000000000005 3496.0000000000005 16974.500000000004 1712.5000000000002 6671.0000000000009 2954.5000000000005 4307.0000000000009 4896.5000000000009 14015.000000000002 1 2530.5000000000005 1354.5000000000002 8451.0000000000018 304.50000000000006 2565.5000000000005 4159.0000000000009 14003.500000000002 2949.5000000000005 4296.0000000000009 3037.5000000000005 6066.0000000000009 14586.500000000002 3283.5000000000005 2122.5000000000005 2 4010.5000000000005 3
decision_type=2 1 2 2 2 2 2 2 2 2 2 2 1 2 2 2 2 2 2 2 2 2 2 2 2 2 2 1 2 1
left_child=1 16 7 6 8 11 14 23 17 18 20 19 24 26 -3 -9 -1 -5 25 -4 -10 -11 -15 -2 -7 -6 -8 -19 -22 -14
right_child=2 3 5 4 9 12 13 15 10 21 -12 -13 29 22 -16 -17 -18 27 -20 -21 28 -23 -24 -25 -26 -27 -28 -29 -30 -31
leaf_value=-0.17440123558198675 0.010752583289498137 -0.10317369356608144 0.069864657065554683 -0.054347250885707236 -0.030722453565632652 0.10391823365761627 -0.07452225280805734 0.033204662289756076 -0.041138074670032498 -0.010816312403102425 0.045054759956847476 0.089938101685308747 0.093442837217688479 -0.054570012575779731 -0.089088855318519011 0.047454512240927921 -0.16086479922517402 -0.037466441175606761 -0.012623096543441726 0.081965793456005659 -0.033630566647664388 0.0013336798823238827 -0.023169101039180955 0.020212283767194295 0.11202222510666174 -0.020775673507217804 -0.062499639556858992 -0.047308563854661402 -0.02173424678251086 0.10164241939054741
leaf_weight=40716.128240585327 36934.97146987915 26409.320772171021 21151.67497253418 45523.219799041748 15460.203517913818 28216.491088867188 25637.010501861572 38691.508163452148 29476.566188812256 15189.953723907471 1200.7946395874023 89097.379684448242 28474.166355133057 9597.4046745300293 36231.01665687561 19008.135108947754 17799.321664810181 14002.391952514648 23224.650848388672 27421.377246856689 54745.775363922119 29251.474319458008 1689.6236877441406 23645.238159179688 50116.743759155273 37146.464183807373 10377.639804840088 40474.982570648193 7721.0180778503418 27031.679229736328
leaf_count=1300 492 639 181 877 264 172 548 442 532 232 13 632 194 186 825 196 544 250 357 211 947 414 28 297 278 600 208 753 126 170
internal_value=0 -0.0597369 0.0737709 -0.0444564 -0.031099 0.0946313 -0.0825392 0.0258863 -0.0418432 -0.013845 -0.0340059 0.0852661 0.104265 -0.066002 -0.0950271 0.037899 -0.170255 -0.0491431 -0.0203067 0.0766962 -0.0350384 -0.00281915 -0.0498694 0.0144448 0.109089 -0.0236989 -0.0710579 -0.0447944 -0.0321602 0.0974185
internal_weight=0 481875 389789 423360 313417 271510 109942 118280 193145 120273 93144.2 137670 133839 47301.7 62640.3 57699.6 58515.4 100001 75831.3 48573.1 91943.4 44441.4 11287 60580.2 78333.2 52606.7 36014.7 54477.4 62466.8 55505.8
internal_count=12908 9643 3265 7799 5365 1838 2434 1427 3498 1867 1618 1024 814 970 1464 638 1844 1880 1221 392 1605 646 214 789 450 864 756 1003 1073 364
cat_boundaries=0 1 2 3 4
cat_threshold=16 6 4164 1
is_linear=0
shrinkage=0.1


Tree=3
num_leaves=31
num_cat=3
split_feature=12 0 12 19 12 12 12 19 12 12 22 12 14 12 12 19 18 19 2 17 12 19 18 19 15 19 12 3 20 19
split_gain=316903 78094.6 26928.1 19992.6 6458.14 2031.03 1997.62 1247.96 1232.4 810.989 597.787 479.361 327.559 323.19 288.787 265.421 221.763 219.774 195.349 177.761 144.593 140.977 121.665 99.4106 95.5402 92.4684 91.884 91.8367 90.659 74.8909
threshold=5628.0000000000009 0 10874.000000000002 2225.5000000000005 3714.5000000000005 18122.000000000004 1712.5000000000002 3107.5000000000005 7259.0000000000009 4637.0000000000009 6330.5000000000009 14586.500000000002 2530.5000000000005 2686.5000000000005 1306.5000000000002 304.50000000000006 3793.5000000000005 9652.5000000000018 1 3764.5000000000005 3198.5000000000005 6066.0000000000009 2875.5000000000005 12841.000000000002 15867.000000000002 16068.000000000002 2122.5000000000005 2 4296.0000000000009 6996.5000000000009
decision_type=2 1 2 2 2 2 2 2 2 2 2 2 2 2 2 2 2 2 1 2 2 2 2 2 2 2 2 1 2 2
left_child=1 15 8 6 7 11 14 13 21 16 20 23 26 27 -3 -1 -6 29 24 -11 -9 -2 -14 -4 -7 -13 -8 -5 -18 -10
right_child=2 3 5 4 9 18 12 10 17 19 -12 25 22 -15 -16 -17 28 -19 -20 -21 -22 -23 -24 -25 -26 -27 -28 -29 -30 -31
leaf_value=-0.16993119930310788 0.012291243272624493 -0.096843020236578259 0.066216806752268473 -0.041186073989925992 -0.019911947556463968 0.098795585652332429 -0.068017384991041957 -0.032750955297768829 0.027114204477548032 -0.008321722608858835 0.0432302377789055 0.081388456633790005 -0.049096091605887571 -0.037746929508929356 -0.082464837035029243 -0.15482270744204615 -0.012705651829903462 0.053691151275200549 0.091791275765978647 0.0067109924606519036 -0.024676495141349217 0.022252287276659732 -0.017484251751197367 0.075775626974922766 0.10626041730561342 0.087434295882421811 -0.056806271023750105 -0.050218912573218026 -0.002726199743881413 0.038697025339450117
leaf_weight=37652.41192817688 24041.15274810791 21537.721801757812 14822.489875793457 15895.115907669067 31847.617389678955 42633.71622467041 25298.785238265991 40295.811531066895 6865.5349502563477 10099.870056152344 1183.5336837768555 45417.567108154297 9827.3356437683105 63216.613346099854 39751.461553573608 16822.8395652771 21934.856079101562 9367.9049911499023 30810.074554443359 35567.360408782959 49325.405712127686 34738.493541717529 1389.6523895263672 40903.596218109131 28678.535690307617 57105.442405700684 10281.347913742065 45981.879913330078 15561.532730102539 29861.568901062012
leaf_count=1296 314 538 125 297 516 259 548 711 80 151 13 331 191 1150 926 548 341 89 203 487 826 423 23 317 160 394 208 894 228 321
internal_value=0 -0.0523144 0.0705608 -0.0382974 -0.0261018 0.0877933 -0.0756382 -0.0362981 0.0277778 -0.00696127 -0.0273746 0.0806983 -0.0600803 -0.0427757 -0.0875175 -0.165235 -0.0137758 0.0400191 0.0987877 0.00338632 -0.028307 0.0181782 -0.0451798 0.0732331 0.101783 0.084756 -0.0647778 -0.0479133 -0.00856404 0.0365318
internal_weight=0 493471 365246 438996 330910 260371 108086 215898 104875 115011 90804.8 158249 46797.1 125094 61289.2 54475.3 69344 46095 102122 45667.2 89621.2 58779.6 11217 55726.1 71312.3 102523 35580.1 61877 37496.4 36727.1
internal_count=12908 9892 3016 8048 5614 1789 2434 3891 1227 1723 1550 1167 970 2341 1464 1844 1085 490 622 638 1537 737 214 442 419 725 756 1191 569 401
cat_boundaries=0 1 2 3
cat_threshold=16 6 4164
is_linear=0
shrinkage=0.1


Tree=4
num_leaves=31
num_cat=4
split_feature=12 0 12 19 12 12 12 19 12 19 14 12 12 12 19 19 12 12 12 11 19 19 12 12 13 12 3 12 19 3
split_gain=260734 71248.6 22899.3 16723.3 5269.57 1820.9 1749.71 1030.89 1017.8 679.381 531.97 420.469 330.971 308.469 218.92 188.931 187.472 181.214 162.908 158.515 165.997 158.06 134.556 127.426 106.193 98.1017 92.1061 86.5775 82.0009 81.9071
threshold=5628.0000000000009 0 10874.000000000002 2225.5000000000005 3714.5000000000005 18122.000000000004 1659.5000000000002 2954.5000000000005 7520.5000000000009 4468.0000000000009 5628.0000000000009 14586.500000000002 2122.5000000000005 304.50000000000006 1354.5000000000002 3584.5000000000005 20832.500000000004 2499.0000000000005 6546.0000000000009 1 3263.5000000000005 9652.5000000000018 4823.5000000000009 3037.5000000000005 2620.5000000000005 2998.5000000000005 2 12240.500000000002 16068.000000000002 3
decision_type=2 1 2 2 2 2 2 2 2 2 2 2 2 2 2 2 2 2 2 1 2 2 2 2 2 2 1 2 2 1
left_child=1 13 8 6 7 11 14 17 18 19 15 27 -8 -1 -3 25 -7 -5 -2 20 -6 -10 29 -14 -17 -9 -19 -4 -13 -11
right_child=2 3 5 4 9 16 12 10 21 22 -12 28 23 -15 -16 24 -18 26 -20 -21 -22 -23 -24 -25 -26 -27 -28 -29 -30 -31
leaf_value=-0.16494505683934488 0.012927597680915568 -0.088322286987153387 0.059042348709292806 -0.045645401650107865 -0.030503437142081036 0.086954948995204923 -0.061994597285455068 -0.034738642081600796 0.033883942873292182 -0.01206357385486761 0.036985315802892396 0.074486939000220312 -0.048213795926962066 -0.14818129656952678 -0.075712072406707853 -0.03743522374751064 0.095630407753255708 -0.030231295710156689 0.023329218276953168 -0.0074421244023734519 -0.013992784483117594 0.048674027939512074 0.0069675574778504156 -0.022122876200670889 -0.01952474294745753 -0.027162270579660204 -0.039081741419861211 0.068837309516430537 0.080228779537529937 0.00067268668786531248
leaf_weight=34922.947114944458 38087.04557800293 24973.649971008301 11376.668514251709 37215.453384399414 7750.2981643676758 51545.205402374268 31687.207014083862 26848.95405960083 32350.519012451172 7326.0576362609863 1316.024284362793 44702.846824645996 17107.998680114746 16008.150503158569 30679.336296081543 3662.4598159790039 48201.99430847168 16116.760032653809 24901.509124755859 27350.818836212158 28414.435432434082 9303.7596435546875 27922.465305328369 2101.861946105957 34439.107471466064 47021.787631988525 48545.03955078125 43637.089260101318 56068.280303955078 16203.021068572998
leaf_count=1290 491 634 98 729 134 336 695 490 352 112 15 331 342 554 727 67 286 290 295 418 448 89 379 36 571 816 913 344 394 232
internal_value=0 -0.0477263 0.0644621 -0.0346686 -0.0235518 0.0805978 -0.0691159 -0.032787 0.0250597 -0.00626786 -0.026223 0.0738431 -0.0557159 -0.159645 -0.0813708 -0.0269659 0.0911473 -0.0400861 0.0170397 -0.0131866 -0.0175311 0.0371874 0.00227318 -0.045359 -0.0212464 -0.029916 -0.0368865 0.0668117 0.0776817 -0.00329774
internal_weight=0 487614 360175 436683 330133 255532 106550 215166 104643 114967 113288 155785 50897.1 50931.1 55653 111972 99747.2 101877 62988.6 63515.6 36164.7 41654.3 51451.5 19209.9 38101.6 73870.7 64661.8 55013.8 100771 23529.1
internal_count=12908 9892 3016 8048 5614 1789 2434 3891 1227 1723 1959 1167 1073 1844 1361 1944 622 1932 786 1000 582 441 723 378 638 1306 1203 442 725 344
cat_boundaries=0 1 2 3 4
cat_threshold=16 1 4164 4152
is_linear=0
shrinkage=0.1


Tree=5
num_leaves=31
num_cat=8
split_feature=19 0 19 12 12 19 12 12 12 19 12 4 19 12 2 25 12 18 12 3 19 15 15 3 2 11 11 19 13 12
split_gain=214213 63706.3 20643.3 13945.3 3300.34 2540.4 1704.08 764.72 536.503 499.2 376.01 363.632 351.428 291.994 265.233 227.646 175.514 158.333 137.199 124.844 116.029 107.728 93.3272 93.2579 84.1109 81.8847 80.7243 79.8412 78.7219 77.6574
threshold=5498.5000000000009 0 10360.500000000002 2499.0000000000005 3798.0000000000005 1712.5000000000002 17447.500000000004 6671.0000000000009 4823.5000000000009 3243.5000000000005 14015.000000000002 1 2124.5000000000005 1427.5000000000002 2 7496.0000000000009 9076.0000000000018 3793.5000000000005 2875.5000000000005 3 12841.000000000002 3315.5000000000005 15867.000000000002 4 5 6 7 16972.000000000004 2753.5000000000005 5961.5000000000009
decision_type=2 1 2 2 2 2 2 2 2 2 2 1 2 2 1 2 2 2 2 1 2 2 2 1 1 1 1 2 2 2
left_child=1 11 7 5 9 13 10 29 17 18 20 19 -7 -3 22 21 24 -6 -5 -1 -4 -10 -8 -14 -9 -16 27 -12 -11 -2
right_child=2 3 6 4 8 12 14 16 15 28 26 -13 23 -15 25 -17 -18 -19 -20 -21 -22 -23 -24 -25 -26 -27 -28 -29 -30 -31
leaf_value=-0.13050852772512747 0.0082924379310923453 -0.080006645607063595 0.051695494443069138 -0.035197511011186823 -0.015624584561526237 -0.054586755995762792 0.083608178160172145 0.029743145221954814 -0.012299770421114513 -0.029420296125596324 0.064924630059721183 -0.16202754397914215 -0.036247065445079558 -0.066049845307543389 0.071714702960059898 0.04248043180106699 0.039711430697453837 -0.0058015815565321815 -0.028126460774980683 -0.14922748043833001 0.062353931755735864 0.0055692255426925442 0.091053002721150786 -0.044977862022601713 0.020959016591767181 0.080710012246226551 0.073686426503618063 0.072186153890766935 -0.0196951859846488 0.016304446777499218
leaf_weight=6882.0521373748779 27537.068279266357 30675.389123916626 15529.38850402832 51782.910276412964 28674.00093460083 30350.504545211792 43557.000350952148 25943.431106567383 3808.6870613098145 9515.3979606628418 40418.245674133301 25811.837745666504 23358.112766265869 29315.580337524414 20781.534446716309 1571.0995941162109 11774.811889648438 38362.168361663818 58371.247329711914 15142.387397766113 29837.685977935791 29553.537212371826 27450.038619995117 27689.797550201416 19311.706680297852 19725.090118408203 33622.35619354248 24211.944679260254 66450.221839904785 21576.736488342285
leaf_count=244 367 787 138 978 462 662 277 285 58 170 311 1027 449 691 149 16 118 577 1048 573 240 403 161 555 228 131 241 175 1117 270
internal_value=0 -0.044046 0.0580187 -0.0318503 -0.0192274 -0.0575727 0.0734369 0.0209588 -0.00476707 -0.0271497 0.0662355 -0.153501 -0.0460653 -0.0731864 0.0827117 0.00528107 0.0288356 -0.0100033 -0.0314505 -0.14344 0.0587055 0.00352927 0.086474 -0.0409988 0.0260059 0.0760763 0.0697124 0.067645 -0.0209133 0.0118123
internal_weight=0 477315 361277 429479 288089 141389 255133 106144 101969 186120 143620 47836.3 81398.4 59991 111514 34933.3 57029.9 67036.2 110154 22024.4 45367.1 33362.2 71007 51047.9 45255.1 40506.6 98252.5 64630.2 75965.6 49113.8
internal_count=12908 9817 3091 7973 4829 3144 1823 1268 1516 3313 1105 1844 1666 1478 718 477 631 1039 2026 817 378 461 438 1004 513 280 727 486 1287 637
cat_boundaries=0 1 65 66 67 68 69 70 71
cat_threshold=16 0 0 0 0 0 0 0 0 0 0 0 0 0 0 0 0 0 0 0 0 0 0 0 0 0 0 0 0 0 0 0 0 0 0 0 0 0 0 0 0 0 0 0 0 0 0 0 0 0 0 0 0 0 0 0 0 0 0 0 0 0 0 3221225472 1 6 7680 4182 6 1 1
is_linear=0
shrinkage=0.1


Tree=6
num_leaves=31
num_cat=8
split_feature=19 0 13 12 12 19 19 12 19 12 4 12 12 21 12 25 12 3 19 19 11 12 15 25 12 3 11 9 3 19
split_gain=175521 57621.9 15833.6 12010 3037.28 2159.07 1380.23 712.345 484.199 428.063 403.398 345.814 297.957 202.797 194.964 152.162 148.881 140.422 139.62 120.421 116.68 114.477 96.4753 94.1023 80.3104 76.5725 71.2842 68.108 67.3176 68.0224
threshold=5647.5000000000009 0 10898.000000000002 2499.0000000000005 3897.0000000000005 1797.5000000000002 18115.000000000004 7259.0000000000009 3385.5000000000005 4823.5000000000009 1 1427.5000000000002 15073.000000000002 2019.5000000000002 19902.500000000004 7707.5000000000009 3119.5000000000005 2 9652.5000000000018 3975.5000000000005 3 6229.5000000000009 3315.5000000000005 14003.500000000002 1638.5000000000002 4 5 6 7 2861.5000000000005
decision_type=2 1 2 2 2 2 2 2 2 2 1 2 2 2 2 2 2 1 2 2 1 2 2 2 2 1 1 1 1 2
left_child=1 10 7 5 8 11 12 21 16 19 17 -3 23 -7 -8 22 28 -1 -9 26 -14 -2 -11 -4 -13 -15 -6 -18 -5 -30
right_child=2 3 6 4 9 13 14 18 -10 15 -12 24 20 25 -16 -17 27 -19 -20 -21 -22 -23 -24 -25 -26 -27 -28 -29 29 -31
leaf_value=-0.11534634912755962 0.0091486418900107915 -0.072970203798983405 0.051147779334200318 -0.025097820001021925 -0.018161451415214927 -0.047723953616112445 0.071676922159430709 0.027151329357422815 -0.017030537011203172 -0.010815756839737426 -0.15608871300294269 -0.063033127899330257 0.062247672932493649 -0.032879571191938288 0.080782103492242463 0.036188074785012181 -0.02579919677248621 -0.14016764530312739 0.040413199087778011 -0.0041599299673230122 0.069688584735164455 0.018098076503160941 0.0056437881792789973 0.059156241463907071 -0.053796402949695649 -0.041066855842766752 -0.0074374824984248106 -0.017653408192542391 -0.034621181702285779 -0.028004006739186821
leaf_weight=3438.1285781860352 30203.126815795898 30433.682027816772 22461.492134094238 21191.898439407349 13744.432426452637 23966.296653747559 41430.819366455078 35590.283432006836 65906.691249847412 3951.9246673583984 24199.987239837646 19808.682518005371 50661.691078186035 27114.198682785034 54388.414901733398 1526.2430648803711 28959.01185798645 17505.110151290894 10217.562057495117 33544.076126098633 36083.503051757812 27133.861911773682 36005.874359130859 42311.170070648193 17936.824478149414 20938.59220123291 11289.961463928223 15900.054763793945 35232.506042480469 27786.57523727417
leaf_count=124 396 792 191 385 226 515 285 391 1102 60 1027 480 380 525 337 16 517 693 97 500 255 327 488 334 408 424 175 271 678 509
internal_value=0 -0.0393429 0.0537257 -0.028186 -0.0167358 -0.0522844 0.0674515 0.0208119 -0.0240043 -0.0025727 -0.146871 -0.0650388 0.0615109 -0.0402101 0.0768452 0.00519955 -0.0275653 -0.13615 0.0301094 -0.00807684 0.0653429 0.0133838 0.0040159 0.0563791 -0.0586438 -0.0364625 -0.0133252 -0.022912 -0.0300442 -0.0316985
internal_weight=0 480381 350482 435238 295039 140198 247337 103145 194977 100063 45143.2 68179.2 151518 72019.1 95819.2 41484 129070 20943.2 45807.8 58578.5 86745.2 57337 39957.8 64772.7 37745.5 48052.8 25034.4 44859.1 84211 63019.1
internal_count=12908 9915 2993 8071 4927 3144 1782 1211 3462 1465 1844 1680 1160 1464 622 564 2360 817 488 901 635 723 548 525 888 949 401 788 1572 1187
cat_boundaries=0 1 65 66 67 68 69 70 71
cat_threshold=16 0 0 0 0 0 0 0 0 0 0 0 0 0 0 0 0 0 0 0 0 0 0 0 0 0 0 0 0 0 0 0 0 0 0 0 0 0 0 0 0 0 0 0 0 0 0 0 0 0 0 0 0 0 0 0 0 0 0 0 0 0 0 3221225472 1 5120 1 4214 1 1 4164
is_linear=0
shrinkage=0.1


Tree=7
num_leaves=31
num_cat=6
split_feature=19 0 19 12 12 12 19 12 12 12 4 12 12 25 3 15 2 12 19 18 17 3 19 12 15 25 19 11 19 19
split_gain=143550 50958.5 13225.9 9938.05 3145.77 1196.28 936.36 595.278 520.213 495.539 434.281 228.677 223.827 163.037 154.474 145.574 137.523 123.384 122.624 105.871 105.683 95.2972 114.658 94.9314 75.3573 62.0119 61.66 59.9025 59.6951 58.1856
threshold=5647.5000000000009 0 11094.500000000002 2221.5000000000005 3714.5000000000005 18122.000000000004 1712.5000000000002 7259.0000000000009 2949.5000000000005 4637.0000000000009 1 14586.500000000002 1306.5000000000002 2530.5000000000005 2 9120.0000000000018 3 9076.0000000000018 3584.5000000000005 3494.5000000000005 3793.5000000000005 4 2719.5000000000005 6129.0000000000009 15867.000000000002 304.50000000000006 16068.000000000002 5 13451.500000000002 3505.5000000000005
decision_type=2 1 2 2 2 2 2 2 2 2 1 2 2 2 1 2 1 2 2 2 2 1 2 2 2 2 2 1 2 2
left_child=1 10 7 6 8 11 12 23 21 19 14 28 -3 -8 -1 20 24 -9 -10 -6 -11 -5 -23 -2 -7 -16 -13 -18 -4 -15
right_child=2 3 5 4 9 16 13 17 18 15 -12 26 -14 29 25 -17 27 -19 -20 -21 -22 22 -24 -25 -26 -27 -28 -29 -30 -31
leaf_value=-0.10658721121627523 0.0077075913802707218 -0.069617206716994118 0.045902859986495077 -0.024079531746209352 -0.015120025299313106 0.070130725670164817 -0.044768866259117662 0.023488752068704627 -0.021556375484127411 -0.005641000118225061 -0.14961239453392694 0.055963364423105788 -0.056531443111291407 -0.033015031212733123 -0.13964785793798626 0.035063912929143605 0.059982220121011502 0.03428500317359582 -0.014137946692662226 -0.0067469814308240578 0.0052147357172324061 -0.034525611989669004 -0.026926747700754396 0.015864791044723093 0.077034570102481756 -0.12740136688132211 0.061033283675283434 0.069096288328647892 0.053026691503759715 -0.010177721913265735
leaf_weight=3263.5660667419434 26790.753383636475 19807.162696838379 17998.648849487305 27549.028636932373 22713.630321502686 39579.53385925293 35323.122117996216 30094.654678344727 73708.584079742432 11795.898593902588 22797.616016387939 43208.374176025391 38435.66835975647 7750.1066474914551 7430.599702835083 1422.2626113891602 15097.028930664062 16329.248107910156 31936.00736618042 45058.070617675781 37404.418865203857 42381.148490905762 37361.821083068848 30519.123645782471 26326.985504150391 9322.0438404083252 53928.273986816406 13806.275512695312 33951.279514312744 1303.2498435974121
leaf_count=122 353 532 155 511 373 259 773 334 1307 175 1027 331 939 154 319 15 110 161 530 693 508 842 697 370 160 376 394 93 273 22
internal_value=0 -0.0357223 0.0487782 -0.0254507 -0.0170293 0.0614989 -0.0526436 0.0188695 -0.0242949 -0.00396179 -0.139794 0.0559139 -0.0609816 -0.0417003 -0.128543 0.00352379 0.0702812 0.0272862 -0.0193138 -0.0095532 0.00261205 -0.0291995 -0.0309614 0.0120515 0.0728775 -0.132754 0.0587781 0.0643135 0.0505586 -0.0297276
internal_weight=0 476764 347630 433950 331331 243896 102619 103734 212937 118394 42813.8 149087 58242.8 44376.5 20016.2 50622.6 94809.8 46423.9 105645 67771.7 49200.3 107292 79743 57309.9 65906.5 16752.6 97136.6 28903.3 51949.9 9053.36
internal_count=12908 9915 2993 8071 5651 1775 2420 1218 3887 1764 1844 1153 1471 949 817 698 622 495 1837 1066 683 2050 1539 723 419 695 725 203 428 176
cat_boundaries=0 1 65 66 67 68 69
cat_threshold=16 0 0 0 0 0 0 0 0 0 0 0 0 0 0 0 0 0 0 0 0 0 0 0 0 0 0 0 0 0 0 0 0 0 0 0 0 0 0 0 0 0 0 0 0 0 0 0 0 0 0 0 0 0 0 0 0 0 0 0 0 0 0 3221225472 1 3072 6 4164 1
is_linear=0
shrinkage=0.1


Tree=8
num_leaves=31
num_cat=9
split_feature=12 0 12 13 19 19 12 12 19 4 13 12 12 14 19 18 3 25 12 2 11 3 12 16 12 3 13 13 3 3
split_gain=117262 44501.3 11220.3 7916.23 2527.59 1051.68 846.955 566.013 461.047 453.746 371.035 206.881 178.017 169.458 164.547 163.389 154.874 141.264 100.603 96.5329 95.5674 86.9671 84.9873 79.5899 79.3763 76.7714 66.5603 62.3458 59.8355 53.962
threshold=5628.0000000000009 0 10874.000000000002 2194.5000000000005 3718.5000000000005 17755.500000000004 1712.5000000000002 2875.5000000000005 7146.0000000000009 1 4349.5000000000009 15073.000000000002 18810.000000000004 4154.0000000000009 1329.5000000000002 7539.5000000000009 2 2473.5000000000005 4159.0000000000009 3 4 5 9076.0000000000018 4000.5000000000005 2517.5000000000005 6 14020.500000000002 6547.5000000000009 7 8
decision_type=2 1 2 2 2 2 2 2 2 1 2 2 2 2 2 2 1 2 2 1 1 1 2 2 2 1 2 2 1 1
left_child=1 9 8 6 7 11 14 24 27 16 18 26 -7 19 -3 21 -1 -8 25 -9 -13 -12 28 -21 29 -6 -4 -2 -10 -5
right_child=2 3 5 4 10 12 17 13 22 -11 15 20 -14 -15 -16 -17 -18 -19 -20 23 -22 -23 -24 -25 -26 -27 -28 -29 -30 -31
leaf_value=-0.10732304586806973 0.0075220953479941555 -0.062699560217804318 0.042675775422957113 -0.023476900081341359 -0.016735397641509449 0.057420021298551449 -0.040674327856941452 -0.01651353311227869 0.01391018344150592 -0.14265372003977034 0.0076814785004427543 0.050742429389540447 0.066494207789628237 -0.0088981225618795772 -0.05160741840394252 0.035216467605424219 -0.12783538652724419 -0.027642064285682968 -0.0030770330944016877 -0.025945027424054329 0.05776793401604912 -0.0011945842759426249 0.030258898961263155 -0.016769270529060517 -0.025053256463939216 -0.0079839521666407749 0.049155789504227915 0.014194907235765783 0.023609575124472589 -0.032520968954095182
leaf_weight=6711.2169437408447 31870.145168304443 21773.322032928467 30890.401439666748 8414.5813121795654 17245.794050216675 31611.548011779785 31972.92541885376 60457.712829589844 8802.5699653625488 21583.935716629028 16397.092121124268 46762.646282196045 68397.540435791016 19438.833141326904 34668.668888092041 1498.8607559204102 12512.560777664185 11241.943048477173 20536.565082550049 27474.271198272705 33044.287437438965 33733.00902557373 14304.946258544922 14411.763004302979 51430.173442840576 24110.453006744385 32558.451187133789 24974.299545288086 24106.372375488281 36057.704483032227
leaf_count=269 410 587 262 162 289 228 703 1043 103 1027 225 358 442 316 854 16 548 219 303 505 239 486 143 250 971 388 260 304 267 731
internal_value=0 -0.0325639 0.0440013 -0.0231085 -0.0156738 0.0557567 -0.0478197 -0.0219824 0.0165201 -0.13236 -0.0035768 0.050263 0.063626 -0.0174573 -0.0558864 0.00268273 -0.120734 -0.0372841 -0.00879829 -0.0190831 0.0536514 0.00170999 0.0238238 -0.0227825 -0.0277285 -0.0116393 0.046001 0.0104538 0.0210266 -0.0308223
internal_weight=0 471671 347323 430864 331207 243265 99656.9 217685 104058 40807.7 113522 143256 100009 121783 56442 51629 19223.8 43214.9 61892.8 102344 79806.9 50130.1 47213.9 41886 95902.5 41356.2 63448.9 56844.4 32908.9 44472.3
internal_count=12908 9892 3016 8048 5685 1789 2363 3978 1227 1844 1707 1119 670 2114 1441 727 817 922 980 1798 597 711 513 755 1864 677 522 714 370 893
cat_boundaries=0 1 65 66 67 68 69 70 71 72
cat_threshold=16 0 0 0 0 0 0 0 0 0 0 0 0 0 0 0 0 0 0 0 0 0 0 0 0 0 0 0 0 0 0 0 0 0 0 0 0 0 0 0 0 0 0 0 0 0 0 0 0 0 0 0 0 0 0 0 0 0 0 0 0 0 0 3221225472 1 7172 134 1 452 5176 6176 4100
is_linear=0
shrinkage=0.1


Tree=9
num_leaves=31
num_cat=11
split_feature=19 0 18 12 12 12 19 19 4 12 19 12 3 0 12 25 3 0 12 17 12 11 19 4 25 12 3 25 2 3
split_gain=95768.8 37951 10665.1 6295.48 1762.02 896.571 623.662 495.215 461.308 324.155 249.832 168.021 163.874 154.686 138.935 138.242 106.993 105.69 104.518 87.7094 86.5247 82.7559 87.2626 77.7422 72.2399 70.9106 67.7655 58.5115 58.0643 56.6112
threshold=5324.5000000000009 0 10994.000000000002 2196.5000000000005 3496.0000000000005 18122.000000000004 1611.5000000000002 7146.0000000000009 1 4564.5000000000009 2954.5000000000005 14015.000000000002 2 3 1237.5000000000002 7496.0000000000009 4 5 20832.500000000004 3254.5000000000005 9076.0000000000018 6 3204.5000000000005 7 3119.5000000000005 6229.5000000000009 8 2804.5000000000005 9 10
decision_type=2 1 2 2 2 2 2 2 1 2 2 2 1 1 2 2 1 1 2 2 2 1 2 1 2 2 1 2 1 1
left_child=1 8 7 6 10 11 14 25 12 17 16 -4 -1 -8 -3 19 -5 -6 -7 -11 -9 22 -19 -14 -15 -2 -13 -18 -28 -24
right_child=2 3 5 4 9 18 13 20 -10 15 -12 26 23 24 -16 -17 27 21 -20 -21 -22 -23 29 -25 -26 -27 28 -29 -30 -31
leaf_value=-0.098118692723835055 0.0058798191379417913 -0.060307099855524009 0.040434325202293425 -0.018827766443819786 -0.019587103508837661 0.055223493967682537 -0.041250777580407766 0.018771498816250981 -0.1352905298953799 -0.011539672995465515 -0.016993639544515316 0.051842657983297714 -0.11207249358937615 -0.031942564171264079 -0.048403572687909513 0.032831945923524251 -0.028492411709005006 -0.019574338465807663 0.06195776384913966 0.0024063053750789814 0.02772216965526619 -0.0037500177142401996 -0.0039604956468289095 -0.13080738421652169 -0.014417418310756255 0.012387371697872102 0.049116944755614914 -0.022799516528422385 0.043298046532579737 -0.011596428396931121
leaf_weight=5975.314977645874 40549.905735015869 13566.971431732178 40652.892208099365 27112.799556732178 8728.3317832946777 47783.687763214111 25675.193086624146 32806.297267913818 20539.335670471191 5194.2992134094238 88813.992330551147 33337.277168273926 7507.742057800293 21567.939777374268 35363.599370956421 1374.353157043457 44824.952209472656 8691.4985427856445 44518.538902282715 34217.109970092773 16100.59871673584 29035.537570953369 16268.721534729004 5070.3657932281494 2639.9942283630371 28522.851154327393 36985.981826782227 30229.582363128662 36638.898963928223 24201.62162399292
leaf_count=244 539 376 344 504 151 332 593 370 1027 81 1567 247 330 458 894 14 890 153 286 477 158 450 252 243 48 345 279 576 289 391
internal_value=0 -0.0304537 0.0386354 -0.0216295 -0.0147924 0.0507408 -0.0436826 0.0140187 -0.124658 -0.00569952 -0.0208729 0.0459068 -0.112821 -0.0358143 -0.0517041 0.00165545 -0.0242451 -0.00915049 0.0584715 0.000568269 0.0217181 -0.00798204 -0.0104831 -0.119723 -0.030019 0.00856704 0.0479868 -0.026196 0.0462275 -0.00853069
internal_weight=0 456599 357897 417506 318693 239917 98813.7 117980 39092.8 127711 190981 147615 18553.4 49883.1 48930.6 40785.8 102167 86925.7 92302.2 39411.4 48906.9 78197.4 49161.8 12578.1 24207.9 69072.8 106962 75054.5 73624.9 40470.3
internal_count=12908 9719 3189 7875 5506 1777 2369 1412 1844 1969 3537 1159 817 1099 1270 572 1970 1397 618 558 528 1246 796 573 506 884 815 1466 568 643
cat_boundaries=0 1 65 66 67 68 69 70 134 135 136 137
cat_threshold=16 0 0 0 0 0 0 0 0 0 0 0 0 0 0 0 0 0 0 0 0 0 0 0 0 0 0 0 0 0 0 0 0 0 0 0 0 0 0 0 0 0 0 0 0 0 0 0 0 0 0 0 0 0 0 0 0 0 0 0 0 0 0 3221225472 1 7680 64 4164 1 1 0 0 0 0 0 0 0 0 0 0 0 0 0 0 0 0 0 0 0 0 0 0 0 0 0 0 0 0 0 0 0 0 0 0 0 0 0 0 0 0 0 0 0 0 0 0 0 0 0 0 0 0 0 0 0 0 0 0 0 0 0 0 2147483648 1 452 142 838
is_linear=0
shrinkage=0.1


Tree=10
num_leaves=31
num_cat=11
split_feature=19 0 12 13 12 19 19 4 19 12 15 12 3 11 2 21 19 13 12 19 12 3 0 3 9 3 3 12 25 13
split_gain=78092.2 34278.9 6205.19 5401.78 1743.12 1161.26 749.26 455.57 294.905 204.858 199.347 183.442 160.674 150.657 128.256 96.9124 89.9641 85.3283 78.9727 74.4276 69.8984 65.8455 81.6759 65.4195 64.141 63.0302 59.1513 58.5137 56.7455 54.1078
threshold=6167.0000000000009 0 2550.5000000000005 10898.000000000002 4159.0000000000009 1825.5000000000002 17755.500000000004 1 3410.5000000000005 1482.5000000000002 4154.0000000000009 7711.0000000000009 2 3 4 2019.5000000000002 14025.500000000002 8459.5000000000018 3254.5000000000005 3900.5000000000005 304.50000000000006 5 6 7 8 9 10 15701.000000000002 1354.5000000000002 3334.5000000000005
decision_type=2 1 2 2 2 2 2 1 2 2 2 2 1 1 1 2 2 2 2 2 2 1 1 1 1 1 1 2 2 2
left_child=1 7 5 11 8 9 13 12 18 28 19 23 -1 16 25 -7 -5 21 -4 -6 -14 22 -12 -2 -20 -8 -13 -15 -3 -10
right_child=3 2 4 6 10 15 14 -9 29 -11 17 26 20 27 -16 -17 -18 -19 24 -21 -22 -23 -24 -25 -26 -27 -28 -29 -30 -31
leaf_value=-0.082540364579408818 0.01523140911496311 -0.053221339977659821 -0.019280949153788578 0.034040939123300355 -0.012128612294584866 -0.031624018553458942 0.049615029324941884 -0.12761962289000861 -0.013088839309427676 -0.038385593124206141 0.010923400783787167 0.027792543455266851 -0.11713558574294176 0.041907736238870889 0.047400947807661464 -0.023817464651735842 0.040904263778209451 0.028605945646653572 -0.017381504426562222 -0.0018936231767636151 -0.10337959302729061 0.00086537104049503081 0.00018241118226504304 0.0074533103495202039 -0.0091991242310791449 0.057102995163458896 0.01869134212235787 0.049013058706772063 -0.045195986717034897 -0.0077331730116422014
leaf_weight=3030.076530456543 23019.805545806885 18187.038562774658 90210.160785675049 26704.10657119751 9871.0666618347168 22510.05738067627 16441.806610107422 19645.315711021423 31520.05624961853 33156.599296569824 20852.26741027832 9930.9228363037109 6657.6719818115234 20705.76473236084 32626.899848937988 54173.253429412842 67057.356544494629 1443.912841796875 22550.751327514648 25354.112571716309 8297.7318592071533 32534.542400360107 10727.026161193848 20532.532032012939 16656.380867004395 49198.946174621582 26763.035820007324 26326.689804077148 17089.322311401367 46980.716247558594
leaf_count=122 273 500 1679 228 158 489 113 1027 536 790 269 100 324 165 238 1075 528 15 401 369 371 450 153 256 279 319 287 191 443 760
internal_value=0 -0.0251115 -0.0175044 0.0384078 -0.00948756 -0.0345597 0.0459434 -0.116815 -0.0147193 -0.0440291 0.00130557 0.0159583 -0.104948 0.0412663 0.0526445 -0.026109 0.0389495 0.00456564 -0.0176524 -0.00476175 -0.10943 0.00402423 0.00727606 0.0115697 -0.0139054 0.0552352 0.0211672 0.045885 -0.0493335 -0.00988361
internal_weight=0 491448 453817 319308 308701 145116 239062 37630.8 207918 68433 100783 80246.3 17985.5 140794 98267.7 76683.3 93761.5 65557.7 129417 35225.2 14955.4 64113.8 31579.3 43552.3 39207.1 65640.8 36694 47032.5 35276.4 78500.8
internal_count=12908 10210 8366 2698 5069 3297 1782 1844 3655 1733 1414 916 817 1112 670 1564 756 887 2359 527 695 872 422 529 680 432 387 356 943 1296
cat_boundaries=0 1 65 66 67 68 69 70 71 72 73 74
cat_threshold=16 0 0 0 0 0 0 0 0 0 0 0 0 0 0 0 0 0 0 0 0 0 0 0 0 0 0 0 0 0 0 0 0 0 0 0 0 0 0 0 0 0 0 0 0 0 0 0 0 0 0 0 0 0 0 0 0 0 0 0 0 0 0 3221225472 1 3072 1 6 972 32 966 1 6176 326
is_linear=0
shrinkage=0.1


Tree=11
num_leaves=31
num_cat=12
split_feature=13 0 13 12 12 12 25 19 18 12 12 12 3 3 19 12 0 13 19 2 3 3 11 3 19 3 3 25 19 4
split_gain=63580.7 28266.3 6533.63 4429.43 1361.93 634.229 441.24 403.677 293.138 260.011 188.247 144.44 135.482 116.741 112.343 96.8743 90.163 85.1764 81.8457 73.1054 70.0054 66.5436 63.1074 62.4959 60.876 59.7785 59.4297 58.2707 54.029 53.0491
threshold=5546.0000000000009 0 10898.000000000002 2174.5000000000005 3496.0000000000005 16974.500000000004 304.50000000000006 1587.5000000000002 4411.5000000000009 7520.5000000000009 2753.5000000000005 20361.500000000004 1 2 2550.5000000000005 1237.5000000000002 3 13106.500000000002 6996.5000000000009 4 5 6 7 8 4129.5000000000009 9 10 14003.500000000002 3243.5000000000005 11
decision_type=2 1 2 2 2 2 2 2 2 2 2 2 1 1 2 2 1 2 2 1 1 1 1 1 2 1 1 2 2 1
left_child=1 6 9 7 10 17 12 15 16 19 21 26 -1 18 -9 -3 -6 27 -10 -2 -8 -5 23 -18 -12 -19 -7 -4 -25 -11
right_child=2 3 5 4 8 11 20 14 13 29 24 -13 -14 -15 -16 -17 22 25 -20 -21 -22 -23 -24 28 -26 -27 -28 -29 -30 -31
leaf_value=-0.099599349122848124 0.0059904707679837368 -0.049975108750154228 0.024496032182655794 -0.015958768310457817 -0.01711610375083553 0.046623055939474675 -0.08346382713994388 -0.03143010563641193 0.0047531048116833596 0.021338153621669548 -0.014929142903694445 0.050831883055663989 -0.12045783292245185 -0.0030591156986946228 -0.015928591425765581 -0.039876780464031092 -0.00064497032167372577 0.034299542969209118 0.026495913689733787 0.013485360226784669 -0.10067648085270614 -0.022453778947262384 -0.0027446286687482441 -0.017647885317788211 -0.0043302274172195348 0.03959215173000024 0.04044255305783833 0.034979029376038966 -0.0085315480332023626 0.013966735403991966
leaf_weight=4594.0493564605713 48843.803516387939 13359.116649627686 8637.1942558288574 21839.156398773193 9174.4133987426758 35475.610496520996 5304.059232711792 44005.421131134033 25975.272201538086 22923.414039611816 105886.66610145569 50841.081932067871 19884.634252548218 26645.948757171631 5230.8862476348877 32882.476823806763 7817.1808586120605 34206.430606842041 1854.8985366821289 17772.317295074463 6610.2089214324951 59444.73189163208 26927.15599822998 8230.874683380127 5711.3463668823242 64507.284019470215 31040.201290130615 13733.911323547363 30934.170379638672 17361.325706481934
leaf_count=228 634 376 79 412 159 251 230 1001 360 237 1902 334 1072 385 99 842 121 277 19 212 314 1178 415 145 93 504 229 113 493 194
internal_value=0 -0.0243424 0.0323706 -0.0171126 -0.0116313 0.0415804 -0.108921 -0.0360846 -0.00402924 0.0118281 -0.0170529 0.0468191 -0.116633 0.00167168 -0.0297832 -0.0427942 -0.0077672 0.036503 0.00620005 0.00799293 -0.0931682 -0.0207134 -0.00660351 -0.00881657 -0.0143867 0.0377656 0.043752 0.0309317 -0.0104448 0.0181701
internal_weight=0 462313 345343 425920 330442 238442 36393 95477.9 137560 106901 192882 117357 24478.7 54476.1 49236.3 46241.6 83083.8 121085 27830.2 66616.1 11914.3 81283.9 73909.4 46982.2 111598 98713.7 66515.8 22371.1 39165 40284.7
internal_count=12908 9844 3064 8000 5682 1787 1844 2318 2097 1277 3585 814 1300 764 1100 1218 1333 973 379 846 544 1590 1174 759 1995 781 480 192 638 431
cat_boundaries=0 1 2 3 4 5 6 7 8 9 10 11 75
cat_threshold=16 1028 966 1 120 7200 4164 1 68 6672 980 0 0 0 0 0 0 0 0 0 0 0 0 0 0 0 0 0 0 0 0 0 0 0 0 0 0 0 0 0 0 0 0 0 0 0 0 0 0 0 0 0 0 0 0 0 0 0 0 0 0 0 0 0 0 0 0 0 0 0 0 0 0 2281701376 1
is_linear=0
shrinkage=0.1


Tree=12
num_leaves=31
num_cat=16
split_feature=12 0 18 0 13 12 4 2 19 12 18 3 2 18 16 15 12 14 14 0 3 10 3 0 3 2 4 3 11 13
split_gain=51811.5 23277.4 6638.33 3242.23 920.927 594.649 442.648 292.236 255.401 223.987 196.823 155.554 150.17 130.259 122.571 107.221 102.009 70.7744 69.5352 65.5215 65.2358 61.7924 59.1446 69.4886 57.5284 55.0416 54.4651 53.824 51.5217 51.351
threshold=5060.0000000000009 0 10226.500000000002 1 3470.0000000000005 16480.000000000004 2 3 6579.5000000000009 1567.5000000000002 3764.5000000000005 4 5 6953.0000000000009 2517.5000000000005 1638.5000000000002 12240.500000000002 3018.5000000000005 15487.500000000002 6 7 8 9 10 11 12 13 14 15 454.50000000000006
decision_type=2 1 2 1 2 2 1 1 2 2 2 1 1 2 2 2 2 2 2 1 1 1 1 1 1 1 1 1 1 2
left_child=1 6 8 9 7 16 11 15 20 -3 19 -1 18 22 27 -5 -4 -16 -7 -6 -2 -14 -12 -24 -8 -10 29 -9 -21 -13
right_child=2 3 5 4 10 12 24 14 25 -11 13 26 21 -15 17 -17 -18 -19 -20 28 -22 -23 23 -25 -26 -27 -28 -29 -30 -31
leaf_value=-0.067427823316230887 0.0094860491161094084 -0.040624036542413151 0.024635961203723824 -0.02627380761048366 -0.017064287107923109 0.040933835526584091 -0.1003551621916063 -0.020849166591681942 0.016258371362870432 -0.029563722730653188 -0.0065540662155955959 -0.10543316159436596 0.035126968196284712 0.029466563294019976 -0.020368304718911504 -0.010947134836514584 0.033254607419349554 -0.015061808098671367 0.047568282632668338 -0.0098445823792044328 0.0026390231407211022 0.041552649495457651 0.0076125184875358159 -0.0020109755532666616 -0.1159353458206093 0.01005453118133442 -0.087710752205932441 -0.030643432693904071 -0.0031511647981481133 -0.073698383692499217
leaf_weight=2978.6356506347656 19941.947509765625 39212.971134185791 16010.612453460693 4825.9301147460938 8661.2484130859375 24555.34058380127 4517.1566295623779 11224.701198577881 35358.302978515625 34348.746849060059 16445.625194549561 5293.9660320281982 30545.307941436768 1388.4590225219727 51780.427137374878 84232.144622802734 96529.779075622559 48841.181282043457 44295.256790161133 35403.248735427856 46081.688510894775 29341.607582092285 10335.773597717285 27300.035247802734 13743.518762588501 24276.784107208252 8253.4651432037354 11770.09383392334 17032.51636505127 564.23672866821289
leaf_count=124 254 1052 148 104 156 172 243 234 386 792 255 279 232 15 1019 1482 773 902 289 597 612 212 143 412 784 285 390 264 274 24
internal_value=0 -0.0233047 0.0276315 -0.0164746 -0.0122329 0.0373382 -0.101097 -0.0161488 0.00899361 -0.0354547 -0.00508954 -0.0892414 0.0419798 -0.000777008 -0.0192963 -0.0117763 0.0320285 -0.0177926 0.0451956 -0.00900488 0.00470895 0.0382688 -0.00155347 0.000633207 -0.112138 0.0137373 -0.0937947 -0.0258848 -0.00766892 -0.102202
internal_weight=0 438154 366937 402803 329241 241278 35351 212674 125659 73561.7 116567 17090.3 128738 55469.9 123616 89058.1 112540 100622 68850.6 61097 66023.6 59886.9 54081.4 37635.8 18260.7 59635.1 14111.7 22994.8 52435.8 5858.2
internal_count=12908 9545 3363 7701 5857 1826 1844 4005 1537 1844 1852 817 905 825 2419 1586 921 1921 461 1027 866 444 810 555 1027 671 693 498 871 303
cat_boundaries=0 1 2 66 67 68 69 70 71 72 73 74 75 76 139 140 141
cat_threshold=16 64 0 0 0 0 0 0 0 0 0 0 0 0 0 0 0 0 0 0 0 0 0 0 0 0 0 0 0 0 0 0 0 0 0 0 0 0 0 0 0 0 0 0 0 0 0 0 0 0 0 0 0 0 0 0 0 0 0 0 0 0 0 0 3221225472 1 134 5120 6 1 836 1 4152 32 5124 6 0 0 0 0 0 0 0 0 0 0 0 0 0 0 0 0 0 0 0 0 0 0 0 0 0 0 0 0 0 0 0 0 0 0 0 0 0 0 0 0 0 0 0 0 0 0 0 0 0 0 0 0 0 0 0 0 0 0 0 0 0 0 1073741824 5190 1
is_linear=0
shrinkage=0.1


Tree=13
num_leaves=31
num_cat=15
split_feature=13 0 18 12 12 19 19 4 13 19 25 3 13 11 2 0 2 12 3 11 3 19 23 3 2 20 3 4 3 17
split_gain=42135.8 20352.5 3992.68 3065.07 816.322 473.227 453.01 408.363 164.504 160.502 149.593 138.031 121.413 108.023 90.3765 82.364 78.3885 77.2785 76.2343 76.1394 74.3893 62.2279 59.3532 58.8227 57.7587 54.7714 51.2625 50.6562 47.3295 48.7975
threshold=5702.5000000000009 0 10994.000000000002 2379.5000000000005 3897.0000000000005 1825.5000000000002 17755.500000000004 1 3070.5000000000005 8261.0000000000018 4748.5000000000009 2 1280.5000000000002 3 4 5 6 18810.000000000004 7 8 9 3829.5000000000005 2547.5000000000005 10 11 3198.5000000000005 12 13 14 1753.5000000000002
decision_type=2 1 2 2 2 2 2 1 2 2 2 1 2 1 1 1 1 2 1 1 1 2 2 1 1 2 1 1 1 2
left_child=1 7 9 5 8 12 13 11 14 16 19 -1 -3 24 -5 20 -2 -8 -12 25 -10 28 -14 -9 26 -6 -4 -13 29 -7
right_child=2 3 6 4 10 21 17 23 15 -11 18 27 22 -15 -16 -17 -18 -19 -20 -21 -22 -23 -24 -25 -26 -27 -28 -29 -30 -31
leaf_value=-0.061407979737768993 0.0053912502886789898 -0.039998886061198183 0.026416797593438734 -0.0084273510508775015 -0.015502695798901931 -0.025490207529604882 0.035177513595728169 -0.083794097628151126 -0.0012533043021628442 0.016809323115397727 0.0084122418505726115 -0.094482996518555462 -0.03088045107169814 0.034354746780338542 -0.016055387185096789 -0.011856944744537846 0.012228038731212891 0.041252118830075735 -0.00021733471348508518 -0.00051836511916276225 -0.0092289361509089139 0.0048113532078897852 -0.010931505389875576 -0.10640283262770317 0.026257241181363009 -0.005442953467993077 0.034094300556179014 -0.080503320782119067 -0.022975036947428324 -0.013903000343499282
leaf_weight=2946.3525333404541 47408.25842666626 17233.963645935059 14005.228038787842 18939.405696868896 6885.4788131713867 4796.2150630950928 30749.055603027344 1738.2246227264404 18965.349487304688 27189.428718566895 18046.588584899902 5711.090895652771 48517.199785232544 46039.513557434082 88455.360216140747 52823.697601318359 26000.122802734375 65663.681037902832 23646.299045562744 28814.690631866455 30549.469482421875 983.0871467590332 1538.7350654602051 15974.792122840881 53539.795223236084 25295.935707092285 25382.439117431641 8102.4216423034668 32017.885276794434 15004.641687393188
leaf_count=124 608 478 114 331 117 106 228 93 310 281 235 303 1215 353 1675 944 299 440 328 427 518 16 33 934 445 388 197 390 682 296
internal_value=0 -0.0195161 0.0269211 -0.0136207 -0.0084018 -0.027199 0.0340478 -0.0934517 -0.0119785 0.0102461 -0.00109661 -0.0820022 -0.0327596 0.0303937 -0.0147124 -0.00910957 0.00781514 0.0393147 0.00351991 -0.00425215 -0.00617495 -0.0201125 -0.0302672 -0.104233 0.0284313 -0.00759532 0.0313718 -0.0863473 -0.0205854 -0.0167012
internal_weight=0 466987 335978 432514 312422 120092 235380 34472.9 209733 100598 102689 16759.9 67289.9 138967 107395 102339 73408.4 96412.7 41692.9 60996.1 49514.8 52801.8 50055.9 17713 92927.5 32181.4 39387.7 13813.5 51818.7 19800.9
internal_count=12908 9943 2965 8099 5273 2826 1777 1844 3778 1188 1495 817 1726 1109 2006 1772 907 668 563 932 828 1100 1248 1027 756 505 311 693 1084 402
cat_boundaries=0 1 65 66 67 68 69 70 71 72 73 74 75 76 139 140
cat_threshold=16 0 0 0 0 0 0 0 0 0 0 0 0 0 0 0 0 0 0 0 0 0 0 0 0 0 0 0 0 0 0 0 0 0 0 0 0 0 0 0 0 0 0 0 0 0 0 0 0 0 0 0 0 0 0 0 0 0 0 0 0 0 0 3221225472 1 5120 1 2 34 120 838 1 450 1024 142 7184 0 0 0 0 0 0 0 0 0 0 0 0 0 0 0 0 0 0 0 0 0 0 0 0 0 0 0 0 0 0 0 0 0 0 0 0 0 0 0 0 0 0 0 0 0 0 0 0 0 0 0 0 0 0 0 0 0 0 0 0 0 0 1073741824 4180
is_linear=0
shrinkage=0.1


Tree=14
num_leaves=31
num_cat=15
split_feature=19 0 13 19 18 12 19 4 13 3 6 13 9 19 19 2 23 2 3 3 3 24 3 19 4 3 3 13 25 3
split_gain=34291.1 17344.8 2737.14 2575.38 675.419 640.08 378.787 369.711 150.76 134.392 121.267 113.976 102.791 99.7824 94.9784 93.895 86.5496 86.3174 76.1918 62.532 57.7164 55.4815 54.204 53.3217 51.6775 51.5812 50.3787 47.0637 46.6735 45.679
threshold=6066.0000000000009 0 2636.5000000000005 11094.500000000002 3764.5000000000005 1825.5000000000002 17174.500000000004 1 4154.0000000000009 2 3 3739.0000000000005 4 1377.5000000000002 8541.0000000000018 5 3708.0000000000005 6 7 8 9 2804.5000000000005 10 13451.500000000002 11 12 13 8188.5000000000009 3103.0000000000005 14
decision_type=2 1 2 2 2 2 2 1 2 1 9 2 1 2 2 1 2 1 1 1 1 2 1 2 1 1 1 2 2 1
left_child=1 7 5 14 10 13 12 9 -6 -1 16 17 23 -3 26 19 -4 -12 -7 -8 -9 -15 -10 -5 -11 -14 -2 -24 -20 -25
right_child=3 2 4 6 8 18 15 20 22 24 11 -13 25 21 -16 -17 -18 -19 28 -21 -22 -23 27 29 -26 -27 -28 -29 -30 -31
leaf_value=-0.054612051620050964 0.011094137737297132 -0.034645733179471352 -0.017769680290059105 0.020040641969679397 -0.0045370719035388923 -0.01353612865841769 0.040647232778833906 -0.08489742211305433 -0.0015780589834890207 -0.087519308936761686 -0.0077358588731980954 -0.0049072552804025702 0.036299207015211082 -0.027271945123588926 0.015804229850869773 0.031357227094591669 -0.047481234155941299 -0.013286158757090313 -0.02129901973069603 0.034353959047067596 -0.10024258347228941 -0.0039058263814050879 0.00381962452483393 0.029107334771064149 -0.073572703204602574 0.028584706657832061 0.005348064340791818 0.021678860146689322 -0.014527582802660569 0.023796206549895157
leaf_weight=2866.2981128692627 31536.272338867188 25168.692756652832 7625.8453826904297 17316.883163452148 50729.566875457764 40193.194089889526 32268.063812255859 4313.4146404266357 22095.17650604248 5610.8033962249756 47011.776184082031 40658.688915252686 13247.16527557373 41387.66381072998 23362.966911315918 43077.274803161621 1125.0707454681396 69814.996147155762 36256.677200317383 33730.405158996582 12940.398513793945 1041.7691650390625 49447.395641326904 31076.356155395508 8010.0151510238647 27935.815162658691 29699.117752075195 1520.960578918457 14152.374641418457 35994.406383514404
leaf_count=122 369 696 141 152 813 790 213 243 312 304 817 662 98 1019 240 322 23 1303 762 232 784 20 676 245 391 218 363 16 267 295
internal_value=0 -0.0169185 -0.0117123 0.025338 -0.00594117 -0.0222933 0.030731 -0.0860507 -0.000349 -0.0751079 -0.0101056 -0.00946683 0.0269864 -0.0296573 0.0103796 0.035042 -0.0215649 -0.0110545 -0.016799 0.0374366 -0.0964577 -0.0266982 0.00255887 0.0249877 -0.0793777 0.031082 0.00830998 0.00435171 -0.0193941 0.0262649
internal_weight=0 481971 448230 319245 290029 158200 234646 33740.9 123793 16487.1 166236 157485 125571 67598.1 84598.4 109076 8750.92 116827 90602.2 65998.5 17253.8 42429.4 73063.5 84387.6 13620.8 41183 61235.4 50968.4 50409.1 67070.8
internal_count=12908 10161 8317 2747 4763 3554 1775 1844 1817 817 2946 2782 1008 1735 972 767 164 2120 1819 445 1027 1039 1004 692 695 316 732 692 1029 540
cat_boundaries=0 1 65 66 67 68 69 70 71 72 73 74 137 138 139 140
cat_threshold=16 0 0 0 0 0 0 0 0 0 0 0 0 0 0 0 0 0 0 0 0 0 0 0 0 0 0 0 0 0 0 0 0 0 0 0 0 0 0 0 0 0 0 0 0 0 0 0 0 0 0 0 0 0 0 0 0 0 0 0 0 0 0 3221225472 1 3072 12 1 6 134 5204 854 5124 6192 0 0 0 0 0 0 0 0 0 0 0 0 0 0 0 0 0 0 0 0 0 0 0 0 0 0 0 0 0 0 0 0 0 0 0 0 0 0 0 0 0 0 0 0 0 0 0 0 0 0 0 0 0 0 0 0 0 0 0 0 0 0 1073741824 1728 966 492
is_linear=0
shrinkage=0.1


Tree=15
num_leaves=31
num_cat=17
split_feature=12 0 12 13 19 25 12 12 12 6 24 3 18 25 3 3 12 0 3 3 11 2 3 11 11 15 3 3 9 3
split_gain=27883.5 13696.4 3599.03 1797.39 453.476 334.307 289.169 200.563 192.382 140.592 171.432 111.129 104.966 95.0973 91.4615 82.6324 76.5057 73.4807 97.9112 72.8302 65.343 64.8335 62.9426 53.955 52.4842 50.9521 50.4208 49.7505 49.7319 48.4891
threshold=5060.0000000000009 0 11560.000000000002 2120.0000000000005 3385.5000000000005 273.50000000000006 18810.000000000004 1587.5000000000002 7520.5000000000009 1 3119.5000000000005 2 6953.0000000000009 2965.5000000000005 3 4 256.50000000000006 5 6 7 8 9 10 11 12 15063.500000000002 13 14 15 16
decision_type=2 1 2 2 2 2 2 2 2 9 2 1 2 2 1 1 2 1 1 1 1 1 1 1 1 2 1 1 1 1
left_child=1 5 8 7 9 14 15 29 22 10 -5 -11 17 -13 -1 -4 -7 18 23 -18 27 24 -2 -6 -17 26 -10 -8 -15 -3
right_child=2 3 6 4 12 16 20 -9 25 11 -12 13 -14 28 -16 21 19 -19 -20 -21 -22 -23 -24 -25 -26 -27 -28 -29 -30 -31
leaf_value=-0.078320811563634893 0.0078430560849470504 -0.022135584996094707 0.030901886616612768 -0.017809331301877247 -0.0095592674256761833 -0.081956530813466544 0.026211788047623266 -0.019914807446457457 0.017265899356571395 -0.0068685638968799222 -0.060244101634313346 -0.014922833239919667 0.02280880654148449 -0.011207798487200866 -0.093623531422373465 0.020273823129593645 -0.049113133347217924 -0.0080510725908588803 1.1063765139524009e-05 -0.068489806928104177 0.036502092728963424 0.026846865299375095 0.0023875979603663611 -0.0014361354460995721 0.025950035189203892 0.026290320095076702 0.0096353746358051693 0.033112165855305922 -0.0043570982631861649 -0.03092838426659221
leaf_weight=7556.6506204605103 35256.216449737549 7910.7056694030762 23415.48567199707 4074.0898780822754 23408.937894821167 2849.9915895462036 17319.948402404785 46026.085416793823 11982.771858215332 45055.66752243042 1242.3299503326416 76662.84162902832 1455.9912033081055 43796.104469299316 11472.054588317871 44966.952644348145 2892.0355424880981 35476.057567596436 54110.519268035889 8361.1374349594116 30526.512367248535 59646.093231201172 52907.559909820557 12566.271625518799 25542.691543579102 2543.581298828125 31768.618671417236 28936.275459289551 13978.753757476807 36062.713243484497
leaf_count=431 441 206 178 81 383 163 125 1032 124 819 29 1495 16 808 706 374 126 600 826 418 203 462 692 193 200 22 344 198 240 973
internal_value=0 -0.0171766 0.0203119 -0.0120796 -0.00848687 -0.0789653 0.0279004 -0.024529 0.00731137 -0.0116483 -0.0276733 -0.0111715 -0.00388695 -0.012613 -0.0876369 0.0253951 -0.0673211 -0.00419651 -0.00267738 -0.0636146 0.0329111 0.0244002 0.00457037 -0.00671996 0.0223269 0.0125313 0.0117314 0.0305412 -0.00955026 -0.0293586
internal_weight=0 434959 364813 401827 311828 33131.9 230354 89999.5 134459 184810 5316.42 179493 127018 134438 19028.7 153571 14103.2 125562 90085.7 11253.2 76782.7 130156 88163.8 35975.2 70509.6 46295 43751.4 46256.2 57774.9 43973.4
internal_count=12908 9545 3363 7701 5490 1844 1740 2211 1623 3472 110 3362 2018 2543 1137 1214 707 2002 1402 544 526 1036 1133 576 574 490 468 323 1048 1179
cat_boundaries=0 1 2 3 4 5 6 7 8 9 10 11 12 13 14 15 16 17
cat_threshold=16 8 4164 1572 192 34 5176 5120 1 112 964 1 1 326 7202 1 68
is_linear=0
shrinkage=0.1


Tree=16
num_leaves=31
num_cat=16
split_feature=13 0 13 18 19 12 4 2 6 13 3 13 24 13 11 3 2 13 4 0 4 3 3 3 3 3 13 13 19 18
split_gain=22674 11758 2153.7 1711.15 401.044 370.268 304.61 272.478 121.46 116.67 109.478 99.2191 122.587 91.1586 88.6883 84.2712 83.2068 75.3958 65.279 61.0446 59.6682 57.5601 55.658 55.3923 54.4674 46.3036 45.7484 45.3624 40.9356 40.1882
threshold=5702.5000000000009 0 10898.000000000002 2499.0000000000005 4010.5000000000005 1825.5000000000002 1 2 3 14586.500000000002 4 3177.5000000000005 3466.5000000000005 3764.5000000000005 5 6 7 1237.5000000000002 8 9 10 11 12 13 14 15 15882.000000000002 2839.5000000000005 5324.5000000000009 6426.5000000000009
decision_type=2 1 2 2 2 2 1 1 9 2 1 2 2 2 1 1 1 2 1 1 1 1 1 1 1 1 2 2 2 2
left_child=1 6 16 5 8 17 10 9 11 -4 -1 12 -5 22 26 19 -2 -3 -12 -6 -18 -11 -10 -7 -8 -19 -9 -24 -17 -21
right_child=2 3 7 4 15 23 24 14 13 21 18 -13 -14 -15 -16 28 20 25 -20 29 -22 -23 27 -25 -26 -27 -28 -29 -30 -31
leaf_value=-0.050161623038799077 0.010465462285396621 -0.031322757840785281 0.021875522803044244 -0.022245017367667826 0.0070932353346585819 -0.010510206579210871 -0.062734555498621808 0.017433552198158172 -0.0053187892108720646 0.025465973543167798 -0.061527873336455929 -0.011893949125189568 -0.068251772144801742 -0.0033205365445585981 0.025455899539994949 -0.0053146048301180547 0.0079054264424347348 -0.015914511043341288 -0.078634019760185081 -0.0011720482090139309 0.0011105685359281243 0.031660596565223229 -0.012054790457301151 -0.0163268279608044 -0.08398882137711694 -0.024178903992679125 0.022157486804404089 -0.0081248651613481694 0.0010678343198791379 0.016820545678921023
leaf_weight=5367.6004905700684 47453.443893432617 13320.129911422729 20423.085399627686 2042.3456783294678 19321.275543212891 25991.165863037109 1661.0694274902344 39294.498733520508 36265.408065795898 20005.933036804199 6532.0114345550537 4975.931755065918 808.40676689147949 38403.709587097168 44136.57160949707 30976.890453338623 27114.15372467041 8197.7195663452148 4166.9472408294678 25321.304817199707 24709.35168838501 68245.819305419922 51077.530178070068 45080.419120788574 14899.444973945618 44629.750234603882 42863.253639221191 69115.959091186523 14874.506954193115 1305.3955612182617
leaf_count=244 525 376 163 41 256 512 93 335 644 143 330 88 20 621 339 481 326 201 243 382 327 468 978 929 934 1135 339 1221 200 14
internal_value=0 -0.0143674 0.0197891 -0.00999155 -0.00569423 -0.0192149 -0.0722423 0.0250068 -0.00817774 0.028684 -0.0622469 -0.0203901 -0.0352915 -0.00768578 0.0218387 -0.000210736 0.00743987 -0.0245993 -0.0682574 0.00281564 0.00466649 0.0302628 -0.00875775 -0.0142034 -0.0818961 -0.022904 0.0198981 -0.00979411 -0.00324339 -0.000289838
internal_weight=0 464335 334246 431708 294489 137219 32627.1 234969 202689 108675 16066.6 7826.68 2850.75 194863 126294 91799.4 99276.9 66147.6 10699 45948 51823.5 88251.8 156459 71071.6 16560.5 52827.5 82157.8 120193 45851.4 26626.7
internal_count=12908 9943 2965 8099 4946 3153 1844 1787 3613 774 817 149 61 3464 1013 1333 1178 1712 573 652 653 611 2843 1441 1027 1336 674 2199 681 396
cat_boundaries=0 1 65 66 67 68 69 70 71 135 136 200 201 202 203 204 205
cat_threshold=16 0 0 0 0 0 0 0 0 0 0 0 0 0 0 0 0 0 0 0 0 0 0 0 0 0 0 0 0 0 0 0 0 0 0 0 0 0 0 0 0 0 0 0 0 0 0 0 0 0 0 0 0 0 0 0 0 0 0 0 0 0 0 3221225472 1 134 12 7680 1 1478 134 0 0 0 0 0 0 0 0 0 0 0 0 0 0 0 0 0 0 0 0 0 0 0 0 0 0 0 0 0 0 0 0 0 0 0 0 0 0 0 0 0 0 0 0 0 0 0 0 0 0 0 0 0 0 0 0 0 0 0 0 0 0 2147483648 1 32 0 0 0 0 0 0 0 0 0 0 0 0 0 0 0 0 0 0 0 0 0 0 0 0 0 0 0 0 0 0 0 0 0 0 0 0 0 0 0 0 0 0 0 0 0 0 0 0 0 0 0 0 0 0 0 0 0 0 0 0 0 0 2281701376 1 6176 4164 5188 1024 68
is_linear=0
shrinkage=0.1


Tree=17
num_leaves=31
num_cat=20
split_feature=13 0 13 0 12 4 19 2 19 3 25 0 11 3 3 2 9 2 25 3 2 3 17 0 9 20 4 3 3 15
split_gain=18419.4 9359.88 2466.19 1227.87 350.535 263.525 241.051 116.438 99.9326 99.2652 91.6945 82.0117 96.8608 95.1856 75.5971 70.8078 69.4206 67.2056 62.0726 59.9295 54.4813 53.3801 52.9082 51.0274 51.0055 47.5201 47.2143 44.6437 43.8192 43.8076
threshold=4981.5000000000009 0 10156.000000000002 1 3353.5000000000005 2 17174.500000000004 3 6579.5000000000009 4 2804.5000000000005 5 6 7 8 9 10 11 14003.500000000002 12 13 14 1659.5000000000002 15 16 2120.0000000000005 17 18 19 15867.000000000002
decision_type=2 1 2 1 2 1 2 1 2 1 2 1 1 1 1 1 1 1 2 1 1 1 2 1 1 2 1 1 1 2
left_child=1 5 8 7 10 9 16 -3 24 -1 14 13 15 -6 22 -13 18 -12 -4 -9 29 -7 -5 -14 -2 28 -21 -18 -16 -8
right_child=2 3 6 4 11 21 20 19 -10 -11 17 12 23 -15 25 -17 27 -19 -20 26 -22 -23 -24 -25 -26 -27 -28 -29 -30 -31
leaf_value=-0.039006155624763061 0.00042735468915769208 -0.017303810932164678 0.013063180517510951 -0.025794666264329327 0.010248492226057304 -0.067725453622313164 0.025685287701578796 -0.031103306262011195 0.0082161417612875952 -0.060343223455027517 -0.0010112325248835272 -0.0039306598859529937 0.0018221220258006839 -0.0024626578400056935 -0.027623185198055508 -0.010618103367014596 0.018400789648578355 -0.0088139301442419892 0.019351879593106958 -0.028591965673303629 0.023072753192647608 -0.080430010730227916 -0.0066919690308354556 -0.005861523588942986 0.0060058498307679793 -0.012656570181964314 -0.019580439671778794 0.025101919262262646 -0.015262447797899295 0.03101530826507147
leaf_weight=2810.2728805541992 42506.079811096191 33701.115558624268 20536.28816986084 1534.8867702484131 8725.5493392944336 7042.4613447189331 40353.461029052734 12544.451662063599 57633.19807434082 13103.946130752563 12652.238426208496 35340.925704956055 26929.897090911865 18086.036001205444 4324.8513336181641 28737.046817779541 15775.593406677246 87318.833000183105 66587.649227142334 8954.8241786956787 42827.494499206543 9252.5557050704956 26180.849035263062 12716.215484619141 26676.43478012085 54695.164119720459 17595.912553787231 28592.164627075195 8906.7367210388184 24957.156425476074
leaf_count=122 570 792 183 37 122 426 281 348 652 695 217 565 404 271 104 488 127 1613 540 255 322 601 496 213 353 1077 449 220 202 163
internal_value=0 -0.0140761 0.0164175 -0.00988832 -0.00726679 -0.0659222 0.0223855 -0.0216309 0.00514055 -0.0566022 -0.00994509 -0.0032538 -0.00452791 0.00167633 -0.0121586 -0.00693205 0.0195092 -0.00782741 0.0178695 -0.0253557 0.0258829 -0.0749842 -0.00774707 -0.000643373 0.00257839 -0.0139554 -0.0226294 0.022729 -0.0193351 0.0277178
internal_weight=0 431155 366446 398946 326149 32209.2 239630 72796.3 126816 15914.2 195614 130536 103724 26811.6 95642.5 64078 131492 99971.1 87123.9 39095.2 108138 16295 27715.7 39646.1 69182.5 67926.8 26550.7 44367.8 13231.6 65310.6
internal_count=12908 9497 3411 7653 5809 1844 1836 1844 1575 817 3746 2063 1670 393 1916 1053 1070 1830 723 1052 766 1027 533 617 923 1383 704 347 306 444
cat_boundaries=0 1 2 66 67 68 69 70 71 72 73 74 75 76 77 78 79 80 143 144 145
cat_threshold=16 64 0 0 0 0 0 0 0 0 0 0 0 0 0 0 0 0 0 0 0 0 0 0 0 0 0 0 0 0 0 0 0 0 0 0 0 0 0 0 0 0 0 0 0 0 0 0 0 0 0 0 0 0 0 0 0 0 0 0 0 0 0 0 3221225472 1 134 3072 36 1 76 4164 6 1 6 3586 6 7204 2 1 0 0 0 0 0 0 0 0 0 0 0 0 0 0 0 0 0 0 0 0 0 0 0 0 0 0 0 0 0 0 0 0 0 0 0 0 0 0 0 0 0 0 0 0 0 0 0 0 0 0 0 0 0 0 0 0 0 0 0 0 0 0 402653184 6178 2336
is_linear=0
shrinkage=0.1


Tree=18
num_leaves=31
num_cat=18
split_feature=13 0 12 13 25 19 25 2 3 11 0 0 3 25 3 10 2 3 19 3 3 3 18 4 14 2 25 19 3 3
split_gain=14986.8 8220.52 1302.3 969.532 347.263 307.861 238.84 176.865 81.5681 78.9353 83.0259 81.6127 78.594 78.4279 71.4764 66.5168 66.244 64.8837 64.5356 60.5247 58.3652 51.9993 51.0912 44.3863 41.0227 39.1635 38.9105 38.7501 34.5131 32.8258
threshold=6330.5000000000009 0 2753.5000000000005 12743.000000000002 1855.5000000000002 4175.5000000000009 264.50000000000006 1 2 3 4 5 6 14003.500000000002 7 8 9 10 1260.5000000000002 11 12 13 2839.5000000000005 14 15697.500000000002 15 6299.5000000000009 2124.5000000000005 16 17
decision_type=2 1 2 2 2 2 2 1 1 1 1 1 1 2 1 1 1 1 2 1 1 1 2 1 2 1 2 2 1 1
left_child=1 6 4 13 8 9 12 14 -3 10 -4 -11 -1 17 -5 -9 -12 -2 -10 -7 -8 -6 -18 -14 -16 -22 -21 -23 -13 -25
right_child=3 2 5 7 21 19 20 15 18 11 16 28 23 -15 24 -17 22 -19 -20 26 25 27 -24 29 -26 -27 -28 -29 -30 -31
leaf_value=-0.053402063684757341 0.011367051248841728 -0.0087155117406010583 -0.00010539942470868109 0.01776352596745993 -0.0085710509497034012 -0.0018464095462596823 -0.03901102590261582 0.016416965306979583 -0.027029760463087478 0.00092645892372455281 -0.0061301256121371311 -0.0030323391113252921 -0.081842447210331112 0.016035642032810059 0.022727886255083624 0.021417487681999008 -0.016648751942107163 0.005247097436224678 -0.019170581024930428 0.0015002869155764686 -0.044919674740853142 -0.018385847765131743 -0.0091338264297382496 -0.075074455197718937 0.027121880186222011 -0.058612616478182715 0.0071976876981644971 -0.011547611806613033 -0.0094125727179239504 -0.062099540986036844
leaf_weight=3337.4623994827271 26294.964248657227 6190.6150054931641 13785.306159973145 16078.102191925049 56619.287233352661 43815.778398513794 3574.0701627731323 74557.487079620361 13157.578689575195 28866.20401763916 57211.817203521729 16572.650459289551 3668.8224267959595 11954.36743927002 39522.858680725098 41356.697151184082 12691.936248779297 50975.381271362305 50741.596879959106 44897.858814239502 3509.1071577072144 10613.456474304199 31500.416608810425 4300.196831703186 45949.922325134277 7571.7723035812378 16353.127475738525 37800.832424163818 17419.906558990479 5904.9754514694214
leaf_count=189 290 148 227 119 1122 622 168 605 378 452 991 289 249 101 289 317 243 590 1258 637 181 247 561 280 310 413 199 755 314 364
internal_value=0 -0.0109103 -0.00749409 0.0172758 -0.0142725 -0.0033015 -0.060014 0.0208772 -0.0197238 -0.00583464 -0.00739004 -0.00298434 -0.0680214 0.00849799 0.0239295 0.0181995 -0.00837951 0.00733186 -0.0207856 0.000991218 -0.0506507 -0.0106349 -0.0112895 -0.0714482 0.0250871 -0.0543207 0.00302092 -0.013044 -0.00630378 -0.067635
internal_weight=0 490105 458238 306690 175123 283115 31866.4 217465 70089.8 178048 115189 62858.8 17211.5 89224.7 101551 115914 101404 77270.3 63899.2 105067 14654.9 105034 44192.4 13874 85472.8 11080.9 61251 48414.3 33992.6 10205.2
internal_count=12908 10287 8443 2621 3908 4535 1844 1640 1784 3077 2022 1055 1082 981 718 922 1795 880 1636 1458 762 2124 804 893 599 594 836 1002 603 644
cat_boundaries=0 1 2 3 4 5 6 7 8 9 10 11 12 13 14 77 78 79 80
cat_threshold=16 134 4 1 32 34 1028 6144 1 134 836 6200 5120 4214 0 0 0 0 0 0 0 0 0 0 0 0 0 0 0 0 0 0 0 0 0 0 0 0 0 0 0 0 0 0 0 0 0 0 0 0 0 0 0 0 0 0 0 0 0 0 0 0 0 0 0 0 0 0 0 0 0 0 0 0 0 0 134217728 6 4564 210
is_linear=0
shrinkage=0.1


Tree=19
num_leaves=31
num_cat=22
split_feature=18 0 13 20 13 4 0 2 2 3 2 4 4 12 2 3 3 3 15 10 15 3 0 3 9 3 4 3 0 24
split_gain=12214.8 6668.32 1026.94 934.005 276.803 218.075 193.266 151.297 106.338 87.8241 84.5003 76.5468 73.3661 65.37 62.9551 60.3217 53.6159 52.9177 50.885 48.2423 47.8567 44.7389 81.1251 43.7257 41.6002 40.6009 35.8019 35.5532 37.5996 34.854
threshold=6041.5000000000009 0 2532.5000000000005 11710.500000000002 4154.0000000000009 1 2 3 4 5 6 7 8 7711.0000000000009 9 10 11 12 3968.5000000000005 13 2291.5000000000005 14 15 16 17 18 19 20 21 283.50000000000006
decision_type=2 1 2 2 2 1 1 1 1 1 1 1 1 2 1 1 1 1 2 1 2 1 1 1 1 1 1 1 1 2
left_child=1 5 6 13 8 23 10 11 27 24 -3 -5 17 -2 -11 -13 -12 -8 -10 -17 -14 22 -6 -1 -7 -9 -18 28 -4 -16
right_child=3 2 4 7 21 9 12 25 18 14 16 15 20 -15 29 19 26 -19 -20 -21 -22 -23 -24 -25 -26 -27 -28 -29 -30 -31
leaf_value=-0.075712015352976017 0.0041526828456967795 -0.01262731235238964 -0.003504152147497492 0.01425529443395558 0.0086730266728878135 -0.0194834207957864 -0.017567236220144375 0.018413799208718058 -0.0093656077721263661 -0.041821288515757317 -0.024831325863679653 0.016233141146928781 0.0015893138456218308 0.0095406776632932719 -0.060475444657639356 0.020907376140962195 -0.014173949940332381 -0.010189333028037631 -0.0045868270094229164 0.02544859907900834 -0.0084711540176756941 -0.00087115521882545155 -0.0012830941687669651 -0.060928269964834594 -0.050884351388620325 0.013824320637185687 -0.020785723869770865 -0.0050772175625691373 0.0026740045931656032 -0.050286807167375436
leaf_weight=3973.3641424179077 49696.847610473633 22871.096832275391 27143.768013000488 16604.311908721924 16256.403217315674 1442.9115142822266 15359.315761566162 29137.471588134766 76769.40802192688 5845.9553604125977 15835.263412475586 18506.068962097168 6109.8103561401367 41173.465431213379 5981.2636766433716 67513.51636505127 15557.287199020386 26901.193000793457 31394.118198394775 35795.696960449219 20911.403549194336 64877.177055358887 16472.573352813721 6087.7213010787964 596.23805809020996 58897.684257507324 17923.354118347168 57392.901643753052 15450.685718536377 7654.1208162307739
leaf_count=275 622 522 470 136 209 63 334 229 1454 313 434 139 113 420 370 488 385 561 539 246 405 921 246 387 30 484 493 975 239 406
internal_value=0 -0.0101405 -0.00700363 0.0151585 -0.00374429 -0.0545427 -0.0140485 0.0185952 -0.00580467 -0.048767 -0.017671 0.0206596 -0.0102702 0.00659399 -0.05087 0.0215313 -0.0200071 -0.0128743 -0.00797784 0.0224787 -0.00619407 0.000649585 0.00366323 -0.0668361 -0.028525 0.0153452 -0.0177186 -0.00345265 -0.00126299 -0.054716
internal_weight=0 478807 447226 317325 305757 31581.6 141469 226455 208151 21520.5 72187 138420 69281.7 90870.3 19481.3 121815 49315.9 42260.5 108164 103309 27021.2 97606.2 32729 10061.1 2039.15 88035.2 33480.6 99987.4 42594.5 13635.4
internal_count=12908 10144 8300 2764 5053 1844 3247 1722 3677 1182 1834 1009 1413 1042 1089 873 1312 895 1993 734 518 1376 455 662 93 713 878 1684 709 776
cat_boundaries=0 1 64 65 66 67 68 69 132 195 196 197 198 199 200 201 202 203 204 205 269 270 271
cat_threshold=16 0 0 0 0 0 0 0 0 0 0 0 0 0 0 0 0 0 0 0 0 0 0 0 0 0 0 0 0 0 0 0 0 0 0 0 0 0 0 0 0 0 0 0 0 0 0 0 0 0 0 0 0 0 0 0 0 0 0 0 0 0 0 402653184 64 142 134 1024 6 0 0 0 0 0 0 0 0 0 0 0 0 0 0 0 0 0 0 0 0 0 0 0 0 0 0 0 0 0 0 0 0 0 0 0 0 0 0 0 0 0 0 0 0 0 0 0 0 0 0 0 0 0 0 0 0 0 0 0 0 0 0 134217728 0 0 0 0 0 0 0 0 0 0 0 0 0 0 0 0 0 0 0 0 0 0 0 0 0 0 0 0 0 0 0 0 0 0 0 0 0 0 0 0 0 0 0 0 0 0 0 0 0 0 0 0 0 0 0 0 0 0 0 0 0 0 402653184 6 6144 3586 2352 1 332 32 466 1 452 0 0 0 0 0 0 0 0 0 0 0 0 0 0 0 0 0 0 0 0 0 0 0 0 0 0 0 0 0 0 0 0 0 0 0 0 0 0 0 0 0 0 0 0 0 0 0 0 0 0 0 0 0 0 0 0 0 0 0 0 0 0 3221225472 1 838 9
is_linear=0
shrinkage=0.1


Tree=20
num_leaves=31
num_cat=20
split_feature=13 0 5 18 13 9 0 4 13 12 2 3 3 2 18 18 3 11 25 2 4 0 3 10 9 3 25 13 3 2
split_gain=9911.54 5568.18 1009.3 889.554 546.8 423.241 294.53 184.411 181.196 169.637 117.464 77.3861 73.3694 71.0756 67.4325 57.9373 52.5608 50.8539 50.1959 49.2998 45.9242 40.6195 39.3419 38.5466 38.3724 36.3593 36.2181 33.1503 32.6502 32.1447
threshold=6547.5000000000009 0 1 2981.5000000000005 13106.500000000002 2 3 4 3217.5000000000005 4296.0000000000009 5 6 7 8 2312.0000000000005 7539.5000000000009 9 10 2580.5000000000005 11 12 13 14 15 16 17 6404.5000000000009 14586.500000000002 18 19
decision_type=2 1 9 2 2 1 1 1 2 2 1 1 1 1 2 2 1 1 2 1 1 1 1 1 1 1 2 2 1 1
left_child=1 7 5 6 15 8 13 22 14 19 16 -8 29 28 -3 -2 27 -12 -13 -5 -14 23 -1 -21 -20 -15 -11 -6 -4 -9
right_child=4 2 3 9 10 -7 11 12 -10 26 17 18 20 25 -16 -17 -18 -19 24 21 -22 -23 -24 -25 -26 -27 -28 -29 -30 -31
leaf_value=-0.052293109090493832 0.0050417036003324658 -0.075157971055253445 -0.0076955771367616978 -0.00029374982636732466 0.008391592757335942 -0.021011525783174209 -0.0024329452173467636 -0.025834659432570913 -0.049202384916002484 0.00053579600128366421 0.01324705383340821 -0.010853064535701956 -0.05385983892036747 -0.022874494143973748 -0.11843320290511346 0.010205270019423198 0.021177033547300893 0.017665150415729601 -0.0081163448833033464 -0.0046172748901415839 -0.041560492475689964 -0.0066955953600768992 -0.066308525908264401 0.00060898376553571252 -0.0023488128693936413 -0.016216231910527894 0.0046439759948202859 0.017554554770293322 -0.014310829398387971 -0.040480625971725435
leaf_weight=3913.2328824996948 42383.05443572998 672.13577461242676 11588.747123718262 36017.745834350586 4639.2982864379883 3303.6082649230957 24726.413951873779 2300.8416662216187 1558.0264587402344 69890.699897766113 70471.910121917725 53148.065418243408 7858.7570867538452 12227.830503463745 775.54139518737793 44592.811126708984 68286.790657043457 41333.315673828125 45181.664306640625 42173.853771209717 5820.1624040603638 49355.53784942627 6039.827317237854 21209.961582183838 15490.5285987854 26304.812641143799 30968.728073120117 26510.953033447266 21428.461277008057 5413.4955139160156
leaf_count=246 505 21 268 585 38 65 458 110 30 980 572 1098 490 340 24 426 476 316 855 715 303 907 416 337 274 698 379 189 508 279
internal_value=0 -0.00869494 -0.00595006 -0.0054043 0.0143623 -0.045644 -0.0101992 -0.0494852 -0.0728697 -0.00136875 0.01711 -0.00750665 -0.044169 -0.0154098 -0.0983411 0.00768908 0.0196149 0.0148791 -0.00860855 -0.0035153 -0.0486608 -0.00454409 -0.0608561 -0.00286797 -0.00664381 -0.0183345 0.00179721 0.0161847 -0.011992 -0.0361515
internal_weight=0 497369 466022 459713 298218 6309.31 210097 31346.3 3005.7 249617 211242 138547 21393.3 71549.9 1447.68 86975.9 99437 111805 113820 148757 13678.9 112739 9953.06 63383.8 60672.2 38532.6 100859 31150.3 33017.2 7714.34
internal_count=12908 10386 8542 8402 2522 140 4499 1844 75 3903 1591 2685 1182 1814 45 931 703 888 2227 2544 793 1959 662 1052 1129 1038 1359 227 776 389
cat_boundaries=0 1 2 3 4 67 68 69 70 71 72 73 74 137 138 139 140 141 142 143 144
cat_threshold=16 1258358784 1 64 0 0 0 0 0 0 0 0 0 0 0 0 0 0 0 0 0 0 0 0 0 0 0 0 0 0 0 0 0 0 0 0 0 0 0 0 0 0 0 0 0 0 0 0 0 0 0 0 0 0 0 0 0 0 0 0 0 0 0 0 0 0 402653184 134 4100 7172 134 6192 1 6 0 0 0 0 0 0 0 0 0 0 0 0 0 0 0 0 0 0 0 0 0 0 0 0 0 0 0 0 0 0 0 0 0 0 0 0 0 0 0 0 0 0 0 0 0 0 0 0 0 0 0 0 0 0 0 0 0 0 0 0 0 0 1610612736 34 7200 1 1 3586 270 6
is_linear=0
shrinkage=0.1


Tree=21
num_leaves=31
num_cat=21
split_feature=0 0 17 18 5 19 2 3 2 12 14 12 2 4 17 4 3 3 3 3 25 11 3 0 21 4 3 10 3 3
split_gain=8060.41 4155.62 1228.36 501.396 175.223 158.639 130.529 129.617 127.587 105.994 102.381 71.3462 67.6773 60.5798 60.4377 59.0986 57.4312 56.8219 56.4033 46.6675 43.0209 41.7805 38.6128 38.2628 38.1134 37.4422 37.43 35.2187 39.8762 33.3782
threshold=0 1 10994.000000000002 2124.5000000000005 2 304.50000000000006 3 4 5 2410.5000000000005 4154.0000000000009 6546.0000000000009 6 7 3217.5000000000005 8 9 10 11 12 1639.5000000000002 13 14 15 2566.5000000000005 16 17 18 19 20
decision_type=1 1 2 2 9 2 1 1 1 2 2 2 1 1 2 1 1 1 1 1 2 1 1 1 2 1 1 1 1 1
left_child=2 5 7 12 6 15 14 -1 13 -6 19 -9 24 17 -5 -2 -7 -4 -17 -8 -14 -12 -10 25 26 -21 -3 28 -15 -22
right_child=1 3 8 4 9 16 10 11 22 -11 21 -13 20 27 -16 18 -18 -19 -20 23 29 -23 -24 -25 -26 -27 -28 -29 -30 -31
leaf_value=0.0084089042346253452 -0.06102868211378807 -0.016713364670287913 0.018965455125762837 -0.0030158966756435772 -0.046245687907610966 -0.048626965351144413 -0.005246138637254821 -0.00065132758288838854 0.016645076848156259 -0.013455292700233414 -0.0046311670184658342 0.0044438628802334788 -0.017340412956005861 0.019312531455508597 0.0025467798144584572 -0.039745081282108484 -0.030884002050413712 0.011342429654666236 -0.052190525934642087 -0.010751072146611192 -0.0070626587752727456 0.0018131983430373197 0.011202813885952054 -0.011644781876500192 0.0075421459024987928 -0.0047969391938185732 -0.0078003958258322228 0.021016845509539115 0.01418285621235812 -0.0146487685929933
leaf_weight=37619.583995819092 4166.9420566558838 6282.7228450775146 14640.453163146973 56054.073192596436 1073.1387310028076 2457.7341985702515 78666.737182617188 61674.622249603271 15773.478309631348 12112.294172286987 19339.077945709229 49570.685676574707 37421.260807037354 33193.68627166748 29977.048179626465 6627.6458539962769 8287.4389057159424 29997.476608276367 9614.9584617614746 16600.796630859375 8931.5131092071533 20968.148639678955 78302.007801055908 28260.480628967285 1300.0933647155762 29197.540996551514 19148.79545211792 32318.961013793945 28614.813369750977 16911.950908660889
leaf_count=467 288 146 109 973 27 138 1460 885 124 219 310 554 1018 239 433 388 410 232 620 324 200 314 645 566 23 529 429 223 210 405
internal_value=0 -0.00972294 0.0104299 -0.00685993 -0.0048503 -0.0448364 -0.00431748 0.0033355 0.0149661 -0.0161118 -0.00576135 0.00161893 -0.0133867 0.0168955 -0.00107749 -0.0500285 -0.0350163 0.0138463 -0.0471399 -0.00694477 -0.0151709 -0.00127876 0.012117 -0.00874719 -0.00915477 -0.00695705 -0.0100119 0.0183399 0.0169431 -0.0120354
internal_weight=0 413400 381706 382246 292249 31154.7 279064 148865 232841 13185.4 193033 111245 89996.3 138765 86031.1 20409.5 10745.2 44637.9 16242.6 152726 63264.7 40307.2 94075.5 74058.8 26731.6 45798.3 25431.5 94127.5 61808.5 25843.5
internal_count=12908 9220 3688 7376 5155 1844 4909 1906 1782 246 3503 1439 2221 1013 1406 1296 548 341 1008 2879 1623 624 769 1419 598 853 575 672 449 605
cat_boundaries=0 1 2 3 4 5 6 7 70 133 134 135 136 137 138 139 140 203 204 205 206 207
cat_threshold=36 16 81408541 6 324 142 6 0 0 0 0 0 0 0 0 0 0 0 0 0 0 0 0 0 0 0 0 0 0 0 0 0 0 0 0 0 0 0 0 0 0 0 0 0 0 0 0 0 0 0 0 0 0 0 0 0 0 0 0 0 0 0 0 0 0 0 0 0 0 2281701376 0 0 0 0 0 0 0 0 0 0 0 0 0 0 0 0 0 0 0 0 0 0 0 0 0 0 0 0 0 0 0 0 0 0 0 0 0 0 0 0 0 0 0 0 0 0 0 0 0 0 0 0 0 0 0 0 0 0 0 0 0 0 134217728 194 1218 1796 4580 1 192 10 0 0 0 0 0 0 0 0 0 0 0 0 0 0 0 0 0 0 0 0 0 0 0 0 0 0 0 0 0 0 0 0 0 0 0 0 0 0 0 0 0 0 0 0 0 0 0 0 0 0 0 0 0 0 0 0 0 0 0 0 0 0 402653184 6176 1 4458 4180
is_linear=0
shrinkage=0.1


Tree=22
num_leaves=31
num_cat=22
split_feature=18 0 5 13 13 9 13 13 24 0 2 3 19 18 3 3 2 4 2 4 2 3 0 3 3 3 10 10 9 3
split_gain=6552.28 3641.74 688.148 530.509 507.22 283.368 210.777 143.147 139.021 137.98 84.7977 70.1345 59.8816 59.2198 58.902 53.9068 51.532 50.7981 50.0818 47.8838 42.837 41.0826 38.6456 51.165 35.0604 34.6604 34.3217 31.5348 29.4299 43.4122
threshold=6041.5000000000009 0 1 2670.5000000000005 13106.500000000002 2 3217.5000000000005 4154.0000000000009 283.50000000000006 3 4 5 8261.0000000000018 2312.0000000000005 6 7 8 9 10 11 12 13 14 15 16 17 18 19 20 21
decision_type=2 1 9 2 2 1 2 2 2 1 1 1 2 2 1 1 1 1 1 1 1 1 1 1 1 1 1 1 1 1
left_child=1 8 5 9 12 6 13 18 15 17 21 -11 28 -3 26 20 -10 -4 -5 -13 -1 -6 23 -20 -18 -19 -12 -24 29 -2
right_child=4 2 3 7 10 -7 -8 -9 16 11 14 19 -14 -15 -16 -17 24 25 22 -21 -22 -23 27 -25 -26 -27 -28 -29 -30 -31
leaf_value=-0.031477767636388938 0.0049475834898116437 -0.067365047434113687 -0.016291637897013021 -0.0020026835487987052 0.019110654532749467 -0.018259729374393525 -0.0347840957250245 0.0010872384719785584 -0.021321133304442932 -0.00080062839902825136 0.012886346123082352 -0.0032997537614351553 0.0080757167181674805 -0.10849033357672144 0.010463436994184332 -0.052339796586478665 -0.024206052720000759 -0.0052280851678252836 -0.01638417107978489 -0.0093947986069733286 -0.045671132305741879 0.01429488149414785 -0.0056196986352642503 -0.0057102255771423714 -0.039623347778338008 -0.011988653657949109 0.017530138603615252 -0.001136553212285153 0.006358769031545447 -0.0018640377420640116
leaf_weight=3398.7176370620728 19287.873908996582 661.38363647460938 23996.878042221069 90713.380828857422 36545.853080749512 3216.6090850830078 1449.0690231323242 95764.73978805542 3243.1295604705811 16760.031623840332 43120.397644042969 16820.345783233643 48490.701889038086 744.06425476074219 70200.826042175293 8157.0248641967773 2025.044038772583 9548.247486114502 6595.1745758056641 55668.162628173828 7003.5719442367554 35281.436637878418 50093.179248809814 14162.004024505615 7170.4295587539673 37882.682922363281 25226.663986206055 22845.724914550781 20500.798583984375 18156.685089111328
leaf_count=198 233 21 652 1514 248 64 27 1345 158 317 340 320 465 24 562 550 98 230 133 1150 445 248 908 270 395 931 188 394 248 232
internal_value=0 -0.00743688 -0.0051373 -0.00467632 0.0111082 -0.0385483 -0.0615454 -0.00204941 -0.0405771 -0.0092572 0.0139543 -0.00663295 0.00548284 -0.0891374 0.0125041 -0.0460727 -0.0324099 -0.0125335 -0.00367828 -0.00798115 -0.0410684 0.0167475 -0.00529976 -0.00910791 -0.0362581 -0.0106291 0.0145982 -0.00421492 0.00331302 0.00164548
internal_weight=0 477920 446922 440851 316811 6071.13 2854.52 280174 30997.9 160676 210375 89248.5 106436 1405.45 138548 18559.3 12438.6 71427.8 184409 72488.5 10402.3 71827.3 93696.1 20757.2 9195.47 47430.9 68347.1 72938.9 57945.4 37444.6
internal_count=12908 10144 8300 8164 2764 136 72 4564 1844 3600 1586 1787 1178 45 1090 1193 651 1813 3219 1470 643 496 1705 403 493 1161 528 1302 713 465
cat_boundaries=0 1 2 3 4 5 6 7 8 9 72 73 137 138 139 140 141 142 143 144 145 146 147
cat_threshold=16 1258358784 1 64 6 4100 500 3876 6 0 0 0 0 0 0 0 0 0 0 0 0 0 0 0 0 0 0 0 0 0 0 0 0 0 0 0 0 0 0 0 0 0 0 0 0 0 0 0 0 0 0 0 0 0 0 0 0 0 0 0 0 0 0 0 0 0 0 0 0 0 0 402653184 134 0 0 0 0 0 0 0 0 0 0 0 0 0 0 0 0 0 0 0 0 0 0 0 0 0 0 0 0 0 0 0 0 0 0 0 0 0 0 0 0 0 0 0 0 0 0 0 0 0 0 0 0 0 0 0 0 0 0 0 0 0 0 2684354560 1 6 1862 1 2074 1060 12 1 1 1 934
is_linear=0
shrinkage=0.1


Tree=23
num_leaves=31
num_cat=23
split_feature=13 0 5 0 13 9 25 4 12 24 4 11 0 2 3 25 3 3 2 3 3 3 11 2 2 9 3 13 2 11
split_gain=5339.35 3034.84 682.285 504.657 270.341 204.232 201.883 125.551 110.491 128.392 85.3047 72.6259 123.118 62.388 59.5209 58.8751 48.8571 46.4959 40.899 40.0373 38.6836 36.0647 34.6763 34.3624 34.2867 33.7875 33.5224 32.1331 29.9817 28.5772
threshold=6678.0000000000009 0 1 2 14586.500000000002 3 1855.5000000000002 4 2565.5000000000005 3466.5000000000005 5 6 7 8 9 14003.500000000002 10 11 12 13 14 15 16 17 18 19 20 1280.5000000000002 21 22
decision_type=2 1 9 1 2 1 2 1 2 2 1 1 1 1 1 2 1 1 1 1 1 1 1 1 1 1 1 2 1 1
left_child=1 7 5 11 15 8 16 26 -3 -10 19 12 21 29 25 20 -5 -14 -16 -8 -2 28 -15 -19 -12 -9 -1 -18 -4 -6
right_child=4 2 3 6 13 -7 10 14 9 -11 24 -13 17 22 18 -17 27 23 -20 -21 -22 -23 -24 -25 -26 -27 -28 -29 -30 -31
leaf_value=-0.038420224922041175 0.0084180583590584869 -0.079751247737766984 0.0022597805517033877 -0.0030474999990416089 0.013608415531462506 -0.016884183729694316 -0.0052942793760325357 -0.0075562245284333477 -0.013880310024518004 -0.060158521248750409 -0.0044579421244031843 0.0025235878079380731 0.0080784747485696546 0.0096929268545598562 -0.026799786934333814 0.010013991818315363 -0.016457909078822577 0.003755635592130593 -0.037153749953712241 -0.0012141838845218366 0.0035803776357319489 -0.0064363337607611579 0.013629559718474446 -0.0016418898393622565 -0.0085137659170039862 -0.036047404650634836 -0.051147250823905838 -0.011020317924760027 -0.0039521580840559982 0.017360185612779102
leaf_weight=3847.1380891799927 24759.33650970459 1064.9541492462158 11398.683788299561 6423.4931678771973 55434.520278930664 2858.1123161315918 42998.174022674561 1436.5607290267944 1013.9441413879395 1466.6490325927734 30781.939449310303 69340.437839508057 10164.83907699585 56348.950775146484 5764.8587827682495 38191.469593048096 13947.717212677002 20424.506977081299 13341.938325881958 54607.998851776123 49884.336948394775 36690.894039154053 37113.758506774902 27888.942272186279 65112.100601196289 586.02886772155762 5892.3497743606567 49214.793451309204 24368.457389831543 32034.899124145508
leaf_count=246 261 36 170 152 393 57 798 63 20 31 564 994 136 453 313 314 396 265 776 996 552 618 282 407 1317 30 416 1219 415 218
internal_value=0 -0.00632055 -0.00432417 -0.00387571 0.010662 -0.0367175 -0.00675508 -0.0366885 -0.052809 -0.0412423 -0.00509414 -9.31872e-05 -0.00147897 0.0130576 -0.0323008 0.00682056 -0.0113747 0.00193431 -0.0340454 -0.00301194 0.00518665 -0.00423339 0.0112549 0.000640219 -0.00721245 -0.0157335 -0.0461646 -0.0122191 -0.00197239 0.0149808
internal_weight=0 500636 469767 463363 293767 6403.66 263086 30868.9 3545.55 2480.59 193500 200277 130936 180932 21129.4 112835 69586 58478.3 19106.8 97606.2 74643.7 72458 93462.7 48313.4 95894 2022.59 9739.49 63162.5 35767.1 87469.4
internal_count=12908 10435 8591 8447 2473 144 5442 1844 87 51 3675 3005 2011 1346 1182 1127 1767 808 1089 1794 813 1203 735 672 1881 93 662 1615 585 611
cat_boundaries=0 1 2 3 4 67 131 132 133 134 135 136 137 138 139 140 141 142 143 144 145 146 147 148
cat_threshold=16 186714112 38 1 0 0 0 0 0 0 0 0 0 0 0 0 0 0 0 0 0 0 0 0 0 0 0 0 0 0 0 0 0 0 0 0 0 0 0 0 0 0 0 0 0 0 0 0 0 0 0 0 0 0 0 0 0 0 0 0 0 0 0 0 0 0 402653184 0 0 0 0 0 0 0 0 0 0 0 0 0 0 0 0 0 0 0 0 0 0 0 0 0 0 0 0 0 0 0 0 0 0 0 0 0 0 0 0 0 0 0 0 0 0 0 0 0 0 0 0 0 0 0 0 0 0 0 0 0 0 2684354560 1 1 2 134 1024 4 68 6 2826 452 2886 1 134 6 1 7200 6 1
is_linear=0
shrinkage=0.1


Tree=24
num_leaves=31
num_cat=23
split_feature=25 0 25 5 9 10 0 25 2 11 15 9 3 3 17 17 2 3 2 3 4 10 3 3 4 3 3 24 3 2
split_gain=4327.6 2269.63 620.057 437.584 357.623 409.819 287.162 109.668 91.6917 73.7301 68.0448 65.3034 58.4524 57.9974 44.9829 44.9506 44.2519 43.7396 43.6289 43.511 37.1618 36.0619 39.5038 35.9193 35.8426 33.9595 33.1468 32.2949 31.0081 30.2339
threshold=4748.5000000000009 0 11598.000000000002 1 2 3 4 264.50000000000006 5 6 3685.5000000000005 7 8 9 3235.5000000000005 3217.5000000000005 10 11 12 13 14 15 16 17 18 19 20 2715.5000000000005 21 22
decision_type=2 1 2 9 1 1 1 2 1 1 2 1 1 1 2 2 1 1 1 1 1 1 1 1 1 1 1 2 1 1
left_child=1 7 11 4 5 14 18 17 15 16 13 12 29 21 -3 26 19 24 -5 -4 -21 22 -10 -9 -1 -13 -8 -15 -20 -2
right_child=2 3 9 6 -6 -7 8 23 10 -11 -12 25 -14 27 -16 -17 -18 -19 28 20 -22 -23 -24 -25 -26 -27 -28 -29 -30 -31
leaf_value=-0.046470974724317021 0.0071370054453199633 -0.12329077994431131 0.014201701824374358 -0.0066326551694387559 -0.014601004638481388 -0.0064225701419501529 0.0034932202322389156 -0.032742466529479826 0.001311171513178142 0.013601639770407318 -0.0019034547274769881 0.0085945733831644007 -0.0010070264254074621 -0.0097351179581043404 -0.08448253542160139 0.0030581960259836367 0.0076419075133157379 -0.044155326298154149 -0.015667110462314272 0.0061216425881545806 0.011363358295694669 0.0011463566299768357 -0.0065776498621275929 -0.022381961128939084 -0.030023082005331683 0.0031575936439051191 -0.0028694740713677475 -0.005781147317921293 -0.010217622050700884 0.0019284002225540449
leaf_weight=1770.557107925415 17457.947986602783 592.63721656799316 31176.925025939941 22787.546089172363 3596.6411170959473 678.61006164550781 9609.9274444580078 5962.8957567214966 8419.6187973022461 76106.095642089844 76736.673706054688 22747.004570007324 52546.923118591309 30087.90816116333 602.14123725891113 25152.026985168457 59026.626708984375 7988.6426467895508 15413.579195022583 20521.041076660156 40208.998809814453 15728.957302093506 25804.830219268799 8324.4789638519287 6716.4625301361084 23283.852828979492 55064.850044250488 65903.024200439453 33254.433200836182 30855.775005340576
leaf_count=123 206 24 227 519 73 13 161 339 156 557 1259 260 683 639 18 365 492 550 423 163 296 290 492 423 409 270 964 1241 872 401
internal_value=0 -0.00700084 0.00778843 -0.00493459 -0.0329944 -0.0684831 -0.00453399 -0.0331454 -0.00322605 0.0110639 -0.00431399 0.00272584 0.00130144 -0.00558173 -0.103732 -0.000528865 0.00978421 -0.0387163 -0.010253 0.011158 0.00959345 -0.00281641 -0.00463845 -0.0267445 -0.0335051 0.00584693 -0.00192395 -0.00701977 -0.0119464 0.00381159
internal_weight=0 420196 373931 389433 5470.03 1873.39 383963 30763 312508 227040 222681 146892 100861 145944 1194.78 89826.8 150934 16475.7 71455.6 91907 60730 49953.4 34224.4 14287.4 8487.02 46030.9 64674.8 95990.9 48668 48313.7
internal_count=12908 9353 3555 7509 128 55 7381 1844 5567 1735 4077 1820 1290 2818 42 1490 1178 1082 1814 686 459 938 648 762 532 530 1125 1880 1295 607
cat_boundaries=0 1 2 3 4 5 6 7 8 9 10 11 12 13 14 77 78 79 80 143 144 145 146 147
cat_threshold=16 453052416 1 1 64 6 1 1 870 4292 142 1828 6 834 0 0 0 0 0 0 0 0 0 0 0 0 0 0 0 0 0 0 0 0 0 0 0 0 0 0 0 0 0 0 0 0 0 0 0 0 0 0 0 0 0 0 0 0 0 0 0 0 0 0 0 0 0 0 0 0 0 0 0 0 0 0 2281701376 1 4096 206 0 0 0 0 0 0 0 0 0 0 0 0 0 0 0 0 0 0 0 0 0 0 0 0 0 0 0 0 0 0 0 0 0 0 0 0 0 0 0 0 0 0 0 0 0 0 0 0 0 0 0 0 0 0 0 0 0 0 0 0 0 0 134217728 1372 6 3586 6
is_linear=0
shrinkage=0.1


Tree=25
num_leaves=31
num_cat=19
split_feature=13 0 5 25 9 13 13 25 20 24 14 2 2 3 25 3 2 3 3 0 0 3 3 2 9 12 3 3 15 0
split_gain=3535.73 2007.29 483.65 345.336 233.11 180.333 99.4707 98.6496 218.123 94.1405 84.6033 64.218 45.8639 44.748 36.5839 35.5443 33.76 31.571 30.7494 29.1885 28.7829 27.8243 27.0305 26.9445 26.4922 26.0828 25.2148 24.8806 26.4548 24.7397
threshold=6678.0000000000009 0 1 2820.5000000000005 2 14586.500000000002 1858.5000000000002 3622.5000000000005 3177.5000000000005 304.50000000000006 3633.5000000000005 3 4 5 14003.500000000002 6 7 8 9 10 11 12 13 14 15 226.50000000000003 16 17 16680.000000000004 18
decision_type=2 1 9 2 1 2 2 2 2 2 2 1 1 1 2 1 1 1 1 1 1 1 1 1 1 2 1 1 2 1
left_child=1 9 4 6 7 14 21 8 -3 13 23 -12 27 25 17 19 -11 -2 -14 -8 -17 29 -18 -5 -19 -1 -13 -7 -29 -4
right_child=5 2 3 10 -6 12 15 -9 -10 16 11 26 18 -15 -16 20 22 24 -20 -21 -22 -23 -24 -25 -26 -27 -28 28 -30 -31
leaf_value=-0.034064421914276354 0.0010589285407961542 -0.070793769492000405 -0.0016319729028648523 -0.00087063319483373269 -0.01338721482105951 0.01464717555745542 0.0027009043300155102 -0.079252250751468634 -0.0036689726991642373 -0.012574706615007012 0.003470747567883248 0.0015512193858137078 0.0064313116288664471 -0.037035078706992131 0.0080580650083544245 -0.0062271852009783205 -0.035130984124070952 0.0039238304960342264 0.010333925734350109 -0.0046246332550145342 -0.0012039386440935848 -0.011583125834220307 -0.021790445773071057 -0.0038163449289614518 0.0086150135452230086 -0.020716180356736232 -0.0020558029787399071 0.0097332051651356569 0.014507662231843427 -0.0087370581797721232
leaf_weight=2583.3544416427612 21904.382144927979 1037.4009017944336 5922.188663482666 49400.441673278809 3361.2623081207275 29724.412872314453 10559.166339874268 917.29914093017578 907.65640640258789 2745.592188835144 54733.747444152832 28663.598827362061 29798.316547393799 14193.753897666931 38174.00963973999 83903.115036010742 2221.2840938568115 34130.651596069336 63610.297134399414 11197.966217041016 13224.030948638916 33369.514614105225 5555.2029552459717 83688.019584655762 18597.246696472168 3378.1416120529175 59796.170085906982 41560.700439453125 16101.413970947266 28933.358421325684
leaf_count=167 245 36 135 798 66 205 193 22 17 132 726 425 241 948 314 1693 128 373 494 210 220 865 284 1532 195 185 910 297 109 743
internal_value=0 -0.00514632 -0.00352694 -0.00315465 -0.0311966 0.00867756 -0.00647195 -0.0522191 -0.0394701 -0.0299253 -0.000908158 0.000778884 0.0106352 -0.0339376 0.00554005 -0.00472528 -0.0222681 0.0042521 0.00908977 -0.0010698 -0.00554346 -0.00951557 -0.0256413 -0.00272329 0.00557736 -0.0264561 -0.000886977 0.0122847 0.0110645 -0.00753067
internal_weight=0 500292 469615 463391 6223.62 293601 187109 2862.36 1945.06 30677.3 276282 143194 180795 20155.2 112806 118884 10522.1 74632.3 93408.6 21757.1 97127.1 68225.1 7776.49 133088 52727.9 5961.5 88459.8 87386.5 57662.1 34855.5
internal_count=12908 10435 8591 8450 141 2473 4059 75 53 1844 4391 2061 1346 1300 1127 2316 544 813 735 403 1913 1743 412 2330 568 352 1335 611 406 878
cat_boundaries=0 1 2 3 4 5 6 7 8 9 10 11 12 13 14 15 16 17 18 19
cat_threshold=16 1258358784 1 134 134 1540 4100 6 6192 7170 1 73 4812 706 6 1 228 326 9
is_linear=0
shrinkage=0.1


Tree=26
num_leaves=31
num_cat=24
split_feature=0 0 16 13 11 4 3 0 4 2 5 2 23 3 3 3 18 2 3 3 2 11 3 3 14 3 4 15 9 9
